{"bias": [[-1.9886768685518743, -1.1603422922055204, -5.234988817062024, 0.0827642302476673, -0.9587895498239264, 0.7143535325555362, -1.479218689232592, -1.7959749193861556, -1.2719271689910832, -2.490180811821788, -0.17571712487967128, 0.35076842023343996, -0.7613081625138424, -0.7413657640173986, -0.7074670510534112, -0.7693978059699921, -2.655134363361082, -2.5798811080561848, 0.04490065291433888, -1.428940778373812, -3.067601402780506, -0.9699922991078985, -1.386840834420797, -0.1698488679982807, -1.6792265871588063, -0.559679245252582, -0.6126845626115287, -2.882787343336764, -5.148796590094405, -2.0856117628668884, 1.6970592430537739, -3.005892601262205, 0.34185953595726587, 3.018962710367289, -1.008900945838317, -6.764704779474203, -1.8778358815188116, -2.084798906943364, -1.0707164553234771, -1.7817788237931909, 0.02811759806279065, 0.8336103571643938, -0.9642693071894155, -1.0073168878645753, -1.578907381239513, -2.42828376585319, -2.7763541006038586, -1.9877635378895206, -2.0414857976629435, 0.29411838591291783, -5.993998424956177, -2.1928035316157675, -2.5047744304563153, -4.220376427568261, -2.218625180593125, -0.8101663430099707, -3.5535328211369226, -0.03316906847914004, -1.9249599251925733, -0.7942515793414623, -0.23036664607784693, 0.14076645817372027, -0.20206077304586778, -1.3631655407838397, -0.5465084541762651, -1.6119897858101706, -1.144733256119238, -3.18713983047967, -0.5006853534854226, 0.8711399795779424, -1.1537283607811042, -2.2754075316381392, -7.042582851486277, -1.9903972709816098, -6.3484838114541855, 0.15734481323265456, -3.12238717884254, -1.1783397786060534, -1.304410641689541, -0.9636004370621054, -2.774289519698372, -0.9959493345618295, 0.21180587735226533, -1.2977330497690214, -0.4915703927492191, -2.128320038349489, -2.4116656329510806, -1.514645791165636, -3.7111582308861486, -6.30050995848231, -2.5760434873983984, -0.09537963792348458, -0.8197874997972329, -6.66468603753832, -1.5641378106676727, -4.038330137436777, 0.576680680540086, -2.892002654437915, -6.812967644255283, -6.294607243446352], [0.04056868279477273]], "hidden_activation": "relu", "layers": [100, 1], "output_activation": "logistic", "weights": [[[-0.024725134357104522, 0.09832699631170196, -1.521036737e-315, -0.06689388397121, -0.20017018939387599, 0.5123393168668665, -0.5089279637628298, 0.30560570152422406, -0.6909081343682077, 0.27209655443686986, 0.1118885617445957, -0.1870829047757849, -0.012204252219538983, 1.1773889637213248, 0.11426147849452455, -0.40475866295682633, 0.16492111210234317, -0.1128959636691122, 0.7858388360909694, -0.784805680708328, -0.2597074900408727, -0.014031169899061276, -0.02843478791869055, -0.19550876698982605, 0.10601734586449392, -0.19775836710298186, -0.1945171406155699, 0.08825270957040383, -2.36576286e-315, 0.35037611459764045, -0.08258193983134213, -0.33589501225831947, 0.20475831099230685, 0.051553611677936415, -0.09443554094191621, -2.85948894e-315, -0.6568142179893162, 0.4447818944164675, 0.8192945503881484, -0.057833181403515385, 0.2986163265563695, 0.08066084875453369, 0.12071844928615914, 0.28912796196477125, 0.1278589269753266, 0.1922943338757545, -0.4018005788700258, -0.20356374835426577, -0.04645658012416536, -0.14229588333400536, 2.73025166e-315, 0.22585806162633626, -0.18908027098988103, -1.479985895e-315, -0.5729515409679091, 0.15721941094702968, -0.09971301748130576, 0.27754249568731415, 0.0552342262633299, 0.029345939302419195, -0.03050801986777078, -0.18823753033746485, 0.2254728816350395, 0.4273151453368436, -0.17456260681041993, -0.3347608268968954, -0.1504302155185589, -0.29040413764362966, -0.1995485829216616, -0.20785088434679577, -0.15526851421434593, 0.11963752041742878, 8.40357517e-316, -0.07603314146885011, 1.52248748e-315, -0.09474399150797141, 0.5828669548662496, -0.6688906655259577, 0.21509264239173975, -0.6204565829519516, -0.09878506523932842, -0.02559101177873395, 0.06554757547375643, 0.0986037093112668, -0.2733690567023549, 0.07530518049327857, -0.2550175921275317, -0.0836118936620753, -0.21455128115775624, -4.142817006e-315, -0.27122125837789174, -0.5604734221386627, 0.405918567332821, -4.101729864e-315, 0.8877846372251058, -0.05601010152518027, -0.4568621756645932, 1.062738690238446, -1.711804717e-315, 1.14555718e-315], [-0.1067747448740312, -0.5379348329983057, -4.191269283e-315, 0.4828405551188926, 0.0033364403063408194, 0.2651017749762049, -0.5044917984236399, 0.10745443618241425, 0.015695541694443205, 0.59974721705106, 0.1717325942365272, -0.2887551977782145, -0.4272221139854483, 0.2607877947122281, 0.2971896539958313, 0.5113151791301712, 0.21866452465009145, 0.098923529861667, 0.3575986566215626, -0.19220758767289137, -0.3243997271441802, 0.2425960938124128, -0.24403560385249534, -0.1492236494492169, -0.5512085447338836, 0.3893252398451962, 0.29534974556460236, -0.14156575705788385, -2.82443821e-315, 0.32074656791253925, 0.1985416376673962, -0.4042893043074871, 0.2751009082263909, 0.33168929276501724, -0.36352424739892497, -2.106174383e-315, 0.0758956487431818, 0.3847451937847683, 0.8823554618371457, -0.1354865728792664, 0.08703256642248303, 0.10206811366196186, -0.10335673454524662, 0.36583394705465105, 0.2620624506379774, 0.3780233495513694, -0.19802191517186404, 0.24474718532082482, 0.04864955132898145, -0.32595539364014325, 1.9825283e-315, 0.5790861683670672, -0.2763722132218128, 4.395552927e-315, -1.0113216412448605, 0.35349450628476264, -0.2938699214380038, -0.185227887019523, -0.13451841480285212, 0.13614725791182009, 0.13962708266991836, -0.2783127383251818, -0.049677326409454055, 0.25317758045310207, -0.09937982810889609, -0.1477054010420293, 0.05640081899273188, -0.11888669719189063, -0.6028641697517452, -0.38243550082439864, 0.4336015499805111, 0.33435931719342393, -1.998323924e-315, 0.3116894169758025, 9.5029113e-316, -0.943168132090755, 0.25844148806434397, -0.06530100901072444, 0.10544017010111581, -0.18608208179677344, 0.12095307129073397, 0.09542855400028043, -0.036877497690844814, -0.30294606146954345, -0.23060645575807595, 0.7099114802365916, -0.09761903849356407, -0.3221880498661806, 0.07304198060853992, -1.509545245e-315, -0.34995563840196164, -0.35048331280966005, -0.11566170837757209, 4.280736597e-315, 0.7341444537428244, 0.25058135166620343, 0.37822376323731527, 0.865962936982797, 3.84304694e-315, 2.862142484e-315], [0.07063209127384898, 0.16689569091922388, -1.192197246e-315, 0.16491412932185506, -0.07073784671949068, 0.8923221586205963, -0.5135438594291136, 0.22225015504318246, -0.3812428222647488, 0.1906398919841963, -0.03913891727006483, 0.2220635437712832, -0.4220290502697598, 0.7343407090402466, -0.32467502811864546, -0.23989994049619154, -0.05066983167832177, 0.11527215087771042, 0.8436281489319855, -0.13762655366216067, -0.1777171388586421, -0.18035666846355192, -0.0453217299249051, -0.44096228764045503, -0.05070435382434422, -0.0366844539083344, -0.3911907838345732, -0.17757554060844777, -3.22051541e-315, 0.09042663395039198, 0.5269537451334788, -0.17247687630496328, 0.1970542423911986, 0.08307085207049324, -0.4487468514929672, 3.090055915e-315, -0.2021665883651072, 0.06610451390336809, -0.07230954171182305, 0.5314029574162056, -0.014460090073910003, -0.20070515385720336, -0.03440634381066455, 0.5523159088365502, 0.05729207121315281, -0.012386813056423404, 0.2342375800633593, -0.3754907676683468, -0.289635402847608, -0.4497260358507359, -3.8018657e-316, -0.19554137565356514, -0.21174664528803583, -1.22573608e-315, -0.26257027496408364, -0.06799429769868731, 0.05197208782219718, 0.16667552436302108, -0.32853702104359167, 0.1102896928332409, -0.3142774819851096, -0.6399655524285098, -0.5225211815950269, 0.5866531118216903, -0.2761905337083978, -0.4237352622366601, 0.5283853436133314, -0.2644063300451242, -0.09806279142925022, -0.15524409703623673, -0.03493158308848924, -0.3041668780439941, 4.17007532e-315, 0.3583645205164244, -3.165601966e-315, -0.06107513352359365, 0.32107199318732216, -0.2054141206174907, 0.3258939400451443, -0.3403114452087951, 0.39344530393354804, -0.17627271595670155, -0.2119591602547778, 0.05769977318101899, -0.057381121063980196, 0.49078268845194406, -0.4658249442554569, -0.3203911387003359, -0.0871824889387186, -2.011308453e-315, 0.06684615779994284, 0.30677468614485714, -0.1765291310419964, 1.65061008e-315, -0.09820239993958728, -0.36287890787259025, -0.1097984584566126, 1.5044493043198148, -5.5874191e-316, 3.6430082e-315], [0.7414782593218175, -0.16484533174396038, 3.54885823e-315, 0.45381008945812196, -0.5702123997690969, 0.3927020099336871, -0.7148132191096861, -0.013908784132126062, -0.19887206683813424, 0.40159271256725315, -0.06135419829806096, -0.45420690496644367, -0.37394475551032924, -0.01022363685320238, -0.11826568873620256, 0.07916266071893731, -0.5887160582068215, 0.2850518387161377, 0.5506367122984119, -0.18348353825581182, -0.2805121678333258, 0.41241643886306306, 0.17115360007237876, -0.5774749350763503, -0.2893865595874234, -0.3736956686386543, 0.18404472988415332, -0.16611207160775832, 1.05122581e-315, 0.036724469626540496, 0.42232563809049734, -0.9835963061957811, 0.22194562880677426, -0.09681140695063883, -0.24803502379651612, 3.31811884e-315, 0.3112691940853602, 0.5326834773688471, -0.21588415404544864, 0.43537059156611624, -0.16050364770616624, 0.13635982672278874, 0.09718640396719114, 0.37062563542478444, 0.10779017115657222, 0.36431629926382264, 0.19766357138411003, 0.37326509772764127, 0.2909327772657003, -0.10913519296238329, -2.932848544e-315, 0.027158699419900446, -0.3345674553036952, 2.9728465e-315, -0.04917898581151254, 0.08918348639219151, -0.015902124978935568, -0.1406903048296446, -0.05201899826640951, -0.13101316980685537, 0.0635404617147828, 0.24690720899125795, 0.5121544454448483, 0.3091198480693449, -0.18204406270841444, -0.4952393611990796, -0.5360833491374768, -0.01650501800929731, -0.07470318526893245, -0.16322357773921026, -0.3191093859431966, -0.2885480014334213, -9.115352e-316, 0.1639925335603108, 1.754629423e-315, -0.41751952531637704, 0.6584924433609077, -0.269996594306242, 0.6575951280865924, 0.16852062958636307, -0.17467298783738178, -0.1370443315187951, -0.26730463650795866, -0.28896580116509696, 0.5353001027074301, 0.2965580846997049, 0.17168883510058544, -0.13694406411960694, 0.10873001836662706, 1.794343413e-315, -0.037916703592836845, 0.06912020173448968, -0.15450893420972073, 1.47850122e-315, 0.16147713434772282, -0.5976839464108966, -0.17991264544053076, 0.15406859134042775, 4.13264247e-315, 3.712509247e-315], [0.09081603966533461, -0.24591897691509723, -3.380088007e-315, 0.0260982547784214, 0.06255149064284503, 0.14303088269603373, -0.38516210861000205, 0.10694755220837165, 0.2195480862243364, 0.4599760674833116, 0.26663520622968895, -0.20058330648667438, -0.4760367083487012, 0.2762976164687658, 0.5503017625013732, -0.4959917934078345, -0.29817420736166866, -0.18158887103442917, 0.6007646358533434, -0.32709914775923277, 0.07983064739710728, 0.3289253206557535, -0.050294918157631346, -0.12890967012209723, -0.03265244546474447, -0.14249570070576542, -0.20870468238247578, 0.05419969432554714, -2.366106924e-315, 0.023207920497927716, 0.34766681501698143, -0.4656217311222642, 0.09245161137106553, -0.09747552784136164, -0.38205495456182803, -4.03733541e-315, -0.18783262764701789, 0.1671493907210797, -0.08305671090630516, -0.22104626167718883, 0.2652453205910038, 0.26778618464960996, -0.23411696950020164, -0.38571225655898883, 0.23241858904089968, -0.14322265509491947, 0.25259459905606113, -0.03607289182480275, 0.5789059315711592, -0.006790307546144109, 2.640351e-316, -0.12982912976347616, -0.6152982907467058, -7.71412e-317, 0.0691328084544995, -0.16585458120791344, 0.1375846145110604, -0.18859131034230822, -0.33453782660251613, -0.24395888439107338, 0.12817362340370486, -0.6653843940318052, 0.12919468703701906, 0.7438247083157986, -0.14726749369056957, 0.05172492725194036, -0.23834682782936992, -0.171708396070778, -0.48046230300889786, -0.4277583161540726, -0.16000329300611793, 0.10010648159658497, 1.885865986e-315, 0.9115473823632393, 2.59991105e-315, -0.3983642419186469, 0.34884801875301885, -0.021890925582839397, -0.003863242018018947, 0.08193031249541566, -0.6599060460612324, 0.030651365517626577, 0.6351005095837139, -0.6675643287620013, -0.3116240015176152, 0.5842784014616389, 0.31541164283600887, -0.017656855727331864, -0.03612078699902707, 3.37079805e-315, 0.3118713778689786, 0.25319189903869177, 0.00492085476973513, -1.942916897e-315, 0.1289334991374721, 0.37560721991070545, 0.23623374686051588, 0.8580882254809552, -3.324853316e-315, -1.524084643e-315], [0.8419816495086414, -0.6033443503226708, -2.96282324e-316, 0.08536381920486104, -0.19746259360297064, -0.26967610514055584, -0.34439051868757303, 0.18034449851986087, 0.4781448558456019, 0.5013910823035287, 0.20776410554392896, -0.0035409502997829673, -0.1240575643583248, -0.33474980239510466, -0.0235655258245343, -0.03018034326462014, -0.2826661064224378, 0.17074334465997948, 0.7419277318290404, -0.09867514249339024, 0.05529983476469803, 0.5302657813233781, -0.42983964696551485, 0.09062903992547827, -0.09912770912021107, -0.07085193006197295, 0.10576915515351017, 0.12557849033797686, -2.60839259e-315, 0.25645092769646904, 0.49701790052893513, -0.36678990021125624, 0.26606475041178523, 0.10478842917184375, -0.10612071826001288, 4.11038772e-315, -0.1549366893241215, 0.02923358974709021, -0.3279474730542635, 0.25161111849967804, 0.7773501152945074, 0.13299500001727194, -0.01238131892014626, -0.10555827231146016, -0.018737612732704325, -0.06854873164200573, 0.252905340446419, -0.19979007894697146, 0.0697122285430053, -0.17073813759886206, 1.31084569e-315, -0.2816043216612324, 0.093613555681943, -3.649076495e-315, 0.1988975076463108, -0.19033397861605508, -0.17276968486459862, 0.10745098572794148, -0.4210421432852789, 0.4011379845916527, 0.5168436601860723, -0.8593893972269807, 0.4447419462329344, 0.3443700571930462, -0.268087466392947, -0.03891347341011971, -0.702417634711633, -0.26333702904669043, 0.3490352525018285, -0.6470122980187979, -0.40838808616525596, 0.0364718599249018, -5.08325853e-316, 0.06114330288756428, -2.511375346e-315, -0.036018561436925806, 0.16798481831894954, -0.24458024137112402, 0.4572775098658188, -0.28713095840188824, -0.13946302585829642, -0.22525200296790326, -0.07796230971731745, 0.15318402503628778, -0.24354481923044266, 0.4085850045400251, -0.6230663986923272, -0.19059909059774482, 0.004666426669502897, -3.56468757e-315, -0.10878971533494024, 0.4671307337143535, -0.03372894964053769, 8.7825522e-316, 0.2040965469985323, 0.09297911112973363, 0.26294202765053715, 0.21071207133560746, -2.179861873e-315, -1.506878713e-315], [-0.6409720853855265, -0.5805635647486667, -3.3346854e-315, -0.11879542108845288, 0.4377019575541199, 0.6345124938007098, -0.7022210950146706, 0.17023699903318043, 0.1908088594857298, 0.26281567496673586, -0.39543590593901096, -0.041119828964324395, 0.07497975065380351, -0.11234600699439506, -0.7965726730724604, -0.15537508163191133, -0.22899976789147627, 0.02656247706887341, 0.3978570459702472, -0.25471550894403233, -0.47538032032017075, 0.18599926957185695, 0.13497123618503118, 0.12244966537843789, -0.5132865988533976, -0.44689551640266556, -0.05523097076053761, 0.1277786640869328, 1.26260978e-315, 0.29963834505635345, 0.12356843416096469, -0.7391118048138853, 0.17361265727410008, 0.15168634869696654, -0.5864999984416615, -2.7577055e-317, -0.10581597443862313, 0.04083232834144092, 0.3695939949245019, -0.191531074664915, 0.1721620543679756, -0.040634114732711, 0.40776110559267503, 0.28654993491632086, 0.1236341020918191, -0.38596774816117096, -0.14511002267987702, 0.22554467588210408, -0.5240649002643285, -0.31621826317870944, 2.6990001e-315, -0.14509370927913806, -0.05219899056195632, 3.3199842e-315, 0.19862121705342684, -0.23527045275106848, -0.008924827757144852, 0.25831123535952827, -0.10565551078855702, 0.3195905623463767, 0.4022941932592657, -0.5902873420887262, 0.9788560882838385, 0.688591054084974, -0.5339935210267673, 0.41348284108516614, -0.46465362881599215, -0.1436099932486723, -0.05369335795976195, -0.14862969908002077, -0.09836770746003443, -0.42417620234131026, -3.847997037e-315, -0.10069855368480962, -1.5366839e-316, -0.05214814852111382, -0.03464594867249331, -0.26796349931380803, 1.2750656313387527, -0.12047242694480537, 0.14662589257671838, -0.2734487634737872, 0.449406759139619, 0.03926540317256025, -0.5971291329554433, 0.5464307006462867, 0.10253438457943947, -0.20620823851911366, 0.05396481643237589, 2.909689198e-315, 0.4168150043259584, -0.33571715068114877, -0.18932471743334675, -1.11450538e-315, 0.5521404763467476, -0.03327626527242471, -0.5580255594666821, 0.4412765040758748, 1.53769881e-315, 5.66894415e-316], [0.5638370279545071, 0.06320990421512775, 5.5255764e-316, 0.22808843980854954, -0.6776876449160276, 0.3215777886143592, -0.575843568994611, -0.16802116196842717, -0.345565083309985, 0.12893798968421066, 0.0033410613841709153, 0.6506380551519535, 0.029356288880898376, 0.050877910950591285, -0.3597733893122142, -0.10626630457889522, 0.024153812671347714, 0.47469770159928465, 0.2522488715902725, -0.09530544263908262, 0.06271178754454478, -0.02169837642435783, 0.5834511974311384, -0.03789235869511675, 0.05207417708109913, 0.1307025519378485, 0.5248424145932467, 0.006156210310837375, 1.93526004e-315, 0.06165668821605855, -0.17466519555754126, -0.1723677845630103, 0.35005376023630336, 0.3071681458376201, -0.5272505069332503, 3.74887944e-315, -0.17514597021732822, -0.03759078745331804, -0.3180331056745016, -0.18599132327854775, -0.013989534375568408, 0.013780795836880437, -0.32959612859633985, -0.05744243284849235, 0.1197026975424965, -0.3033994152206229, -0.47605375637544944, -0.16583993287432605, -0.4106772888099284, -0.7126662723000013, -2.23037032e-315, 0.21078246558532227, 0.15352428658440415, -3.8548555e-315, -0.7353229369077939, -0.2591983352579511, -0.24250264828779217, -0.10927257933209596, -0.2873605647072801, -0.310582015624503, 0.2016211239647286, -0.4492304524333025, 0.8415333770576134, 0.09403383665585664, -0.600507260848986, -0.01703246904068193, -0.5475445491986997, -0.19818255042393257, 0.23967433941477886, -1.0395881698432516, -0.26514394218010906, -0.1354499493940944, 4.70181663e-316, -0.1375025880387049, -3.256366667e-315, -0.6379839501336727, 0.31995576120256836, -0.09976131386542104, -0.3816735225789711, -0.2937339344983979, 0.3920682921544914, -0.21375515954922705, -0.10635308017115948, -0.15838604047299618, -0.04179122400717411, 0.3070111799779025, -0.5847511146379053, -0.5678090490999621, -0.36235673302086735, 4.07946871e-315, 0.5698493095521892, -0.2129739060558903, 0.28256566728127397, -1.2929268e-315, 0.056371195212300884, 0.3042001068006752, -0.015364024834634211, 0.6003167399614289, 3.881180857e-315, -4.41798263e-315], [0.39302019600338495, -0.11463775768880338, -3.349431836e-315, -0.17622922959341294, -0.4820755659425849, 0.016198170988832118, 0.05954342710785371, -0.4016512147421413, -0.4952256676149032, 0.19525217426057848, 0.13567897842508866, 0.04394282219683844, -0.2517055838289857, -0.5500589715217059, -0.5318396247576602, 0.1355100834701402, 0.3267510379127583, 0.41702099585627206, -0.27499511695299705, -0.69210517974419, -0.2293700358092144, 0.09005961344943454, 0.25488019580128324, 0.09939146701395224, 0.19753993713647536, 0.3272359567687218, -0.411121585047577, 0.5466726398730163, 7.29626077e-316, -0.34117529562690263, 0.4598918133008258, -0.08781017574855868, 0.05978840142447875, 0.32135124427861406, -0.2044463593423972, 2.79399217e-316, 0.11166144148418335, -0.35284512156888814, 0.4811320828710697, -0.374558093922691, 0.18844053331023025, 0.008545460322223869, 0.20733092131774533, -0.2889322560946923, -0.17468001347611256, -0.06179207933865228, 0.24386592606461127, 0.41645618564864995, -0.418462984242165, -0.11125536172083736, 4.12544576e-315, -0.47829580494560003, 0.952029329036133, 6.47115385e-316, -0.5828589550526998, -0.19712108586843682, -0.1632006861628262, 0.1375682214953766, -0.22649080643575395, -0.2635383145395663, -0.07238241931457731, -0.6279724720712341, 1.1517457702268188, 0.506131750602891, -0.4837277750726047, 0.08916006787970909, 0.3235971683586338, 0.056155369838315886, -0.46680539364548973, -0.3941615716356089, 0.33670767521567235, -0.16937902985606507, 3.48471037e-315, 0.11773719957848516, -2.8127879e-315, 0.06372490188537537, 0.3811617705952349, -0.03604399102308603, 0.850068457726842, -0.049694562738788146, -0.035319731971744685, -0.05651872815957872, 0.4007293605429679, -0.00844532568158674, 0.28840234667296955, 0.06541015762265447, -0.3383415247388969, -0.6023774552878761, -0.039279897442623786, 3.302351397e-315, -0.22589822228481848, -0.18027201562159845, 0.41059356186911716, 4.30997835e-316, 0.0798638851903365, -0.37285612490156966, 0.1769283148567292, 1.2179049883702955, -1.32270927e-315, 3.251207243e-315], [-0.3503635445775559, 0.0550927914559733, -2.52372536e-315, 0.013021212106445612, -0.4234425459834734, 0.4291805640485205, -0.1262807531183231, 0.12809850663893776, -0.20227750488166274, 0.16528508780096351, 0.26460305059042344, 0.33331285187713877, -0.5262413849742146, -0.52448990748912, -0.40283989758702177, 0.7153054609736845, -0.7202623453466843, -0.0031988619644921622, 0.046996069304283114, -0.2135756547373671, -0.16240695989540552, 0.050960718110624435, 0.053994201986978706, -0.29245797293941533, -0.20298527900696092, -0.026130485875285294, -0.02746022541141815, 0.21742634394802454, -4.69074224e-316, 0.31178007407769076, 0.5384303718231385, -0.3538590143510943, 0.4575629085974524, 0.2106861739070655, -0.6016759852141287, -3.78914956e-315, -0.7753962724644097, 0.4164765356446476, -0.4614836659334231, 0.22689855669442932, 0.410613904802719, 0.07817338227189626, -0.0332992855245853, -0.1784449597181506, -0.07404122992427256, -0.3545133309871398, -0.22226151927387813, -0.3727368226755236, -0.6316275677578359, -0.05101129749085141, -1.8728464e-315, 0.45308598553473123, 0.3029673918124041, 4.018010075e-315, 0.23481923841996089, 0.13754816173629725, -0.059433292303477235, 0.35032143227751533, 0.08638654700701598, -0.2981561905318002, 0.3348738552063591, -0.8050176447215668, 0.952935689950931, 0.5937355841406574, -0.6496841240175173, 0.3071024068317062, 0.010505475482495535, 0.52031815178496, 0.10440256748572237, -0.28356668646739625, -0.2422847364275541, -0.15976582629814595, -2.81233747e-316, -0.3595348477794658, 2.427753866e-315, -0.4063532783910783, 0.3076895550990455, -0.09113575417992703, -0.44813655122864565, -0.5329413602786078, 0.12517133087223156, 0.06496114699884187, 0.47596683757133545, 0.3279522255323298, -0.14875346446255966, 0.4093228529288668, 0.10199045386070636, 0.5375658453687253, -0.1545326007444965, -1.440786623e-315, 0.7159567921868936, -0.03473306032195369, 0.11181673592883538, 3.50099917e-315, 0.03775873618734672, -0.7181264552276028, -0.16738508298112428, -0.15346959339755584, -1.5984359e-315, -2.49511148e-315], [0.03882687789310966, -0.6513644068661959, -7.36881426e-316, 0.4474173233741886, -0.30709301652392507, -0.41017071639909164, -0.15571872056165006, 0.12103859289009389, -0.3496691043227211, -0.3113366804526787, 0.1672600738353905, -0.05990986887205899, -0.09071750266630535, 0.3735953723602365, -0.7359336404292117, 0.4298252226628747, 0.41136181859440135, 0.27279228148645007, -0.37125309113172916, 0.16047215736768536, -0.7858237141716401, 0.26993672886313236, -0.0571685875339878, -0.13724478135527968, -0.3167716654779762, 0.18984109941821153, -0.6851173887856522, -0.3769939456715829, 4.25752765e-316, 0.48211108193658503, 0.4116999532225696, -0.07057139280365281, 0.11040135486600675, -0.07229110516585883, -0.4003521040936832, 3.482970286e-315, 0.30633760461417586, 0.2064037285786609, 0.1793193792334999, 0.12193450660951075, 0.2136798684527661, 0.24753946319297343, -0.10979487129603456, 0.47458242403140943, -0.07451250267985252, 0.10030860297430025, 0.10040896939787981, 0.42532734729243094, -0.3234504504397288, 0.08634851906266718, 4.146407895e-315, -0.5004374392588673, 0.7426446391197997, -2.11382004e-315, -0.25435142061011395, 0.2001417224634908, 0.30704513927137955, -0.43941853454565155, 0.029113410017382737, -0.02867671900601803, -0.243061155180415, -0.7560040901515376, 0.47467179471255505, 0.32814113990568294, -0.20576636428996728, 0.12352738400001637, 0.4619790510095887, 0.1017757433520901, -0.35713221521283395, -0.37271093809094014, 0.06473686796825996, 0.4868282845508542, 1.27178593e-315, 0.6079206229391519, -2.18561587e-315, -0.14182762495238926, 0.027632462166418365, 0.1646838134976472, 0.6073062471158508, -0.9144799628434903, -0.3447679549988855, -0.34840409755862733, -0.704257705572589, -0.25722745438626815, -0.8313765092209794, 0.602493795024644, -0.4282693785905681, 0.513141192190738, 0.7013337178808378, 1.192000247e-315, -0.23612159250055412, -0.047375596311316846, -0.2669369517786197, 1.74126851e-315, 0.5722254970954507, 0.40431874402954476, 0.16558851964820157, 0.7773900028691337, 7.18182133e-316, -4.01295214e-315], [0.25199082769343073, 0.3290088785249932, -1.206483515e-315, 0.057067402570726664, 0.06039076021395976, 0.04550529581622588, -0.33502251081659634, 0.13467497032664308, -0.37975716580872054, 0.011911657419146845, -0.16666230339469065, 0.16467317486634298, -0.3357401007790368, 0.030305155948353212, -0.4245975800946894, 0.15508228784200875, -0.28829970326743426, -0.06827394364455222, -0.7919821941132004, 0.2819083507758321, -0.32736383276245606, -0.026005741999648516, 0.4308549273778943, -0.1221943627066242, -0.40237979364292037, 0.39355530834269814, 0.39052237726534905, 0.13517602550633118, 2.24683685e-315, 0.16743633186156479, -0.19100833748848875, -0.33362579353031663, 0.06437957462146382, 0.15033679869216357, 0.06548743985346513, -4.27570074e-315, -0.5309502013629358, -0.01193875468054175, -0.22331709973006775, 0.3320582715182973, 0.5361216276325651, 0.1570246121385829, 0.06855650339487918, -0.3294805814412117, -0.07004654658740676, -0.1786050947723921, 0.17837923190028576, -0.2764457612220969, -0.46682809611336507, 0.14293897819634097, 8.1776786e-316, -0.4935720654453109, -0.004115143039548779, -2.60167387e-315, 0.5663330494719157, 0.20982598323860038, 0.14942617080553192, 0.11003023809746701, 0.5016701005623376, -0.355506553242597, -0.7463879249635739, -1.1975616643423137, 0.14316595327873372, 0.8238154440298785, -0.31187952932342633, 0.513184498189188, -0.32250127739697304, -0.10721463039422345, -0.29005737593031183, -0.23265575030163427, 0.07768429850762358, 0.007999447514178791, 7.1037865e-317, 0.7787258705538483, 1.23474499e-315, -0.11421548883093266, 0.40927552135653883, -0.03568012885176401, 0.2747100922258085, -0.3150155613920699, -0.4429667782649445, -0.4036486132468633, -0.2081258809484492, -0.03309498674148197, -0.35806773005496295, 0.5612321448835421, 0.22887116158674864, 0.09560869907118003, -0.14788464709562177, -2.064771954e-315, 0.513182054958761, -0.42686307559120484, 0.07805462369422082, 3.923029645e-315, 0.34367382650980727, -0.33852556475581125, -0.42058464215300134, 0.3927077404138186, 4.043703895e-315, 1.49176511e-315], [0.5148539374748314, -0.3315141889233806, 3.72749517e-315, 0.26867339184875566, -0.2408240951545596, 0.032839309517137524, -0.07847986748546024, 0.05927969052177751, -0.13226797352568345, -0.1247289407161917, 0.2543366527706039, -0.10058719832837905, 0.1256882086619855, -0.14314300683169823, -0.4368152071826059, -0.4321844186965305, 0.3748482943898298, 0.12422625889791429, -0.16551506361403046, -0.23189845597876474, -0.18582832523477158, -0.005478182959264066, 0.08460224549502764, -0.15741130049047103, -0.08671119347348845, -0.06476820800823899, 0.6774771516076254, -0.22284518260378208, 2.469720706e-315, 0.19787057793686674, 0.523689672329829, -0.15373747394115914, 0.1519442870924308, 0.27067418995519343, -0.36952286704942394, 4.43221184e-315, -0.3873284166908328, 0.1152272772444228, 0.4463683321539544, -0.5318878976614361, 0.2631815517507546, 0.21034325132762285, -0.0028942104924895382, -0.03373926177822405, -0.14408452240116834, -0.27254549607323175, 0.10779914036388925, 0.3905119924067303, -0.09108738551214184, 0.3437373757788308, 5.9452247e-316, 0.30057303951893405, 0.5063421893641267, 3.544172934e-315, -0.31869708203221614, 0.12910583223298744, 0.1636624874622861, 0.136081118349745, 0.17576360052020007, -0.34732167544879355, 0.10894160379646223, -0.3612550234747238, 0.9487395831421425, 0.7778727100993339, -0.23853106533674048, 0.8386998520135209, -0.012861490362401444, 0.49359224253910056, -0.7210722899074307, -0.5061972126961576, 0.36043307129405516, 0.10449998441943795, -1.98740647e-315, 0.36165182291248643, -3.42711896e-316, -0.03426860539184629, 0.2689040596366073, -0.1515591863853331, 0.6687888030769124, -0.7325779923548816, -0.2881819138203442, -0.26066302793435187, 0.3598706371429038, 0.28343150407963746, 0.27564838553025145, 0.4486536684042668, 0.24940632616581984, 0.11081296905080426, 0.3441753675176513, 8.01480346e-316, 0.00214179060142599, -0.6033087848812297, -0.21232182634562544, 2.4262228e-315, 0.2700596398835508, 0.2797683379728311, 0.4865799704639181, 0.1323632324088803, 4.239069734e-315, -8.4140467e-316], [0.15869917872637218, -0.002568433827646803, 1.54427525e-315, 0.0655127755334455, -0.2949704064745568, 0.0635232432608744, 0.35130297993098286, -0.2117676088010205, -0.006829074630423753, 0.24801371770155695, 0.048859345791357985, 0.3666560947437882, 0.110267012830899, 0.38742456942666215, -0.4165082379323336, -0.7208461893738607, -0.1869487539776229, 0.1620002852971296, 0.3567441387305837, -0.4109876100895462, -0.18386299027428843, 0.326731575359763, 0.5215101932174381, -0.10647682157110828, -0.2139273836591136, 0.17028970180170835, -0.05392390474160673, -0.3555706171931733, -1.815039877e-315, -0.008761604840349883, -0.12500920770971036, -0.0574231920422244, -0.030034523632213386, 0.14796834329599443, -0.23083886039902732, -3.439338464e-315, -0.5118896009601744, 0.04795503015887699, 0.07542572238458077, -0.5529853923921423, 0.5485952587302205, 0.22243927916216025, -0.1959927462727104, -0.3208485768349822, -0.04816793786620582, -0.5046515000365897, 0.11100835749000229, -0.19554661416611258, 0.1520586670013763, 0.12995287235827938, 3.170431744e-315, -0.4621501509212904, 0.08894086670470512, 5.614318e-317, 0.022178951904180216, -0.29239553433588666, 0.20784779538523765, 0.315536390287567, -0.3606967007517533, 0.1264741476918139, -0.1546386620078849, -0.3399742164041703, -0.07114747568606865, 0.3042952191242931, -0.583778353099373, -0.13315821672309025, -0.39267125817273757, 0.07363450009366039, 0.17858854234114324, -0.933196687058336, -0.1560789492535592, 0.17598336657963756, 1.37994682e-315, -0.40715222089729347, 3.32540365e-315, -0.29177435248326317, 0.6915714903164257, 0.3148932965485067, 0.5797028610980555, -0.5152500434915344, 0.555367385121697, 0.0886259871179031, -0.11921984110128166, -0.06316902736106325, -0.3314546970481955, 0.35352875690218016, -0.6240417049356075, 0.22069536342665436, 0.06715563981190133, -2.765717515e-315, 0.147787437546823, -0.38670649957912423, 0.600247396017417, 3.414981136e-315, 0.21792433636455866, -0.19142834253856586, 0.1890874735600795, 1.032318618100684, -3.70247179e-315, 2.87359262e-315], [0.6896491602538523, -0.2894288540768874, 2.359309524e-315, -0.17180780240899968, 0.3326552862773327, -0.22280042376134132, -0.283731968685376, 0.144490853070207, -0.26131896219101186, 0.7095279554787101, -0.02646379675948015, 0.07892540643434377, -0.16802537789323915, 0.1887802025443423, 0.09584955129510234, -0.38882627336691605, -0.2168462641059076, 0.057058276770474814, 0.5621857941167933, -0.3685143986638078, -0.82600807898167, -0.15774764978207795, -0.25158213175717475, -0.06695584941019402, -0.23045243326830311, 0.04609742278475176, -0.4778334814446923, -0.30579661924588686, -3.645583604e-315, 0.19146573308380094, -0.31745346766278604, -0.34776425807495825, -0.39766760050268907, 0.3560126545788505, -0.46715678662133986, -3.85911955e-315, -0.7212106093209973, 0.5094758558387152, 0.42879332056857616, -0.004103142829942857, -0.08297281938400412, 0.11472793968798617, -0.1990521620994043, -0.29853255065884726, -0.05137422206401071, 0.09656694612330971, -0.24911133908429148, 0.050643519276736076, -0.2081191037475789, 0.19056388609833497, 2.772112794e-315, -0.2397889497538844, 0.5746862921552481, 1.37274437e-315, 0.5102493501322521, 0.20819999248206136, 0.30810015604897223, 0.16423290460781695, -0.2723543741211786, -0.12467449129130895, -0.40867257308608285, -0.3070673987149424, 0.6143554032936042, 0.8226395390583306, -0.13814923616819483, -0.0121957355146033, -0.3301247673660455, 0.16260776898473328, -0.7401628573820564, -0.15780407117589146, -0.006532157182714065, -0.5819070510611762, -1.46499216e-315, -0.16628744386815097, -1.546282034e-315, 0.815700318225097, 0.47286857062287196, -0.23728003009765233, 0.19970092986298105, 0.04558585833687696, 0.2873046987396805, -0.40893011613009683, 0.13732330747848887, -0.19525084592729733, -0.2288262289949528, 0.55241446899865, 0.2460582607475742, -0.28082077916808923, -0.22964876803427303, 3.835724565e-315, 0.40761763525258354, -0.8245321356580892, -0.03500686534340852, 4.23930263e-315, 0.44966998046234063, -0.7279722056622221, 0.38487073725480647, 0.557355105643406, 3.5941739e-315, -2.2624613e-315], [0.27513832746926903, -0.5597915153649315, 1.441624894e-315, -0.12618695367047447, -0.4475827134821239, -0.28643629767173695, 0.029768015787081128, 0.1247244890950103, 0.26505198060007196, 0.2632861295112322, 0.11701337390135276, 0.2765798810609425, 0.3036867604388544, 0.3027636377803406, -0.25736894691731904, -0.08092533009064977, 0.549826489130848, 0.35983856745612774, 0.4399074369911747, -0.27304494506563703, 0.08962026443203973, 0.1364285711063367, 0.07497259241428053, -0.18807503413040325, -0.4201468147230421, 0.5877109758746899, -0.33243155883734526, -0.09046502808949422, -8.14040735e-316, 0.7906731334514785, 0.41234896540703403, -0.35242553295706414, -0.1934621915112233, 0.42285267379260805, -0.7770808871492408, -3.617078886e-315, 0.056900745087096506, 0.10903894167233462, 0.030135622190093782, 0.26240392383157524, -0.007090717840450446, 0.00027456871205264, 0.07720978006380697, -0.3564566161487531, -0.05157121729184114, -0.4366646360749992, 0.3793987677761395, 0.27331422267251554, -0.02896544741096731, 0.23216902211020712, -3.746957376e-315, -0.29827753450196615, 0.17955252137371033, -7.7823414e-316, 0.6131282509862352, -0.31104396544708107, 0.10817930765073012, -0.09504300053688927, -0.5326519565549206, -0.08023716611196127, -0.12746625234080472, -0.9638530120330943, 0.07423630709289028, -0.16401906032865268, -0.4379440435179485, 0.2386003655355942, -0.278456962025054, -0.14352766418268545, -0.2242272954375977, -0.4685757150847707, -0.04229262817168661, -0.43467191340104216, -1.81032541e-315, 0.0012242640904153268, 2.005371355e-315, -0.1909598730410994, 0.2961877021660043, 0.13137222386524136, -0.5865778445653739, -0.35702373980161634, 0.2532397590060165, -0.36333540319263513, -0.44336330203501595, -0.017328632990867003, -0.7555222018050216, 0.4333698780430946, 0.050718755342586214, 0.08394464922679232, -0.16892790079003694, -3.358009266e-315, 0.4287109786571061, -0.933104210884831, 0.27414476380220604, -2.393060675e-315, -0.21812359452050134, 0.45711260622670913, 0.5488493032086511, 0.39381841657109196, -1.261835023e-315, 2.216443827e-315], [0.02816901989502314, -0.2547508854210858, 5.53412026e-316, -0.11837060305929115, -0.15325037549055617, -0.2411057502515971, 0.27037515900228676, -0.25118027242218727, -0.6433997967706537, 0.6752102951188074, 0.04574282632980279, 0.6770354967822269, 0.18464067588260066, -0.32303034619153415, 0.008869288327779607, -0.4912528815315049, 0.06060027037257101, 0.185258242067827, 0.6043916840743021, -0.23526968048039437, -0.10879890313346723, 0.1317385278679276, -0.14458065000030695, 0.2432274344716127, -0.42515578726453107, -0.32528386184292296, 0.4986449098526685, -0.09855616832375312, 2.003049805e-315, 0.5258328123204775, 0.5818354376846553, -0.6597258220244007, -0.48858462966056515, 0.3621745444748111, 0.11212306831058005, 9.6181365e-316, 0.058750333422200186, 0.08313576544642746, 0.7758469052610266, -0.0581941696282134, 0.302705196247503, -0.1904246824843335, 0.4698257821404913, -0.2315493273526108, 0.4243545461951714, -0.39824817607462054, -0.1807433589550671, -0.44412449933640724, 0.22730264761076538, 0.1478404206438173, 3.274493046e-315, -0.551765190489489, -0.2659590992772999, 3.212175835e-315, 0.23602974570748814, -0.1789549846595057, -0.2520481385195876, 0.01909566337739923, -0.5093606045240008, 0.0822819837646223, 0.3987671911539313, -0.9809899360316008, -0.11254194354950607, 0.887867289546215, 0.10721789566648791, -0.5649263790764336, -0.41531221328331175, 0.3313940188076996, -0.14134986043353948, -0.1449835181109272, 0.21064849072593864, 0.20180359437011872, 1.829255495e-315, 0.0331941195817973, -3.25732657e-315, 0.020190064294995595, -0.257235494019566, -0.20681806798525793, 0.2615097352515977, -0.0696907947515182, -0.2952068698180189, -0.19636602119266292, 0.33543766556704774, -0.21978356157662557, -0.2855288271663578, 0.4065924614135157, 0.007479573650963526, -0.35645510462993507, -0.04839201178312727, 4.10409541e-315, 0.5674789406929313, -0.25808667086918335, 0.09656069152438437, -3.33482833e-315, -0.015461737773499294, -0.3857797982963314, -0.4130414764744957, -0.05236571889103729, 3.71980275e-315, 2.277123666e-315], [0.47831074000102464, -0.22849088022681632, 2.672836454e-315, -0.23762902632849947, -0.0911704371340365, 0.373645155488873, -0.47984022329389836, -0.19929440793378375, 0.016192796805933364, 0.49624005809706256, -0.0595813125957103, 1.1699675633081936, -0.15026553279292343, -0.07630274496233558, 0.03977979347956838, -0.4610382491136085, 0.24186563513783788, -0.21070413625198167, 0.3603275093572078, -0.15902663232887232, -0.49150828826779364, -0.07462556918078304, -0.6808361100852083, -0.045125110894132396, 0.22766640411613626, 0.24133122233390997, -0.3460684223238547, -0.05606827286728275, -1.37376288e-315, 0.1669254883680911, -0.3650963954861929, -0.2885849834670259, -0.26829577022584716, 0.3756545381171081, -0.768517895684849, -2.457054617e-315, -0.15220704173655938, 0.39443466224448476, 0.24363332071024507, -0.8112809650626455, -0.3235758434426249, 0.18026146575893953, -0.0761888146541131, -0.6207850417400427, 0.1826587106340635, -0.3350760922921689, 0.24748207582243817, 0.43269550775829513, 0.3345980067703361, 0.219726379154211, 4.00029137e-315, 0.45629962865049145, 0.5322413907730249, 4.305944745e-315, 0.9111814757943831, -0.4207511471279133, -0.13617540852028673, -0.4435621269446458, 0.06595365190425093, -0.10822563974035505, -0.22159031168825347, -0.3418824001073646, 0.17683898175044419, 0.16287256039139048, -0.10086082730646738, -0.45647648035504684, -0.41590976622498294, 0.12103081020380102, -0.19920155762008687, -0.025774522852715576, 0.12482896654842209, 0.16104368945139202, 2.14532725e-316, -0.6386953685216151, -6.18561157e-316, 0.02381163513808614, 0.04262138552836678, -0.12721708607489557, -0.39681608550833936, -0.08476735427540504, 0.02204049117760127, -0.12250769742967368, -0.041036716002862295, -0.5209096265778991, 0.37996634138904406, 0.3190289606640818, 0.3017005358795979, -0.7314236912363957, 0.13882608378318012, 1.376546903e-315, 0.7361739445305732, -0.16465083789226867, 1.0202578548683965, 2.995109314e-315, -0.12528056274439162, -0.8460961392693231, 0.43748993225795785, -0.4228166853621815, 1.17066971e-315, -3.132858037e-315], [0.5674655062330451, -1.0344548363243862, 4.037182693e-315, 0.017817295355372496, -0.29372707839093976, 0.05826693699182639, -0.4562787751483278, 0.04319108926775991, 0.6886041504683933, 1.253570661693472, -0.41275914258918356, 0.7626691885371883, 0.2825810954552061, 0.4410303229595494, -0.3653761734023174, 0.12067842598592225, -0.03475484157902919, -0.09500563590326105, 0.2599577674546437, -0.06760208236761203, 0.28732477147298235, 0.5370842126015489, -0.49695730550913825, -0.003018697431612005, 0.2226364269704154, 0.006112196531997172, -0.09013263143053167, 0.562399030091302, 1.375581494e-315, 0.3147143455450355, 0.07297309345839889, -0.3133087622927217, -0.8174358720078109, 0.4264702339277878, 0.1689174489192361, -7.05894834e-316, -0.22140334871911563, -0.17427942075145156, 0.308322470908565, 0.20144056748626427, 0.30755584499804806, 0.1687968894380441, -0.2904720048819978, -0.27323597869096705, 0.01265637502501225, -0.1680795013624508, 0.13351538929669804, -0.13452726770278117, 0.028580773703484358, 0.36201731159729383, -2.867820825e-315, -0.3583905985046004, -0.3478097851586288, 1.43368987e-316, 0.2554462916398939, 0.20506834362536228, -0.1567908677577703, 0.11043727477346227, -0.11288522098199263, 0.12828753951361044, -0.1891012310466011, 0.043438441154465095, 0.4835928981687902, 0.3650307023924368, -0.03819573474783828, -0.030474194792400947, -0.40304941010079975, 0.34819207452596085, -0.2963960894906747, -0.4206581988276177, 0.0995632803217396, 0.049545521567562936, 3.879074305e-315, -0.5288844066100797, 1.33910503e-315, 0.1757735250957769, 0.08384126285346959, -0.06849481490222664, -0.11086452716221996, -0.7168058377989366, 0.3332866287533409, -0.25717757940365593, -0.4330710021737114, 0.07313591358753886, -0.5207401926145302, 0.6983636050791238, -0.235011801703082, -0.05812731754678027, 0.09863817333068056, 2.78224118e-315, 1.211644999847177, 0.6181669431446829, 0.46616743142075356, -2.968012357e-315, 0.06152553385124726, -0.7163735035152596, -0.5711893110679039, 0.061894610127381, -3.000686643e-315, -1.877983757e-315], [0.6343086363988647, -0.671837886380123, -2.433876165e-315, 0.04310152339253724, 0.04675767011208376, 0.502043149484657, -0.49847829432711577, 0.2257401769108914, -0.2205897633760822, 0.16030219098884999, -0.019284156903281047, 0.24124189600944737, 0.2786138981683173, 0.23750759901270016, -0.43181398947934657, -0.24415689964580026, 0.06143586654358839, 0.014867873824749075, 0.5294659001351372, 0.033682313499815965, 0.011900027119863297, 0.00041638503981003864, -0.08213268813554152, -0.029152772946762637, 0.3285053555220633, 0.49678695910273285, -0.2761630216124734, -0.04680703101641069, -1.800345253e-315, 0.40076293168956373, 0.25745410569850524, 0.02282982026933923, -0.2118481461456318, 0.39113290057860195, -0.1701037819029563, -1.78486458e-315, -0.20933217746624508, -0.16084134043276485, 0.6624115568568151, 0.6414120821707113, 0.05119683251367832, -0.25855307743995987, -0.3674040630174382, 0.14553536343775642, 0.2745546574673418, 0.16488607468286823, -0.0634620046805893, 2.443596460516044e-05, -0.09656277101833961, 0.05872806852232939, 1.50058984e-315, -0.012807399083840182, -0.013454195716217986, -3.83821192e-315, -0.43030957361652633, 0.29664168586033485, 0.07523165790129836, -0.23462824642670843, -0.2622114553419355, -0.4190602843163868, -0.6658185120403456, -0.5308865502382311, 0.5600347567803744, 0.14542500518006443, -0.2654089011431967, 0.4510390127611182, -0.7701254063402596, 0.5810652221770267, 0.11174805952908733, -0.5753766525655171, -0.15658677766114573, 0.1943594252852114, -2.86730856e-315, 0.364431622033771, -6.2676904e-316, -0.2446288912289928, 0.3050033233804213, -0.15401573613942984, 0.40185746804687106, -0.9399365235810688, 0.2161403186431273, -0.18721942874804653, -0.0033372753667784303, -0.16094380313600634, -0.7575576870000832, 0.4309240182555476, -0.1889224986202308, -0.6366278453452165, -0.35716614723779627, -4.06234316e-315, 0.1597118584890689, 0.44835654752408816, -0.03710621510245643, 3.851711264e-315, 0.17847084583572667, 0.04406033004488838, 0.06202342424823804, -0.2537200267169979, 1.753377614e-315, 3.108948195e-315], [0.719842772191208, -0.16570312750290053, -7.6118037e-316, -0.14340036927840077, -0.16377381328229335, 0.42346329049589365, -0.6814125921933656, -0.16367499022890997, 0.03231452004456202, -0.19634271909495685, -0.05593437082307788, 0.502444998119221, 0.022858512240904735, 0.21237460394595076, -0.4947722185345068, 0.01361641308470813, 0.5093000880169926, -0.06062068087328415, 0.6560209003890332, 0.45015249359091447, -0.2762838317910234, 0.05563298067461519, -0.4465845596010177, -0.03531751146808756, -0.239813479140473, 0.028634285651769214, 0.05039015730772377, -0.019373968289273437, 2.861635997e-315, 0.8745030813936704, 0.08765694591628184, -0.30545114694716474, 0.11723638759082611, 0.5296751948107121, -0.473480048439304, -3.458207127e-315, -0.10099821692216819, 0.32858853775847413, 0.057700719687542076, -0.7890335165514433, 0.04606216372621081, 0.07303218437136208, 0.08052554918984284, -0.09094852769322112, 0.12123481107662785, -0.5352543309790421, 0.19614858108460068, 0.056677195023371776, -0.4981130289808286, 0.394690733050561, 3.47648777e-315, -0.02757624075971478, -0.03476232903775787, -2.97292505e-316, 0.07992961256620743, 0.5401171323459839, 0.0653235871251269, 0.22981331585614653, 0.002796626556933548, 0.1413792814300932, -0.4772679621836654, -0.7618608268089143, 0.21452448086700002, 0.325379195532874, -0.28302867789743447, 0.6715318402842803, -0.3082173712783151, 0.20311581767061335, -0.017023138721121496, -0.11957689157910988, 0.2497589481968785, 0.38602884656911984, 1.802259614e-315, -0.2742162471281971, 3.40243711e-315, 0.04910561340869085, -0.28816170490010057, 0.46560336201333913, -0.2632400597131297, -0.06680434536807846, -0.12801126420985787, -0.28980862009712477, 0.2063387993979217, -0.17869839355350037, 0.49184585239526557, 0.22585804991365527, -0.10320026496590709, 0.10534191496345341, 0.10303108101162217, 3.224955485e-315, 0.5987356296412363, 0.5895231765149205, 0.41111955302347053, -1.597773996e-315, 0.04341141488448231, -0.3510326891718786, -0.38403599369949215, -0.025122353489808423, 2.251273914e-315, -2.95574846e-315], [0.5089626705872434, -0.5184325255718216, 2.87258786e-315, -0.2546709407777381, -0.5418018728101212, 0.280307197757241, 0.19205388553420338, -0.20717199077606205, 0.07141122172016225, -0.3480696650781403, 0.2118854301553768, 0.8875391773630534, -0.03835037372005245, 0.10163993789299675, -0.006058028840417902, 0.49876510689886444, 0.349599420356046, -0.02479203613414964, 0.1418506557911892, -0.04822149888020376, -0.03162964949361673, 0.6193349276284719, 0.3485488387245366, -0.009216553409293416, -0.08265493016558992, 0.26489794047820825, 0.22333050282460687, -0.08400715869840522, -1.413347763e-315, 0.40182299433954705, -0.4885059514939583, -0.25849473427143943, -0.20340531818572957, 0.4281116152817127, 0.45598639839871374, 1.52672943e-315, 0.5847920956915159, -0.11131596725342412, -0.6163270042072096, -0.2146592387166747, 0.5123920983823267, -0.16339359008507176, -0.11595986492214537, -0.03580403555385043, 0.24696222799640238, -0.12133912453564694, 0.0041161268320580435, 0.449000227377421, 0.07789189963083526, 0.3131381341472248, 3.0865568e-315, 0.07475233940067796, 0.23900278662559568, -1.26340336e-315, -0.18917504704053387, -0.3502630557551182, -0.38707944177612, 0.10203611973158264, -0.24506949321104188, -0.23553325680896908, -0.009508287551045269, -0.053701933533512415, 0.6607740748701233, 0.365007418177414, -0.16028309875020405, 0.21881698944768427, 0.11609001368810674, 0.557774907459131, 0.3498851888252427, -0.2707733141867117, 0.1647030984398376, 0.11417368136328229, -3.108295074e-315, -0.091796318154586, -3.75969766e-315, -0.23418095985202048, 0.20052398903684668, -0.11737624481759873, 0.30276153322387467, 0.27154901050072056, -0.3127239008741625, -0.19798157402064417, -0.20244008360766938, 0.31092281558956153, -0.06886644727201549, 0.20987159144615997, -0.7393574655077054, -0.37722179381662785, 0.17495984955071275, 1.00993697e-315, 0.6313020790412416, 0.3176826432320726, -0.09332587395888606, 2.59762713e-315, -0.4864126617862794, -0.5705611494459213, 0.1654866645055975, 0.08412984341290612, 2.20619243e-315, 3.147580927e-315], [0.15518706175755922, -0.17065634118330092, -4.254407433e-315, -0.12167874495012113, -0.1300838612594901, 0.8930821447891688, -0.15355802250224118, -0.32341844314230683, -0.3345308313319877, 0.3451556692338111, 0.19670418812471263, 0.5687506973363711, 0.0024575464725167732, 0.19029586544172788, -0.701421355159201, -0.2621873208004234, -0.35537317560709913, -0.034589871623635006, 0.4968326997252923, -0.9189911961313748, -0.45902658960409637, 0.3984965482897156, 0.1047380792541573, -0.17146010248407828, -0.49551168965452935, 0.12811886185947002, -0.5236874415817594, -0.15950546613806682, 1.14522219e-315, 0.29930715723902873, -0.21479819606292735, -0.41130747542189694, -0.15054854832898332, 0.4389880303771026, -0.17173631285508875, -3.25459247e-315, 0.31570343442504234, 0.03330144533311917, 0.4119335860852217, 0.749646619420487, -0.1250428593286826, 0.32282979727687844, 0.2509879995781503, 0.03729467803651361, 0.10039963911688213, -0.8166307524310616, 0.11977382546613086, -0.17141882297341313, -0.013295366856034826, 0.5605090769055362, -3.131439585e-315, -0.26109491527938555, -0.2513590176388263, -1.34365777e-315, -0.28900125653218744, 0.18942490478128013, 0.06375130957826172, -0.023612491939292008, -0.6900199976370324, -0.415109945902199, -0.013819890284942732, 0.14628195583489173, 0.587834560810727, 0.22610843242510012, -0.2665347222628789, -0.302275327069427, -0.18157242258250095, -0.3834039248331493, 0.15895409470712255, -0.1934228646817548, 0.1354104203941322, -0.0015510624443316337, -3.69367435e-315, 0.09796522470964592, 1.0302834e-315, -0.0804885378126646, 0.20716624877032094, 0.3913657501954344, 0.41681945017467387, -0.5235303515622586, 0.085243231994573, 0.0957773344280684, -0.6139657595112398, -0.01314248105972653, -0.14275416206774263, 0.37161557393467437, 0.17911220976771802, -0.061596327555233026, 0.5101156373639678, -1.493227007e-315, 0.5765174356978747, -0.02761274959957685, -0.6017329058106755, 7.39009554e-316, -0.30026922956691066, -0.37969013592272854, 0.04114162118797562, 0.07792400913799995, -1.154478763e-315, 2.48618865e-315], [0.6953889248211802, 0.30258241495464183, -3.14641615e-315, 0.006588531124386605, -0.5476126084489016, 0.46404623631945835, -0.47235955175653616, -0.08781196695406926, 0.15740101263240497, 0.28152503631817716, -0.35891534572701267, 0.3356428961223122, 0.18419973461509181, 0.7152635671511839, -0.33175332999969237, -0.11268530443422964, 0.3054023594789368, -0.3374959683289051, 0.1955399935804884, -0.2575607949919492, 0.41479014203196646, 0.05676880011560002, -0.42422360822156374, -0.3729455775710722, -0.03111223431624265, -0.011292075282978, 0.4622641367659199, 0.34252067776574396, 2.94663813e-315, 0.4306844056594867, 0.08649936573205574, -0.374139243934604, -0.3460986433554694, 0.4986602482513866, -0.17304340559282977, 4.155012576e-315, 0.2508223441851606, 0.23208642739703544, 0.7120730579884015, -0.24701437105473292, 0.1810268096090957, 0.07745388152237286, -0.7843577656231526, -0.4808415712889673, 0.06504014427345643, -0.4976757634446387, -0.2736989660341966, 0.12103482087058434, -0.31670147647123403, -0.10611645437485431, 2.78121835e-315, 0.011600874673320468, -0.506196990800951, -9.23955603e-316, -0.053965126050063296, 0.6204965686560182, 0.0754554813278782, 0.22091161453290206, -0.3318626472612894, 0.014637744587793346, -0.0008179585516659609, 0.02632863671923728, 0.52246015604034, 0.3316499308448133, -0.0548391833711355, -0.018934823626374286, 0.03289824315841249, 0.5250604783405727, 0.2238033862242125, -0.21760337394546964, -0.30691590950596775, 0.11209469468450554, -2.82142687e-315, 0.7319846178088956, 1.46383531e-315, 0.21546412461813164, 0.1434934770629054, -0.0318221438694702, -0.1822774901861625, -0.7529954514646502, -0.04670720631880964, -0.34589037634955827, -0.3961437672125159, 0.39222129693346464, -0.2390865216322514, 0.0206114871721486, 0.17006939378126795, 0.26735578172445335, 0.19251771401273485, -7.66169395e-316, 0.5920813792745421, 0.4772747595039864, -0.510214699542103, 3.254949756e-315, -0.22756999917880014, -0.24402514317097357, -0.6206394356748864, 0.20423235450335228, 4.35166718e-315, 6.31675725e-316], [0.21347784822394913, -0.4344920655405952, 2.48778124e-315, 0.14377710919685846, -0.4248755761193717, 0.5117358308983226, -0.3365841977870143, 0.1730795468289212, 0.5471215105198445, 0.12486208454278637, -0.12393657463697182, 0.18072089295156854, -0.27486286146915256, -0.27223424688688264, -0.3355494608839742, -0.27577193129632815, -0.3687449012128259, -0.3856393772396952, 0.1689686369642192, -0.2647997152789811, -0.4483214777263576, 0.4534127217667247, -0.4642558079670696, -0.205060292596008, 0.14728357162358474, 0.24693845687937815, 0.22557323474153035, 0.033950630623275815, 4.204348114e-315, -0.08289969469992195, -0.16302863624856911, 0.034413477725292595, -0.4265921195907498, 0.17803871282744377, -0.3666829066892581, -1.4511904e-315, -0.032319041125891367, 0.21606763674530385, 0.2935782040835634, -0.060025631902234415, 0.4063639889411111, -0.042967046155600076, 0.2571901566412787, -0.2704853889364448, -0.3045960408509343, -0.09635573047081704, -0.27120939739341565, 0.1276652748405803, -0.19547273954116223, 0.3308618064419197, -4.388314727e-315, -0.07691422661788457, 0.3428359336868514, 4.5509577e-316, -0.11173633885925585, 0.7377490879308922, 0.3533826072252444, 0.12665105681729524, -0.09813553943598743, -0.08559207590433732, -0.16268576890273745, -0.7238263613889011, 0.3438765238846945, 0.167080140171865, 0.10007273543147342, -0.09995097130053503, 0.10623591464255744, 0.016904863427214707, -0.2728096595146467, 0.14290594959020633, -0.5914185499977805, -0.4617657251363306, -2.937175043e-315, 0.4932935312897014, -3.32347399e-315, -0.3437413694168944, 0.37774532504527525, 0.7045097202151377, -0.03727788287011379, -0.08951456622773671, -0.2835175883174646, -0.28579299706419165, -0.015065892688888341, 0.7608053278738913, -0.19642050747528172, 0.26605113688848564, -0.17579515466788434, -0.19829465436597712, -0.20722956861005848, 1.81233281e-315, 0.31500412428576674, -0.007295569501471896, 0.6687099161627336, 2.962277204e-315, -0.458524563965905, -0.2575047283618715, 0.5795387142503762, 0.3334402759284619, 3.067811093e-315, 6.56110546e-316], [0.08826888786582014, -0.953013170730964, 2.66024599e-315, -0.015887687228271122, -0.8200037768623623, 0.3991071479935394, -0.27671924316782476, 0.5740175636030841, -0.1697830893256354, -0.06210863687520203, -0.2804563518884455, 0.620745223810859, -0.1305305767635509, 0.28857628059661083, -0.41991832907287874, -0.7899619109604917, -0.5503963787279484, -0.09476214451620751, 0.38651589259112384, -0.49068678291944207, 0.041821972543462094, 0.25765486449561165, -0.13482178800458644, 0.2114481457605425, 0.18464425358838904, 0.48381770451257977, 0.39682027890064686, -0.28459636475216676, -2.941100216e-315, 0.023042262489262777, 0.05812723330251641, 0.3739511934664878, -0.26785400194666537, 0.26342924374665994, 0.029676487347470182, -4.24897514e-315, -0.15055748894863194, 0.09668434442377347, 0.16248648313908998, -0.46219821030846747, 0.20562728961014323, -0.17373443685306394, -0.5437008459283389, -0.4047754934875004, -0.14652163558316783, 0.15446220667517888, -0.38590050702891027, -0.19653180250915073, 0.21170675686422086, -0.1220660856145321, 3.916343524e-315, -0.407773816414232, 0.32606891323323606, -1.84552591e-315, 0.02033617340193236, 0.18540494623762896, -0.3159776258975865, 0.24525307716608094, -0.2852064681400766, -0.3367881721659873, -0.3241325965372562, -0.007945087887546585, 0.992576355813975, 0.1969029861894996, 0.1941060015292628, 0.015225440685808654, 0.023256536893388274, 0.369076417512742, -0.5908317595712169, 0.249162339483337, -0.4210757009365177, -0.07659959484642427, -3.064517736e-315, -0.05125553984295259, -1.721670265e-315, 0.134803913297549, 0.6133021110625844, 0.3826204370327392, 0.031533945566473244, -0.17643774672956788, -0.267964923936344, 0.06580241197566468, -0.3314028928185297, -0.03417036825293024, 0.3462438569948345, 0.32826415214949556, -0.3112876071420567, -0.38461128244928294, -0.4865217191197142, -1.41430179e-315, 0.22309011454929967, 0.3299517562281596, 0.3763222452700779, 2.906199814e-315, -0.20943615581487318, -0.17017831649767512, -0.11631770108746428, -0.054892666143765034, -3.22654161e-315, -3.91237616e-316], [0.14512730796933648, -0.19993502218834383, -3.20969823e-315, 0.038732100452908945, -0.009506819461647697, 0.3261508577699921, -0.3813681975998848, -0.3411654961937862, 0.3556074965563956, 0.05038577374108503, 0.136247988798837, 0.3579127420822124, -0.4411198258601202, -0.07188929332293797, -0.49241731034385794, 0.05012384968171826, 0.6487206140118605, -0.4654065341716624, -0.0056824723174145435, -0.8391156374319737, 0.2629263625166516, 0.1328832258388963, 0.3825624043738924, 0.08723594282464474, -0.2946725127597915, -0.29853711505508995, 0.055735562411917496, -0.006505260876912855, -3.10170096e-315, 0.11094400762212243, -0.29603245808305023, -0.3279008845637515, 0.2650938000483981, 0.4387117850156614, -0.37039310650939256, 4.02241332e-315, 0.5681820138701504, -0.2180623560150858, -0.2539188347784819, -0.23471841240498717, 0.6080450604928266, -0.1762785693439702, 0.0410728921652414, -0.48589227162868515, 0.11196105091356501, -0.6258782231580627, -0.12312707323553111, -0.5401060938514815, 0.14583143309046653, 0.3962381312830617, 7.9360781e-316, 0.14530514166908692, -0.27659770763499403, -8.40254633e-316, 0.21240880916359867, -0.007337536356268294, 0.15740967092191566, -0.14999943191508738, -0.23991507136568108, -0.5361880096147357, -0.1358818593707718, 0.3057075742498549, 0.6357456444802649, 0.09415760106951707, -0.5423216946656788, -0.010926779081946829, -0.0941021033131485, 0.00771643283283446, -0.3347633526531721, 0.1912956062485669, -0.26105790037472015, 0.6020002061636233, 1.45705872e-315, 0.5617166827863547, -2.34825656e-315, 0.24728295333922856, 0.09340473220356454, 0.17877929414710383, -0.3252080752844778, -0.3593482825568703, 0.6760043475469331, -0.004987912821431278, -0.15784994215256476, -0.3211699862188544, -0.10590147522665873, 0.03355141398319349, -0.03914079864656341, 0.04067323708450964, -0.1855696962792995, -1.412175133e-315, 0.6579577321706626, 0.10494824206076639, 0.2650763061988264, -1.486272006e-315, -0.2050167649438102, -0.5053380944668499, -0.250422841021878, 0.3900596815396489, 1.21538511e-315, 1.089026e-317], [0.6433757833469909, 0.4328454328386887, -8.22492e-317, 0.15479902874158022, -0.4366512725302983, 0.07542622002541079, -0.39600896197391355, -0.2568785482761918, -0.12102678042215957, -0.10413588327301349, -0.5296009931879104, 0.13444721716995572, -0.15568424962753433, -0.8357886022452987, -0.13674301218528503, -0.16580234289010187, -0.3858764236023689, -0.34275804734271814, -0.13466824301963287, -0.21524271383476135, -0.15998862634967878, 0.18880957067385157, 0.06138692472477132, 0.1290179782103784, 0.4327707832541834, 0.21990112594377323, -0.2618695861923712, 0.17119024887238102, -2.312119803e-315, 0.11005192931604701, 0.20418206243960985, -0.9163920274390237, -0.4218817168053603, 0.4670580059359305, 0.07603159041840157, -2.652342245e-315, 0.9430806175922131, -0.05734737120488147, -0.3733670392192689, -0.20538331108446062, 0.427229727842566, 0.06150084169700102, -0.10969164522720629, -0.534154017509464, -0.032715208315114847, -0.048091645104572915, 0.026059989122570647, -0.08618179292498897, -0.26424168987815244, 0.426864869412105, -1.823446676e-315, 0.3571589437550303, -0.12231307530093818, 6.86223126e-316, -0.16684097449065674, 0.22879062122483926, 0.07060727773214023, 0.26339011410043073, -0.11449650946998559, 0.16758999787268147, -0.3751538821939846, 0.15124053876375645, 0.5442464805362855, 0.01158307276354089, -0.06784138211797075, 0.14564400123406723, 0.24556511286274488, 0.014481353913200374, -0.11365717061438012, -0.016419519941542757, 0.18441336904126046, 0.2561120840289941, -3.394393204e-315, 0.3567990630970936, 2.059041444e-315, 0.1190748835583883, 0.04269840695428145, -0.0666662703323567, 0.03618085677790378, -0.10585040990382887, 0.2602971665527958, -0.19213759468672714, -0.19301447065817234, 0.10123607708158747, -0.2639196049831922, -0.013262683391758338, -0.4957604673530052, 0.16147904035506522, 0.2043707862046401, -2.703542985e-315, 0.41640448856646023, -0.16389414747432596, 0.21720209516789057, -1.51279644e-315, 0.10856909500066346, -0.4646990341003677, 0.23125890819367714, -0.04429390590650243, -3.468735785e-315, 3.4516961e-315], [0.41995035219572957, 0.01838532659615733, -3.473914023e-315, 0.2349746822972905, -0.189007284001603, -0.16230235629083462, 0.07095042831442676, -0.07922740673141818, -0.45033484172063076, 0.22864994009493397, -0.021205201567490485, 0.2531814408846873, 0.14143085792890303, 0.039010701008608206, 0.24814609504545113, -0.48046079682990833, 0.06752979145710282, -0.18387781707131698, 0.142742467383443, -0.06797099332821864, 0.33796932896686527, -0.3363912623386725, -0.3789578962956529, -0.3370088737812309, -0.02703102726954475, 0.2929005417225521, -0.1533788676497976, 0.15358475722135376, -2.313356415e-315, 0.28462396818524455, -0.01254052187382988, 0.1384302642121988, -0.44280768231255924, 0.46082117871538225, 0.24219246483719536, -1.750138396e-315, 0.4195664831117492, -0.26866568494896037, -0.10540362222162004, 0.2431366825964482, -0.05725868322484074, -0.019728070301514883, -0.4385627485952218, 0.3163837956406867, -0.1640093199956817, -0.12728814007495373, -0.09861087252263258, 0.26358489057379725, -0.44269189371207723, 0.013986476124536273, -2.072833277e-315, -0.19934562574135076, 0.06610288852055204, -3.86236565e-316, -0.3439750948086043, 0.6232135484020848, 0.3371215488066095, 0.22284868421514262, -0.3728858607588782, -0.20217829521526293, -0.39704277328006005, -0.2982487889264107, 0.37023338954604834, 0.06621968477000448, 0.41546300687484844, 0.06513070016796223, 0.37734199094247, 0.14356885846921408, 0.05544422761158342, 0.40438515736770375, 0.38836066843689293, -0.09057103776550013, 1.908986326e-315, 0.09065961015387015, -1.471479893e-315, 0.029591232167862996, 0.0976190252993756, -0.48826557437810997, 0.3320809892584304, -0.1591850798184027, -0.37306361660613546, -0.11271782822643586, -0.4598242289780686, 0.7926912485359379, -1.2227463517230117, 0.4268829930841699, -0.6233613288292819, -0.20879954146128155, -0.010108004616551057, -3.57317501e-315, 0.1629307104001485, -0.04893862864449909, 0.3306768494253964, -1.307990735e-315, -0.20209300687299092, 0.0615949017435463, -0.8989818090907815, 0.5024682651979872, -2.389536446e-315, 3.40928743e-315], [0.555018397141235, 0.026441703152268476, 2.065122874e-315, 0.11356209107250731, -0.13276885127150692, -0.17307206062638283, -0.11534152866005715, 0.34454982064686024, -0.3704762630154823, 0.32700794122314286, -0.2838982316316981, 0.0879408876409873, -0.5693149953114338, -0.2178674711935724, -0.4246477632805711, -0.7465084106904354, -0.6477432295084234, 0.07086981349905347, -0.16137652572569014, -0.02674795097611986, 0.19007101220320669, -0.41854975317193116, -0.12404893854697496, 0.15184299348374303, 0.17707347198434342, 0.20990234122320417, 0.3462000741430637, 0.3456675245326682, 2.152343177e-315, 0.22687320347494233, -0.27065633443007897, 0.026284175293380306, -0.2470805922869821, 0.4791603361867897, 0.13980923018924651, -1.203115474e-315, 0.5428249555798287, -0.09777866427708616, 0.05418890635626134, 0.0784340842540247, 0.5997886145656134, -0.10108113459543794, -0.028399503062767114, -0.624252428902795, 0.18379174462496228, 0.03989050433087513, 0.13131849852444122, -0.07553787465277013, -0.4055754590110489, -0.27975609152335523, -1.03295978e-315, 0.28984584668791025, 0.16554563482953286, -1.898918356e-315, -0.4013833772882929, 0.2593949396518068, 0.12080421764838684, 0.41701190620511286, -0.22615495042145908, -0.20837683431317897, -0.23449084695540712, 0.233844479628829, 0.16391511461971278, -0.31649635223098405, 0.08627304719886275, -0.2647927995137625, 0.372339447787256, 0.5939361613577787, 0.18586738903244265, -0.03278662370640979, 0.502550357290818, 0.17589973589233215, 1.1044909e-315, 0.07110868916787673, 2.77645605e-315, 0.237802728976833, 0.3939235271367028, -0.12328041335141687, -0.18108481018823924, 0.16959687700231896, 0.5884889505426478, 0.16160162921237403, -0.09829912600532173, 0.5964574103462624, 0.19136748046302848, -0.011390622072357614, -0.45435428546197637, -0.04136089059775688, -0.12125979832722267, -4.13575598e-315, 0.12946494853507293, -0.8356829629680975, 0.43812278073243605, 1.85116384e-315, -0.4496967637484073, 0.04248216256676565, 0.024119275814109106, -0.025034183947648423, 3.54326216e-315, -1.744667103e-315], [0.33103271958115355, -0.28896176958580116, 7.9311949e-316, 0.10913980385715617, -0.548871219182996, 0.15259369053729988, -0.32202910424502373, 0.15500639329338078, 0.02197985537249054, 0.01176119687533191, -0.09283389219253642, 0.11798117275320413, 0.1386466646742142, 0.5150148272752109, -0.06165280515583324, -0.5306551287210529, 0.1418713810170662, 0.13978601088501064, 0.3877113452262962, -0.35925379995652723, 0.5530522941689824, -0.32453058590228573, 0.014685750308272237, 0.08006543469730275, 0.16137049873492793, -0.02786828965669686, -0.46707197480312235, 0.1379799080704403, 1.33325321e-315, 0.5522587391428215, -0.2359596919545805, -0.7971506365976968, 0.10355615955302898, 0.4832845799049934, 0.017552453650742827, 4.01265444e-315, 0.37004889543580116, -0.5040869875308307, -0.5833145416264778, -0.7231605253976144, 0.07619552503740837, -0.07644328456255522, -0.2805691849056184, -0.10774068826659398, 0.016001722885393328, -0.006045116589626754, -0.21994418512423708, -0.15843620822879942, -0.027877258868020595, -0.15873556638943914, 2.226519975e-315, -0.7133573174313117, 0.2666650469999014, 1.746293246e-315, 0.20491063603084889, 0.44708513326110455, -0.03091138787103617, 0.14369211673132, -0.4617269571750613, -0.359451550527698, -0.3215500695946183, 0.5093805128877992, 0.07022980817636469, 0.2996759298252638, -0.07088917487180775, 0.5020490810044521, 0.2543266559290918, 0.2870115996217863, -0.24279883627910356, 0.23604308424366321, -0.14121858434762594, 0.4164633038869979, -4.25376069e-315, 0.04837742005616138, -1.92239609e-315, 0.05279684660635955, -0.175579836938033, -0.1304930236872615, -0.19633117814659787, 0.5689498388378529, 0.012785293971763862, -0.2220850147253397, -0.36606410262721045, -0.38892662727136973, 0.03147307715449337, 0.44477833100576997, -0.28723281829871816, -0.10865455234255712, 0.6467874273000926, 1.3157583e-315, -0.17840378029369452, 0.12346713376422569, 0.6709192078791001, -8.4736537e-316, -0.3630195665795457, -0.08182571885769377, 0.32951721850053634, 0.12419301263814965, -1.11953794e-315, 4.49845707e-315], [0.29997954359420176, -0.09108350511623409, -2.966271073e-315, -0.009413748474478893, -0.3467286845736124, -0.7903899351804156, -0.25863443698424043, -0.11199185296944263, -0.2893456045202993, -0.13648532757757953, -0.01737535313924807, -0.16996497490755166, -0.10451257983578452, -0.14664533655611667, 0.06554568539400585, -0.11182735320339744, -0.5051085026714647, -0.363529570875668, 0.11085032624937351, -0.13921388437688473, -0.6135807776310992, -0.2902098938655333, -0.2989206348383333, -0.0217151343841186, 0.09494843234339244, 0.17599105469399287, 0.12363541398877166, 0.14129719888874023, -4.223456647e-315, 0.16088724127034243, -0.17074762738792665, -0.7099883757310099, -0.11948596871570587, 0.45035127559561033, -0.3458245399241058, 2.729589987e-315, 0.5803935334658119, 0.10189220362169467, -0.4166760854972234, 0.043729392252984965, 0.25419312730231725, -0.03674203952488601, 0.058994138213456594, -0.025736610493797534, -0.14191718643198667, 0.3873286850471537, -0.18451863862515563, 0.3455450590772205, -0.27487223653774273, -0.12910134176481905, 4.14968061e-315, -0.024620834131526683, 0.27580547148078927, 4.152046893e-315, 0.16053337558367473, 0.6987858675733553, -0.12937605954176146, -0.15286357048283045, -0.41320233482361945, -0.050953290536241674, -0.4453146118647126, 0.43391105917678036, 0.5697071000980795, -0.06105985937350071, 0.038961684946532314, 0.28995942538823694, 0.10269845815409452, 0.1516441688281028, -0.3283734121972072, 0.5916214233751639, -0.20183051044553152, 0.3106247640349652, 1.89704702e-315, 0.006481762563017351, -3.18043764e-315, 0.24234772797870344, 0.1892617785104092, -0.14891957098031508, -0.07914401424331362, 0.12687743507129357, -0.234367976478802, -0.16588140677891952, -0.6277002497187836, -0.055910054246661456, -0.8004981518094186, -0.08494257591205655, -0.24223247871716375, -0.03461968330207604, 0.4423889386296823, -1.51895244e-315, 0.28738257161922065, 0.2882498586815688, 0.661769647348307, 4.302487782e-315, -0.5495756769442618, -0.3638924855617103, -0.5167471633138614, -0.3169197137285734, -1.18118341e-315, 4.0692524e-316], [-0.19124066779764254, 0.08759411252662486, 9.8820135e-316, 0.12367757009482673, -0.5209994435636782, 0.36386717403515806, -0.4313745652405613, -0.40433267369225934, 0.20524861364876817, -0.1147621177569493, -0.17806450301746474, -0.2215637252733349, -0.05036615715327911, -0.2938649606183579, -0.22721730536698956, -0.7682684448989533, -0.14044613163500072, -0.05043528107617222, -0.181117434882509, -0.47115505344338027, 1.0059961084768476, -0.36271908976093714, -0.28492975131583914, 0.1348713558466465, -0.04208305366362776, -0.2811761638447403, 0.7873133332798051, 0.3783496200136696, -2.153251754e-315, 0.4944088673756127, 0.018625368953013165, -0.08611995254322469, -0.3184016101901556, 0.5186481063107552, -0.16612334012477695, -2.04386729e-315, 0.8598898193872142, 0.08195374852744497, -0.4298616127876588, -0.14719119692320085, -0.23491711243275926, 0.19849585054643915, 0.25102843504807704, -0.38326655852078395, -0.14798184231747566, -0.2566605892015821, 0.016373136250186843, -0.1703570922524911, -0.017165625644662157, -0.006945583738827658, 3.680716874e-315, 0.10567158847544103, 0.8860346682792881, -5.47867334e-316, -0.2969579563139213, 0.5827190009139752, -0.43525435945738905, 0.23424921559632275, -0.2746909785850117, 0.053828125690647974, -0.39579581595448, -0.48697363216860656, -0.2912734002830702, -0.11146676724626282, -0.4141176198911796, 0.09730711772185248, 0.3619435583164228, 0.1487803553413633, -0.06083580391527668, 0.11666066856125581, -0.06741710859874617, -0.2259343831024829, -4.47121105e-315, -0.4315182096058164, 4.0250604e-316, -0.21848689569579846, 0.2774865150660013, -0.4704163293325451, -0.23911947243441958, -0.08788417465244452, 0.16627841325090434, -0.0402337312404655, -0.03878690361963301, 0.5355604943833776, 0.04642795226487698, -0.39226017760359433, -0.0636870497696555, -0.1208460235402102, -0.22355035634114231, -3.16244112e-315, 0.026954546400750675, 0.06009921780574494, 0.5088191654555494, -8.5797074e-316, -0.7432266453223095, -0.37914294355916706, 0.07799303101240253, -0.11796902641841338, 4.32633395e-316, 3.95380825e-315], [-0.060798665649221685, -0.1194175408254049, 2.60775294e-315, 0.03485356085205372, -0.11560833007211405, -0.09033537406209743, -0.29982118254426227, 0.2991282607380566, -0.21844893605458346, 0.22296725833080888, -0.1857710051911862, -0.18289486921361647, -0.3978679097138625, -0.594345891595057, -0.40845427784692, -0.4987168566855752, -0.7285620553334067, -0.6894244710347642, 0.3781190062776829, -0.2002146921003294, -0.6027896289055734, 0.1128073809581698, -0.14196509568410398, -0.18689513362256913, -0.045381289559464216, -0.22275830201805663, -0.5881689177934896, 0.41465575774908936, 2.977341987e-315, 0.5033849794511499, -0.03544114568927523, 0.2816135616790831, -0.09691918403085158, 0.4969183459502731, 0.16624841499721596, -3.311259065e-315, 0.29466742982646354, -0.19792815153221138, -0.556533105562073, -0.4071927296911073, 0.0038371260825504627, -0.10788319149358172, -0.40533596602458133, -0.36291373512559266, -0.03601465755060106, 0.4227502246163096, -0.00848517659307587, 0.058216493532582854, -0.2990907676136298, -0.22951799028053996, -3.12449607e-315, 0.01705617461340146, -0.2566351313561423, 2.862008656e-315, -0.019604360899799264, 0.34130272657833244, -0.10509561499044595, -0.27282335264711766, 0.022394822071174873, 0.02558584209159286, -0.46457960409101023, -0.478732202264426, -0.108794866880037, -0.08297749384942672, -0.5403740562983783, 0.1364604225079719, 0.27311543055186976, 0.3217397958527879, 0.21687913002185252, 0.5950645884232204, 0.21551998871995598, 0.0733804392692038, 2.06787849e-315, -0.5393758523000883, -3.05070607e-315, -0.028558405558631424, -0.18930218337607352, -0.021301412923039508, 0.1289049168382824, -0.09350054412593295, 0.5760071731413963, -0.08494077907268982, -0.311755682558653, -0.6263843556644794, -0.44969943138547125, -0.07660418965801356, -0.24849796523621606, -0.8877937524859871, 0.24063055461993607, 2.618924534e-315, 0.6177187605241699, -0.11469678648145629, 0.34399875107662053, 1.476653185e-315, -0.47858855133946665, -0.17893384493290124, -0.3900507340602902, 0.2198638789006984, 4.162714126e-315, -3.327778767e-315], [0.03237256362942652, 0.005361686100941707, 3.922039157e-315, -0.05264919847755545, -0.1807170180408481, 0.166755756277156, 0.03577255929411891, 0.4195710493251086, 0.08956157835556289, 0.336027105921889, -0.08044775854866938, 0.06671361634247389, 0.09645922730893547, -0.9748186193505989, -0.06021696535279689, -0.6904859282357486, -0.5633169688129152, -0.26120368387551424, 0.5493058223682629, 0.16031648613740213, 0.1944123792309015, 0.0554298127586349, -0.4418927898316541, -0.026517253133430323, 0.07055837916538302, -0.08637112090485678, -0.8162846630868067, 0.2289311110669332, 6.50579896e-316, 0.2865861496286668, 0.06701750021657216, 0.07787559286932959, -0.20501351325525735, 0.820677220415327, -0.17000875749385447, -1.341266975e-315, 0.6333888686470498, -0.575052519921235, 0.005481370106778164, -0.2624509185825372, 0.16837361701317413, -0.2541584180040871, 0.25705180354630425, 0.11721526435161972, -0.025183937924916983, -0.43103943029240704, -0.33800013502888654, -0.4068134869034967, -0.006263202649912331, -0.22788151634633053, -2.55223927e-315, 0.17352984809964858, 0.6115543475360126, -1.042811207e-315, 0.1515360158593247, 0.5398731414784096, -0.351056244181762, -0.10658346502702006, -0.16207810458877442, -0.001529494360350782, -0.008485657653521002, -0.685546480984521, 0.3056522512004414, 0.009293750011698604, -0.23199143163462355, -0.2689967059490621, -0.020325204045435422, -0.04160097344020649, -0.4831777533245464, 0.5251076430224764, 0.6612570133514609, -0.37384015388242886, -2.44289154e-315, -0.1643105415143021, 2.714627283e-315, 0.21813016107264283, -0.2661294146010858, -0.08028452604328065, -0.03275001108681609, -0.4291808783021882, 0.35969169232123516, -0.05126102116598012, -0.1410862560734393, -1.271043600806022, -0.28466773163826076, -0.48949915109617564, -0.35448484393513957, 0.17056660637207333, -0.04382948721424434, 2.01501867e-316, -0.8357821971644355, -0.26240900165559555, 0.4903818578756002, -1.58054821e-315, -0.38714997412511953, -0.19465167635488018, -0.11561974754239067, 0.37456072399574847, 4.097157366e-315, 1.14301364e-315], [-0.6080593096031832, -0.14009422518584688, 4.036000566e-315, 0.29394432907478135, -0.24280631205647382, -0.7881917920268988, -0.07459395517460825, 0.3235766093535115, 0.2790774997126409, 0.01371225945283743, -0.2341853038600324, -0.37038850095570786, -0.28377464202246366, -0.405019620407264, -0.20171547841376278, -0.2500431575082646, -0.15255380903598242, 0.22682590107977868, 0.3668870356642626, 0.2526195866388097, -0.43790188230431515, 0.06785713420839926, -0.5695707957529552, 0.1010252074936659, -0.11586540006000223, 0.12834052004707935, 0.04072409321881137, -0.08042487278657273, 2.44623309e-315, -0.35342237058745096, 0.03744751343094542, -0.2644587571385969, -0.1548006744794378, 0.8130727579834582, -0.12479727850012391, 3.19046e-317, 0.989568696770976, 0.37480020060053726, 0.532436604524089, -0.4387502301643191, -0.04129319247670501, 0.04879150357431642, -0.516379344740135, -0.5157168505971553, 0.29483751458126517, 0.03465998643432626, 0.1548851408200994, 0.016366061254736265, -0.2608964959533726, 0.014900945340551782, 4.2404732e-315, 0.39679057216592317, 0.2048312251373762, 4.07539835e-315, 0.06138632287949626, 0.0839168246924108, -0.2051658651270071, -0.23731717159142937, -0.3918011328273396, -0.0053863819994617885, 0.2172094457853806, 0.13717475426260506, -0.8079485474247585, 0.023226469768922522, -0.3676000383767155, 0.18246597036782017, -0.03065733144422273, 0.2422604916470901, -0.5413747190051216, 0.052283772340403184, 0.5860017866103158, -0.057624333444499465, -2.86789628e-315, -0.2720160279507468, 3.851338536e-315, -0.5795501028140904, 0.4700233287170633, -0.15483784528429193, 0.3144667384989446, 0.09231860937050547, -0.048759135878751116, 0.033517754746402194, -0.4795820073308744, -0.573432343422824, 0.47339063405268755, 0.06957336792466172, -0.17272639973024756, 0.37536903919371384, 0.4065103362942022, -3.37740021e-315, -0.471344568581884, -0.4022836646223846, 0.025641699366114785, -1.25563303e-315, -0.32675362911913447, -0.2051187553582128, 0.1552718636209494, -0.4168162487726588, -3.648854674e-315, 3.567240553e-315], [0.02233631501963425, -0.25878503535353575, 3.593464125e-315, 0.04431366936959437, 0.14987615836940346, 0.11216370127370337, -0.20478201271286525, 0.35463809808896674, -0.1491351640195319, 0.4755454663013211, 0.1439588423036762, -0.4140460025349587, -0.011012023122946944, -0.48153049814602084, -0.17776826456437203, -0.8287776602156129, 0.33647542517717366, -0.09634706399790187, 0.8582259502331946, 0.1750256199729464, 0.137981523650786, 0.0796104325942232, -0.7070017781711554, -0.1128201886479481, -0.1623205880450843, -0.03223913723091471, -0.07411636658582764, 0.3689589885017067, 8.9590453e-316, -0.31163484917217554, 0.11777304480672203, 0.11749405289065881, -0.5013616452737374, 0.6797847789846622, -0.21156538843650244, 2.245727637e-315, 0.44576294088673657, 0.04687305520051053, -0.12819599646412883, -0.6225463491170545, 0.11236216298969856, 0.04225008900753371, -0.1888552059502911, -0.12661776793407525, 3.278242983060977e-05, -0.4863852646926045, -0.11779475962507656, 0.2612911656938676, -0.025796597922034023, -0.23184684408340497, 3.557243935e-315, 0.21630459927837595, -0.308676872258912, -7.1015787e-316, 0.22638372624127776, -0.31508202256050655, -0.42600257259106084, -0.15096197194719696, -0.398530656988584, -0.4680725014679275, 0.4174296359578623, -0.460600308439601, -0.7658163215360846, 0.24430675454766265, -0.3889530870630668, 0.30973087369900676, 0.26542750433983503, 0.08708260753031173, -0.09729175349914061, 0.5482334862654733, -0.058999800863854694, -0.26773482233114293, 3.797753545e-315, -0.7390037304475586, 2.20132165e-315, -0.5868738569956676, 0.125282303282696, 0.21761914173791477, 0.5395308890424337, 0.3136498325717112, -0.4136040699201464, -0.16064515978755894, 0.1983449373788011, -0.03867747794270992, -0.09093471899257437, 0.16044169171467848, -0.3563142593308623, 0.2669094567491412, 0.39033804682735335, -4.26418307e-315, 0.11382817861964695, -0.6016336937124472, 0.08718023895823447, 3.93119129e-315, -0.6081150558164914, -0.1272470833137457, 0.07358101034075783, 0.38180579283871574, -5.51537244e-316, -2.169955407e-315], [-0.18420773703194135, 0.018752971646945844, -1.303715333e-315, 0.1594654474786613, 0.07029113749595332, -0.575367458929624, 0.16612717576698732, 0.48035825659422665, 0.10871657510784911, 0.5863518420840871, -0.49718482077770926, 0.17075963497433516, -0.09360145529808873, -0.2583365781403348, -0.17932095347761273, -0.5785557632975348, -0.1686837086847582, -0.1222749032286257, -0.06054013994564642, 0.15502285298806792, 0.3503602063659319, -0.24070021115598508, 0.0010224915692864328, -0.1524179294397839, -0.21655438880290132, -0.20148086644322513, 0.3232510410519475, -0.06614542887096482, 1.385398e-315, 0.43666404486399246, 0.1572165202567257, -0.03640670978440486, -0.5127403937952433, 0.7329681210844996, -0.03143758834955966, 1.82654903e-316, 0.38484879195333194, 0.26857030373626706, -0.12216669585947418, -0.4047958215294341, 0.039799750196752776, 0.2909921298642629, -0.15801067023622173, -0.15708728645102207, -0.11049687883565458, 0.03818221132233097, -0.4119501655042047, -0.08124535960714349, -0.13053268767372236, -0.24226855723835716, -1.743698236e-315, 0.07657205551048908, 0.276596714874077, 4.02595451e-315, 0.6302496038484661, 0.05561527117554784, -0.38527668549258653, -0.11912374173546225, 0.06794861282044687, -0.1739491882981042, -0.32961538549162256, -0.6846666549822622, -0.7065223111085649, -0.024274086003395482, -0.5785983607332946, 0.5399350005035708, -0.20762988843931293, 0.4853960515741864, 0.07632423714466371, 0.7088374591968684, 0.3289355028899158, -0.04121280404029127, -3.658660884e-315, -0.43971328956310324, -3.102799315e-315, 0.5901936002614284, -0.23713269179610869, 0.005044972027767498, -0.04904501926992428, 0.378036097759356, -0.44466517153930213, -0.19311488912582783, -0.5441576611853942, -0.27604812027120235, -0.17038181998675375, 0.10074689928668756, -0.5804137390173465, -0.23133919721386556, 0.23356439295836906, 1.867474713e-315, -0.35989787855924954, -0.037888665146352, -0.14437096681794961, 3.06754072e-315, -0.6618278729369627, 0.1687063283113636, -0.09357585491243302, 0.3087731468835518, -7.02622277e-316, 1.799350106e-315], [-0.4215705030477932, -0.4056706261756265, -6.6765159e-316, 0.18947203607999027, -0.14674263448962702, -0.8849659898533171, 0.040354967133685235, 0.6817159632275414, -0.20121928358655614, 1.1259131515191394, -0.4081774899591691, -0.7662695889319661, -0.24773673711634894, -0.5569192479115141, 0.011827980487605926, -0.08707364734308248, -0.38059992947646437, -0.0005716361205407639, 0.04437719462702027, 0.5169815323729327, 0.020444223876628663, -0.08105115305994179, -0.09135526937058415, -0.2325010696485904, -0.3626737524617786, 0.09680878451055173, -0.48987693363768503, 0.26814796556312503, -1.071752406e-315, -0.034305997838803746, 0.2596628106425217, 0.14784567489968373, -0.694641172649165, 0.9737141705401403, 0.09696238488061225, -3.11433098e-315, 0.388228660261707, -0.047734390139773916, -0.39726087611394584, -0.48428042910265223, -0.5170117397018918, 0.2118108841845163, 0.3423897896088202, -0.4879534808302547, -0.2271672845972703, 0.03525294006226966, 0.03597205887821687, 0.07911158634117875, 0.2610384153135102, 0.12041501616927401, -1.392659624e-315, 0.39349656846737535, -0.33044625994515675, 3.27062599e-315, 0.2795177419101927, 0.466125582706847, -0.3508032879167586, 0.14009062148587034, -0.41879223657247844, -0.13319120061255837, -0.5803443035339528, -0.5315996425381457, 0.02765722490878132, -0.21466726281433868, -0.44736972552450016, 0.5774119069661726, -0.5879507029594901, 0.08149151049071698, 0.04187209120188933, -0.18817419388980883, 0.2185827882546515, -0.13064411068425932, 1.712147036e-315, -0.2342809191761436, 2.700447194e-315, -0.2795902024292882, 0.6428384711816514, -0.5607102579303164, 0.6963359115187389, 0.13262227464963322, 0.22493769159958957, 0.14903475175903222, -0.6408607304635283, -0.4406456596762163, 0.3633601590349615, 0.776778266931021, -0.25470144628683755, 0.21921701724649334, 0.15681115128219017, 4.230469795e-315, 0.49357698988253523, -0.03374811957931254, -0.30136941006515316, 6.7487638e-316, -0.45500532661656673, -0.6376074899536538, -0.21882835389411634, 0.36704128757343774, 2.341070493e-315, 2.20439042e-315], [0.1802427093046968, -0.6977625530599318, -2.70223587e-315, -0.32526852338758816, 0.38419927558007083, -0.16416598502849716, -0.25250917636264036, 0.2531717721706131, 0.5757756287341641, 0.01812324369617584, -0.32956492252927605, -0.47758020925046735, 0.14699669197051446, -0.9972060548512757, -0.7607930152909695, -0.4493756888107767, 0.07398862982551604, -0.31746661502822593, 0.19729925149974462, 0.21530309844923579, -0.20950923432529978, -0.6327657449856368, 0.43300388565970455, -0.03692802589864681, -0.23167826363131347, -0.23241442313958963, -0.24288507597257886, 0.3060775665993915, -4.162988486e-315, 0.3528671372877442, -0.5990269693644495, -0.173958540563205, -0.015845642374394956, 0.8702933705645313, 0.011558490607516651, 2.060115607e-315, 0.3416416831977399, 0.5766173573218742, 0.014009559181639031, -0.5111865317186773, -0.19398509559265914, 0.10598149222512374, -0.5236029947696135, -0.12182608869947639, -0.16840483536806106, -0.4709697053819764, 0.2568618356417015, -0.15638581109498598, 0.23734383653599722, 0.0053113117053218495, 3.901352145e-315, -0.03831159320301375, 0.29232040593677733, 1.308582576e-315, -0.37017185107976686, -0.18605057899773783, -0.3266835228519526, -0.10423442351105908, -0.6811564810261584, 0.030668741959329643, 0.08067207845129021, 0.20926742337265822, -0.3983009855343531, -0.17364065944125276, -0.8476235249926193, 0.38824387238058744, 0.13729377817865732, 0.23092952562668936, -0.4392245295103856, 0.21690320053157539, 0.4615723757911525, 0.14825165650508998, -2.846439813e-315, -0.4523343752538272, -2.43835788e-315, 0.09877824428957213, 0.31636949535575565, 0.011199704110515254, 0.2228014971541188, 0.32720489439595135, -0.17072485472502213, 0.13006127817177124, -0.5509316140968872, -0.7741333455076975, -0.21573353759606415, 0.39659997731250946, -0.4225404033009422, 0.44917463639573896, 0.1796910239918219, 1.01870648e-315, 0.06270367542465212, 0.2854234912453687, 0.03854986787613408, 1.12758094e-315, -1.0142730132324123, 0.026168411004921528, -0.21952208589534883, -0.2678028146831254, -8.4750471e-316, -3.64882326e-315], [-0.4787300869536973, -0.7082662441174715, -3.584108073e-315, -0.17651610659559538, 0.5258764724840628, -0.3226060239151296, -0.05001047339033399, 0.105475885118957, 0.038549279070360896, 0.1421262457151502, -0.2028249303621525, -0.4698268975617837, -0.5710854450836912, -0.615452573496949, -0.2959509971620715, -0.7523567351197119, -0.16637483514596066, -0.3540396941984876, -0.5270236551833823, 0.5773536669222468, -0.1902796526295655, -0.3740086307499733, -0.13164284279222505, -0.3014931694870374, -0.139969836086579, -0.22536825257424112, 0.2190049393606437, 0.09266485804139592, -3.99959352e-315, 0.831003320385653, -0.11920367020305754, -0.03273402651212994, -0.20264629322412225, 1.08726575700839, -0.8490607207284513, 3.69363599e-315, 0.17961086686361516, 0.09239220394449951, -0.14007633604163983, -0.4243612750765141, -0.25338976187838264, 0.028499530447078297, -0.2120091152345007, -0.0290728105551833, -0.2388464567042311, 0.21733199223422983, 0.17424072470101618, 0.20271318089072346, 0.5685244616319449, 0.10334886444947282, 3.31692298e-315, 0.03349699878370663, 0.18059984565508516, -7.93897565e-316, -0.3242984275875007, 0.488854410638536, -0.16996637754379576, -0.37990192703296427, -0.5243213787682839, -0.012977486711491458, -0.276806929880349, 0.44563056729172995, 0.31536621700958034, 0.3250138829799937, -0.5440620385543975, 1.0138221011129012, 0.0786941107676238, 0.26031803537815845, -0.34807952718660806, 0.2363823345527106, -0.03385004686336133, -0.17823137724258217, 3.70927815e-315, 0.2089246070331637, 2.379520144e-315, -0.003140986452854832, -0.3790360345608151, 0.09267022535121823, -0.4916039642036854, 0.12173716629409334, -0.26643061061211726, -0.15173287307596067, -0.7127187296173293, -0.40218945998727296, -0.28926277345401524, 1.0416646375215455, -0.6667026014627434, 0.2406522247497919, 0.7501182363428309, 4.16246824e-315, -0.008994893586871933, -0.03941320594975662, -0.4137811989467001, -2.937466156e-315, -0.7869551565545336, -0.21047638833149987, -0.6876929614772588, -0.13421764177656362, 3.31115757e-315, 3.215527927e-315], [-0.1754865937438847, -0.08745201001929423, 3.40026228e-315, 0.019551885238789347, 0.09567425659975241, -0.04080129045230588, -0.43848044689148996, 0.419619461847677, 0.287457384965811, 0.48560220007020344, -0.21284537102813875, -0.30441960291302883, 0.19532612115964004, -0.09443308604569224, -0.3516741677097932, -1.0826055265219483, 0.270694766725677, -0.09666352687112369, -0.19881621874564126, 0.2453520515963785, 0.0535587120824717, -0.2853235111726894, -0.31590399514091294, -0.4027304847575819, -0.11367105501272881, 0.029963600947595037, 0.2898610824056969, -0.18649578305275755, 4.0244375e-315, 0.4573123589400547, 0.2647451042800165, 0.24634116537615858, -0.07503869020634311, 1.0705903196790874, 0.1873522905466867, -2.282009787e-315, 0.2511982720959246, -0.002518893698238376, 0.3171800108355701, -0.14180547205008373, 0.32765101331898633, 0.17966513456419128, -0.12666458812195114, -0.44324416624829943, -0.10734157420646265, -0.011931946255773297, -0.2525150594262582, -0.595196175652821, 0.2871314016031135, -0.3805619100642307, -2.450684e-316, 0.3380028384137216, 0.5955975235365529, 4.25720856e-315, -0.47634482402721273, 0.007659038664465171, -0.5011302012051063, -0.17851210376552662, -0.4517725790590233, -0.09334893406754416, -0.5453677490321267, -0.2887211651498777, -0.42627204154610265, -0.3338257214511992, 0.2520670112062913, 0.8806608157487263, 0.028697663962645486, 0.37210498426517463, 0.28802862478292507, -0.05145689603329141, -0.39563528207602255, 0.07319963807085711, -1.20131775e-316, -0.376326144860134, 6.88630426e-316, -0.27145598612588234, -0.036979860040364784, 0.05139412489472654, -0.255586344505827, 0.3658486968208672, -0.28219165338409674, 0.0847944606876664, -0.7888038484291238, -0.15646495745850778, -0.8203590839279464, 0.39567855935804874, -0.13080202528441884, 0.44004784768358496, 0.4737933603809853, -6.8220622e-316, -0.6840099326097254, -0.13590051458785649, -0.414314795468621, -4.29921161e-315, -0.7086723399022699, -0.15783448925970706, -0.31083547912289583, -0.2919476213450698, -2.185789065e-315, -3.54499466e-315], [-0.003620251338872042, -0.2190363520846892, -4.20344246e-315, -0.23285866603704458, 0.049269677068698746, -0.7221647381136671, 0.641443856611532, 0.13827462599434182, 0.09157707123834401, 0.22818041055751856, -0.4738233028041184, -0.027747015031164335, 0.1071035006543868, -0.11226589070222341, -0.21830676985776507, -0.32418989105069956, 0.5984387572993531, -0.03724205269030509, -0.07461831548765696, -0.020097710274247154, -0.2294112782820007, -0.3837647427512308, 0.10017153405598885, 0.31620184315504674, -0.006396223569431083, -0.18409534245366685, -0.08919494030863796, 0.5480565030864414, 3.39548464e-315, 0.13192145177658438, -0.11007895201125707, -0.3972556273785663, 0.025613353312390463, 1.0544795942735044, 0.32067908587121147, 4.59252936e-316, -0.0905118074089163, -0.04636543877481067, 0.361460294804871, -0.5846250936558782, -0.09122234981104098, -0.11992135960624205, 0.16115409859928534, -0.39851051094228296, 0.25536124771594965, 0.1954452746050782, 0.13583791489286073, 0.06974593055550833, 0.5834414310033091, -0.5355714789936529, -3.05244442e-315, 0.36397989457276086, -0.25200170866482885, -1.422291256e-315, -0.176159974845324, 0.010055329260980149, -0.42960051367598856, -0.09727632219947242, -0.06269903047966038, -0.21355451569256267, -0.22666166437188703, 0.0761124416231698, -0.2688310994534959, -0.12815268131009291, 0.21151798821911066, 0.3834586051404929, -0.30840632829947306, -0.22086160355635492, 0.44630011044366014, 0.667382524678747, 0.6607782637150151, -0.25610509614207183, 2.602939604e-315, -0.6605854255498442, 3.08747837e-315, 0.0954369026486093, -0.14753384322148544, 0.14131842492203608, -0.3383912515014918, 0.32988336855738665, -0.2253972712471028, -0.3193501590002178, -0.9746969074194998, -0.526682373859991, -0.51370095808495, 0.15574869731926802, 0.025898324668268302, -0.03978200498010806, 0.03918978017181326, -2.224473827e-315, -0.35410136033044115, -0.383924994035489, -0.015613540646579119, -2.4057436e-315, -0.23673712894714602, -0.12491184759188305, -0.16295916551890868, 0.10246830144273154, -1.42724959e-315, -2.5686228e-315], [0.08757755954526204, 0.6552063805113706, -3.21691206e-315, -0.09300383558828382, -0.03668304475768202, 0.5285341583902329, -0.2848291548194858, 0.2813689644420779, 0.09186568461016793, 0.8280970920892373, -0.4511307996079674, 0.5282704349825993, -0.07010424428593945, -0.393544584425213, -0.21474791621989492, -0.7651619172084203, 0.0664801466548329, -0.05142725576138, -0.034465823977612206, -0.16214723504501036, -0.5790736011772306, 0.16781630399209285, 0.3684476297609522, -0.16344078190388908, -0.4715476348962011, 0.04123042167282676, -1.005508447671459, -0.07285404510342171, -2.77206197e-316, 0.017572625993810004, 0.3315255896379699, -0.5635933937729376, -0.4438184397241141, 0.9223538451373832, -0.30829640884080844, 2.9469993e-315, -0.20380768110655567, 0.14013988501735009, 0.21851940866857153, 0.14492895523262747, -0.12400943101164807, -0.3683445894411295, -0.42331727600651115, 0.32945483116489965, 0.3876182645154849, 0.2007093114581041, -0.09769980038341204, -0.02612511753249752, 1.1428007905790012, -0.4960983305260396, -3.41777294e-315, 0.2343881413463397, 0.18009432364745884, -3.146307003e-315, -0.14315446284646025, 0.5757710948088678, -0.5288695742520885, -0.5108894401268127, -0.3090708427953778, -0.18342267611446667, -0.712119435241961, 0.18506182637136007, -0.46819764961199767, -0.2815147511505051, -0.06504937144854975, -0.2802178210800993, -0.16696202529543017, -0.15287040422339201, 0.4122946080623285, 0.6868471614486739, 0.07112069302093994, 0.04762249965581169, -3.73060321e-315, 0.11995570061831733, -2.963602076e-315, 0.6380954565948618, 0.43245533379894463, 0.026305911249227824, 0.27405497256960226, 0.23379189793166377, -0.1409585146405711, 0.02604427173532117, -0.4508149247817319, -0.7989058746256474, -0.5561795962462346, -0.04350468647942679, -0.3446554819825516, -0.8163187015743749, 0.12732290197816726, 4.45506544e-315, -0.6547706069435837, -0.13372705053245554, 0.35084344302456766, 1.93234459e-315, -0.6709321406573804, 0.4191715118032631, -1.0264908180078975, -0.16857003922629846, -1.98200327e-315, -2.279314684e-315], [-0.3296188546165616, -0.1993021867357193, 1.3848854e-315, -0.35383306041632306, 0.4010357217574549, 0.17946142188092637, -0.06547577576180827, 0.08943513647355124, -0.56144878538645, 0.34755719867830165, -0.575943296409863, -0.09437602148672561, 0.04130420174040201, -0.5638732368406385, 0.2639758213741046, -0.20962410477770446, 0.07613143636508174, -0.34027215080880474, 0.22078172606511348, 0.4673796447472155, 0.08544032588774828, 0.12360664785989117, 0.017497876750239623, -0.3604433095419462, 0.0903224675281214, -0.35168398332969764, -0.48113872869387864, 0.5054861457413447, -6.54174135e-316, 0.29186977329487296, -0.06393907216980484, -0.6741837468009199, -0.36904237505937226, 0.894004151761459, -0.24890079060915865, 2.865591566e-315, 0.08308643620338584, 0.3498684260328238, -0.09907884282801842, -0.9394475176136597, -0.21667590053875518, 0.11922772989287574, 0.15900212182353918, -0.1192139430298946, -0.2941648593668524, -0.30635593080767803, 0.2097627529054609, 0.7541441408145143, 0.0503287674606278, -0.16141381374780406, -2.33472604e-315, 0.4880335974791001, 0.11505470776993852, 1.92674454e-315, 0.3906822446333661, 0.014767871378925134, -0.2926453066049421, -0.2325112861649749, -0.3273535011808664, -0.023903247585378377, -0.17258548917564445, 0.7030142853797697, -0.39231937651530363, -0.01679680373143066, -0.20879403192156082, 0.5166111831343819, 0.3110595784240337, -0.5567681375281026, 0.4369424291355813, -3.6924525327219063e-05, 0.014107255992309725, -0.26029909987718275, 4.309278685e-315, -0.20991565283140357, -3.661106237e-315, -0.3284556567506405, 0.321981127769114, -0.37654816465097624, -0.4950260330369171, 0.6947120898471624, -0.46069586869922946, 0.32840251281132155, 0.1269454950597832, -0.3024202533729859, -0.08072251153002669, 0.01223233345788183, 0.7807960772306655, -0.013025378818925409, 0.17286849812410648, 2.726599764e-315, -0.061717804312705536, -0.4174119814446628, -0.8991574191035719, -3.16024558e-315, -0.7656939449334943, 0.14951845643370104, -0.14310211263443046, -0.3456396058341896, 2.068310155e-315, 4.241191533e-315], [0.24735834887509547, -0.4933039520220826, -7.9273961e-316, -0.4479707286982741, 0.1706398751859111, 0.09724678115039577, 0.4701935962622483, -0.0363966530677891, -1.0049889288613398, 0.6449926630940378, -0.7072776391877091, -0.8145417952281105, -0.27007848391762246, -0.4118319531006745, 0.1324459498863866, -0.39315029516028765, 0.009586694289763888, -0.19375699292962176, -0.07518036549008894, 0.8374116214958511, 0.16200821062460227, 0.07743579763629448, -0.5167648945936906, -0.32087946571084336, -0.26053192480905085, -0.41805334631826446, -0.2569183371588633, 0.491482421447804, 3.355272853e-315, 0.024371578159089465, -0.23440479090906083, -0.4350401874533729, -0.6836211830378623, 0.8712420196754513, -0.05542355561682759, -2.87822782e-315, -0.04248349029845931, 0.26214414284226667, -0.660410013596222, 0.09339525901520988, 0.04153869728843756, 0.056001282804710874, -0.4514630673383645, 0.28256394917984257, 0.3600722855486025, 0.33035784402181334, -0.013440379431576914, 0.01598868444149085, 0.15209658723152153, 0.2927358838118457, -1.138903146e-315, 0.21148640633580926, 0.47339734789427707, 1.751186354e-315, 0.5519758401962166, 0.2971244861802877, -0.3378434468154517, -0.6371170016505006, -0.8354470146126288, -0.026649162222284584, -0.3542953443152393, 0.3702390184142086, 0.13667741242160464, -0.026104725828594858, -0.4650244647216671, 0.4098899474881174, -0.010656222573376018, 0.015469916111740624, 0.04177464674117046, 0.2978185443266522, -0.3585898189384745, 0.4416671070774046, -8.284563e-316, 0.049747880063514965, 1.826452596e-315, 0.4886878054116524, 0.033457422470432735, -0.1495936276936017, -1.349988520913497, 0.48922276489838784, 0.06377680444817245, -0.6567330862396544, -0.5578081757503907, -0.2587736412801134, -0.693928337544047, 0.17659980430941874, -0.8180630040691421, -0.4988653442550504, 0.4994899419968558, 3.596545083e-315, -0.2820167917415506, 0.2766919944804481, -0.13139324856472986, 1.44617074e-315, -0.8597677188861665, 0.4139668577637854, -0.41795634106558865, -0.3674378017141568, -2.543084386e-315, -1.08576138e-315], [-0.03763459071444212, 0.26455164403944925, -3.154755827e-315, -0.4662156435901197, 0.3526022625208009, 0.13756843656634696, 0.0010855867434510908, 0.20549727761990572, -0.08188757599019802, 0.3423482080129038, -0.2934276368433645, -0.07229173153855897, 0.2343934063621171, 0.14236914615582627, 0.18801432964181222, -0.9419943690093435, 0.043672746607007214, -0.17380370896362357, 0.2858098332844229, 0.3451185191064762, -0.8432594068251892, -0.40817797951476914, 0.43287927275527865, -0.5556207898795509, -0.0007728398690022066, 0.012236657669162673, -0.5166010727366489, 0.5114408943224118, 1.7852946e-315, 0.32711002979123116, -0.24047136475892036, -0.3745758119002173, -0.22799569742798292, 0.9338246584222865, 0.10292685583490364, 2.365879768e-315, -0.22050354995264354, 0.572969079813006, -0.17514807510215613, -0.358451300539301, -0.563450831308029, 0.37229457508927544, -0.2138037752258693, -0.16276067158817156, 0.1784459703759324, -0.122882078150646, 0.07422637115086539, 0.15002677204134918, -0.05353673803792225, -0.11801262467142877, 4.465285273e-315, 0.2180491362945367, -0.25948829940757173, -8.5526676e-316, 0.10977834535232482, 0.35794294311918623, -0.33807504975267677, -0.45789444868310886, -0.44169292324392134, -0.21076773603229812, -0.3453028613162245, 0.5225178632381259, -0.2339523407443593, 0.1088100616337859, 0.21989716825607078, -0.16678948105959213, 0.11367931794938756, 0.2732836361325662, -0.08349699911800358, -0.2618301771905107, 0.2701720259096294, 0.19977145691899598, -2.498084674e-315, 0.26636195811323066, -3.42723838e-315, 0.05284075879196555, 0.28073023392102614, -0.08796652157859794, -0.4012119503548457, 0.577692041689541, -0.32870684595838673, -0.08290507558099088, -1.0592098507874714, 0.12662216466199147, -0.36309391044069794, 0.17701989847804533, 0.6126474194153867, -0.745813774157762, 0.19236063716931856, -3.997504765e-315, -0.4478213103199063, 0.1327008664339125, -1.128415235798861, -1.485493e-315, -0.6263485328221873, 0.24833365043291256, -0.2603528969306168, -0.4616148069316794, -4.338362225e-315, -3.686736327e-315], [-0.7525175246277275, 0.28921072655141294, -3.548786327e-315, -0.1622701831660026, 0.09464406422160908, 0.10882435678746172, 0.32401575392795995, 0.22298746797357058, 0.44045829915410367, 