{"bias": [[-2.6233752610255903, -1.6323096406745863, -1.218196431587882, -1.5702215042665797, -2.290825526129046, -4.032265790936395, -4.227258417732476, -2.9928648473162283, -3.933820735055511, -3.6363969083204553, -5.258836788272617, 0.6270224249022424, -1.2704629337110125, -3.154333454424357, -0.9576482953270584, -0.9212702038763524, -2.6411888032568784, -2.0104958192172706, 2.6376286370074062, 3.308305123955351, -0.024832842573464225, -0.9021382177066275, -3.2526992152399483, 2.082223515409456, -3.753968311702185, -0.08712569773399757, -3.690456062445334, -1.0818337991719578, -1.0897661211513856, -0.8425761561950893, -1.4936827838556976, 1.8318432666356732, -1.2613553257146501, 3.1822298272301524, -2.135882718531419, 3.0567065662430366, -3.149019607804186, -5.5485131657996165, -2.624982523986354, -1.5320742756561545, 2.3237387321082505, -4.26737199431967, -0.8456976583379634, -0.142306548652357, -2.3205733859418913, -3.9531628825936345, -3.1747484461932203, -1.2861384648532754, 3.074978307372981, -3.792148521125938, 2.966108992189095, -1.2170087985038345, -2.3694749408801097, 3.719620308962104, -0.7820537872605665, -2.5364812394415344, -1.2253795263324643, 3.4198464915412172, -0.10529884633102803, -2.5948087219432865, 3.0342529438654005, -2.6776196422727456, -0.21736461047188982, 2.8324481075615937, -0.9528060418376781, 2.312356390218491, -1.0950717408350934, 3.2643520018857317, -1.303249347071865, -3.796429934785167, -1.4993595636298171, -2.5858233424326476, -1.1269469428284467, -1.0585118084953367, -2.300234515109149, -1.627858692733992, 0.8200776745603786, 3.1694451086989384, -2.78558394632316, -1.4511059711706518, -3.0961968755168967, -3.7960777401024854, 0.9931090895055876, -1.5237909141218045, -1.9738843647751, -2.904687278191372, -3.13970245153181, -1.0131504519156116, 3.427979775034097, -2.8180976749120448, -2.553448974698902, -2.080919752553325, -4.22061408130241, -1.4120966182183523, -1.3019659599079836, -2.29182333966222, -1.704443709384358, 3.5471867327667463, -1.041620071000883, -1.4245181510982674], [0.3510499066678045]], "hidden_activation": "relu", "layers": [100, 1], "output_activation": "logistic", "weights": [[[-0.4977372987801338, -9.37595174e-316, 2.84188027e-316, -2.62937024e-315, -4.37934031e-315, 0.10387684035928588, 0.0699263518472633, 0.11621602276238822, 0.09556741278459492, 0.015457704393397623, -0.04199777516099306, -0.4755034741959408, 3.8293198e-315, 0.00043921824252616105, -3.31353993e-315, -4.224163343e-315, -0.3038014373815452, 0.5813198975054831, -0.20455593095404528, -0.07412145302078374, 1.1285323451509262, 0.013286539123000669, 0.034530060791848734, 0.639524103018156, -0.08524500835258009, -0.6945478124980631, 0.0449371801422832, 3.010417627e-315, 6.65902e-318, -0.03251089450113699, -2.101925463e-315, 0.1160956408171963, 2.41423706e-315, 0.2824293921424303, 0.3669562202767367, -0.11769516761285938, -0.003969911062450602, 0.06058452798022941, 0.16134327010482818, 2.13301687e-315, 0.34250977987666226, 0.005915280873605077, 1.804078586e-315, -0.2544010848781244, 0.2827573234534396, 0.05933381969433892, -0.0973558593852302, 9.83972306e-316, -0.054780573203664557, -0.00375981571061616, -0.2641818383205567, 2.9799808e-316, 0.08231456010985322, -0.1957598135074303, 0.02155850431924398, 0.21085516649290698, 0.26408232810162363, -0.06731835991338504, 0.10183996096113453, 0.5624885792233362, 0.02630213585385224, -2.21561277e-315, -0.0020576089655113803, -0.3027331468881435, 1.54408965e-315, 0.13423769094811666, 4.4385906749612636e-129, -0.0701617439396603, 1.50899001e-315, -0.3252629045025654, 0.4556676503408465, 0.3679641503827703, 1.09983066e-315, 2.36098731e-315, 0.32627429268990377, 0.2542661123947104, 0.2918918182055958, -0.2353458924622571, 0.18428668601663478, -0.15685946719202798, 0.20436878928189384, 0.015293350252516116, -0.16611774360303896, -3.811266823e-315, 2.12034794e-315, -2.79204157e-315, -0.05468066149392283, 2.71069282e-315, 0.2073474386519498, 0.3556637830332337, 2.50825286e-316, 3.268747013e-315, -0.10293345664740934, 1.66840914e-315, 2.4831873094296028e-257, 0.21960032441449429, -1.931835425e-315, -0.12557442809095662, -2.6001068e-316, -9.7437778e-316], [-0.6022509986127077, 1.38805834e-315, 3.09294218e-315, -3.5260494e-316, 2.259723346e-315, 0.013747230011663739, -0.0030038674215170577, 0.054604138644201404, -0.18908344234601213, -0.13750923353943773, 0.0991133516456572, -0.3247775265324222, 2.94881432e-315, -0.038335635326004425, -1.907305174e-315, 3.60663612e-315, -0.5893563976908919, 0.5840088859878731, -0.034225916242230335, 0.09920077821873056, 0.6990932583165586, -0.006677989892213391, 0.14271013103156466, 0.5475456923912467, -0.049805567509624886, -0.5266250253280236, 0.18477143863929982, 3.782021077e-315, 4.067800504e-315, 0.03777649428672337, 2.12172346e-316, 0.2145706804613062, 3.185777725e-315, 0.3691911587801353, 0.15576115270279434, -0.014492064274296298, -0.13390603810105434, -0.03914110707517863, 0.24857869964190948, 3.972884624e-315, 0.41575974703145036, -0.021913566446612846, 4.331862194e-315, 0.10772951691196486, 0.2896766769387747, 0.0009467961812363427, 0.03465867015319036, 3.734303105e-315, 0.2137702464519668, 0.015306165156832651, -0.12157996274537419, 1.29678245e-315, 0.030072227133086157, -0.22737342064489213, -0.005263426386228625, 0.18102215511766478, -0.2594173351121501, -0.0027557002589666756, -0.19646719404267993, 0.3061118607904219, 0.09023161918027958, -4.9593772e-316, -0.06858263990562713, -0.19630645783986633, 2.806521725e-315, -0.14306117889441397, 1.2289039565737893e-127, 0.22339359816459115, -4.60728097e-316, 0.050382766648825746, 0.4909504050986343, 0.04157245876897971, 3.27552302e-315, 1.177911106e-315, 0.12076869953206464, 0.05818320199192642, 0.042850040119030354, -0.00924801883494344, 0.44636682465962346, -0.38535449943764505, 0.11191220839865376, 0.0007856599889230656, -0.12218755621879476, 6.4352775e-316, 1.31162944e-315, -2.76930836e-315, 0.023944551452580096, 3.97369208e-315, -0.03473877393362678, 0.041095452610873225, -4.380365384e-315, -2.639302642e-315, 0.028021575855008897, -5.2023281e-316, -2.7873212806836918e-257, 0.1669381016641845, 1.256117577e-315, 0.012797776401514865, 2.264505106e-315, 3.358968776e-315], [-0.346713987932315, 4.15172301e-315, -1.11136532e-315, -3.18603645e-315, -4.39706857e-315, 0.12200061816382896, -0.005985734048473314, -0.0021973017061271316, 0.15103687756655282, -0.024185327246784735, 0.03594018623384251, -0.18202425495327196, 4.2637863e-315, 0.06685758939444668, -1.30680077e-316, 2.18219665e-316, -0.1977426823969997, 0.37466770567246643, 0.06913960095166312, 0.10882988929477035, 0.9895347919894, 0.0066027245373280275, -0.00125489053187081, 0.6386275421428812, 0.19261968711441804, -0.2533438000768077, 0.004291958230870396, -3.879192026e-315, -2.84183247e-315, -0.014995463815684756, 3.817441325e-315, 0.29017848245699435, 3.01151168e-315, 0.10854989509106507, 0.10152992508809158, 0.12714431025440753, -0.011313202763093819, 0.059148037249808334, 0.06838785046547377, 8.9958369e-316, 0.5172882180313816, 0.05779510488594737, -3.68462776e-315, 0.11310835851334754, 0.3113599952859996, -0.12918715563567656, 0.03595829762017211, 3.71376077e-315, -0.11591805489637477, 0.1287893268334019, -0.12027451182328901, 3.4476881e-315, 0.11025817863681239, 0.07580733986490884, -0.03791661188228621, 0.007894810922637337, 0.14027243659061983, -0.11998580420293736, -0.2382774590075046, 0.11584271592640459, -0.0035566074861349997, 3.188227e-317, 0.11893407666300623, 0.09919520540174497, 4.129321163e-315, -0.0660037021273659, 8.089985878989945e-129, 0.2066910548575711, -4.122636796e-315, 0.054785683952823495, 0.1646608539614253, -0.22006622985042743, -4.231631427e-315, 1.992109976e-315, 0.12493764986587036, -0.032079727864461324, -0.009973300806693874, -0.15680502852264644, 0.43626650265348554, -0.009120739627633032, 0.033602880090774986, -0.12913217165686353, 0.09563804846676739, -1.26184356e-315, 5.4538389e-316, 4.095294827e-315, 0.06122684865060205, -1.27879793e-315, 0.2243662354157497, 0.08930203802232041, 8.50326156e-316, 3.680555304e-315, 0.17618778603504268, 3.14084645e-315, -2.9532181121742085e-257, 0.11053535826141583, -2.16474301e-315, -0.03554457587827333, 1.45336492e-315, 4.011376937e-315], [-0.003083309418264891, 3.55133117e-315, -4.44651947e-316, -3.012111496e-315, -2.36870501e-315, -0.16176702165330994, -0.02534838943565372, 0.13377019810444235, 0.13424757949418534, -0.13681918532956425, 0.034225720597986176, -0.2435549136783257, -3.37568703e-315, 0.0032237287430647793, 3.431745204e-315, 3.74162461e-315, 0.021619110413726886, 0.40601113321020454, 0.09343454593908805, 0.07900998965038532, 0.8439234618188773, -0.0009001909251923862, -0.004526255420326276, 0.47460903201798543, 0.048362066015297266, -0.23329060976197571, -0.08093369274141318, 3.28316262e-315, 8.9244177e-316, 0.01710068119088924, 3.822843424e-315, 0.51416550912605, 6.5392038e-316, 0.3737451016015439, 0.13943175325365711, 0.0376593174215916, 0.12628875146929133, -0.00652111702972468, 0.10818277928440648, 1.380312617e-315, 0.14119832630934323, -0.02341884852864632, 3.522617394e-315, 0.2169287694027122, 0.10808395630527944, 0.02067441304719675, -0.24748213373141, 4.05063594e-315, 0.2147363182926183, -0.21185567340558917, 0.0181921086144492, -2.887879984e-315, 0.0364942705923433, -0.10441158211934351, -0.0008036560472854354, -0.11949203866138461, -0.057142881807321654, -0.03200525502884287, -0.1666947288515735, 0.2328392704770578, -0.03988537230950393, 6.8051264e-316, 0.3694038835731526, 0.08243619885107983, -2.949565137e-315, -0.09999107772983265, 1.1878258742357303e-127, 0.24072616860766943, -1.34260137e-315, 0.23116789026297954, 0.4751343659942744, -0.31752397036612506, -1.725304977e-315, -3.125120934e-315, -0.06900660694760226, -0.04292824985587966, 0.17661722780188344, 0.15447945428258614, 0.47424470105398325, -0.08771215397321791, 0.04928093222684963, 0.079417085392089, 0.012899008426297985, 8.8394607e-316, 6.99572637e-316, -2.53672676e-315, 0.0028682871237031907, 2.150490535e-315, -0.04649623886257039, -0.09688214871807513, 3.719665225e-315, 1.5225201e-316, 0.003469883300851609, -3.7466935e-316, 8.808032344615639e-258, 0.12587617847127147, -2.620876444e-315, 0.0037267979363730845, 4.162926e-317, 2.825335305e-315], [0.15877360905697152, -3.813196184e-315, 2.648921033e-315, -8.594007e-317, 2.41730996e-315, -0.01268814870269058, -0.11775996593784505, 0.12403963293809184, -0.09681246858796291, -0.08896344880736001, -0.023346562831516274, -0.2861165679430326, -5.25890623e-316, 0.008096670272357656, 3.44671609e-315, 1.130115343e-315, 0.259178103302142, 0.6071782946140528, 0.09037806479361675, 0.27371922507337226, 0.6819878461303833, 0.0049841010125615814, 0.0808442210734743, 0.5320092258999302, -0.015145327171075793, 0.21357634041791057, 0.046933057324728404, -2.25448529e-315, -1.31576044e-315, 0.024213302852385304, -2.86208442e-315, 0.5824569397570438, 2.99045118e-315, -0.0309607576294617, 0.20890556070450714, 0.1426403935048153, 0.04114678089470876, -0.016941890877078637, -0.09243743156128469, -2.214801627e-315, 0.17596744990921737, -0.053046233800019944, -2.81701276e-316, 0.13107786153231496, -0.16583759121271027, 0.04587815374777022, 0.15072597320849263, -2.712023e-315, -0.11789853495912353, 0.024161376980977006, -0.28390592384098334, -4.310979457e-315, 0.08606600112895617, 0.2716528491514465, 0.004541284869241867, -0.152311010520715, 0.034635136842719835, -0.07592938053323552, -0.245068057604604, -0.028881435497438154, -0.19837972853908348, -9.5016499e-316, 0.6943846395394035, 0.2920605943732913, 3.353663113e-315, 0.03450728681295264, 2.1368885394088878e-128, 0.1969517144200339, -2.09919413e-315, 0.11715590356045698, 0.47628913458172434, -0.48162453245364784, -3.252914107e-315, 3.86804924e-315, -0.2680626956509343, -0.13945918092917928, 0.17078434368385076, 0.1706368559533589, 0.4198536482995871, 0.36997353260722343, -0.22403787214311607, 0.03516674518730943, 0.2553071245656598, -4.288218455e-315, 1.799878277e-315, 3.335582737e-315, 0.043208217436889414, 3.341868097e-315, 0.1352401961286721, -0.3874883426170673, -2.34888774e-315, 1.314596615e-315, 0.0012164548592159547, 3.240758847e-315, 8.111161022521145e-259, 0.06855606833335776, 2.139729444e-315, 0.07118265029164479, 2.86678447e-315, 3.911290655e-315], [0.4691139910453831, 9.0790443e-316, -2.5191394e-317, 1.91929817e-315, 2.214329503e-315, -0.11119897409125067, 0.045230625733692825, 0.08672847209799299, -0.09036474712759662, 0.04715053508189478, 0.040625138545568665, -0.17855530551023274, -1.481299e-315, 0.019829651636236133, 4.2963226e-315, -6.60710204e-316, 0.09665793155387153, 0.3994687128883853, -0.045815662212965354, 0.8074334939033926, 0.2899935829164496, 0.018086311049653636, 0.0658508120830859, 0.4421566659481909, 0.01675798920421295, 0.4067274953042637, 0.19671219215858352, -1.61825552e-315, 2.88191863e-315, 0.089144744469848, -3.91525127e-316, 0.7075513187351553, -1.965253813e-315, 0.14588272301958105, 0.06723615294453242, -0.07766520850785662, 0.20591313529314886, 0.2047822100870703, -0.09312911486104956, -7.15752e-318, -0.11237409005263903, -0.006374710739137028, -1.227478e-317, -0.16417942475513356, -0.3601619965251984, 0.07599027625215052, 0.12149276399286647, 3.45591475e-315, -0.010365055527301369, 0.0413564859357893, -0.09316055884335564, 6.538532e-316, 0.10425933531537442, 0.1760435903676837, 0.0895355501066145, -0.1632321867824526, -0.12451329602631633, -0.008882550900722609, -0.12960981710399294, -0.09266440679197249, -0.02319856540824837, -4.249490285e-315, 0.5195765925084415, 0.18097332788254722, -2.87620793e-315, 0.15052612720066, 1.406657506834549e-128, 0.3973423907247005, 3.118238565e-315, 0.19139179136229442, 0.290948874559437, -0.2252165800605361, -6.48319136e-316, 3.297760554e-315, -0.567062673108847, -0.053960801050279956, 0.32632865216676127, 0.3400742810407552, -0.4217799082905325, 0.07185986174353308, 0.06711743170172373, 0.013429534900892598, 0.04001556917798548, 6.70213853e-316, 3.73126914e-315, 3.540224243e-315, 0.16683616070383211, -1.665727365e-315, -0.14828851676815694, -0.38925477351611043, -4.34458787e-315, -4.86626267e-316, 0.0695024440884995, 5.84848934e-316, -5.599159358720319e-258, -0.23697148095982826, -4.07744836e-315, 0.03279189432198948, -2.894527523e-315, -3.728662367e-315], [0.39744896128898294, 2.199224444e-315, -3.93793848e-315, 1.652718473e-315, 1.497750465e-315, -0.03578089702723181, 0.09033978437365023, 0.05609257775141657, 0.030035135686609035, 0.2905572985012491, 0.024469776914602934, -0.19824175256216953, 1.2897576e-316, 0.08567655326633758, 2.867910814e-315, 2.707968074e-315, 0.12873943830177895, 0.4780255315344107, -0.018940226363533215, 1.0085522809386689, 0.15942824097489747, 0.0035675934717801874, -0.021250186754215677, 0.45970476067031973, -0.06949323374524481, 0.5336683082516716, 0.22857869497150604, 3.024304503e-315, 2.60880337e-315, 0.04789764095656274, 1.7348457e-316, 0.4059994146347485, 2.927449687e-315, 0.3347614248077159, 0.10978627202063894, 0.07784896831881127, 0.12317301417341678, -0.16596526906654224, 0.16301164626421225, -3.212294015e-315, 0.1654463237489435, -0.011075485664425155, -9.54351475e-316, 0.23725405739189448, -0.433949077966378, -0.008916669665190145, 0.2047311004625865, 3.64158343e-315, -0.021928435055132284, 0.14037359764208526, -0.09100775752197608, -2.8125871e-315, 0.21954867806705738, 0.1520597905928753, 0.07555315179265185, -0.03673577432855878, 0.1248721171766357, 0.1599119489982439, -0.30191831759615917, -0.11301037612852431, 0.03474546854157623, -4.315446393e-315, 0.21044569264704116, 0.031484882054188666, -3.01560202e-315, 0.06405539199280862, 2.7568209087125213e-128, 0.4346186385105889, 1.466945477e-315, -0.08804125063426772, 0.6229954349204144, 0.19265895959853452, 6.1128448e-316, -1.70010557e-315, -0.3300709967654124, 0.07258446542413151, 0.11195785966932366, 0.12156561962673013, -0.488918979288614, 0.2390752459770743, 0.2925349528647786, -0.07406070738312268, -0.22914577848939857, -3.86866132e-315, -1.785775653e-315, 2.867692936e-315, 0.14623732973537143, 1.736438297e-315, -0.24899964458872229, -0.1771114594508631, -3.519327776e-315, -1.64204456e-315, -0.15949477929298267, -2.405938857e-315, -8.327695673758173e-258, -0.501554482601859, 1.412625904e-315, 0.024322976685186362, 3.628173155e-315, -1.560246627e-315], [0.11394601609063473, -3.05618756e-315, -4.148750215e-315, -2.48858444e-315, -3.998441854e-315, 0.0019919617937242747, -0.1006336577824801, -0.04046145796573582, 0.1459570268133618, 0.1817370020780593, -0.157929428718502, 0.03724831604680192, -1.39683124e-315, 0.07104680078305634, 3.88879924e-315, -3.28952751e-315, 0.16431662250242335, 0.5760155488429092, -0.11405771992004927, 0.5341933237599662, 0.3354151416242163, -0.019104409760673187, -0.044284384874904666, 0.35633861341776873, -0.19209646878051967, 0.9206775491730826, 0.2560698758978758, -4.218677594e-315, -1.59153814e-315, 0.02858256492314038, 4.362418e-317, 0.34533291737521626, -1.27615119e-315, 0.2566569828808166, -0.013093394292170189, -0.07115205352743677, 0.06922604704810882, 0.11133496800463968, -0.04356804456430445, -2.38959251e-315, -0.01974069503926494, 0.12153481831715898, -3.16480642e-315, -0.00013440584402242268, -0.3281722304463624, -0.12436532740923581, -0.02337543363392593, -2.62411681e-315, -0.0035473847589794316, 0.17889049845862862, 0.14895299545423582, -3.53179312e-315, 0.22770477547203616, -0.1148259872270518, 0.08843270172190722, 0.002198874652663291, -0.1834741989567042, 0.13815588693015443, -0.29652117085620094, 0.09680478343207566, 0.05969874691551783, 2.039021983e-315, 0.38159868760698823, -0.05496418549778574, 3.17691571e-315, -0.10184257331655847, 9.541019838932141e-126, 0.2927781491128709, -2.322126727e-315, 0.027265229470777343, 0.478984025896857, 0.3687851631182774, 1.286056596e-315, 2.10967745e-315, 0.00035549245863265166, 0.28642375520582275, 0.15762125607997418, 0.026318973817031254, -0.6010059461465018, 0.15231613520018503, 0.6875080201336646, 0.06577413412080427, -0.06556535524608502, -3.67091052e-315, -1.078126915e-315, 2.352510307e-315, 0.20930321797861823, -1.618175177e-315, -0.2777978271759966, 0.08772276932938036, -4.00876873e-315, -1.1350483e-316, -0.06583150749882695, -7.3174814e-316, -1.2385163644668584e-257, -0.37426564276967406, -3.54682499e-315, -0.033132191220209856, -2.159762996e-315, -3.516758343e-315], [0.20576120567798847, -5.5553354e-317, 2.914489273e-315, -9.29126736e-316, 6.371777e-316, 0.12078640305186934, 0.058123842854762506, -0.1544553607773148, -0.04617219523724633, 0.21299303163811265, 0.05491357737992586, -0.17277769708706947, 1.29731291e-315, 0.22104366361324088, 2.885558147e-315, -2.08502846e-315, -0.08477958829755813, 0.32546020185729063, -0.17369551034963152, 0.31788896629402, 0.2548338287869903, -0.020365985996934864, 0.08839851237222243, 0.2742926672454597, 0.08677428296170712, 0.5718040907188044, 0.02915722312547508, 3.459933185e-315, -2.64191408e-315, 0.01638523506308562, -8.67886015e-316, 0.05890748004214078, -3.5650988e-315, 0.08168242360444485, 0.21558996188141827, -0.14721644574700468, -0.06099386454095841, -0.15625133618460313, 0.04301159493303614, -3.908538774e-315, 0.005504574240938345, -0.10767180016717287, 1.074653036e-315, -0.18412855465921396, 0.04977514029095281, 0.09860515593029184, -0.07553926869307905, 1.864743573e-315, -0.0822606360303363, 0.1572909903150461, 0.24842626984380697, 2.227930873e-315, -0.17325078758167164, -0.14803260170066393, 0.10320320233890878, 0.009741930556982257, 0.06824645594020534, 0.05207028029338486, -0.5218411144402753, 0.1302947673428053, 0.10449156762659151, 4.2416668e-316, 0.14334482580216762, -0.11748000788911304, -1.824291696e-315, -0.09514278242355965, -1.2463295975494298e-126, 0.28984363866269863, -1.918332477e-315, -0.06819846834992761, 0.21714258775798828, 0.19052331741744524, 1.92279376e-316, -1.07488866e-315, -0.14032975272255033, 0.3270408779101004, 0.27415008305572114, -0.15307992513888027, -0.1876766843321216, -0.12220013665082823, 0.6593373221431302, -0.0571231347512057, 0.22643643121274035, -3.47160839e-315, -2.38602793e-316, -6.6944398e-316, 0.2069268657326049, -3.60113397e-315, -0.013509039345495737, 0.18101433067297337, 6.66014013e-316, 3.49745101e-315, -0.03836871472140071, 3.64266247e-315, 2.688256998992699e-258, -0.08194963351644909, 2.031979606e-315, 0.05347190808652518, -4.257840083e-315, -1.54760397e-316], [0.4015061652913593, -2.08813295e-315, 3.99199592e-315, 2.90575525e-315, -2.72226556e-315, 0.07119854952550368, 0.013031634636678656, -0.16486052029966003, 0.10229721786761471, -0.005194199439215954, 0.06772907263549678, -0.07670076478419864, -4.288567844e-315, 0.2903031906423053, -3.96087288e-315, 1.77384129e-315, -0.13048143497495457, 0.5991598944214596, 0.11726187811057735, 0.11612709485301587, 0.42898237734657996, 0.005183107260138189, -0.03801681576063251, 0.3119841406801148, 0.20572879517939835, 0.22623339894367117, -0.05160357156212937, -4.07785169e-315, 2.868753917e-315, 0.01819433624888647, 3.94088625e-315, -0.14672078485715714, -3.135107474e-315, 0.13787187327345993, 0.12302376894043147, -0.13611532174206473, -0.14669289352666748, 0.09980565620500527, -0.005797874821174212, 1.365797443e-315, 0.15491861558867698, 0.007368231614130753, -7.1083755e-316, 0.3313414296374702, 0.27009662141601315, -0.0473198018989887, 0.023280870834960762, -2.770790146e-315, 0.14310674568866374, 0.16298812400239523, 0.2069999999022644, 4.318589856e-315, -0.26954523739854713, -0.13746329283347067, 0.07486652536086523, 0.06046115266320614, 0.04070793961565207, -0.006670565622313312, -0.47729384371949213, 0.12614407312490739, -0.09442887545890712, 2.17536885e-315, 0.029804561424638224, -0.16599742172397056, 3.667557514e-315, -0.08236618381755495, 4.6399699520475754e-119, 0.3171954853331451, -3.5270646e-316, 0.013575138163055967, 0.3180782579269715, 0.15987184107848842, 4.014992623e-315, 1.071269166e-315, -0.045217883823870555, 0.3139805382347393, 0.2275892256191774, -0.0603923413160459, -0.17760025094045945, 0.11218211031792663, 0.3181848750718153, 0.027905996313967833, 0.18559102437236413, 2.495094935e-315, 1.777727946e-315, 1.0193896e-316, 0.25606077864155036, -3.82712821e-315, -0.07343588616665991, 0.0389545386524903, 4.009465896e-315, -1.629035323e-315, -0.053271415315049746, 2.6780601e-315, 2.0113019051346624e-258, 0.1691620560370591, -1.924791837e-315, -0.058568726382302615, -3.04237673e-315, 2.209851594e-315], [0.35128380196697695, 4.184722424e-315, 2.32897026e-315, -6.2496143e-316, -4.003357175e-315, -0.04051733677863899, -0.0044721701754386846, -0.3455284741122803, 0.2569981360814864, -0.19779960303511862, 0.11386476822259578, -0.08443019224076907, -2.152194884e-315, 0.2334808262070416, 3.025341097e-315, -3.68986747e-316, -0.24149822929224357, 0.5752336792587945, -0.023251043785030307, 0.1654467764026059, 0.4368697597821729, 0.010768186690458493, 0.17731904752008495, 0.2728828162218156, 0.32399675287838714, 0.06535463522530191, -0.367951616255895, -2.51135425e-315, 2.22654504e-315, 0.06140071021536737, 3.902408674e-315, 0.030292119816501657, -3.580924284e-315, 0.03705782840597279, 0.08483766444018674, 0.12910503020575675, -0.0627675393437621, -0.0852907775752741, 0.03731658967758981, 3.921673494e-315, 0.049256926228804246, -0.02715911509329368, -1.443539295e-315, 0.21637963187495948, 0.15160500293982243, 0.03103407966355113, 0.014297730403555479, 7.87961875e-316, 0.09289256405402369, 0.1760443718884044, 0.18986557511290994, -3.62762521e-315, -0.4133633691818856, 0.0046480334402499305, 0.04614099936272588, 0.014864554010162866, 0.0650920596819702, -0.014530491738709772, -0.4508498907227712, 0.176864599560359, 0.13905666291227092, 2.48048384e-315, -0.4224562644181746, -0.17881268008090442, -3.1023563e-317, 0.06742986023812032, 1.624257713787711e-119, 0.4377037678259024, 1.71603227e-315, 0.16360111794197665, 0.11648301295041033, 0.1602951096379157, -1.1737388e-316, -7.50146214e-316, -0.08318896259520414, 0.26638795798055653, -0.010208597093289863, 0.046562796383863625, -0.05644304030747011, -0.2774448619844925, 0.22333830541887484, -0.06880067775409734, -0.056016338398300725, 1.40414765e-315, 2.99614435e-315, -3.5151112e-315, 0.08199066267944155, 1.81843559e-315, 0.009904506960538056, 0.10427639153819732, 3.2878103e-315, 2.217378674e-315, 0.06766930810236889, -2.880588286e-315, 1.468147327374746e-258, 0.039707405235578544, -3.27296082e-315, -0.05226308889476899, -1.396246323e-315, 4.32881462e-315], [0.29262468669547764, 3.543864025e-315, -3.697496534e-315, -7.9759023e-317, -5.72786993e-316, -0.04796371846405595, -0.013730533296511194, -0.27009363078062204, 0.07894309609500606, -0.23524509128291785, -0.044809534863613006, -0.38712210938967895, 2.57456609e-315, 0.1327958330678847, -2.473457893e-315, 2.753916574e-315, -0.1266280386745023, 0.5528576816037757, -0.003520213846034524, 0.1335003907123392, 0.5671669920356113, 0.013183882021367851, -0.07091479923733585, 0.19455683568352522, 0.1525965778301907, 0.14187968307705148, -0.2759840371290922, 3.88867296e-315, -2.99422972e-315, -0.07651608901050441, 2.628490594e-315, 0.2043090031525681, -2.972952505e-315, 0.27193814071623934, 0.07536625784279972, -0.013015431221494497, 0.00839860556595423, 0.025703452180520222, 0.049356988636177664, -2.12741319e-315, 0.13988471041400055, -0.008209834801508768, -9.2248677e-316, 0.6976128235633048, 0.2082765510948537, 0.034390529839338026, -0.14994857017234764, -2.827046447e-315, 0.21330746649664853, 0.021337338873282128, 0.18376941906188182, 1.03944334e-315, -0.163477309716346, -0.12630707800376292, 0.06232091097976658, 0.005260313834636295, 0.02538800825210966, -0.12481829333556797, -0.18349707437913243, 0.05080808853632632, 0.3942706461298981, -1.01280573e-315, -0.28089693695529777, -0.1770793173329111, 2.51412955e-315, 0.3946068366836221, 7.976556029201297e-119, 0.06625700717935469, -2.62355163e-315, 0.07498060627455222, 0.118851149615996, 0.19697732459570036, -3.538163767e-315, -1.451830897e-315, 0.18556168007532758, 0.07307654418933476, 0.0021009645819354042, 0.11001807799880821, 0.2586747912792937, 0.11774442679723111, -0.07649942601338862, 0.06036996793728759, -0.2401475235424215, 2.6855637e-315, 7.06929057e-316, 3.774433933e-315, -0.14685499079557499, -4.393941774e-315, -0.2857235416511895, 0.23738404850053835, -3.79409484e-315, -1.99820523e-315, -0.0017354276627556137, 3.976746226e-315, -4.481163502618304e-258, 0.21204432161523973, -2.437041416e-315, 0.000495883615035824, -2.583414653e-315, 4.09615307e-315], [-0.2819559903972838, 4.082042865e-315, 2.157379964e-315, 1.22124258e-315, -2.720132123e-315, 0.145576930038044, -0.06918157742153788, -0.17024379524535707, 0.02243821901705904, -0.15645241950707134, 0.1460078869035819, -0.3729714902558352, 1.28260617e-315, -0.12023949496337623, 1.56711536e-316, 3.25237288e-315, 0.01433289248323991, 0.387409104176228, -0.10511393630336693, 0.10302759801153161, 0.7228103480707139, 0.011652515592033886, 0.2645117601435396, 0.49155276162216965, 0.23822787401952286, 0.42235030476884267, -0.23114676960569855, -1.517345015e-315, 4.105273017e-315, 0.03456101133921453, 7.8920178e-316, 0.3243867199304917, 1.13443829e-315, 0.3755525587132977, 0.021758432207976616, 0.01208538399257145, -0.04692319816669802, 0.10956335912320438, -0.007689216230635023, -9.9507405e-316, 0.008422932586182869, 0.06141547426481554, -4.14194844e-315, 0.8464107287817803, 0.22332379807817593, -0.08025765200164836, -0.04490046180092399, -4.162033916e-315, 0.23038157686963823, 0.1310431530940212, 0.16920716929007631, 8.1205627e-316, 0.03616066573784721, -0.053114413740837196, 0.002378805058683691, -0.0077299553490595046, -0.0937764170565398, -0.11375444997083187, -0.32615614306282503, -0.013708534316572405, 0.03268450225667506, 6.57790493e-316, -0.13747908817978297, 0.07508943678512292, -2.676116037e-315, 0.35545728982399205, 3.5297513409181887e-121, -0.037078750964919235, -4.0397646e-316, 0.07844082645531318, -0.06946141314476988, 0.056104851563926326, 8.09928424e-316, 2.63531318e-315, 0.0643878276913275, 0.11714348189621758, -0.0528747813925244, 0.19558113757090925, 0.36819103351939125, -0.02625277769020319, -0.13219895220003156, -0.09270334751434664, -0.1513923640254422, 3.978974754e-315, 3.496618246e-315, -3.973847355e-315, -0.32090481023441725, -3.093892063e-315, -0.08517814727952112, 0.23356094721936063, -1.46163475e-315, -3.29088959e-315, 0.02425917112560452, -7.14525183e-316, -8.466481191947564e-260, 0.026313990416896315, 3.23024234e-315, 0.015155924910194234, 1.704153226e-315, -2.37706581e-315], [-0.33298455566679913, -5.32603295e-316, 1.07650512e-315, -2.50473332e-315, 2.697652304e-315, -0.0858343231265718, 0.05763450001275567, -0.13280956799591093, -0.10036463288733215, -0.002307011196599937, -0.09697154869540205, -0.6555948024909972, 2.55803274e-316, -0.45306436730055244, -1.869763517e-315, 1.05279992e-315, 0.0024195692359907056, 0.16719035692880221, 0.04149198697660014, 0.07167416849555859, 0.8479614520874256, 0.02199460939913302, 0.30317024967289086, 0.18744366607010493, 0.034221025884240044, 0.6164824034796342, -0.11725014007486205, -4.18265391e-315, -4.07188005e-315, 0.09199303162632314, 3.50537605e-315, 0.36134168217794865, -7.73463143e-316, 0.2439561566211219, 0.14721172568797397, -0.013274923349469378, -0.13996412397491015, 0.016020055559983665, -0.036615008164656494, 1.6192349e-316, 0.07714044048831112, 0.1329681249837386, -2.24724215e-315, 0.7920769037860039, -0.04684181566972474, -0.11945852414297668, 0.15661448913804824, -3.13666548e-315, 0.0674182264292865, 0.1208673696688765, -0.0116087954193485, -1.1323671e-315, -0.14422938682008035, -0.019217652537418348, 0.00968576533369057, -0.04048855678682068, -0.1406327879365721, -0.050821680100298826, -0.2433322590824352, 0.29441004752279604, 0.37267660321732093, -2.7964251e-315, 0.013007266886374939, 0.15874266776652973, -4.12183556e-315, 0.18821601949879607, -2.1083940044412354e-117, 0.06088818489194567, -2.259300465e-315, 0.03432521745235655, -0.3058798811465714, 0.031988058603494136, -1.347223e-318, 2.859383295e-315, -0.14041064547223217, 0.046282751766788234, -0.36277523780541254, 0.3877223802176787, 0.1984065043296036, -0.12234691212348195, -0.12127824428550936, 0.0026761610237690282, -0.008163507193545335, 4.176733367e-315, 3.484681126e-315, 3.716717747e-315, -0.5279024471138892, 3.418487174e-315, -0.24581153657828061, -0.006358933777356257, -9.0806574e-316, 3.17982932e-315, 0.006252633580022493, 2.265284884e-315, -2.7364043951679855e-257, -0.12008506831246421, -4.36311519e-315, 0.027038982206566135, 1.064721887e-315, 3.004902886e-315], [-0.21588078386287354, -4.59982656e-316, 2.00620715e-315, 2.17951944e-315, 2.941920197e-315, 0.1144214263671378, 0.12197923112010953, 0.0592703448735192, 0.0019392494981379947, 0.04211322586746635, 0.12354972166835208, -0.450753287658089, 3.062186605e-315, -0.6282840051636618, 1.35755902e-315, 3.3215448e-315, -0.005436624463243283, 0.27819469112099127, 0.0017789042708453505, 0.20605392347657756, 0.5278566676457338, 0.018289040197188397, 0.04158754541416455, 0.4449958213245197, 0.07764130780095045, 0.4803845873997644, -0.055836424341263284, 3.369635633e-315, -3.957337223e-315, 0.02680290365850094, 2.631955456e-315, 0.4883096610098662, -3.74146576e-315, 0.24404904792261703, -0.06417809534759195, 0.008138135121844886, 0.13655362677712782, 0.005531291065017287, -0.10719361310789118, 9.8530539e-316, -0.026700960381872006, -0.1150081097249493, 3.3732348e-316, 0.300799935785394, -0.24269585172445515, 0.16448164923265743, 0.10558903588613115, 8.79370156e-316, 0.16853701148255515, 0.14323186634949786, -0.0018341299988598428, -2.944151605e-315, 0.09411836217002449, -0.026688435007581272, 0.024708021744951965, -0.046876599581181524, -0.04140985879611737, -0.13122599417755662, -0.20133411213029526, 0.07372697627407299, 0.19683280522295973, -4.24153273e-315, -0.2610121166099617, 0.19498836154496818, -2.16561098e-315, 0.24457645158179492, 1.421319008524151e-117, 0.06416875145656106, 1.392348684e-315, 0.12088727947637079, -0.12768036957337975, 0.17839344844832788, -1.41462511e-315, -3.3059096e-315, -0.012703924185915368, 0.2894040203811906, -0.1922906961922264, 0.12631397286653318, 0.21444164900567078, -0.29791842512673006, -0.14147242794995613, -0.01804104586852621, 0.3334194273593323, 4.21411209e-315, 5.6120867e-317, -1.71790602e-315, -0.27183397361075995, 1.91360454e-315, 0.09439321777737417, 0.18016258787126035, -1.279206974e-315, 2.43806882e-315, -0.06503527477935289, 3.18178786e-315, 6.0183421890626105e-257, 0.09052082425135646, 2.200803567e-315, 0.04957632253920339, 3.2397e-316, -3.622760824e-315], [-0.003604638911934729, 7.60332963e-316, -3.371002026e-315, 2.42496717e-315, 1.723796916e-315, -0.16558755559900243, -0.09055698274990073, 0.057356851606776324, -0.034894715230247064, 0.14286873001681483, -0.11017327134286849, -0.23107656302043106, -2.868154635e-315, -0.5141899750710837, -3.56868753e-315, -5.7915528e-316, 0.3679317092393915, 0.27868352191274587, 0.014091242302249488, 0.12838713454006806, 0.6143899568041309, -0.0066588190586207045, -0.11538065093662003, 0.4453914296696525, 0.11648871809989575, 0.29127959882114884, 0.1471347886477611, 1.327203535e-315, -2.232941776e-315, 0.08534567997649951, 3.229278856e-315, 0.559394901909994, -2.526209475e-315, 0.20671993857326512, -0.010622123463044265, 0.0020350910032868896, 0.2914799152752676, -0.0077275234878875585, -0.04129812989331213, -3.169249826e-315, 0.036323583358545755, 0.03322851671414817, 5.7295889e-316, -0.021288865328322942, -0.19545117334409737, 0.07699744654819557, 0.12152015823646163, 3.750293016e-315, 0.03909714503320197, 0.1801863917700082, 0.12457798281208486, -8.3116297e-316, 0.07850122317751664, -0.01893553802383842, -0.02472775419949251, -0.02245015958721997, 0.2118206924496739, 0.04816591397312878, -0.19570377876057618, 0.22768987854357722, 0.013991287692533633, -1.2275824e-315, -0.08153552193994199, 0.017109098480824817, -1.6458951e-316, 0.18390109455957926, -4.1762710567581255e-117, 0.03553018779608742, 1.093198e-316, 0.23210855724791393, -0.023186886648851428, 0.08022305250593666, 4.119012103e-315, -4.30471446e-315, -0.09707984889396395, 0.21926065994730715, -0.27207351894943105, -0.05915294275221241, -0.07084690610085746, -0.034784571351922894, 0.02246396776789654, 0.03909600194713667, 0.34310411768276866, 4.237887736e-315, 2.749397746e-315, 1.628644443e-315, -0.21307731975141178, 3.122231594e-315, 0.09240206596436315, 0.21463065856301627, 1.40017143e-315, 3.881333647e-315, -0.020564958657393356, 3.31203299e-315, 1.739286788849112e-257, -0.049751362698711984, -6.28266993e-316, -0.004198192385486306, -4.396497833e-315, -1.62364691e-315], [0.07283099103276068, 3.3623217e-316, -2.975075184e-315, 3.5137678e-315, -3.32659876e-315, -0.16567939144662322, -0.007817445357571286, 0.14719549527624864, -0.20244067325889664, 0.057369739320666295, -0.14122454421507044, -0.0646309097655721, 2.827946427e-315, -0.30297025250917325, 3.77260286e-315, 1.75673183e-316, 0.04966678152252983, 0.17474094551659844, 0.026943121272580063, 0.2866724995213198, 0.18316101197372608, -0.009304194290447694, -0.2672698802728431, 0.3673546682398949, -0.02838129308906046, 0.14461152149508857, 0.22513207283329353, -3.66651576e-315, -3.79990162e-315, 0.0785400615747073, -2.156336957e-315, 0.36201477285117445, 3.10591362e-315, 0.024482192729817418, -0.2892206679104235, -0.0065447450103596014, 0.2450815326293521, 0.03500355759607495, 0.022246436430098625, 4.20203721e-315, 0.11218891459020508, -0.13528674566039858, 4.40574196e-316, -0.32212722672281036, -0.28168786027119175, 0.060549379531475996, 0.04966628413958816, -7.2538387e-317, 0.06949028390263484, 0.15875495876397192, 0.06997724419163134, -2.167055015e-315, 0.13396123191532244, -0.06907370952528812, -0.0749581411504533, -0.018209190250113323, 0.027105571806186897, -0.08714536390016599, 0.10576590980742348, 0.15048700956053893, -0.024809222096952407, 3.017161667e-315, -0.0720161701170946, 0.10593267983633488, 1.54549344e-315, -0.05469393793705119, -8.006528636910487e-122, 0.07640771558673443, -4.8588718e-316, 0.10791445314853436, 0.3044718109405928, 0.25340448285229517, 1.510352765e-315, 4.024415923e-315, 0.09492422799711013, 0.2790451644391686, -0.35736788740845676, 0.10159341180871712, -0.009822105645863577, 0.0991534919257733, 0.2000276179978834, -0.022316765584123995, 0.4191766354546411, 4.29124422e-315, 2.33304086e-315, -3.0539563e-315, 0.056635878981792946, -6.3671996e-316, 0.24106206252084633, 0.19797572066439684, -1.018688397e-315, 2.1363683e-316, 0.030343895042375044, 4.165822758e-315, -4.430617599541347e-257, -0.11164117124112613, -2.572012695e-315, 0.004068287239066523, -2.0356128e-316, -3.105772825e-315], [0.2808949859504731, 3.85917151e-315, 1.20209918e-315, 3.190920824e-315, -6.7039908e-316, 0.028151148875108393, -0.0033387932724571073, 0.28434179840738644, -0.15193403592701868, 0.3615399982604073, 0.05001714482412061, -0.11761618584308664, -2.36796279e-315, 0.09889383201188735, 3.03527339e-315, -4.087543066e-315, 0.4690358383067626, 0.059848003700199846, 0.016280232256009202, 0.2504348547050208, 0.2894250856057784, -0.01617670383443008, 0.028997889508203062, 0.17469620122239204, -0.11026221365061167, 0.25507316616188674, 0.2285883989026241, 3.073087013e-315, -3.57679743e-316, -0.020103793603049796, 3.0760426e-315, 0.18107762054858842, 2.9672043e-316, 0.08464395983070273, 0.07520663646248087, -0.02211637025941416, -0.018091113304053014, -0.02312443955517621, 0.06362787819665214, 4.251374923e-315, 0.18752694851688573, 0.06512881387625781, 1.947632457e-315, 0.023167417130747135, -0.09824337407290838, -0.16615688633682194, -0.22631639028653425, 1.44542364e-315, 0.09800315013107885, 0.06400579947288997, 0.044335669614803126, 7.19977404e-316, -0.021057599726649858, -0.10414281390218158, -0.0007690223525585207, 0.037300518056514374, 0.036006849407126014, 0.0009033253551326266, -0.2593902413609212, 0.11620945809696523, 0.1446915483627155, 1.66131451e-315, -0.2238526555798902, 0.1721507928311774, -4.32265162e-315, -0.04290399977091857, -5.801118233185547e-121, 0.001607753621978189, 9.2768043e-316, -0.08748175580128859, 0.09389303929508074, -0.28785360346799804, -3.52617634e-315, 3.33072376e-315, 0.32778530186249216, -0.009301596623196729, -0.12309951540557412, -0.10387826290390174, -0.5677472842677713, 0.20073439465686177, 0.34645095526400455, -0.006580376049170305, 0.19555761522873, 4.048290484e-315, 3.802563714e-315, 2.38174716e-315, 0.09999946868801521, -6.90913667e-316, 0.19759974269930422, 0.24831941833240978, -1.904212644e-315, 4.084363244e-315, 0.029543585425281266, 3.317136504e-315, -1.5521703061575375e-257, -0.08680252621266006, 3.653997596e-315, -0.023737433059898234, -1.3498469e-315, 1.84647245e-315], [0.024769228173327728, -4.003952015e-315, 8.60202533e-316, 2.15363568e-315, -1.714797125e-315, -0.09570146693155876, -0.03342123303744951, 0.3148041928952973, 0.01674073787482421, 0.3366907917980116, 0.10879643738970023, -0.35212087646449913, -1.957840896e-315, 0.20418690093758673, 4.062394126e-315, 5.79666437e-316, 0.09216972703640237, 0.2422095206035359, 0.2240499289516138, -0.13659534346320937, 0.11282731869683219, -0.012513955256391162, 0.21500805683839364, 0.04004660015523889, -0.33298262869702655, 0.060638583577468146, -0.18954114400509683, 3.94776925e-315, 2.25516056e-315, -0.05617541306260683, -1.00061182e-315, -0.03440878247329484, 3.14678839e-315, -0.02638140095864976, -0.17655913031134432, 0.04051220113799128, -0.40744653448082724, 0.026224545521282918, -0.07463334371767107, -4.351006654e-315, -0.07984351403776785, 0.042750260189420575, -3.08849437e-316, -0.03977623823735836, -0.02433361076775849, 0.01609015222665653, 0.07905451715621442, -2.271945734e-315, 0.11684477102866568, -0.02245882994713024, -0.10530994734999241, 4.047800435e-315, -0.0071210764370274945, -0.09735501327447357, -0.04808687982466612, 0.0536420482086529, 0.016441301625055416, -0.09293506156029384, 0.21145971453152895, 0.2892432567876467, 0.06891917304989724, 1.396833743e-315, -0.11848095693403417, 0.030982157935138623, -3.008804473e-315, 0.09665068034777378, -6.409917305991422e-121, -0.023442885644272413, -2.5510575e-316, -0.26844661155908534, 0.2319841017917798, -0.27887429325627106, 1.568028956e-315, -1.41764652e-315, 0.26996154120943616, -0.10949693554389917, -0.48687263862849617, -0.11269584323582997, -0.4843164423571114, 0.12387341994630767, 0.3205566075776882, 0.031190113333576193, 0.4500136266007119, 1.628810626e-315, 3.36221207e-315, 3.96166169e-315, 0.1582881120872575, 4.123519627e-315, 0.028416066890431062, 0.03896935496950673, -1.21567801e-315, 2.61673077e-315, -0.002103174768724399, 1.954164035e-315, -3.351686540093473e-257, -0.07195615378344353, 3.699992153e-315, -0.09720926101161326, 1.376736743e-315, 1.974546244e-315], [0.1848339651979676, 3.36036434e-315, 3.260286623e-315, 4.260990636e-315, -3.035976e-317, 0.1470172323874047, 0.08938815397178572, 0.28256677640523375, 0.30481413393819506, -0.1735204509441347, -0.03281805103211912, -0.04175615975854443, -4.79920986e-316, 0.3451521086747536, 3.42664316e-315, -8.37165784e-316, 0.118285442140723, 0.25647595957985964, 0.059327291086478585, -0.4152649464620602, 0.18826026923447992, -0.008710300446548441, -0.07651850920620233, 0.13481201781351845, -0.07920289724026178, 0.07439038882941523, -0.13428387545193163, 7.08517665e-316, 1.63209926e-315, 0.017615579224008058, 3.92969974e-315, -0.24584272452101177, 9.66722335e-316, -0.06575794588473297, 0.11011381124608646, 0.07670328798462926, -0.005432410248953541, -0.052840758753343965, 0.025837050311420095, -3.64654828e-315, 0.16653827032210922, 0.060817772343661605, 3.87973353e-315, -0.12436588091749462, 0.4159965534290138, -0.06254961806246757, -0.05409972537754735, 1.37005194e-316, 0.048951686270603326, -0.09781455495712836, 0.08343290405858153, 3.952245886e-315, 0.018370074639147638, -0.04701804928636955, -0.11615393026487374, 0.05466837390004493, 0.1359950693908131, -0.0038512260732092734, 0.07496169150945235, 0.33517003683211943, -0.05457856628057768, 1.18776993e-315, -0.05070039739278757, 0.30607579387146616, -2.37354847e-315, -0.023687452094803784, -3.0484601063720688e-127, 0.04253889134248631, 2.763559574e-315, -0.1461833752103747, 0.016585269246250478, -0.43855698023406087, -1.388724327e-315, 4.33575495e-315, 0.35609389763130717, -0.05070220777188939, -0.17424004470253657, 0.008621625099386188, -0.1715312585288933, -0.058229255903776145, 0.10763062857321233, 0.022941235284243185, 9.807492273280951e-05, -3.531326185e-315, 2.81561558e-315, -1.63191087e-315, 0.1423894239804525, -3.46061644e-315, 0.12020639073557075, -0.32923596526196525, 2.45621245e-315, -3.710021987e-315, -0.06924757003778877, 3.945907148e-315, -2.0535138257608097e-256, 0.13894124289782106, -2.939368506e-315, 0.055440413985158796, 4.230895635e-315, 2.069964213e-315], [0.10369495131528433, -5.70654393e-316, 3.260414527e-315, 3.498905953e-315, -1.07584046e-315, 0.36243109758692416, -0.019977146977895772, 0.23429511854885154, 0.17146935704746302, -0.2729477927951784, -0.007199521316219095, -0.13450837458038295, -3.51853151e-315, 0.4014981057154763, 2.364390733e-315, -4.206821436e-315, -0.134875263814693, 0.4477271838229813, -0.02326425148025278, -0.23139375217875308, 0.2688465779330129, -0.0015798450812722355, -0.15238761559474537, -0.0530455957637587, -0.08161454318686055, -0.18252431978134256, -0.14843678952774936, 2.22539574e-315, -2.01705434e-315, -0.015668602680439545, 2.0373266e-316, -0.08509544881317375, -3.45132597e-315, -0.01905343109531614, 0.023742226576058567, -0.027551037976301478, -0.1723541933159025, 0.05397149847750145, 0.1473264461108211, -1.81476686e-315, 0.19716555513688366, -0.016597515265217785, 2.842938873e-315, -0.19730354334575637, 0.06090577036028504, 0.11561698930944127, 0.0221769884612461, -1.430425824e-315, 0.007369298232409518, -0.10680573738970972, -0.03737868913849758, 3.460422913e-315, 0.01676861999447173, 0.025275388930857755, 0.010213238841276284, 0.025191001689768927, 0.25647276238407957, -0.04809381320387929, 0.02591903210497134, 0.14907975656242622, -0.07249661251439833, 1.205842084e-315, 0.10993667625639553, 0.06752877161162729, 2.074220386e-315, 0.19413744552943452, 4.777465558879815e-126, -0.15832505440338226, 2.21460039e-315, -0.17223614050307604, 0.2247121809647554, -0.42777428821518027, -3.125584546e-315, 8.4396652e-316, 0.464425857964055, -0.29487391310461436, -0.3049569729863223, 0.10259251904603654, 0.12520547271949833, 0.35542512439884166, -0.1601056897393086, -0.016778100695236324, 0.07522087828750973, -4.166612116e-315, 1.19968421e-315, -3.687225596e-315, 0.3029472892758475, 9.143784e-317, -0.09129658394517152, -0.43028415105834183, 4.41503953e-316, 1.69370723e-315, -0.06180115985386037, 3.188068564e-315, -3.510864838839935e-256, 0.23255407875809642, 1.561038985e-315, 0.007101536957914428, 1.706966416e-315, 3.35569656e-315], [-0.5351820520266429, -4.2183339e-316, -4.255851503e-315, -1.295211806e-315, -8.80061354e-316, 0.3855435717522578, 0.05438326620015929, -0.11398802296590821, -0.012617498307595901, -0.23951963996942485, 0.04962878134334717, 0.015549183774129012, 2.570157785e-315, 0.5307911365545263, 1.86799145e-315, -3.949604e-315, -0.19532271314248162, 0.28255826518971316, 0.1384601316777405, -0.33954188764335996, 0.35464913510524526, -0.009431169027308284, -0.05294245956795842, 0.04292352042211186, -0.1791439977774889, -0.28090933468955936, -0.13102936916200195, 7.3654468e-316, -3.2649866e-315, 0.0699243046691135, -4.0236597e-315, -0.058693930386419436, 3.860279707e-315, -0.19125853555776043, -0.041011782106901803, 0.0062574726761942265, -0.08992397495873924, -0.0696531240804951, -0.007710541194827754, 1.34428299e-315, -0.0948251444560882, 0.016299262938605383, 3.33916305e-315, -0.16885607993836743, 0.3694702903965702, -0.03610735907116242, -0.1668575146378591, 1.096247306e-315, 0.18951679387696646, -0.2510648444511742, -0.011984233067873088, -4.029188335e-315, 0.08107477889624373, 0.001663171872188271, -0.012480659897023327, 0.020492572183650325, 0.3951364855325673, 0.0543159696344424, 0.18035459700833548, 0.1773236382694409, 0.2376095681633389, -2.89895961e-315, 0.3499979687941118, 0.30315364376812143, 3.6099407e-315, 0.3393828219099973, 4.723747601581691e-128, -0.019666745421283327, -8.49297536e-316, -0.30303352055158095, 0.05662413359840813, -0.2038740289698561, 3.722812047e-315, 2.278502697e-315, -0.07085004475333866, -0.504819029777101, -0.17315464660251298, 0.18809710350267114, 0.34323605672384033, 0.21790070265496275, -0.4277980528043015, -0.05641621629356386, 0.13719797607713338, -3.934654175e-315, -4.284167744e-315, -2.33740019e-315, 0.11212360378487837, 1.04691468e-315, -0.15207513118261243, -0.6307955653479643, 9.3896025e-316, -4.33778444e-315, 0.2444057950463289, 2.953743045e-315, -5.421292196997417e-253, 0.3306973962386417, 4.042526067e-315, -0.003187778536510474, 3.433487916e-315, 2.5502575e-315], [-0.3268511116754818, -3.821880174e-315, -6.69626305e-316, -1.36881693e-315, 3.95983017e-315, -0.08372604924069019, 0.004544454748460514, -0.3842232910757597, -0.2007651000106129, -0.15536968227481432, 0.12155098577212121, -0.12856150035162675, 1.03883724e-315, 0.4062342126832601, -3.10569801e-315, 6.52850973e-316, -0.0030422832996003946, 0.10877462960507955, -0.05041459857897975, -0.09534755836284811, 0.116492554262723, 0.002921119285955141, -0.014571272063850742, 0.3352790817543843, -0.054170140356037774, -0.4128711928529075, -0.006087608893791065, 1.598156654e-315, -1.87277748e-315, 0.05509274888538748, -2.99104715e-315, -0.09705396380089745, -3.50440814e-315, 0.0785810158732139, 0.08134957995088038, 0.040129519725892814, 0.02083661022439426, 0.008478309731848105, -0.08456508478510935, -2.4528812e-315, 0.2516265914852494, -0.04980459775315771, -2.53621449e-315, 0.008873781840155654, 0.15595882107928458, 0.0286050566144494, 0.06553202951995359, 4.22869941e-315, 0.24784450173897501, -0.3551623391665542, -0.24005099029751226, -4.164001034e-315, 0.1630924023019529, -0.16585997032669997, -0.0028252517604274623, 0.02213761368535437, 0.16743426563455246, 0.1553089899115691, 0.13136341504604018, 0.2487571012009979, 0.08441837655594286, 4.283219193e-315, 0.34849333275132355, 0.17977885213715267, 3.268883983e-315, 0.9506788318115743, -9.23984624814689e-131, 0.09257209019565615, 1.09098593e-316, 0.03447905441771713, -0.004651207516698532, 0.1931823320513289, -2.53009656e-315, -3.14683829e-315, -0.4685613328419215, -0.43661702901088206, -0.27195586980746417, 0.5790468411531536, 0.3086018183899482, 0.30032400120107106, -0.3110832313143895, -0.05078449451753595, -0.037605709719087575, -3.048839116e-315, -8.16483094e-316, 1.375185066e-315, 0.10341961623058862, 4.9948595e-316, 0.07218049748338862, -0.2534245184616889, -3.460583183e-315, 2.85975575e-315, -0.0358078593542713, -4.280498714e-315, -1.2858014975690773e-248, 0.23067328381062702, 9.65347746e-316, 0.003929414145188086, 3.75719138e-315, 9.3295818e-316], [0.027013120613526922, -4.395947374e-315, -2.9453008e-316, -2.469191957e-315, 2.9955159e-315, -0.27095543167459896, -0.010321813122279335, -0.5341341364055888, 0.054971789982623705, -0.23790894806324964, 0.09314173696828729, -0.13031493901379243, 1.905242287e-315, 0.1174233569892368, -3.348580423e-315, 1.428535025e-315, -0.06442636422022127, 0.15169475174297628, 0.09535683953325799, 0.3498349386916267, 0.04216060929840567, -0.013408584800728504, 0.18213115163296587, 0.34331314369391225, 0.009587282872257921, -0.35667345371369236, 0.10936546426259039, -2.665916773e-315, 1.78398835e-315, -0.02014264457552203, -2.872926716e-315, -0.0913507681157055, -2.39827997e-316, 0.16242910594814525, 0.09548601762893874, 0.03808852231098866, 0.10868309702105115, 0.020317526986937, -0.060677895027958735, 1.58976399e-315, 0.06465766545397904, 0.09121660201256457, 3.62658823e-315, -0.10269615504920576, 0.29349054592100526, 0.010498993236850598, 0.009659949657138699, -5.9151272e-316, 0.10959798494090428, -0.243330283017021, -0.20114456022409827, 1.219608507e-315, 0.31072359617408973, 0.13551704186127417, 0.05576136843007633, -0.0016704269043037955, 0.17629978708482946, 0.03448392720018818, 0.2114222334293403, 0.3227522717817183, 0.05053041414549134, 1.54387916e-315, 0.3659511890040743, 0.4591822704581851, 3.833428326e-315, 0.985373021909795, 6.645906423510255e-134, 0.26274119895443515, -1.503641496e-315, 0.08733741793756218, 0.08801470134808842, 0.2609826837053591, -8.94504913e-316, 1.01120823e-315, -0.5669153554116503, -0.1091307373375235, 0.10769782025569319, 0.3597733981551675, 0.31986111460188743, 0.5204324049575548, -0.1593530201837609, 0.06670757887778085, 0.11316749639025403, -4.008111475e-315, -4.69814167e-316, -2.798089397e-315, 0.21427901599854932, -2.1623022e-316, -0.04308534097543465, 0.06606364903030983, 4.230185287e-315, 1.27605946e-315, 0.01069055495495561, -6.2324208e-316, -9.505570191155016e-246, -0.001812584168817378, -3.13318818e-315, 0.1044416952718468, 1.4586946e-316, -2.508697945e-315], [0.034801354034431055, -5.95721984e-316, 2.99405669e-315, 1.15321134e-315, 1.27048585e-315, -0.16262453381079797, -0.0502276698824739, -0.43151050131606633, 0.2860162435151772, -0.0573816188272077, 0.08547491378151095, -0.059442110210764294, 1.338891e-317, -0.07586069910852089, -2.30596658e-315, 2.254223945e-315, -0.0278655037553912, 0.21187878554313988, 0.005264208516463757, 0.009318394668281485, 0.1809463671398697, -0.008227854827274242, -0.10179573578044347, 0.04373289483141761, 0.09491843316918114, -0.3352514643884191, 0.1248247633583365, 4.171904404e-315, -2.336402097e-315, -0.05604177830125969, -2.023730266e-315, 0.04487249923888717, -2.91788261e-315, -0.01261496817521891, -0.002194556367373301, -0.010584897378878824, -0.035162990922675, -0.07465472521976414, 0.09543453665253855, -3.210601025e-315, -0.006376279037322017, 0.007752409214629305, -2.8822022e-316, -0.13241650716076567, 0.25192679548946556, 0.030413450495374344, -0.03937689596442872, 3.5819788e-315, 0.22553855200495648, -0.24613908668147902, -0.16194238045035092, 2.32631285e-315, 0.2906324750113544, -0.2148597777836958, 0.0427943493987531, -0.003403533598224047, 0.20010542582188937, 0.045320418598018615, 0.26842408622568065, 0.23550751298008193, -0.16789619743737422, 2.541581206e-315, 1.0245914301922394, 0.19603197208664255, 3.68292819e-315, 0.45541154268500866, 1.3948876895395829e-134, 0.14490744229267602, 1.5066289e-316, 0.2027306569707128, 0.015060164097477307, 0.42996038911184453, 9.3006044e-316, -7.67151143e-316, -0.5834215378423612, 0.12901771423306035, 0.27977739718037137, 0.235573476820069, 0.6622724382819796, 0.5921263331601964, -0.3346844241421954, -0.018725669670387912, 0.08282349479943042, -3.51546744e-315, -3.411838647e-315, 1.171824103e-315, 0.1971312228620431, -4.045365986e-315, 0.1591474967867204, 0.1097266345764854, -3.603582466e-315, 4.90819363e-316, 0.09318736289712455, 3.466516096e-315, 3.0809684456289274e-235, 0.07607676055717741, -3.97901173e-315, -0.012293792102911063, 6.5144709e-316, -4.0734504e-315], [0.38754628337657976, 1.332654373e-315, -3.38675556e-315, 1.24700264e-315, 6.0495509e-316, -0.26200534666409264, 0.057349639778947435, -0.1526278624563471, 0.11789659908940466, 0.1405760414271462, 0.02950618760082787, -0.11362089435951463, 1.462186187e-315, -0.37137007171866426, 1.41782547e-316, 4.33334157e-315, 0.2009296382095123, 0.06447024390156868, -0.04530392548423373, 0.5560829337020787, -0.011786596816667114, 0.028085849924709, -0.08332125207413463, 0.028073701065379833, -0.166527461855318, -0.10354720817165919, 0.1531558859490203, -2.729113466e-315, 3.96383692e-315, -0.09339417227537467, -2.422730716e-315, 0.11113405547315927, 3.95123234e-315, 0.19000760280107984, 0.05302073409315965, 0.07182480431962862, -0.07712838465060341, 0.031175027558328423, 0.008874283038285417, 4.273062626e-315, 0.2784713460890274, -0.012756228554384342, 2.87590054e-315, -0.2822813358092004, 0.06956767867761583, -0.013166442958921006, 0.14898920200047408, -3.56467649e-315, 0.14950177277586996, -0.16449647555893074, -0.22780192695628446, 1.439472077e-315, 0.09980267241099251, -0.13184298021820837, 0.010259601962012286, -0.009646633734198483, 0.21541253190379964, 0.19824563953275534, 0.22156957225887086, 0.5070604146327486, 0.0468331445277598, 2.902313133e-315, 1.1264139885871876, -0.0436511646578867, -7.2200447e-316, 0.08215339139409195, 3.2068228144916807e-134, 0.3694839617904623, -4.39146189e-315, 0.15488069771343402, 0.025966172750763142, 0.42317046047854656, -1.54943744e-316, 4.32068987e-315, -0.3448846957856198, 0.1819388813309077, 0.5677655643669842, 0.011676200557256013, 0.19284849854721628, 0.8241450470325632, -0.023236757389112295, 0.07334731293063086, 0.5282238297116182, -2.467676925e-315, -4.8351475e-316, 2.04132795e-315, -0.0035319381283321397, 4.173794255e-315, -0.027743194111557894, 0.07922525088257036, 7.7602061e-316, -3.226254324e-315, -0.03126717046334773, 3.915227237e-315, -8.105545687181027e-238, 0.15234835917281503, 4.06091641e-315, 0.03913779098447657, -2.40222484e-315, -3.185268047e-315], [0.008183812889956595, -3.340700017e-315, 1.911371735e-315, 1.939874125e-315, -1.758076687e-315, -0.01075151177805401, 0.057156254747055914, -0.13664498342344353, 0.02415772837262007, 0.36070448065332295, 0.09836592005242649, -0.16100289481398014, -2.81739457e-316, -0.673188013937517, -2.211476467e-315, 3.93726388e-315, 0.04043330566399105, -0.03884532160944976, -0.03939073799306008, 0.16071841329778366, 0.024000557354918538, 0.0075089776671134305, 0.09615405566877837, 0.010268619716327696, -0.21785258884317515, -0.31649597211526587, 0.13248916508108946, 2.419963577e-315, -3.95301459e-315, 0.007877661368428927, -2.99599545e-315, -0.01435357591174499, -6.2640632e-316, 0.18408421432674207, 0.03504252662491391, 0.377891117125098, 0.08249180538996333, 0.03256235235077792, 0.009044360283484654, 2.559823473e-315, 0.2816914555747632, 0.007084491392035921, -1.38684646e-315, -0.4021123632576628, 0.08071475092493083, 0.024107572592951224, -0.12282225041178221, -2.299749777e-315, 0.027717095193125083, -0.03717892490231459, -0.04435319030757797, -3.56443781e-315, 0.1352138381498702, -0.0812092429285764, -0.09953025269561776, -0.008322588735487472, 0.38971636574756735, 0.0722206057919768, 0.3539850374864528, 0.6087881116414906, 0.007842053772289132, 3.15416271e-315, 0.9234642201789323, 0.011381741957693235, 3.556082634e-315, 0.11579823831744768, 1.4941349916473745e-134, 0.1908802915956453, 1.900888724e-315, -0.21299908266949913, 0.1743096061495694, 0.6919883546255874, 3.993715257e-315, -4.082249385e-315, -0.4378428012561447, 0.27352298866804214, 0.10711462607388451, 0.20336849542364202, -0.1719025157061862, 0.546158479461648, -0.0533073939864348, 0.013642376637538721, 0.34280574368449584, -2.81539522e-315, -5.4647297e-317, 2.80627338e-315, -0.07651163880019299, -2.84894324e-315, 0.07572947253044511, -0.10918319607487663, -1.237433477e-315, 4.248229217e-315, 0.01679531682395034, -3.79227384e-316, 6.897566662600727e-239, 0.1786835006295726, 2.64480889e-315, 0.007934069644666534, 2.043363926e-315, -4.03719839e-315], [0.1359245431911548, 1.250731194e-315, 2.096653046e-315, 2.7601679e-316, -3.45979355e-316, -0.20255633934889222, -0.01983559016117284, 0.03655776650497853, 0.4262567769328297, 0.20676844201221253, 0.10075654083666793, 0.1797304234818233, -1.24086464e-315, -0.554969548066159, 4.24358802e-315, 8.00073825e-316, 0.3208916593460716, -0.16807431976011805, 0.00694057659026809, 0.03011378604231737, 0.029523632765460696, -9.043283409265426e-05, 0.06895700750852592, 0.09080377872408787, -0.009437616081488666, -0.20967189924374902, -0.06912079056814074, -1.387626765e-315, -2.06618608e-315, 0.029743076640210413, -3.982097866e-315, 0.04065645028944415, 9.2723909e-316, 0.09788313289407394, 0.10277361362965154, 0.19428914719851453, 0.14625549126405823, -0.016320491507145974, -0.0381122638012158, 2.892272183e-315, 0.2198248962549706, 0.014524660999782819, -1.80301023e-315, -0.45452752289829407, 0.06846513963984051, 0.03540314059989329, 0.06604970041250167, -1.22219095e-315, 0.2699639224977096, -0.08278557204029886, -0.17557888666140117, -2.98877954e-315, -0.26954428953248327, -0.27485682507071707, -0.01716575329679381, 0.04328393487233654, 0.4201508564665062, 0.47468100966215304, 0.7482147341581602, 0.7201074227711166, -0.051365343686406065, -3.280373766e-315, 0.4137471773297771, -0.09232599918895117, 1.75250841e-315, -0.05375399061836476, 7.275407288688984e-134, 0.09774926007935286, 2.68498919e-315, 0.09116177227621242, 0.13009243843713997, 0.18839578705201554, 2.245332206e-315, -1.23804215e-315, -0.1371619343092589, 0.24775440416286498, -0.054778379855776486, 0.030324028242721495, -0.28388360929818246, 0.9030579020209364, 0.08309799155608541, -0.05317100165963505, 0.04642600488385548, -2.54185075e-316, 2.786227983e-315, 6.9824836e-316, -0.29471169911917894, 4.222639897e-315, -0.1587773989514878, 0.0873745080691334, 1.42653904e-315, -1.670421843e-315, -0.20034735876651055, -3.293520517e-315, 5.319318800944376e-239, 0.26172156420373016, -3.48195389e-315, -0.060545813647101175, -5.9001227e-316, -8.0087531e-316], [0.4187348242281565, 3.29698648e-315, 2.617553374e-315, -3.90528838e-315, 2.2400613e-315, 0.1815196616673093, -0.126665940023059, 0.15814871059484714, 0.48244525426433543, 0.32793078131266507, 0.08729314323935203, 0.12455447643056529, 2.578035163e-315, -0.26220874554200746, -2.95613041e-315, -2.8629956e-316, 0.26936976582187483, -0.06885285167398908, -0.1458166491381078, -0.009150217899754653, -0.21515265621685922, 0.004807801952860645, -0.01743406809338297, -0.11235200020646446, 0.07157223994155332, -0.24179105493035294, 0.0712475562292206, -1.53363939e-315, -3.09150875e-315, -0.026191536096807504, -2.831759037e-315, 0.1348728886664255, -2.962312757e-315, -0.039423282448637915, 0.03397312837251627, -0.030402287752596246, 0.05124048881988394, 0.016228803503314758, 0.12298537142214357, 3.962259243e-315, 0.14913959993495784, -0.07463369122270888, 4.25528964e-315, -0.4840370473771187, 0.04655887058389706, -0.037342008596200134, 0.07907004242224386, -4.148804153e-315, -0.19080806944817705, 0.056149892851331165, -0.2675987451468712, -2.18730307e-315, -0.44503615857483025, 0.017638359124658103, -0.0649529099551659, 0.028840293680731093, 0.43862272796193197, 0.11120385922429517, 0.5148210323340978, 0.7495155425528246, -0.33063268720032035, -7.2029856e-316, 0.4680757483490778, -0.2491627105122497, 1.86776146e-315, -0.401510137573479, -2.373069686618755e-133, 0.089862570659298, 6.82785793e-316, 0.1023634894730949, 0.19116769300858016, -0.33004448785162266, -2.705516466e-315, 1.305657683e-315, 0.06906140746454219, 0.33204136807627743, -0.1600017533142753, -0.056140756353661746, -0.2736901730401874, 0.6625022265727438, 0.18067661593767897, -0.0061827470247669755, -0.1014651390550932, 1.81447108e-315, 4.23355354e-315, -3.56547393e-315, -0.42108250093290084, -3.28124251e-315, 0.076500269212489, 0.20947390298727683, 2.34369775e-315, -1.84554829e-315, -0.02879673194024823, -4.17723878e-315, -1.338497685513535e-252, 0.17060796497839617, 3.054064596e-315, 0.0401917585468226, 2.797111217e-315, 3.98154988e-315], [0.5390554008726718, -2.38312209e-315, 2.959502373e-315, -4.9450685e-316, -1.56549596e-315, 0.41362665959158934, 0.044201238541688226, 0.21499636152897758, 0.3029013240378341, 0.13791506769026016, 0.13281148761333314, -0.022125632373150187, -3.70490007e-315, -0.04973685785727407, 1.96099438e-315, -6.3915898e-316, -0.23574666391279045, -0.07430538127924781, -0.34458984608684284, -0.06747396011726799, 0.0577780243173008, 0.023894281623276715, -0.11032420962795725, 0.052182637736111086, 0.01654303899222981, -0.44162085707586385, -0.02170681560952384, -4.17690852e-315, 4.04761206e-315, -0.044102067216477504, 4.231173077e-315, -0.0229978721145275, -1.61652296e-315, 0.05746740078551517, 0.04534674627978078, -0.05096661761332772, -0.44686762601966784, -0.04465213380583939, 0.14591014711312095, 2.63599234e-315, -0.05813233902103003, 0.052429169348527455, -3.22336289e-315, -0.4222859888089473, -0.05724082965772462, -0.06056761100484356, -0.03827290341677593, 4.23824155e-315, 0.14479688432063664, -0.08820741675389666, -0.3566772727851877, -3.39828581e-315, -0.5420427872395415, -0.02277097111074982, -0.08614761976902492, 0.0027236834916133513, 0.9759569992823566, -0.004464519607344829, 0.6400232518935625, 0.5127014452907838, -0.24270725481959265, -3.14793569e-315, 0.5942659787613012, -0.20337657617033877, -2.57217607e-315, -0.3391860663975301, 1.1313253130375599e-133, 0.07726318204645469, 2.007824307e-315, 0.2344394476181786, 0.2956988858670054, -0.6009862076591147, 3.58911581e-315, 2.49786454e-315, 0.46465711625604394, 0.4293489037899077, 0.0984122397094055, -0.3167179242495552, -0.057098889462087465, 0.6919669059057688, 0.07262642219142101, 0.027260893583808177, -0.1303877739888385, 3.246096277e-315, 2.33502691e-315, -2.52515746e-315, -0.33795585330111855, 3.241443844e-315, -0.17425160795204744, 0.5047275038037705, 3.312433004e-315, -4.34436782e-315, -0.011981202400309345, 9.80604187e-316, 5.16471785439379e-253, 0.2902893974733854, -1.31570849e-315, -0.012456164818180055, -2.196137715e-315, 1.739702707e-315], [0.036518998370214696, 1.91839953e-315, 3.402637035e-315, -3.097303665e-315, -2.92195635e-316, 0.020691152266842868, 0.05401284567979026, 0.11082952382305368, 0.32878200388818934, 0.00995462556386019, 0.04279093915106252, 0.09355453704078351, 3.231020195e-315, -0.1871104858926421, 1.84156465e-315, -1.19574623e-315, -0.31257782979561954, -0.03422658101701673, 0.00616299771477287, 0.23679437238301188, -0.17542395118037551, 0.0065652670980008605, 0.014501494590906602, -0.12325494472936376, 0.28804306279084835, -0.4418555050042166, -0.014955734822658998, -3.969602763e-315, 2.410834307e-315, -0.03537925647633558, 1.692584175e-315, 0.15126893182436887, -3.398692197e-315, 0.13298495692873158, -0.07888300277422029, 0.01112918416982956, 0.008803690212566846, 0.01896134495209044, -0.01323484809866315, 3.397270864e-315, 0.05290800566182602, -0.020384640930006775, 2.77986583e-315, -0.3531931571093068, -0.38322000693945213, 0.021526024040110777, -0.14547732202398905, 4.083627536e-315, 0.23012320768690275, -0.03411877497103641, -0.2180857881969997, -3.43296009e-315, -0.5418312241390179, 0.11147415466530926, -0.006908282527261548, 0.002906412271254517, 0.8449998462094078, 0.1495233576177403, 0.3693401568052431, 0.5900556453222795, -0.12944059646828993, -8.4706392e-316, 0.3704574250110681, 0.09843080230836035, -2.5933427e-316, -0.3075993955218093, -3.751518598054675e-133, -0.04588329594098988, 2.38655609e-315, 0.3139729868938077, -0.03598223431106618, -0.6374446631135999, 8.0930054e-316, 3.90764961e-315, 0.3183436465892716, 0.12018599556325568, 0.16938989317415898, -0.13413416975497838, -0.05325147511165116, 0.5277484546762564, 0.021753423178154502, -0.03147793305360845, -0.26736808067494483, 2.40927185e-315, 3.85704579e-315, -5.3127783e-317, -0.21768604306204195, -1.60975535e-315, -0.280189352163165, 0.5379231460907565, 1.286601576e-315, 3.25763041e-315, 0.012502705371554715, -1.010924096e-315, -1.4432430641486956e-259, -0.058477457445248016, 3.63921289e-315, -0.07899798497155233, -4.237264966e-315, -2.524333127e-315], [-0.0941178735858419, -3.72138584e-315, 4.44674916e-316, 3.68855376e-315, -3.20499178e-315, -0.05394277913503426, -0.024496436996079552, 0.18887983550626977, 0.014912445202014806, -0.032591466013609786, 0.008601926612547757, 0.058401011004548975, 5.82385013e-316, 0.2458801194682954, 2.814308456e-315, 8.12195686e-316, -0.27167897940069885, -0.23860256035739108, 0.049995753327461714, -0.003891313326262578, -0.22087663435353783, 0.011681254153049178, 0.1515524964634344, -0.06452675242519348, 0.18900891261274744, -0.34419676151907996, 0.0608603185173012, -1.6080629e-315, -2.997692027e-315, 0.02936570516410899, 2.877468894e-315, -0.04105193017288764, 2.625810747e-315, -0.08745230259931125, -0.041177621112678385, 0.17853140490316724, 0.10402292432613977, 0.030777333893871675, -0.219728934105604, -2.968897353e-315, -0.12513802442552693, 0.001960373852723093, -3.67783089e-315, 0.03194826893229483, -0.6844719930416712, -0.010563454328587591, 0.0037888220602370548, 2.83243721e-315, 0.10902108361345417, -0.01232570493058892, -0.19106853559724607, 2.971974146e-315, -0.04640012000241852, 0.16149326224023033, 0.017362090661739663, 0.0042532377265995765, 0.7486618478669749, 0.36421050391646964, 0.23828392750898397, 0.40933695805094245, -0.0885753728324943, -9.3983432e-316, 0.04219757306723392, -0.16647317453359875, 3.40791046e-315, -0.2746584450354094, -6.335081758625059e-133, 0.13731582086528457, 3.89782342e-315, 0.4217828035325295, -0.12735545628097558, -0.32854694242490495, -4.178350617e-315, 4.312733513e-315, 0.17532560583420792, -0.07324931643890609, 0.3847756035803053, -0.15065497844651085, 0.18142910195013637, 0.3961530477546999, -0.14299559378885174, 0.030958141161180446, -0.13348888516669835, -1.60296025e-315, 1.71170018e-315, -3.555964374e-315, -0.10081880923570231, 2.044337527e-315, -0.23458614783066262, 0.2400631463627163, -2.0142554e-316, -2.80492132e-315, -0.012686613422991717, -4.062357906e-315, 1.6879840806770043e-260, -0.39052068299720105, -2.845616724e-315, 0.018064905663965403, -1.36983898e-315, -3.54288946e-316], [-0.04799161489083906, 5.4737166e-316, -3.696992626e-315, 2.670145506e-315, 3.6748888e-316, 0.030833764153011492, -0.01472277289200909, 0.31183902004319014, 0.13670517892938416, -0.13853597149209387, 0.0815636961808474, 0.14356875487377607, 3.70360505e-315, 0.18732974933022956, -4.31249216e-316, 6.7253036e-317, -0.34013394984661616, -0.14807792753023213, -0.03689169332508848, 0.19528706315565414, -0.18081123784744435, 0.023582763689293046, -0.027929324988288626, -0.17349731469447538, 0.356721042442012, -0.17609390834875793, -0.03411412622868269, -3.9316809e-315, -2.247265505e-315, 0.07303625805507709, -3.70230827e-315, -0.044908092291307086, 8.405773e-316, 0.11866264324743749, 0.16950643993925973, 0.2347379868442447, 0.027091119572518654, 0.00912289713737663, 0.09502099170010077, 9.933065e-316, 0.2984073580309277, -0.05132685172935365, -2.927787464e-315, -0.11775239489443357, -0.6799924904087019, -0.03298629711373192, 0.13080202804353946, 1.964424627e-315, -0.10851559536822626, -0.05559109294473537, -0.1422265017807141, 3.922060214e-315, 0.06739050845993257, 0.17317657761102753, -0.013125105879243515, 0.010020426149503905, 0.633254205172315, 0.24420364738851993, 0.16973385774587058, 0.312916800147389, -0.028893668681642403, -2.41889825e-315, -0.3161065653772307, 0.15558085171492453, 2.88758869e-315, -0.198641811777672, 1.0083873543284252e-137, 0.17991645031020065, 3.22130778e-315, -0.19758193036664606, -0.012454345395359735, -0.1112589500489809, -3.634085476e-315, 1.542253527e-315, 0.07575912045984318, 0.05496522465843705, 0.0786380844177281, -0.13150920859570492, 0.5175946737180653, 0.49230414535783995, -0.13413401850738726, -0.06317741093784177, -0.2347917932221738, 3.12703104e-315, 1.173040206e-315, 2.761005794e-315, 0.10139551223476949, -7.84417596e-316, 0.07094469155363242, -0.008724690472032363, -2.32884075e-315, -3.6205999e-315, 0.13058857782730435, -2.23214995e-315, -4.294736660636657e-259, -0.24818099797244228, -3.402956374e-315, 0.06572494511415888, 2.88881287e-315, 3.42550801e-315], [-0.0533695402883703, 2.155077006e-315, -4.116467625e-315, 1.830063766e-315, 1.22569433e-315, 0.039067213733879814, 0.023153744925375135, 0.18959136944127863, -0.10301744390392387, -0.1568145618385273, 0.03378600573255151, 0.22041814881480104, 4.29237603e-315, 0.03991910971031329, 1.845054074e-315, -1.914778436e-315, -0.3398194282184178, -0.26637986328118773, 0.23466521685692487, 0.08508370783414743, 0.12383309352458241, -0.005697606717803166, 0.13676268121261972, 0.08500716602361535, -0.166428133911421, 0.08046127352571274, 0.029617537635281934, 2.15152196e-315, -4.09429473e-315, -0.048492726266103, -6.0142755e-316, 0.15705160315340316, 1.154272604e-315, 0.08246716904854014, -0.18553695432092385, 0.3137392833568568, 0.013101202707677891, 0.0610948388327302, 0.033563081233494184, 3.060298983e-315, 0.09792873993670696, 6.837506767445895e-05, 3.14289796e-316, 0.07971337928741239, -0.5926995006132109, 0.025517628601652964, -0.12851887698200307, 3.524852275e-315, 0.11236070480206792, 0.13131621364727333, -0.29500934051831107, 3.49147122e-315, 0.6033912072855198, 0.1759118997563056, -0.06737762847278693, -0.013376688537128633, 0.6067963765361245, 0.30804659811828783, 0.0022320254013757524, 0.16546347001422082, -0.01101075285175124, -2.524373843e-315, 0.2518027297122659, 0.08108128919628069, -2.0609043e-316, -0.2453636954723034, 1.69563514719999e-138, 0.0586694258316522, 9.82168937e-316, -0.08984277684135544, 0.014141606850386033, 0.26507856930188334, -7.1184604e-316, -1.900682417e-315, -0.27979813003749693, 0.17027424680097653, 0.05769394197514549, -0.084072771568306, 0.37857332096524665, 0.464771030100318, -0.08226271764436081, 0.056828379706961175, 0.024053316131917506, 7.22956e-318, 1.43658298e-315, 2.0347822e-315, 0.1821704162110878, 2.62867348e-315, 0.012710970908254739, -0.2877002357369496, 6.2150051e-316, -4.229227323e-315, 0.027895950818606623, -1.23262383e-315, -1.0758110562427143e-259, -0.1670531903843524, 1.05925501e-315, 0.00772706090066943, 3.29242402e-315, 2.59383357e-316], [-0.23319555515232296, -1.63747253e-316, -3.521723525e-315, 2.472890864e-315, -4.4648581e-316, -0.1690243317652858, 0.0722356706699332, 0.3015974084030248, -0.3130722762410094, -0.06752237581056218, -0.02220071496926435, 0.6619634749699407, 3.794852673e-315, 0.09577963784857614, 1.639915196e-315, 1.184533656e-315, -0.1646721912538222, -0.10523537084068799, 0.002917514184232671, 0.07416996247283841, 0.10580639291565756, 0.015256491651091988, -0.047472983815817625, 0.08446463462771522, -0.2505661341902633, 0.39246483755320244, 0.13608196275467604, 1.95554578e-315, 2.28549568e-315, 0.12001116061510525, 4.1314978e-316, 0.3795514628657037, 2.165401703e-315, 0.1188836116196243, -0.0659342116899668, 0.37243011190984543, 0.28238483639498174, -0.033569451826115496, -0.21184965416262502, 1.567032223e-315, 0.056912828128521366, 0.06798247738944938, 4.293654047e-315, -0.12691335197000547, -0.5194715634655412, 0.07592710646215711, -0.0037516160142498827, 3.42164854e-315, 0.11768239259625364, 0.05072025146613775, 0.06943229071383138, 4.020027844e-315, 0.1635452817271716, 0.2039594102261431, -0.05125990424118491, -0.007301623997649281, 0.18890532141183403, 0.21477321294062549, 0.059022659344954945, -0.14904885803225548, -0.027498337652815587, 3.36971009e-315, 0.34021690110817365, -0.04303588234004316, 1.5347807e-315, -0.14706237530702074, 6.55966269908528e-139, 0.18927599510399756, 2.516655544e-315, -0.0016152899213579665, 0.07894693139987943, 0.22392897489672015, -2.731830377e-315, 8.6656243e-316, 0.16473335941277217, 0.22619308716682385, -0.2085567435239942, -0.054778079909900176, 0.2665003971443001, 0.34176167978020067, -0.10368960214571726, -0.026979892109744812, -0.21902421893201995, 2.22840006e-315, 2.825039636e-315, 1.70673201e-315, 0.13844589876539062, -2.50515279e-315, 0.0741016661296331, -0.3629178304113162, 1.10791603e-316, -7.7356496e-316, 0.21316214292733593, -4.120563617e-315, -1.3168087417489806e-259, -0.36481130572318354, -2.426943964e-315, 0.03726669766423159, 2.540288305e-315, -3.656077825e-315], [-0.2481415366420408, 2.1827424e-316, -4.27372136e-315, -1.7382258e-315, -3.07540873e-315, -0.1285373430039396, -0.07304246262585865, 0.3328950599526535, -0.11553906757075151, 0.2145142614036627, 0.09410268607244013, 0.8591286055356336, 1.065680675e-315, 0.04711157220076318, 8.2895833e-316, 1.293955125e-315, -0.09907959885240276, -0.03917397671093583, -0.020785112844379484, 0.0006099623492744563, 0.03342983979186442, 0.03001567524437266, -0.06318467397761851, -0.11867351335853808, 0.1169303894032481, 0.5567812397915015, -0.08484670516176857, 1.208366784e-315, -7.09943603e-316, -0.003177389097342183, 1.114074845e-315, 0.32171949056271426, 2.103241693e-315, 0.13176155159177558, -0.0950752926007748, 0.2736095181182967, 0.4039646009056046, -0.05358646688661197, -0.015038145666894136, -3.545983275e-315, 0.023446579755308273, 0.021699678954673972, -3.507935274e-315, -0.05253729603418194, -0.09370211959335063, 0.005816837489227309, 0.15242116279658183, 2.39653006e-315, 0.3102622883895763, -0.08878896137060459, -0.0032010020744200245, -3.099104495e-315, 0.4755739964139367, 0.3079981786884215, 0.14354796628503247, 0.014628205451412758, 0.033753509678840485, 0.3457508411971344, 0.172269327997217, 0.173681197822112, 0.011299026225053566, 1.886992125e-315, 0.3327053572384777, -0.12685574288235993, 3.307762533e-315, -0.17540721944320872, -1.2967897347586513e-124, 0.08095187329997233, 1.49225246e-316, -0.023459419722690975, -0.16423833323978998, 0.12556687283812368, -2.157348556e-315, -2.01622738e-315, 0.29608281471475417, -0.027285348815232025, 0.03463175257209644, -0.11742953414618253, 0.5023914620477808, 0.13003776541917456, -0.1511037921431205, -0.04807985207702725, 0.07589648903063449, 3.842427484e-315, 3.886169626e-315, 3.632959184e-315, 0.08632034971808564, 2.982729955e-315, -0.17220198697438938, -0.15559507278646442, 3.42047781e-315, 2.315690094e-315, -0.24447214489261138, 1.37875116e-315, -8.913526273777175e-260, -0.36569490819518424, 2.32219382e-315, 0.006008280253732233, -3.07371634e-315, 3.79091473e-315], [-0.24594926397025782, 1.347290495e-315, 3.010941855e-315, -3.608746415e-315, -2.954402366e-315, -0.15244221069715486, 0.017501988539380873, 0.3433758796534135, -0.062124458006470165, 0.5599661491803968, 0.09859919632945607, 0.8271138191669978, 2.335141775e-315, -0.311915726164565, 2.98552742e-315, 4.098890197e-315, -0.236279141343956, -0.019497994019525608, 0.24139136624329136, 0.16370959808014934, -0.15709929027855088, -0.0077254464015545634, -0.03610330799453864, -0.1642568183784754, -0.3621465744264219, 0.6133508886180553, 0.0021594679776450938, 5.37828168e-316, 4.20045792e-315, -0.013980215162110487, 3.106426424e-315, 0.2710620925374039, 3.07155111e-315, -0.08534735591985958, -0.059644836469913386, 0.23898983425002276, 0.2311166466255534, 0.07117824012412938, -0.0703895157485335, -3.600341494e-315, 0.12176298930713546, 0.06210058884768942, 2.69538772e-315, -0.0421980213764062, -0.05131949866609306, 0.0039028788697334157, -0.10476604416305575, 2.93905458e-315, 0.08918066987180996, 0.09537953413564407, 0.22211166086477133, -3.23837017e-315, 0.32071468137265663, 0.3036765490329996, 0.11084273590346178, 0.010291403820002232, 0.037269767640302334, 0.2520516735134665, 0.047790954680266444, -0.046809852220596304, 0.08786498090371732, -4.060616004e-315, -0.008170834762664387, -0.1213501206913034, 3.2885137e-315, -0.14548266958367892, 1.067880556619424e-123, 0.20385423004632774, -2.5234171e-316, -0.3008684681112338, -0.03366832374027984, 0.2094365082651698, 3.617868067e-315, -1.516067484e-315, 0.45864883637300924, 0.010208023663829915, 0.16548864980171274, 0.014765946170595927, 0.057809816427295546, -0.17152453908045995, 0.16494934317867938, 0.07981457655386617, -0.04946142270589986, 1.02273388e-315, 2.808323923e-315, 2.34852283e-315, -0.16488517169586708, -3.30261887e-315, -0.12393590341579785, -0.2912250445294227, 7.6120163e-316, -1.886167524e-315, -0.08066091978681923, -1.01478742e-315, -2.898609176772204e-260, -0.5789175366649687, 4.283823524e-315, 0.017088991499615784, 3.655528236e-315, -1.014103863e-315], [-0.11089021243441877, 2.644602406e-315, 2.01951325e-315, -5.16980094e-316, 1.306982445e-315, 0.037232478010785025, 0.03463808366723682, 0.3364984565069272, 0.10903005377195085, 0.393739055136882, 0.3796152409506741, 0.7662382160021287, -4.22944254e-316, -0.15560699804659653, -2.178030377e-315, 2.047104324e-315, -0.060064708001021365, -0.036138351935294584, 0.007059188133637107, -0.07480325985316177, -0.2899780961974599, -0.006277269321549708, 0.10683493625439773, -0.28131994364371665, -0.006880888110900066, 0.39828089661427135, 0.033239525553638405, 4.152448746e-315, 3.61112575e-315, -0.08548769793852135, 1.626436295e-315, 0.22015490758242118, 2.02439301e-315, -0.16251581045971236, 0.0866279064739528, 0.04764844713317288, -0.15814941011603031, -0.023484722760784848, 0.0955882126210482, 2.70843682e-315, -0.035405165451370145, -0.023928212343844776, 1.19466295e-315, -0.11874783338888838, 0.3937363207122127, 0.02108586641804331, 0.06939641903551379, 2.02637903e-315, 0.20534488704657983, 0.0519079511645158, -0.10621693424592468, 4.104765493e-315, 0.43180846886559693, 0.015298441276083048, 0.0758403143243455, -0.007842443187971452, 0.13473790258840734, 0.2408137706055723, 0.09618982321568224, -0.2442472981917807, 0.03878536780560554, -3.14288792e-315, 0.07049463066417141, -0.08338180572471288, 2.20491356e-315, -0.08634912496913812, -1.2940904888838726e-122, -0.03012214965704086, 3.43292066e-315, 0.23531762191182606, -0.1309804076503195, 0.04182842535805879, 3.224588617e-315, -1.84422135e-315, 0.31438016875700553, 0.035481777827240275, 0.3943507770205617, -0.14936553365306937, -0.2578586832876568, -0.2987139244877884, 0.18480818382580974, -0.019527087637137185, -0.05314487026537135, 2.598551476e-315, 3.5546817e-315, 1.059190624e-315, -0.09606431287823106, -3.56863284e-315, 0.07842748278724768, 0.2844620792052807, 2.85935924e-315, 1.762319125e-315, -0.06368845859306829, -3.947914403e-315, -2.0587654556427564e-260, 0.18584666563128246, 7.75599384e-316, -0.04114886927916661, -4.9055223e-316, 3.31570857e-315], [-0.23124676728010457, 1.0062504e-315, 1.193277753e-315, -3.626802923e-315, -1.296769575e-315, 0.05333644277635372, -0.04992883579135737, 0.23102026260467032, 0.2126191743367588, 0.3456352164099494, 0.12110939360460919, 0.864101962378857, 2.7307108e-316, -0.08621679996005291, 2.489902423e-315, 3.33531521e-315, -0.07777747301375953, -0.03597302691900726, 0.048055647106166256, -0.02299537935157248, -0.2911302482706061, -0.02391162341638262, 0.03582999532539409, -0.23005503282837747, 0.3058061468593073, 0.556909871171213, -0.16537267775494077, -7.0766427e-316, -3.29174961e-315, -0.018111641570034972, 4.025216773e-315, 0.17579718275356132, 4.56358047e-316, -0.038610402116505675, 0.05279675030162543, 0.015573299234409666, -0.3221860279276084, -0.003842721400967618, 0.11268930971243375, 2.998479686e-315, -0.1583562168955864, -0.060361662664689855, 3.44032882e-315, 0.20996665111495325, 0.3986753533813497, -0.09857659937508338, -0.0795460156562144, -1.08378546e-316, -0.059654568996060885, 0.06384075925463577, 0.022959224612205214, 1.10626709e-315, 0.30760322104183635, 0.20475957429853514, 0.023517697651385634, -0.011450708320195603, 0.09034383251948752, -0.12003401160538557, -0.07452561049018336, -0.14708886717466169, 0.22473585407702137, -1.883280037e-315, 0.02816705797008444, -0.31551012211263785, -2.97448037e-315, -0.18438546769545738, -3.8280945068486136e-123, -0.05538917216217317, -3.3525684e-317, 0.3088318086253982, 0.030181301478607644, 0.09052198887847218, 5.2119177e-316, 2.50327035e-316, 0.183370425699638, 0.11765442324537335, 0.27030499416917797, -0.17563059170892695, -0.32995839011633793, -0.32341835370094213, 0.22850642797872936, 0.020193205556969296, 0.19351177882737403, -4.12478648e-315, 4.189742254e-315, -3.73940153e-315, -0.14450405852260437, -3.42328979e-315, -0.20137203490895839, 0.37535717449334816, -1.88390289e-315, 4.330742626e-315, -0.05996603178650112, 2.03792364e-315, -1.1015722374736516e-260, 0.48686875007551167, 3.691796227e-315, 0.05074722389646575, -1.791339563e-315, 2.4768344e-315], [0.12324609328470446, -3.58461432e-315, -4.37864983e-315, 1.769726187e-315, -3.9006476e-316, 0.03234723287735672, -0.056800328826998564, 0.04174371124868595, -0.05307404179931049, -0.10145979078098344, 0.16989834665692427, 0.6017692599302669, 1.6776666e-316, 0.14336955333464804, -2.603019583e-315, -1.3778429e-316, -0.19611715961473916, -0.2311537331719407, 0.24836636970119458, 0.11800055479603701, -0.31269665532726837, -0.00038255531007171773, -0.02058284764415221, -0.2012018037207269, 0.084906816876135, 0.13375275232039216, 0.09236366175230001, -4.241074835e-315, 1.523955163e-315, -0.0020791250782171648, 2.181043233e-315, 0.23562342252479407, 3.925299526e-315, 0.10620741968007862, -0.06344944489972881, -0.04998313944400445, -0.09659796461795969, 0.039514481345818434, -0.09146239814489097, -2.897006537e-315, -0.021415954974334146, 0.0056236806468418265, 1.37870201e-315, 0.4694485250038021, 0.302624580592888, 0.04443203608594264, 0.041174999755919234, 8.3608782e-316, -0.057990612891545563, -0.014646456058446099, 0.040004195779872374, 3.672803607e-315, 0.22500617537401568, 0.17838799089664326, 0.13853151623818805, -0.011811903860790653, 0.603390021691901, 0.28045946484607337, -0.15911307634154193, 0.04027410059511807, 0.2816096433216127, -3.87083229e-315, -0.24581758935060657, 0.005279318968830567, 3.1285457e-317, -0.07643344210097981, 2.468239626510805e-122, -0.22595073055147835, 3.590103653e-315, -0.3045004916778911, -0.023442053520433357, 0.0461550900145071, 2.106325197e-315, -3.17348976e-315, 0.11919255663959444, -0.014401923934587724, -0.046247373367489616, -0.07098127138591007, -0.37789393533379534, -0.3516468256734256, 0.08563674060232339, -0.0265140800506987, -0.053310702643929106, -3.60493876e-315, 4.114114554e-315, 5.6915285e-316, 0.10397580542751111, -3.587108e-316, 0.08059360026496121, 0.14715832919397934, 1.588625935e-315, -9.9807573e-316, -0.02775878418724406, 3.0050918e-315, 2.343851479169633e-260, 0.0909314935085556, 2.713830197e-315, 0.04419248815374483, 1.06873884e-316, 2.84512859e-315], [0.02489429167982076, -3.63130789e-315, 2.1796296e-316, 3.16331993e-315, 5.7378288e-316, 0.20198733131345434, 0.011430033529757534, -0.05056000694712958, 0.1622162687434255, -0.19424521002747464, 0.11914727128539884, 0.5874890008380882, 8.8425144e-316, 0.08652016352570797, 3.797534837e-315, 4.253836654e-315, -0.18190476651593065, -0.24923612691866912, 0.31228922988231606, -0.13750161552583703, -0.3971724244252069, 0.007286288982746318, 0.0981038542279687, -0.11657678887126598, 0.1508015150683446, 0.013932096229217155, -0.03023735594941326, -7.83551094e-316, -2.34052215e-315, -0.04707890122537245, 3.87566725e-315, 0.20915766290487348, 7.6940712e-316, -0.21614971583891773, 0.02842108623651496, 0.18556087842394217, -0.02235880060076214, -0.044596021505294986, 0.0122235255454862, 2.87165942e-315, -0.2704685810207421, 0.09128215555571809, -2.835465093e-315, 0.1491678209654869, 0.13282342483478235, -0.017009354452175753, 5.5427182235671496e-06, 4.200643007e-315, -0.09340496799555792, 0.13215471983404145, -0.09521660584658403, -2.91897968e-315, 0.16562699078269172, 0.10671596948117433, -0.07170710934823628, -0.00021205372677176457, 0.0263091093241036, 0.09817789503539827, -0.2932841046227069, -0.14420986312226391, 0.4891896426121688, 2.14909895e-315, -0.4529069624098144, -0.05694331971091233, -1.5823438e-316, -0.08943232913469017, -1.2255378729182093e-122, -0.23678026030636015, -3.73751224e-316, -0.02593280699766161, -0.034014104973182475, -0.35209193497090996, 3.868457703e-315, 2.82687829e-315, 0.0161654849047804, 0.0657671525909544, -0.19919610955690478, -0.16480961178419368, -0.22945246520218535, 0.021026127296675547, 0.27274303711498055, -0.0297359924791782, -0.07246721200714688, -3.441223626e-315, 1.939399323e-315, 7.68017675e-316, 0.05842110793019778, 2.851954336e-315, 0.0031522670542028825, 0.14292793532965015, -2.1780226e-315, -4.099581005e-315, 0.008976388119681605, -6.03048064e-316, 2.0027860348136558e-272, -0.03197763602980166, -3.853066116e-315, -0.01843005433301993, 4.01189087e-315, -3.930117304e-315], [0.13782677505902446, 3.491637526e-315, -3.20719053e-315, 2.038137196e-315, 2.77135798e-315, -0.14280535717720425, -0.010333194011611896, -0.21763703933193063, -0.0013631436677009805, 0.1974883204421824, -0.015906830551760887, 0.059698017879001, 4.15131327e-316, 0.3184091381492554, -7.5769137e-316, 4.06347842e-315, -0.5237383368710731, -0.38966801400192863, 0.11944483139835252, -0.23018788492818357, -0.009184831648425188, -0.04983311393871807, -0.01760281936817192, -0.08312077602201337, 0.3151121190193378, 0.19443850139695337, 0.051009651320268544, -6.4117757e-316, 3.94747111e-315, 0.04439326403171467, -1.772011557e-315, 0.06747430420434443, -3.932084846e-315, -0.060338262675462856, 0.12211554511454822, 0.2586881619036607, -0.16972133060915257, 0.05325384246424159, -0.12910400986240028, -3.95840808e-315, -0.09867072962118421, -0.06961515433149423, -1.62803979e-315, 0.2513730346246935, 0.16152232283442575, 0.09903533140086747, 0.127273229222359, -3.205660235e-315, 0.17729733132944075, 0.006099285262315496, -0.00942191435676366, -9.02712964e-316, 0.12414829269790746, 0.11540331900656571, 0.09700907785513846, -0.005037080529631174, 0.24271405576478455, 0.267389884990261, -0.1404728394505259, -0.03502476295079821, 0.28450694028040063, -3.18793401e-315, -0.46807822334132076, 0.08198001545840344, 2.134255335e-315, -0.0527461342031325, 4.300508767138975e-122, -0.24327788445824836, -7.90781596e-316, 0.2623571927996271, -0.01505037028707731, -0.2260246397183242, 4.35396338e-315, -4.14618363e-316, 0.09526749478043234, -0.003778361153336532, -0.17969573524393154, -0.0486866025839361, -0.0550667181550616, -0.11030233834988025, -0.10486624041808099, 0.045139432556277954, -0.06107149780249485, 1.523813194e-315, 5.2690337e-316, 7.04169147e-316, 0.11595894008553978, -3.86041855e-315, -0.2215554973214351, 0.24704831897617452, -1.05673265e-315, 1.5368055e-316, -0.030864968494092652, -6.5593008e-316, 3.2135642342266332e-270, -0.002858261174070213, 1.84682894e-315, 0.05795191475920517, -1.030245166e-315, 3.837456996e-315], [0.010272499453673081, -1.22604657e-315, 2.89623483e-315, 3.08834007e-315, -3.03804257e-315, -0.12454837079990923, 0.0015637603670393954, -0.32280049931847543, -0.049492930989235386, -0.11374093560706633, -0.15096039285805396, -0.1040990613787473, 8.17747956e-316, 0.23718813889344145, 3.1725416e-315, -1.13505944e-315, -0.41379054164568607, -0.36594934321220757, 0.3913709785319677, -0.18401366250378234, -0.21455843221178045, -0.006711622610234773, 0.03333401366884879, 0.005058531334725963, 0.1858390845176385, -0.0501890334950856, 0.011964421292128078, -2.024951947e-315, -3.385427e-315, -0.007446425988749747, 8.5161726e-316, -0.25289281072875286, 2.05584475e-316, -0.03642100078810587, 0.14991091534684706, 0.2384244149753891, 0.14330997505348364, 0.03154729899894412, -0.004289477555418945, 9.51917307e-316, -0.025406074173242185, 0.025820642127457175, 3.88443847e-316, 0.19147023404960303, 0.07924713881465355, -0.022446420547746634, -0.14641738002839497, -2.46187219e-315, 0.08510872643646797, 0.07490729456148616, 0.07792896122384486, -3.41921552e-315, 0.25248580740914156, 0.04790620768719539, -0.04322092069039943, -0.010064102932627864, -0.08649271159264056, -0.09871456039926743, -0.28332207616051963, -0.134982890830445, 0.40375564369931194, -2.73705351e-315, -0.4445029849958393, 0.09908395913065425, -1.056126814e-315, 0.10294479326152463, 1.2763639088226677e-123, 0.020797922819404686, -2.818429477e-315, 0.05551653647336429, -0.08386043476236676, -0.010716704052268966, -5.1194224e-316, 4.3264381e-316, 0.009928224960454403, -0.07421768211636538, -0.17554688916208988, -0.1437970204984331, -0.011555366996004892, -0.05598877321297034, -0.17578458128599989, -0.02583018887569172, -0.08889812111606757, 9.9808278e-316, 6.4032785e-316, -2.72824146e-316, 0.03193119531473013, -1.87198801e-315, -0.10038250257403936, 0.2825241734787665, 3.986477294e-315, 4.380043836e-315, 0.19250485254024494, -4.245370854e-315, 1.872158441099459e-269, -0.07339458770510165, -2.42197892e-315, 0.013464340307774558, -1.52437944e-315, -1.22275877e-315], [-0.15939610788221004, -4.096975777e-315, -3.871178306e-315, 2.371050683e-315, 2.53689514e-315, 0.05013363013560675, 0.02927118622841161, -0.36825443865256036, -0.03276580194722992, -0.26373169802891316, -0.11317304075578627, 0.32154316211227274, -3.043884225e-315, 0.28842434860520755, -3.580130316e-315, 1.257605243e-315, -0.12775249360545848, -0.2612466778788844, 0.30674920913566706, -0.002253222798034555, -0.30665152786172495, -0.00087102506345077, 0.1816517134316, 0.07721976702675928, 0.10995231915625803, 0.2483530604852387, -0.016891205238139823, -3.586932206e-315, 4.23976681e-315, 0.029525811677790524, 8.9711086e-317, -0.2815500101068759, -3.7130542e-315, 0.14925736915898138, 0.03496864514256089, 0.43468110560626927, -0.034202751472812494, 0.1446732964243579, 0.052064872934454005, -5.88184193e-316, 0.13666174412517904, -0.017155443658552868, -2.09957481e-315, 0.4355715882179548, 0.37509469643588655, 0.04878084377846617, -0.03477726153198627, -3.286834277e-315, -0.05008269090076984, 0.041384336401770146, 0.008612053451720714, 2.80551357e-315, 0.4777695265148361, -0.09746046626595374, 0.006524704518199959, 0.0033263447093986446, -0.5428134113173172, 0.1873585258559882, 0.17188664502881312, 0.031667139556192894, 0.4895081825136145, 1.296364066e-315, -0.23947818011226762, 0.6616124443161062, 3.971921117e-315, 0.20014889572296002, 1.4328634827611764e-122, -0.16243573330957672, -3.57123277e-316, -0.05539123723883611, -0.10347646012234747, 0.27372775155189505, -3.261446225e-315, 4.116603617e-315, 0.08509445487950755, 0.1668052165806745, -0.2683547115708884, -0.032874482041521234, 0.2338049710839506, -0.10148145419679157, 0.10890345275001881, -0.02525701058025192, -0.3834657888503539, 1.67612256e-315, 3.53445695e-316, 4.145562815e-315, 0.2790927420942397, 2.657033196e-315, -0.10038698243034014, 0.18157216540464183, -3.79023124e-315, 3.2007991e-316, 0.07964929306792135, -4.167807093e-315, -7.49734879808881e-270, 0.17619348437616225, 2.852023565e-315, -0.005925495065362101, 2.23821192e-315, 2.913729647e-315], [0.008736810036861397, -5.3211944e-316, 4.83709343e-316, 3.325919005e-315, 3.922424356e-315, -0.031730995771412765, 0.035678518500680975, -0.35813871801672226, -0.17241814491100765, -0.07172404547092985, -0.10637167936160506, -0.04104523663178661, -5.80398677e-316, 0.31496834467029655, 4.065259203e-315, -3.11006557e-315, 0.06290995118998784, -0.29684023459938974, 0.5300971704609336, -0.0205938668828244, -0.40171673871018543, 0.03458112919403965, 0.10451637736349259, -0.23778494942552256, 0.007071242999181729, 0.4570050819840036, 0.04232141483831184, -1.714471664e-315, 3.6850275e-315, 0.10131264481887137, 3.178745985e-315, -0.11923423108864249, -2.844554414e-315, 0.11979975526203264, -0.1725743366938344, 0.8013205702143578, -0.07194781592120042, 0.06625235709514617, 0.1415897438303012, 3.956405963e-315, 0.07744762402881893, 0.032303350080772585, 2.670554335e-315, 0.34287482037953954, 0.3639354213030332, -0.06540767107548993, 0.03389790816867375, 2.826335644e-315, 0.04080413983646475, 0.018615562292883185, 0.03906840172411908, 6.7160507e-316, 0.4584137024692041, 0.03717969926526518, 0.1146223027409835, 0.015297496248344977, -0.3127237568259442, 0.00011787665003867013, 0.22097743334952735, -0.07787327971281878, 0.5768252512011277, 9.5718984e-316, -0.2860137969849883, 0.5755994933582346, -1.699373413e-315, 0.029414082484206402, 4.127219764141532e-124, -0.09358527047511205, -2.29049797e-316, -0.18329303815402054, -0.16262933919308473, 0.1607133814778051, 2.715245547e-315, -1.67864415e-315, 0.02789947799295633, -0.03954060307537733, 0.0607800600812576, -0.01592756681345672, 0.09511250329399557, -0.4073110660404891, -0.2429839399424147, 0.035867108294274204, -0.2846502826893778, 3.487162497e-315, 2.392765476e-315, 2.356163566e-315, 0.33329325622493666, -3.6847521e-315, 0.2553017274949277, 0.17489757791587607, 7.62146313e-316, 1.00410172e-315, 0.07508335015520044, -4.2503595e-315, -7.343894654248932e-270, 0.3052992916650265, 4.70687013e-316, 0.11048237476115776, -1.709168645e-315, -6.70908613e-316], [-0.049290879921904326, 2.109544775e-315, 1.900830805e-315, 2.739319933e-315, -4.040671755e-315, -0.1421167468927742, 0.027744582031003828, -0.09951743830767229, -0.0912379038266633, 0.11035003172791527, -0.26629794765928966, -0.18027771277246113, 1.214347755e-315, 0.005985953606041215, 2.871726646e-315, -4.05811748e-315, 0.2137682969519789, -0.21114604648137072, 0.7368782484568466, 0.025208735853812513, -0.49644551039952645, -0.00640557485938478, 0.1497739994783941, -0.2111372794660674, 0.0043245365446976, 0.1612280168490421, -0.0001363442475572341, -1.88472694e-316, 2.377195526e-315, 0.024119796575647116, -3.93182823e-315, -0.16025295171196577, 1.08462454e-315, 0.026536013910321954, -0.27842328645102926, 0.40616303832873174, 0.07989922777364407, -0.003333267059721821, -0.04657629240644067, 3.932985113e-315, 0.09718188464707968, 0.168455493324714, 3.646057467e-315, -0.005132881371862691, 0.41002507207542704, 0.06862465274211635, 0.035645821067569486, -5.3132067e-316, 0.06439773161686116, 0.008258068504723805, -0.08984603382620616, 7.2155411e-316, 0.4440172357666248, 0.054295139846777266, -0.01449703050114963, 0.03301260718064708, -0.6402350401546388, -0.07636735937019871, 0.2644987857126786, -0.040469848635943995, 0.2201479315643422, 3.00576769e-315, -0.014216106460891264, 0.2114821753378499, -3.838771236e-315, 0.12185894166963046, 8.690698322951871e-124, -0.10234781513121952, -3.8625938e-315, -0.0028556534897660932, -0.12251356065064016, 0.05448269592725788, 2.992080296e-315, -3.447363553e-315, 0.028710795405203292, 0.0784554757420546, -0.167490627744301, -0.05734581976497757, 0.18244305152386817, -0.47638863069433823, -0.15538185798169082, 0.005403743028386128, -0.12095762415354162, -4.42896566e-316, 3.228641393e-315, -2.320156245e-315, 0.19823216520648337, 3.16016433e-315, -0.05800245962648415, -0.09130627419513059, -3.7931075e-316, -3.91718715e-315, -0.10362542101142093, 2.7504961e-315, 3.49080058448079e-269, 0.5618283569314741, -3.84023845e-315, 0.0036917935347479916, 3.66446532e-315, 1.194245884e-315], [-0.030418959361101616, -1.52920128e-315, 9.2993557e-316, 3.222443314e-315, -4.10419625e-316, 0.010328105486290604, 0.006838388756184494, -0.10749353027413358, -0.11784171802100159, 0.323324467917142, 0.012715174171893301, 0.32189089360878165, -2.851225155e-315, 0.07782665612210575, -1.006242824e-315, -2.945159257e-315, 0.2393130221734641, -0.22593012613575517, 0.48763783703988844, -0.0403944805921634, -0.43815292655863375, 0.010980421942996475, 0.07288404310922206, -0.3210898665006844, -0.09864198513935213, 0.5719881141819724, 0.07126282340658674, 3.084029717e-315, -4.274959304e-315, 0.007098280593127161, -2.18693184e-315, -0.2529135396819844, 3.976879214e-315, 0.08859803879708593, -0.11478090804238666, 0.27673015901046505, 0.03951119386336399, 0.044540831518615556, 0.2722829347189434, -1.689581427e-315, -0.23953124656738958, -0.07291819275354768, 4.3638148e-316, 0.419196417478773, 0.358226135138149, -0.014863354034330614, -0.05702257705043793, 3.741467956e-315, -0.037223022949197666, 0.08903814153209162, 0.005134445414207503, 3.33536416e-315, 0.23923344475486374, 0.11611408406402646, 0.06557687552990192, 0.03298924407645269, -0.2779623300565438, -0.09466810035271492, 0.3061677522224521, -0.2157636261295244, 0.37468442151744097, 1.76989964e-315, -0.0664278300406971, 0.36269353895412093, -3.681286566e-315, -0.06450519466619664, 2.242244774703845e-124, -0.13622959189342193, -1.7874015e-316, 0.17993454151101754, -0.12267418556589356, 0.19292812943101542, -1.17932766e-315, -1.5068014e-317, 0.17081701606513916, 0.3036716531389343, 0.2548685400870223, 0.12475421756101962, -0.30636022150405423, -0.4724427024674232, -0.035547741559713124, 0.025519405876286046, -0.19014605441194748, 3.43889717e-315, 3.52633937e-315, 3.21634519e-315, 0.1954347984506043, -1.930581126e-315, 0.39205798324276747, -0.080631836794674, -3.1377318e-316, -1.726400533e-315, -0.09776062771898027, 3.81899752e-315, -1.8211814337260076e-270, 0.37047845502332427, 4.18094335e-315, 0.20029712300168775, -4.00069911e-315, 3.696848507e-315], [-0.07834170613406165, 2.53418623e-315, -3.946241724e-315, 3.22909884e-315, -1.812071195e-315, -0.04629293575891406, -0.04910075748825266, 0.04142350367436301, -0.008272787368707853, 0.4233511265150201, -0.024203437989577838, 0.2740341903820869, 1.778672323e-315, 0.13718642027586192, -1.547669924e-315, 5.12868925e-316, 0.4649207358247166, -0.14994848513013873, 0.22600153635358688, -0.03521782170956584, -0.44770949486670114, -0.02974062439612011, -0.12834134636247937, -0.4954204655022888, -0.030576002370523304, 0.2429416503925074, -0.08403457139172314, 3.565884807e-315, -2.03940665e-315, -0.07441332240794882, 2.81592695e-316, -0.29094826617785857, 2.42251032e-315, 0.02808676679953733, -0.10120113652481205, -0.22388078281595342, -0.11827711427137057, -0.006475040945023229, 0.013845369103613465, -3.232780665e-315, 0.010750924331433681, 0.04014961927438707, 1.050695e-316, 0.43866123202627516, 0.05212915266036409, 0.06679255051363574, 0.020952913760317427, -3.69343235e-316, -0.004940551027625485, 0.05384819928356368, -0.07957085317366551, 1.66098095e-315, 0.17450097004435003, 0.14614227562749477, 0.08138895517374539, 0.03343810574305006, -0.10102732843693135, -0.09949878594487067, 0.4296378815285193, -0.15101413617734685, -0.014705750071713514, 1.645619347e-315, -0.4403669142213842, 0.3651291449210423, -3.10591489e-315, 0.015539051379144792, 2.282475569019305e-124, 0.07096093567068376, 7.9300689e-316, 0.14507164033072065, -0.21841351386327892, 0.36372163351871767, 3.997095273e-315, -3.80666813e-315, 0.24375191348566633, 0.32921867878474304, 0.40591792292826184, 0.1854746732323438, -0.17440767803884602, -0.4082093978015811, 0.3016543954932967, 0.0005740328596743108, 0.14748408381687797, 3.720727545e-315, 3.253439056e-315, 4.31285362e-315, 0.16017628272618495, 4.187182213e-315, 0.31294752798257086, -0.023096941972949002, 3.68791012e-315, 2.7493325e-315, 0.037743526598887994, -2.24601199e-315, -1.30034659407118e-271, 0.24676379400788184, -2.868464113e-315, 0.17865923648619836, 3.44952716e-316, -1.691566573e-315], [-0.05776045634999026, 1.87402758e-315, 2.191508295e-315, 1.65691491e-315, 2.1528136e-316, 0.036267277446219506, 