{"bias": [[-0.9955230104071797, -2.588731290393945, -2.569692541049021, 0.6885459716029422, -2.2694240837351627, -1.8396498213680883, -1.55364089868603, -0.36153364835367496, -2.574031052793273, -3.0435405144534426, -1.7488440026680314, -2.6672536941005647, 0.9429978391208181, -2.6633603109241246, -2.813097799350111, 0.4126438567249725, -1.640342137113941, -1.4734990475016103, 0.1441576971414778, -0.3485744815000612, -1.213021923726287, -2.6314113521776687, -1.0003064048491395, -2.9572432486405, -2.86469792034105, -1.6000639243870016, 0.32169419188119364, -0.3137056050380256, -2.8454879354036806, 0.2800152792530546, -1.8621673270837469, -2.185690679349185, -1.7162849398868574, -0.22194873585276603, -1.5647011568057179, -0.1889839449578387, -0.11320918860927896, -2.639096253705774, -0.6858421864824027, 0.40491006413857006, -2.3173910885412354, -1.8011555154920613, -2.8848445366722464, -0.5057211910149233, -2.3392856122062615, -1.8619078479280615, -2.6254446701704173, -2.700832734009404, 0.22022978354941178, -2.802160994027972, -0.8512206010261693, -2.016999685931253, 0.20171517404190606, -0.038154249859243414, -0.5650138081672791, -0.3739765264877986, 0.7708827866939257, -1.327240966851247, -0.47074140734945463, -2.757676110616396, 0.11988431117317949, -2.800715156183104, -2.240308748262261, -1.4611536018987705, -2.737519384830955, -2.1685344307061643, -2.191463559268888, -3.0017996661405864, -2.6920371224456976, -1.976657110295436, -1.697208645327922, -2.6647734439683504, -2.571633991117719, -2.3069354619867095, -2.2503346682751384, -2.7481516117209464, 0.36657192149527557, -2.077088444393323, -2.686850326980636, -1.6257419338659393, -2.75770681754508, 0.0842474258209298, -2.7985254329139693, -1.2484530414553465, -2.445994521728224, -1.168742772410631, 1.0699600377165681, -1.831949882412314, -1.9155374318510754, -2.763855217180016, -2.455205452988473, 0.20099201465454758, -1.8650111210771358, -2.039335683577815, -1.8880195327118103, -1.8441927656644654, -0.6360066059350162, -2.795672808457317, -1.2237503047949028, -1.136554828406367], [-0.24541069117516243, -1.2688175109743065, -0.23305053066028858, -0.16906051228965868, 0.7925975917435506, -0.07321639392608786, -1.2732509016943785, -0.14827516616369815, 0.16895021085277664, 0.17499128042595666, -0.5220583282783301, 0.5559650447262243, -1.3318467057510597, 0.04991886614857772, -0.32801206606192534, -0.008403843099532113, -0.0802989455379472, -0.5050146688580743, 1.641040271341291, -1.3543969129994469, 0.1143597316882246, -0.33761003505183745, -1.5488323285235586, -0.07678519734112874, 0.011703512917514676, -0.2405025237143877, 0.20157497294520094, -0.640731186097856, -0.12284941068429699, 0.9229431283621652, 0.003660922243188722, -0.3022811877172368, -0.5055119548971035, -0.8368893321053735, -0.08086879756631696, -0.4447343449120576, -0.3210035628604017, 0.0525268672086627, 0.23986016140149508, -0.01630546917771048, -0.07544673932032447, 0.21394289319154494, -0.7544429099727419, -0.10302628595674938, -0.4310912794838737, -0.19580796910303405, -0.6911078379710525, -0.1459587851214747, -0.09595245328650245, -0.09831332143281907, 0.5094115019578626, -0.6421936676787184, 1.2425699283214975, -0.5468709147028946, -0.4748998414089749, -0.8571415212400403, -0.5342304635516832, -1.7246024167916627, -0.9949213348660354, 0.2949181957557206, -0.5383324877813017, -0.6002614829173489, -0.022273065161737316, -0.9574118333660278, -0.5910478471226952, -0.3738407817895828, -0.2705510064993052, -1.778970806898852, 0.16626595101087827, 0.11302867039393669, -0.8389837429848345, 0.3560067312427285, -0.9175048838400162, -0.8398271192695749, -0.2500175971666092, 0.40129586683056334, -0.16846038195071392, -0.00038181760808178025, -1.2646124930393339, 1.6047929657310767, -0.5008330163055953, -0.0023409308272344088, -0.27771907317987754, 0.2115433892436614, 0.23010003074870608, -1.641788835010662, 0.5823377689659179, 0.1305229277936613, -0.7110669239352199, -0.7054879806025621, -0.4219119303630137, 0.09209955446447268, -0.35278599172449193, -0.05916176832853184, -0.9671096533958343, -0.6535326013920716, 0.4481256073718669, -0.03877017354305855, -0.3251370833476034, -0.4553396831221988, -0.4125206437002615, 0.3596497673170137, 0.16263556116464178, -0.046286869921751086, 0.2162402851211292, 0.1977132198519176, -1.6129719056281109, -0.6649166368732978, 0.8983570830968168, -0.41174530334874965, -1.320089438180069, -0.3656322929742524, -0.3816555202677569, -1.513109867627653, 0.1990177824609089, 0.6387702481701671, -1.0243472143529413, -0.00394138337317887, -0.6799326186420476, -1.30627638892951, -0.06496443167800235, -0.10391373649005471, -1.880330461157619, -1.0547230934583258, -0.3558189231119236, -0.6869654949506865, -0.2995456830678483, -0.49379269526830405, -0.18826189657816775, -1.8348756966992068, -0.5966170955439313, -0.511373285356197, -1.8900734250111282, -0.1839262455372832, -0.5121334417256995, 0.5950293276631834, -0.21624618766602194, -0.5947383494259799, -0.311984112118156, -0.8904774177039528, -0.18618723083063804, -0.20541533629314898, 0.27576023818840384, 0.4058712384080886, -0.05205486889493033, 0.12565111244636593, 0.19541871543321296, -0.17918556347054207, -0.967307393710373, -0.05410210546590936, -0.3574912412700227, -0.1737105325427606, 0.17849753602211024, -1.2933710859648826, -0.1946189875345508, -0.9545457887492886, -0.5975531073005261, -0.5091216351930252, -3.5432025899908273, -0.5008626412415859, -0.9448712364634264, -0.17630014143854142, 0.2636265641341433, -0.2824913412875859, 0.262907249060802, -0.7098626506406929, -0.2650966660900436, 1.3801979521192278, -0.25854500154306065, 0.4011802273930713, 0.5208488080957007, -1.6623292325571817, -0.24693199837223495, 0.13806647774962497, -0.522620100888542, -0.1635167875867157, 0.3319824868238854, 0.018114430940548105, 1.421822523192657, -0.4106491606802262, -0.0430784992063282, -0.295163394455253, -0.19013843269747635, -0.1363549351499374, -0.4901907335490825, -0.0010039710906104493, -0.5032212997561848, -0.09643633760735888, -0.17989553601942432, -0.04167886829560061, -0.4020073789428287, -0.395648880795067, -0.3318457761777418, -0.9756590642363874, 1.5913596265531744, -0.39530983310295464, -0.9382794574928404, -0.11793257733500419, -4.141306470231834, -0.7030781078237561], [0.6001546847089486, -0.061162875444608016, -0.23384039983825, -0.05464574992169423, -0.24185567606068967, -0.0017807711094423805, -0.6539666870221555, -0.007896869846836269, -0.008179009681502107, -0.12860692614079197, -0.0038349864180339697, 0.19885612075630532, -0.080077360621793, -0.05416140444364097, -0.12587820798577012, -0.13422424350074325, -0.15503982296349353, -0.6160095187371843, -0.02760273233732341, 0.2561208357349975, -0.02704619948254931, -0.06239034356112741, -0.002932499187723593, -0.17495397906774926, -0.04121732685401019, -0.0504022270053719, -0.001010345187714337, 0.38341056966257775, -0.14751804494554135, -0.12422282855068179, -0.22337816241019443, -1.2195365088573455, -0.005647024818076155, -0.13311127572496734, 0.18201952369638005, -0.5465787982425204, 0.09622391885983106, -0.09917847319009632, -0.12619563902466732, 0.1459026488105725, 0.37328306337711736, -0.2047541612433648, 0.3099460120541716, 0.30765360369063016, -1.5167411151085961e-05, 0.5231413514490395, 0.481326111128179, 0.32437995957766896, -0.12817586364480552, -0.111717418509073, -0.04458123243007972, -0.06862850092908131, -0.03963990964694685, -0.1481391448401828, 0.6220549350396316, 0.06499824364509658, -0.08054208686989091, -0.08121145413405345, -0.08132129379534327, -0.08835393938311228, 0.12827073883871049, -0.009400366296174837, 0.05296219212278344, -0.10101989148971637, -0.26770443160582097, 0.38187605381338624, -0.24914616588512772, 0.6020907069399558, -0.06675828843305838, 0.40798841037567946, -0.07308726166942753, -0.004297809185612312, 0.8182103272956792, -0.02134075560818876, -0.13257199706040043, -0.041268314599556113, 0.113423601004043, -0.07729602004179996, 0.058210506544196024, -0.1637524265424727, -0.25965314281758456, -0.21396283182340614, -0.03613576555516852, 0.32608547940025073, -0.15597523398772817, -0.00084997573111647, 0.641209675446486, 0.18829448673768334, -0.09820672047321878, -0.13253425786958034, -0.016838384011078168, -0.015325039973393587, -0.026590756870809907, -0.00695840333391915, -0.14805794844517042, -0.0485452970128117, -0.0450522878827656, -0.014214443511886724, -0.006337801589289918, -0.019353144765812222, -0.0017184180412404826, -0.04195225310269763, 0.6513419326411826, -0.013980436309117354, -0.06628714099173089, 0.19652720195075676, -0.007968238528730614, -0.1747236598184842, -0.10715900279627687, -0.03647836618758493, -0.2529404105268149, -0.005250404938740502, -0.11426588444590288, -0.028148138917648353, 0.36858107017023845, -0.010915301815464212, -0.11125767474554138, 0.7447918678401253, -0.01905397253301888, -0.08277102204825137, -0.013943520309691971, -0.09298837823052183, -0.06155149898514419, 0.6051818724180921, 0.1279213556200731, -0.41763637157901323, -0.014593195392687306, 0.07669068784504936, 0.5999626336071194, -0.2268985191956707, -0.02009576415748947, -0.0913147834769031, 1.679888879117493, -0.23070463097482918, -0.03767243779233651, -0.08776142155889875, -0.10032418157163585, -0.07834461177378885, -0.1337258474299575, -0.060677742959485116, -0.2694813204609058, -0.028166332043197483, -0.20129491938699384, -0.029481927568659336, -0.09913768313493809, -0.11225460870765346, -0.039989082218451266, -0.2731212346500846, -0.006160720951987867, 0.43327896961292245, -0.14622170234003026, -0.028388736816025037, -1.0442445805090372, -0.02398870777951965, -0.10515103984010042, -0.009749566332031731, -0.024249308571926264, 0.6907226809664522, -0.10361345349919282, -0.14661771664655715, -0.06459987626474936, 1.4889555823958336, -0.03871209462776905, 0.18392658350401572, -0.0070940399658761385, -0.009054832610124006, -0.011133041188717137, -0.007532410965174524, -0.08025876065887319, -0.003887931067674245, -0.2624368045364792, -0.015940829984143968, -0.013702405242892655, -0.015595117305076114, -0.08915965196449994, -0.0010062057450411328, -0.18509977339431993, -0.177232714476311, -0.1059656479117843, -0.006095810766262315, -0.001194016202094557, -0.0001596123892794045, -0.014851217840568963, -0.024899056843770282, 0.2625850301622563, -0.15326561873128733, 0.15739244948568615, -0.021625048319964472, -2.4676398027908295, -0.06538879723325412, -0.06805959825804184, -0.012616555122718268, -0.08807282139102138, -0.06505459587033043, 0.5149188723100808, 0.5401932285624732, -0.46612833822128436, 0.1445268133893675, -0.22792962603535513, -0.049046775379672704, -0.3681274693261315, 0.4273432956746608, -0.03285328636580486, -0.012681711403163346, -0.06633044570854854, -0.003682035700227772, 1.3131376152367338, -0.044314551559071595, 1.446279721123671, -0.074555821793281, -0.007430835765867755, -0.38052714428660434, -0.18112373170514964, -0.07139993861786778, 0.2846013570544326, 0.44726323892002556, -0.10468193305807846, -0.1098780463306175, 0.0678327762262482, -0.027676509733220906, 0.6298611715539322, 0.16742952197164276, -0.3463212216939405, -0.06717313226877543, -0.013811230074715037, -0.10970449532844531, -0.132338188646784, -0.19596708988587255, 0.21820928259671118, -0.2490549564217957, -0.05294236320008626, -0.20743702524242794, 0.6450266537885017, -0.03925232476664461, -0.06965470197874402, -0.019778304953010854, 0.4885275514506013, 1.4680475972913036, 0.30356917306736453, -0.06637846923879523, 1.2588703578224625, -0.023921114931611354, -0.17572948670376376, -0.05490599413286717, -0.024443050942466717, -0.2155178414116892, -0.15994901350915797, -0.014774776819456149, -0.07179445046425788, -0.008999632320091955, 0.12314161143862906, 0.22858101704602887, -0.06985925524574367, -0.008970938391434464, -0.11397116004682956, -0.1204404996983996, -0.006978884669585012, -0.022236016402356017, -0.003933646719853121, 1.5592311471917577, -0.05367439823750809, -0.023985335239409176, -0.08239021792784483, -0.023702008043420323, -0.07507499688568575, -0.2054921096937553, -0.08021129871683104, -0.09963182176484268, 1.42611295929389, -0.08439390736715383, 1.4559760402413573, -0.0352743733834655, -0.17608335320680893, 0.6877497428186835, -0.10043140341468884, -0.09153090226204917, -0.12078326961769403, -0.01881178124422128, -0.11010585679394831, -0.02470056969679527, -0.11364432469878075, -0.00205270809403265, -0.16497433051037358, -0.052006575787733184, -0.004057330461238706, -0.013585448698244218, -0.0018186058716858507, -0.0061016007524867565, -0.025710770865161957, -0.15418162397620833, -0.32171515433436243, -0.29193954800988814, -0.5610263032145069, 0.1963501674142255, -0.10519623353343176, -0.06132541561102218, -0.10938969886874518, 0.027996406470876263, -0.008230211298281932, -0.005448790204040832], [0.8505809352288143]], "hidden_activation": "relu", "layers": [100, 200, 300, 1], "output_activation": "logistic", "weights": [[[0.05437252310780232, -0.2264701916214005, 0.08488750571289119, 0.4192579332445287, 0.12040091623363079, 0.22082832900938656, 0.24723037365412331, 0.5722053752348423, 0.11396702233451375, -0.1013278125321086, -0.322181252328653, 0.09402860773152882, -0.1571012524682561, 0.06353546788539699, 0.07800871810509764, -0.39781932861769465, -0.2691522565030916, 0.18342538985093476, 0.3132411259324652, -0.3214086006088774, 0.46218315540499705, 0.1599131245479056, 0.07934536441223446, -0.1181127054599264, -0.19930707495613398, 0.22120944389428512, 0.010342824072323738, 0.05719537505746458, -0.1411137827523297, -0.07745299155287595, 0.16009859014975145, 0.01795453921223099, -0.1442040314977868, -0.324851278549576, -0.23634120720010765, 0.9095625769274789, 0.05390320808713868, 0.13050866704945813, 0.17889172860018038, 0.341182071881355, 0.22815534141772187, -0.005202366112412333, 0.12284716641719293, -0.6399787913074748, -0.09551416224879292, -0.003255168004107525, -0.3474516972107878, 0.10325676386291631, 0.03978472706749395, 0.1492768459805778, -0.082214208919802, 0.37074769339676134, 0.4085731151135213, -0.27081158149467927, -0.2055285889127648, -0.40199554886248956, -0.25484478217596845, -0.012195467446735084, 0.4641316551547609, -0.22396575815589442, 0.12388710771666506, -0.07840860898981888, 0.7400826542955965, 0.8549467454174682, 0.09264770882202833, 0.14108326247171044, 0.12540372715127948, 0.26866907407419943, -0.05026022395652381, 0.20633292190963373, -0.10866521591868979, 0.11747881733150844, 0.028800436783372556, 0.10651469740740754, 0.6649019985412793, 0.09898329369299014, 0.29055550762613375, -0.19689936618817105, 0.0678298560114929, 0.18187053206590914, -0.11204974277287669, 1.2571948129486046, 0.2723191668110869, -0.264053559379063, 0.3191010140235629, -0.052441274073548594, -0.7481436070167021, 0.09148955785913826, 0.1696056509134642, -0.03448141752225631, -0.07220541669108736, 0.1599801055611413, 0.15593435087612767, 1.26037697e-315, -0.4906360077684744, 0.04097159229260989, -0.26581741883198456, -0.02609982867921081, 0.3460848453253804, 0.18539629700554888], [-0.10170569727380853, 0.030754030368902934, -0.06541702387016254, 0.1921362134837894, -0.276902334601148, 0.0321136394523638, 0.20235404988007802, 0.7808452989166149, 0.18319082858388638, -0.0863718814618512, -0.5517524635586497, 0.1161774123490277, -0.1732315157742255, -0.01733594535449835, 0.15885797804201693, -0.22959042194844928, -0.26151560206425295, 0.0011415356364005787, -0.36896935410807025, -0.05377883124247377, 0.033853105284861254, 0.14708416768333663, -0.058645035920223625, -0.1701368002283109, -0.03270406470455238, 0.49205837908804895, 0.01843765031284752, -0.036310318844241955, -0.19661568148281688, -0.5652495581183974, -0.1866208661009677, -0.10098955142906804, -0.3011069729965138, -0.24426878087678128, -0.031855942685924996, 0.6203010571830301, -0.13851725336990117, 0.12170358294091374, 0.24865103916685863, 0.09106633334322672, 0.1039332497470775, -0.025551821547963805, -0.1292704450783073, -0.5602365337634622, -0.09760474014972514, 0.08140681131404987, -0.0015249756891394753, 0.012585181949923469, 0.014516247421360817, 0.11939211266441084, -0.15187160825345886, 0.45784791644014305, 0.2997120404797889, -0.13755315909579927, -0.08340922201918204, -0.33639818392668236, -0.10950268574382088, -0.07962474688905881, 0.21016855085992853, -0.08105517974168973, 0.30365473362367845, 0.04537712378440639, 0.36572967482094365, 0.5976584051481734, -0.09112085074358862, -0.13370493083087098, -0.06880112411351391, 0.14424903984771567, -0.014490922929864519, -0.03521155155694805, -0.23838220134758356, 0.11068176685389965, 0.0114613584536506, 0.04656319245742661, -0.005818486541292272, 0.06875014236757054, 0.309525420037354, 0.2010024542454349, 6.646920205008144e-05, 0.17061282175350745, 0.08663384416289993, 0.6351827534782187, 0.03135819595276323, -0.14074189891715086, 0.13953719448654547, 0.05499631873548821, -0.5714460288613644, -0.11944512731594131, 0.03605080963237646, 0.0431574798281882, 0.019288554521341802, 0.3127330051575681, 0.07229465310855121, 2.6588568e-316, -0.06524545678694808, -0.048868115337311474, -0.18088763576976669, 0.023614828825820257, 0.13763558718927105, -0.09382022172635214], [-0.0504510727608077, 0.08392402025590069, 0.011601488898866499, 0.15988528910968716, -0.019469858305625524, -0.014458453220052831, -0.02099322484051029, 0.3007843045066237, 0.0234717094767713, 0.09109953081219799, -0.7734696669708064, 0.12668373311452238, -0.2268225985562539, 0.041495191189573066, 0.12459350762370631, -0.4035948105601046, -0.1484111341031852, -0.11762322468910384, -0.04365467896897979, -0.1237312819343288, 0.00030361103410364695, 0.08206540668602501, -0.042924416504660806, -0.12703606878603785, -0.017775946337776977, 0.9186860650534486, -0.04165976471537172, -0.13668418155326464, -0.0024038397656109584, -0.510712223101259, -0.3019094931540196, -0.07724457050503804, -0.16766332178015705, -0.2585830586196556, 0.03776257573698045, 0.6905245244776707, -0.0003082625636848062, 0.11600156645006149, 0.3090791985047936, -0.1618605940244009, 0.02638867225105627, -0.018045456723492136, -0.10359624683870483, 0.19694331625146516, -0.25494569967691866, 0.10481599889797356, 0.07807415217411345, 0.04251596653241468, 0.07146869265329792, 0.03147112200108176, -0.04405382410368118, 0.14276160666014426, 0.07223241415269399, 0.14283733531473466, -0.10837451846871311, -0.21229867149641748, 0.044219730621829025, -0.06266990101304856, -0.15529724336202191, 0.049083497614215425, 0.1889143207449519, 0.049498221984787205, 0.11726631726600474, 0.08993038944727272, 0.03160598331034052, -0.1457664421006813, -0.02441490352446796, 0.01641616809638867, -0.12397500982293205, 0.027305757937666937, 0.014571164030588269, 0.07083127215552475, -0.08747456333914644, -0.06771536508387345, -0.42394765193248574, -0.17640411974862166, 0.03182718685159782, 0.2638898276739109, 0.07998555557904088, 0.10154481885127382, 0.04395285981573644, 0.7097901246032392, -0.1309049734802155, 0.01559340111840108, 0.02686718325570322, 0.17237614371086207, -0.3663930294853119, -0.023676976780828286, 0.008160496194367503, -0.026006719940869765, -0.02832415144659763, 0.3328143904409059, 0.18171948086380973, 6.84642215e-316, 0.21358935066026027, 0.012711274083739033, 0.11138229141585138, 0.07122456222035835, 0.3157423530754215, -0.10838357046928297], [0.18143872892785493, -0.025666934337281892, -0.23824992071797768, 0.33220621533671973, 0.05229484625030151, -0.2617624463436854, 0.08650222854392654, -0.1647250698323573, -0.32777475686544216, -0.02795449260448587, -0.6816172313177092, 0.0440737127040463, 0.1597482598288676, 0.08449503640985713, 0.1279955945072795, -0.11670390267089596, 0.005599550481237207, 0.08884075849152254, -0.08286818468822685, 0.12260460304028085, -0.32230833003632414, -0.16480202807310662, 0.1961178244565407, -0.15922537772146717, 0.007013454232382959, 0.5549056312034881, 0.1747037384768516, 0.09784799155789016, 0.029952097461121138, -0.35242719490126895, 0.16076431113559353, -0.15493343587721373, 0.14338974182692008, -0.3525048948004651, -0.22310835454851025, 0.5819664720326828, -0.09168764064957914, 0.13830956697967248, 0.22423530878090403, 0.07185963651942721, -0.008900499712099665, -0.03853793424964109, 0.012641184294360973, 0.18318330541270508, -0.16273831611518122, 0.16953625202830472, -0.00039870913762634567, 0.0766222669437545, 0.11136469376457414, 0.08754155448950235, -0.06465753309659289, -0.19074661437627088, -0.12063071049411245, -0.020736169979476297, -0.20815713211032036, -0.10902107890368681, -0.002480431620526085, 0.002033028249494566, -0.15889037141700815, 0.05656037661964567, -0.2734810165023426, 0.06712747593368684, 0.051476079947329105, 0.019124917547104645, -0.07323987131642092, 0.27334797547764045, -0.3813116375837331, 0.12111377519627842, 0.05814850040631842, -0.21788105510377392, -0.038969608849206964, 0.15988695509708817, -0.021703444653292298, -0.06351686433323535, -0.6039537803968986, -0.14126565599873306, -0.0056518704941179235, -0.19039063348556817, 0.11146908534720322, 0.25337479682405095, -0.1122107165012646, 1.0994550133138385, -0.19082935244822474, 0.12708116518441276, -0.20516087957400425, -0.3810992711539499, -0.0007441795586009631, -0.00479512769549723, 0.019845603989569922, 0.017358612409785635, 0.021270218332507813, -0.04060118560498069, 0.09374494506722496, 3.668569677e-315, 0.20899051974651645, 0.01861313265123545, -0.05041963602489699, 0.08941262514430992, -0.17818393631059082, -0.26654503410542313], [0.1838043955579913, -0.06583048865534502, -0.12239927977651405, 0.18319305696069504, -0.00662753279466688, -0.18188117606557502, 0.20961020406050795, -0.32306496136471585, -0.09815553847346442, -0.037432227857202766, -0.48679095468897216, -0.03247013435740469, 0.15794963809239876, 0.05480922506058553, -0.1646408008368633, -0.3564455425056189, 0.12034812562326709, -0.04262204466266394, 0.2489033229929796, -0.007699588654366697, 0.1430587974264375, 0.09215976248468705, -0.020621820336216456, -0.02819156860671062, 0.02914553456678742, 0.2347170441235827, 0.1981695512178389, 0.26243973041310736, 0.004697825636329937, -0.2836042282839544, 0.22211123782092304, -0.18441558821448928, -0.15629659233297957, -0.5470281515938972, 0.24650410291160282, 0.3921647146413939, 0.024367437012698487, 0.10892660169144203, 0.16971888085550196, -0.2610680493556568, 0.004642064922273279, 0.024424097473467247, -0.09402817558411664, 0.49173797780258305, -0.012536388031624414, 0.1794229199868963, -0.11502298635819978, 0.13506736449982937, -0.16765346579801635, 0.1301912772421798, 0.27070122726199486, -0.1948898537062345, -0.012045178197095316, 0.014673728951665955, -0.17673753185159644, -0.3702963708690616, -0.14559387161501566, 0.031006121473731257, -0.19232694923236168, 0.00457873784331988, -0.14398831974677478, 0.13130478445948365, 0.3321445037826871, 0.12358601687915916, -0.20808978960022478, -0.012426845547818362, 0.04122373222469298, 0.15526695567647156, 0.10408818417619684, 0.24773337135174972, 0.1031445215597458, -0.034543536697168704, -0.09768225997960853, -0.07079121068540283, -0.08781333218996899, -0.1227721772209982, -0.4007004071765563, -0.5032874470970355, 0.10599328273161011, 0.22463907400115035, -0.1176772323499057, 0.8746571729482785, 0.05180493855407611, 0.0901556967392303, -0.26108637818578434, -0.25367399286926734, 0.1615850816307938, -0.03455764079890117, 0.20537998782913958, 0.08502387040184228, -0.03839912567780882, -0.2767990887958681, 0.14218550276923428, 7.9559604e-316, 0.21817297986221526, 0.19140005181561717, 0.23714076160703107, 0.20555139549862952, -0.19262701513099328, 0.12159750740396477], [-0.10334107420903309, -0.0042103303437958425, 0.02030957970041338, 0.18420769021589703, 0.1255946989255123, -0.014020183713055462, -0.0953939030704017, -0.25469920991561906, -0.4300194131841137, -0.001511312630716683, -0.34349732868867366, 0.12863618778159594, 0.08482276673922166, -0.09261921550982427, -0.06738467438452178, -0.17876935944095895, 0.12132951726051223, -0.10759644442586382, 0.23023027262002996, 0.08044918150181019, -0.17613526222753242, -0.19238401279843087, 0.02258429139988447, 0.01027937292833283, -0.12071552686969422, -0.015134031558914287, -0.11494365289298931, -0.1174935571974526, -0.042871191518449925, -0.39978698266571466, 0.07284883347301314, -0.11627465801681944, 0.07610324344019331, -0.3017887229945395, 0.5710927109255318, 0.45988301728076186, 0.12262026697193852, -0.0337319915724358, -0.20700582419907898, 0.21196767069757882, -0.12057665570554671, -0.07843716848290333, 0.05321116018873713, 0.0834190225509796, 0.23435310195102638, 0.06620154551150538, 0.09033017953134924, -0.24507526902494653, -0.04902968329978315, 0.1739542174834335, 0.2822406790323657, 0.054847500040608295, -0.07480208573639135, 0.12865216952999453, -0.038325626750797884, 0.05045197702693168, 0.05346311633065504, 0.0754092378484485, -0.31242520124916084, 0.15758545949596464, -0.3629791146062841, 0.21774592685849095, 0.22557853935398448, -0.3245845784175729, 0.07386492690536105, 0.004111127503548201, 0.2049351960257332, 0.30954187045179987, 0.2317116010697325, 0.028919134857119333, 0.11673825483416926, 0.1184079699548931, -0.050477097775535495, -0.1971630070091521, -0.33318434427981114, -0.15609949825790145, -0.2627301716199695, -0.472909781770703, 0.04349454781677757, 0.005557783243968809, -0.003982948614935293, 0.6280067938371978, -0.3728978549400061, 0.12047352889867165, -0.2542987091849302, -0.5339500290351474, 0.6007116473619487, -0.07677636651935561, -0.07437516315240589, -0.0022756448177793, -0.047169589809765725, -0.4743874860628082, 0.12283713280258089, 3.16002075e-315, 0.03935086717478053, -0.03946612504869725, 0.06773388935313443, 0.06576043259472089, -0.3904590655817091, 0.031206402790952194], [-0.1814671343339951, -0.1010428064134361, -0.14963846613018122, 0.23852138797217484, -0.032290664999212695, -0.33176964642637224, 0.08577439256823055, 0.018189734614182773, -0.2898078017391444, 0.12446258355695822, 0.020384120073914262, 0.0484318447048852, 0.09317429118476768, -0.2712618895731556, 0.0008464011424450686, -0.23836790247673004, 0.10880609862268469, 0.056005341834153254, 0.12812094321518272, 0.12676880230252655, -0.2131023529790501, 0.09572904843590938, -0.13667205885560496, 0.06283943484334645, -0.12913421935694444, -0.203778618354163, 0.06460886903183831, 0.10764066388634662, 0.11888729159028401, -0.2482006305825897, -0.0006271503463629314, -0.2612367692262039, -0.04859703110649003, -0.26553141725262225, 0.7229755306320134, 0.2582005944244754, 0.19498538614654634, 0.10333910383841585, -0.08523773492125461, 0.09689683709402938, 0.028437742814576828, 0.06965661600497255, -0.24326177883227926, 0.42584849393191526, 0.3102907437610293, -0.012330720452510269, 0.019512117077850295, 0.07932059431033413, -0.1663973915888573, 0.2251028437946139, 0.24579504148160475, -0.03123181993715544, -0.14918770888255178, 0.408561642131148, -0.22427784577406906, 0.055103958081722075, 0.37800115786053745, 0.2985569444628675, -0.20078981684911473, 0.09042887554004747, -0.3396794786864261, 0.060432594310698494, 0.3704195687239973, 0.019470615749646165, -0.030018122699763956, -0.049694812326807274, 0.3442274652217056, 0.24012310473139412, 0.3124526353083003, 0.21242749775302106, 0.2389868311881552, 0.09142187100301336, -0.08971805980918175, -0.030133924163849635, 0.2213563518320925, -0.007536300139081529, -0.14549268949717922, -0.26218601510203965, -0.07551389975307607, 0.09654222103283432, -0.18431873436630444, 0.44285639445017455, -0.07138858669673502, 0.05746503745860471, -0.13109310938613786, -0.051501303018286884, 0.37660907844842345, -0.09007941584198799, 0.10240194637356756, -0.04092397420127386, -0.06374965904213399, -0.3574030999202339, -0.09851155150865172, 1.690870133e-315, 0.24482801463642598, -0.1520516344473168, 0.27136902876721203, -0.226616162051024, -0.14581470450731696, -0.027407336895387265], [-0.3410512798717718, 0.013081029739652522, 0.13660750938681976, 0.19595089415328648, -0.0940467634733387, -0.21922964560635116, -0.1764090012985191, -0.2062481450634803, -0.24852506015045814, 0.0573219170624617, -0.08055976636065394, 0.1590935150087042, -0.1260078690051038, -0.10563432086884433, -0.05992502225541783, -0.2869486483562812, 0.035252324830281775, -0.012002416207457315, 0.14508763247100398, 0.035386332510717065, 0.03880935971927951, 0.07239242245904633, 0.14593131365894346, 0.175622732140827, -0.044982219389687425, -0.22805221784382934, -0.019206073114745977, -0.18338557499400632, 0.09942094680658681, -0.1317939063722357, -0.1221391490521451, -0.05292486318605765, -0.17759179362544325, -0.2861978146267662, 0.6542579903263894, 0.2731182860778078, -0.12640959756937756, 0.07217669060494067, -0.16073101711369017, -0.08105637691146, -0.00833494019208727, 0.11327657187508569, -0.19771269015570672, 0.17460212428984992, 0.19756738602456952, -0.04871900593575699, 0.1608415572332024, 0.09762223035666488, -0.015650394249500696, 0.1798414612396174, 0.12084869477217787, 0.2134909837716786, -0.07905119037911577, 0.1661203859854199, -0.05554342807840384, 0.25269714178097424, 0.3486151022798281, 0.18532632572850444, 0.08360697130094538, 0.1093640878869506, -0.12468357239499156, 0.06266603490914598, 0.10253264618882757, -0.32996320032777454, -0.06882694802138374, -0.015191935278377987, 0.27809805341788857, 0.09592557209141336, 0.15648539884158577, 0.1804366955975093, 0.05582449982316874, -0.09230671958222197, 0.0002002680160836751, 0.05545052538237815, 0.37537875213456173, 0.22861100360323694, -0.0507808734776936, -0.04011877553514385, -0.09385163763990233, -0.0630843156334163, -0.17174282564120502, 0.6261483019818666, 0.06291076073214352, -0.0461272626662715, -0.03320944081257978, 0.02065171127360118, 0.11263083393109254, -0.0588275388339337, -0.24135471873739323, -0.1004750583172458, -0.04184000275407913, -0.14727936437431796, -0.07916305519348653, -1.687591894e-315, -0.12543629116777447, -0.10267121877378776, 0.04580449278042799, -0.13577997055271493, -0.11625359420661636, 0.1752283990885905], [-0.032765656008099046, 0.1586952534230154, 0.26759125562366487, 0.05903632274944456, 0.22587438186346562, -0.19892778726694474, -0.2721146561340345, -0.28963274913872356, -0.13743589208879972, 0.0611220012841097, -0.06436926931337979, 0.08502659776768857, -0.03106520134011946, -0.10257590857928241, 0.090611227143613, -0.3208977712026587, 0.28737725499185934, -0.04270972243937815, 0.1679753420445493, -0.0933522080025213, -0.16327753286297553, 0.15405967939734233, 0.27792566217466896, 0.06606669162954383, 0.1086655341066478, -0.5700331496331523, -0.022186201900251567, 0.02566812252006362, 0.10866132655801646, -0.14578713386337722, -0.0027848029407998697, -0.08556875908753596, 0.07883392569441612, -0.09758801019387553, 0.3121225718963564, 0.07126209149363398, -0.13360776497445925, 0.06863654529898425, -0.02868771724100099, -0.14206155368656823, -0.06623295318252291, -0.02182373282841572, 0.4138146569586083, 0.27677663271222663, 0.3662441697914365, 0.039661412624564345, 0.26223451289956967, -0.14115910590969855, -0.13008915909594762, 0.09559435841386005, -0.09812887253745908, -0.08716490232819189, -0.025308884098272737, 0.38409196568716814, -0.25436849147226165, 0.20181808761298267, 0.15382532748176211, 0.26103145601474254, 0.06862403098273404, 0.09202001387321095, -0.20242262629733065, 0.12400865649868091, 0.23450588672264455, -0.7332557765943081, -0.022570770646041193, 0.13034618837578738, -0.22321206126754622, 0.07985926017880421, 0.22812351654527754, 0.1717964488121492, 0.27009427017378906, 0.057858554333226175, 0.026239718353661835, -0.01958410026557295, 0.08537991180088167, 0.09753181877018799, 0.2345824534529985, 0.08059731319844723, -0.09793092750876503, -0.0627513142481663, 0.09425068149427028, 0.600218364554106, 0.0018483734296893032, 0.10604477946580507, -0.10782509172424322, -0.04823094299269459, 0.06301412481416165, 0.05734878729012863, -0.525716117886355, -0.04828621907674947, 0.11458163225071376, 0.06955675369028042, -0.016636119420150416, -4.7650978e-316, -0.06386776592366974, -0.1295426864020764, -0.15456629331063879, 0.0256999027062939, 0.23346385034646852, 0.09371357402360604], [0.007457562231217122, 0.21577652745001458, 0.04886786999939832, 0.026046232501668033, -0.009262702039710177, 0.3848205355019813, -0.26902364150526675, -0.06453456665001202, 0.10569105934253188, -0.014737660500354756, -0.023134524744371034, 0.086566101701956, 0.0035149482276902906, 0.008311227203375413, -0.013171447016877131, -0.3868753111601382, -0.09969238002869775, -0.13264259176470702, -0.17711304978135045, -0.01317571732834033, -0.059237756288190085, 0.24866489412591952, 0.33540102104682457, 0.08689842298112825, 0.02952900597131045, -0.37059503179777686, 0.009810008430755123, 0.015984927913330033, 0.2278746312307466, -0.2735957532879509, 0.0033177330358927994, 0.2734917054795446, -0.13086615204285554, -0.1389050757971649, -0.15615458287007689, -0.25521947172117765, -0.04278266863867524, 0.011456632244818354, 0.18429732417032135, -0.01918099211166094, -0.1219960200288276, 0.028771338653243054, 0.24242789834288042, 0.141665973231137, 0.4504464658303873, -0.004932692785100002, 0.23471360795907062, -0.05183221398348163, -0.21158333480719202, 0.29006189411550237, -0.30153272591429264, -0.11391608851071254, -0.48356042521112536, 0.390422864381127, -0.07849701938574823, 0.32946270345959106, 0.40417131536347967, 0.1847038342514693, -0.04994294669842303, 0.12481923112134116, -0.14413109823269576, 0.10002376808842844, 0.17383528139142665, -0.387026187965053, 0.1779936296432946, -0.11519376082617792, -0.2696693199516788, 0.33460755720626084, 0.2533802041221049, -0.06838216679983884, 0.07110692090804069, 0.1142699786516998, 0.11082576429391326, -0.030538840353364884, 0.20494933579291205, 0.07369993326582278, -0.08244940844260994, 0.1574102000096832, 0.00849117386465066, -0.2916499935737399, 0.12016083258195275, 0.4772612800466531, -0.20851423182164008, -0.11797624117039977, 0.16061043655497237, 0.38025905987968533, 0.1452500993026389, 0.06956607105677015, -0.2892727357044759, -0.04947151306138674, 0.1914537459035332, 0.42703226713155035, 0.020218489959799333, -1.513880942e-315, 0.042298080696779844, -0.01560536832940383, -0.02431737729842788, -0.02862325703879071, 0.2842397845470661, 0.1546354081623675], [0.21887452326094714, 0.006446597367325024, 0.04204595985750982, -0.07520467971986615, -0.06815217360113834, 0.39322089749674943, -0.43356963503366275, 0.27833069779631003, 0.005349748428057521, 0.07501863123075277, -0.025701105326156146, 0.017705567669328407, 0.09001895057839851, -0.040818890060982965, 0.11388786227029482, -0.232404124032429, -0.2703122083482895, 0.07470497544041602, -0.008716974335117946, 0.015058909802502456, -0.2939784925184718, 0.34657326038780484, 0.47347601327982386, 0.2739402454558364, 0.13735469373850925, -0.276410011756217, -0.20541561047102633, -0.014674986048697474, 0.3199348284353642, -0.31071872994121336, -0.09895988978156332, 0.406944928682026, 0.09466189228761702, -0.18179335724790294, -0.22450866406955888, -0.24756474039582813, 0.010772323884895145, -0.055860186527789235, 0.27495070629401186, -0.15836762182049377, -0.12091868230632778, -0.11507398222548043, 0.1769156124951705, -0.23531075306351681, 0.1942155018323584, -0.18050736229217917, 0.16396366447475524, -0.15069795264495664, -0.21498827582278082, 0.12516294158402538, -0.11571401679252136, -0.2578235827626146, 0.025152740980568154, 0.2989345416077815, 0.1892494734885033, 0.2169051385428467, 0.2551666481032827, -0.050701819820254304, -0.11218142282850943, 0.10278611083604726, 0.0236236274515431, -0.02692085949666098, 0.03769977782705409, -0.30495062852019916, 0.1100625123585157, 0.06939339337800574, -0.6573220433985398, 0.04454835312931221, -0.11121088545126259, -0.06895268991059375, 0.11684403917330287, -0.11922652929105508, 0.0850628431248955, 0.02816598013392774, 0.19550395013573726, 0.12753291100446376, 0.26293932688930094, 0.2894377847110152, 0.2166172743050354, 0.00935429144077488, -0.08319184682115864, 0.851658952741095, -0.12533935108570105, -0.061938507833057266, 0.1908586532900008, -0.01838289283918242, 0.3138179850751756, 0.4104144695826014, -0.729829367549683, -0.06581126332255473, 0.09381940500444799, 0.485586393771745, -0.11622487410346037, 3.55027891e-315, -0.08047420798293003, 0.014868927663445339, 0.07095561403695702, -0.0018640582411602587, 0.26944435762807684, 0.05882206286307494], [0.2681609491343857, 0.1471843665460102, 0.07482334951297241, -0.018399889689096775, -0.13425266830158444, 0.3528029484236159, -0.04665507076134313, 0.3158893453884477, -0.03713324766446945, 0.012065992839030145, 0.12995305988995193, -0.0035900213144723363, 0.1676065437839411, -0.03528677305066933, 0.060775392773565994, -0.2196872106648551, -0.18865149385874203, 0.07930305080388214, 0.36177527671702486, -0.17478181153133854, 0.12267418803471963, 0.15874239809973945, 0.4426746180671998, 0.06085242444881034, 0.11186555432787079, -0.14551433591055724, -0.11064098648940153, -0.008790141226860452, 0.10445692273652096, 0.011743095299863377, -0.018781726574772648, 0.31347110310930226, -0.07347317810306982, -0.28296349868714693, -0.3468878445698421, -0.20737349903387534, -0.2274975102130346, 0.0863297767165557, -0.07413964277808723, -0.2583438130180107, 0.05991625735045581, -0.07289978389668776, 0.4199384516695942, -0.4249013815585266, -0.326846573952568, -0.15007076508830824, 0.28046651375586873, -0.17796977404919223, -0.11510078017263312, 0.2286050682822532, -0.010382249801307288, -0.028994321906790854, 0.489927808827366, 0.03903385817521819, 0.2668617131412942, 0.20087967896100842, 0.08846376117042497, -0.14110070796849314, -0.3007926828501391, 0.015163308327494688, 0.04479938354006484, 0.04310151584704516, 0.1702112010641223, 0.2534804918278122, 0.019444296238795088, -0.03471427749214359, -0.3909463509872089, 0.07973041147720539, -0.07029761502079143, -0.1536878948779914, -0.07177310772925467, -0.009393001297164067, -0.038178530960727826, -0.10102738903257144, 0.03336132819580218, 0.030957333586629537, 0.1487326536112109, 0.3089152808993325, 0.1155286230812415, -0.029737725163086943, -0.1756840103852188, 0.46955048429488294, -0.07694337418903688, 0.14641937869404656, 0.4761557955920158, -0.07929302356617118, 0.43106714492164455, 0.3713651102065202, -0.3165523260698745, 0.033272139610989335, 0.1696402373812761, 0.2946975090266859, -0.013379110864468264, -2.02752594e-315, -0.02858676690689612, 0.04647417042437643, 0.2940306912472931, -0.19790323748689193, 0.07486508509174382, 0.04329181757911132], [0.7194106580244318, 0.21003057168285638, 0.08025484301396489, 0.009806540444819028, -0.052752708215448786, 0.2207911408414261, -0.009384162115775288, 0.09256446901583748, 0.018923436247800494, 0.0860788585488557, 0.007048680011532719, -0.11655186768082319, -0.011013347442352389, -0.11333676694864901, -0.051848026329837885, -0.2598826067289137, -0.09672229805831312, 0.011516408865125491, 0.09532457987157618, -0.011312773351825442, 0.49856046729990133, 0.22484531068622818, 0.5626454478105177, 0.15818126510849387, 0.014706200740703026, 0.2694230978896806, -0.1364486753576463, 0.1040401383462879, -0.14482563305713608, 0.2130386068518332, 0.08711320667657592, 0.21920675646140284, -0.07690507830796078, 0.04629509203252036, -0.4883227772327831, -0.12532824857050145, -0.19897697195694788, -0.00039312686327695767, -0.07050370716299324, -0.3314240877351681, -0.2027722701803804, -0.09275092680628548, 0.21180270808465326, -0.4822133220509199, -0.4517645312579555, 0.03681620230267009, -0.03743361241569899, 0.11887091621014959, -0.03242961982762559, 0.24397627973816774, 0.10251963645258776, -0.1904867835109303, 0.6027826195837507, 0.10891417691879998, 0.32015193699795863, 0.40955515444741675, -0.12061070532717283, 0.12560178643071876, -0.23733190474813173, 0.06958495276468357, -0.013924379357146417, 0.021201799384655117, -0.007758800535023024, 0.14282190472305373, 0.025354457052614632, -0.3204132312117069, -0.263444370885519, 0.1204442657512536, -0.08434315877452236, -0.1798338795403896, -0.08762926882282011, -0.029197714189081746, -0.11486880517054796, 0.1071270193053151, 0.029978601493066314, 0.24031858452315183, 0.10702993762776916, -0.03587519339299803, -0.09812745157592916, 0.027493920747716397, 0.06486887200328545, 0.2186059476298898, 0.03703639636653723, 0.09894022167943092, 0.3557001338613898, -0.02189002923885422, 0.492621869108494, 0.29217384621563947, 0.14966579193904203, 0.024009940602935622, -0.06557261577723651, 0.32027020748128193, 0.08963616381076854, -3.936265e-316, -0.05694154431918974, 0.2610256396924471, 0.09154786840377538, 0.03860431381970279, -0.2899700394358404, 0.1906370488596947], [0.6398835082975283, 0.21649107427243258, -0.027022678180076903, 0.04129267174439674, -0.05624762365360571, -0.013777216317001703, -0.290230098954671, 0.10894639606858797, 0.166121758417156, 0.004727814279217859, -0.06961722962714163, -0.0826789680977019, -0.024219988214570786, 0.019266039284870057, 0.0585082427048554, -0.10007472607981081, -0.22997779263009455, 0.00589094240194849, 0.0007431706322756619, -0.06810324281174192, -0.09825691836291847, -0.25020687033223826, 0.2633813418742363, -0.07489274837672791, 0.08768467431831628, 0.04686367192283917, -0.6007960647238516, 0.19372893322234452, -0.026330794421169795, -0.21875233928813384, -0.11323254401959242, -0.3521395013019527, 0.1592432644081339, 0.0243976746344754, -0.4342824881890653, 0.2722716053112684, -0.021031116832100842, -0.013817080898408284, -0.027084389057733832, -0.31309346725939297, 0.13349878045227997, -0.1279593831779065, -0.026810929916245868, -0.3781115919369157, -0.6802924194485953, -0.023870644717678906, -0.16312812543007882, -0.20033513033411213, 0.16776599026373282, 0.15507117879082422, -0.05944120178517236, -0.5099111502201283, 0.4463385864133145, -0.3103547915472416, 0.2574040698049663, 0.514216179270837, -0.18926988658872052, -0.03275014961253473, -0.1463555937331721, -0.07775296394047868, -0.17245787392990775, 0.004733810720910137, -0.006163726729847137, 0.06224214108578931, -0.2663997663214058, 0.12644478251330943, -0.11082027909067896, -0.13192316273592597, -0.10122542570895213, 0.11199486416419724, -0.07498836166030573, -0.27600335994631037, 0.05825224783132443, -0.11332528218387039, -0.21306617204915754, 0.07026542130257375, -0.028030616272944345, 0.017672116336242178, 0.1255738515953553, -0.04907332116511096, 0.15870504311439895, 0.24672932247088614, -0.0846820139544393, 0.09345185273268937, 0.28051473347480943, -0.31315389872117433, 0.7724611913344435, 0.2677210090991189, 0.09901949849983646, -0.07714731740534655, -0.1619246517152125, -0.003986525860891266, 0.0059154754522684995, 4.005807162e-315, -0.05996146331535917, 0.007549979350677584, 0.14612226908738712, 0.17843749101664705, -0.4128396008382087, 0.021885071753931718], [0.35023576996707495, 0.43634316372609405, -0.16667363592328124, -0.008084768631786785, 0.016678369845359076, -0.23816761159020805, -0.318339354046872, -0.2023241499816521, 0.04167228737723269, -0.0674440676002465, 0.1449546509889295, 0.004645745999589131, -0.01484133857088717, 0.17200872093014052, 0.022750951592423522, 0.035859981946896595, -0.2363563119578741, 0.11642006338282852, -0.19162849213400623, 0.19426048042614197, -0.05921742254371392, 0.02206930532199081, 0.038086195085460926, 0.10152834742884663, 0.18746090727410467, 0.20153094020925114, -0.7370509277325777, -0.07829787315734905, -0.03346367216087218, -0.12548931719930767, 0.023457267980802977, -0.22855366913897662, 0.015921900279382197, 0.09609688266962514, -0.310160890326842, 0.2512101303537765, 0.25576007558052544, -0.05035807227295417, 0.09050478067234821, 0.14220795970369962, -0.030754774870258916, 0.038761176151280295, -0.2765069116651334, 0.013244339759024592, -0.4674065340389571, 0.06164831735152549, 0.06436539971472997, 0.09735963812551877, 0.2767420978390944, 0.08108045207434317, 0.20528673408173462, -0.28516894291024825, 0.08034115503974709, -0.34924397885509584, 0.021157589207929373, 0.5593093606452728, -0.10495385924832014, 0.12368323118822487, -0.083671813053983, -0.03446293278862057, -0.08216057107866152, -0.01064216080946655, 0.04653892459483332, 0.19873702698824647, 0.028317035451119122, -0.046855175500794835, 0.3030878277180138, 0.0697182833077281, -0.09015405736457512, 0.2728389685079869, -0.2352303241550127, -0.3687969760121183, 0.0007097687267067952, 0.08531352242604079, 0.1622241610025818, 0.15187107330242444, 0.1731749851232381, 0.0485893709225233, -0.004787541096028438, 0.13986868063952054, 0.06337411594787314, -0.2988719731476571, -0.11550002590084785, 0.001649381120161057, 0.050904592011504164, -0.1342305213408078, 0.70165469524779, 0.42949944743461366, 0.20255171940690098, 0.14451028276317598, -0.1999454388876115, -0.20328458284812967, -0.06566038607433401, -3.25929118e-315, -0.07607760754575574, -0.13048363222483966, -0.19267383462201265, 0.10966743258869478, -0.39815517058499905, -0.012970200539287352], [0.29478804608456416, 0.33433825048720694, -0.07046646678161232, -0.34277838988463444, 0.16359156679349665, -0.39716858620708134, -0.18013730554018603, -0.0018111041473536811, -0.08210606224426953, -0.11163734304201312, -0.07129771766933589, -0.08635889956409984, -0.28771221495138605, 0.02835052358259504, 0.05775464610640317, 0.026963940404682918, -0.11516285609502035, 0.00444573115410402, -0.0005649984378648838, -0.0670641954682341, -0.13063611989248497, -0.028682020209586198, 0.1475193914000514, -0.08161193782431167, -0.09072106076821976, -0.03574907723006551, -0.6513527526747394, -0.06886999932778831, 0.160014123239944, 0.11997369112509804, 0.15225654547791187, -0.6940455654463397, 0.2184647078483165, 0.22801986352225947, -0.19889553436443047, 0.4459516502947252, 0.2653599259823748, -0.1863129200303532, 0.0814527336559978, 0.002091715978900058, 0.18095450017238313, -0.02191222524387414, -0.15283540870855103, -0.005880975825502903, 0.21814559017607293, 0.1304798065490319, 0.04588873342491288, 0.03835814343143289, 0.361561550851507, 0.14181601759661058, -0.06355424089757711, -0.2403380438155035, 0.04324710491018023, -0.4068393876920111, 0.21492771516315418, 0.10146414399409873, 0.08065428016271833, -0.04645540359514483, -0.14853777930962075, 0.07425982644380857, -0.20194623426102212, -0.11909692085920164, 0.10495284882677121, 0.09399508609069457, -0.05860987929506066, -0.012782905261884539, 0.4381820262972357, -0.2935690576613919, -0.09731617741547681, -0.0036905422136902432, -0.437055706404256, -0.18921065341318452, 0.2335617645941909, 0.19607973456703381, 0.240538188098544, 0.20210546938425797, -0.07719898038491493, 0.18780932030495376, -0.11751962100654603, 0.039327731612301145, 0.056341490309094265, -0.2857981370348496, 0.10772658762079973, -0.02539320097102852, -0.07424223494718481, 0.2127505338711144, 0.5886479892603058, -0.05688644602473636, 0.19829384567006625, 0.001891928397359874, -0.30540387900334365, -0.13397745607346448, -0.06097327719328618, -8.23583796e-316, -0.27268709542033576, -0.22836793581434606, -0.07613993075693104, 0.10488237330640136, -0.16174399929620967, 0.011058810418630445], [0.3613962637939953, -0.038666091974986966, -0.1681544115039057, -0.36166370750206267, 0.1736567459990972, -0.5309769317685997, -0.2800663631213953, -0.2615557473560323, -0.04945535453971526, -0.03650931330737681, -0.05486864150019579, -0.07106804001131356, 0.13000036867524567, 0.1466878367865808, 0.12509544669179748, 0.1309359614711977, -0.05527867301285528, -0.10762191196541253, -0.27294690023775176, 0.28704178537277875, -0.016813616918459756, -0.19797712739618534, 0.12741309556648875, -0.09719507730164627, -0.1870664754275008, -0.11571299507381644, -0.5121580553455578, -0.20654614891312986, 0.0014011164992288674, 0.07872615071779185, 0.01880913138253668, -0.35601405992445107, 0.3038250405369542, 0.12083942619673811, -0.0027521581427137664, 0.12541538614377537, 0.15798867152966586, -0.0006586793228674768, -0.14482357733119208, 0.3068941873871544, 0.25635055845982846, -0.04353260399836983, -0.2888787714301207, 0.3564357847925616, 0.4349772567100743, -0.010460709036411785, 0.002567537907100275, -0.04849075533960138, 0.09220075868686019, 0.06830266032951825, 0.02694173720112959, 0.1304510014382785, -0.11019587063991604, -0.31868823612233194, 0.09273502735702172, 0.06285772366662377, 0.016512321296218168, -0.19615586104530555, 0.15985643437752692, 0.00887014764544103, -0.22475866521271826, 0.0005270869150862994, 0.3265743878860944, -0.3660930614904528, -0.0923672555407661, 0.12207927953670261, 0.7721588613604019, -0.3002620820964463, -0.3142103281326464, 0.11176802986455991, -0.2013189688882109, -0.19766046800768183, 0.005056492739733575, 0.1345944587489668, -0.11552326800902482, 0.3315998958967939, 0.20068111141192835, -0.10598810253943301, -0.06738845317094232, -0.03392460781404364, -0.003823914225338658, 0.036852524605777606, -0.034335410946480044, 0.05071929373096932, -0.03145368365056945, 0.3917806233494382, 0.35664954451126374, -0.24236222934615803, 0.598687883024213, 0.22954251268547302, -0.10348031346123207, -0.01725497110417517, -0.0005069410361616329, 1.952887646e-315, -0.1952130619303242, -0.2834823246382495, -0.3816932378638478, 0.2726275911391304, -0.2826188470540784, -0.12219595866294429], [0.10404693080846894, 0.12417627479223971, 0.07278841211521114, -0.2516442350090689, 0.06329943178370033, -0.44033273436179077, -0.18787489675739544, -0.19327405516773585, 0.4586292700537214, -0.07696194121915312, 0.0584458022216079, -0.1611346062272479, 0.04629966760878748, 0.19558812594691283, 0.030497637434696023, -0.17848169412003112, 0.047574545326902855, -0.02698973500180713, -0.23717586356936396, -0.18318468925686293, 0.034718332217947664, -0.13642846195545769, 0.27679696853322605, -0.2284663917160378, -0.1710009592562102, 0.22340571139787102, -0.2519121238844764, 0.0032726659621397335, -0.43245671098423627, -0.1050164505300223, -0.004020737192961049, -0.06871013064118313, 0.23854439289262322, -0.04894309270348566, 0.07178890945842259, 0.05932284148219747, -0.16061242364889275, -0.03299233350788972, -0.2693801307997352, 0.4356774426025508, 0.4092150835093963, 0.11471517587214371, -0.26667490567977864, 0.3748989397663379, 0.1848980744184376, 0.067098496975337, -0.07817261014044427, 0.003239916887165322, 0.3639444757661639, -0.014511370172770334, -0.15210963913739187, -0.346542125604485, -0.16376100606487137, -0.23608267683349934, 0.11323272873878606, -0.003085835959975604, 0.20242001145081553, -0.36169854800423706, -0.023544557328619677, 0.10894322350776565, -0.2104680901834273, -0.04247839653161296, 0.5816229814113941, -0.6707355082821685, -0.0871606059259362, 0.31780083180057134, 0.808182489421038, 0.11537596803359199, -0.11625611727753278, -0.16106827246908725, 0.08135704311481705, 0.08646506484328258, -0.17379971273660982, 0.05011525854649979, 0.2639080493888418, 0.2172774988906843, 0.19958767493456314, 0.06064457898420323, -0.06453939117719089, -0.09111026008843691, -0.2176567558390389, -0.14270408377786753, 0.1999720227259774, -0.2109309442228051, -0.10883636925051787, 0.15550029247762426, 0.2795910681632094, -0.28536475003343525, 0.43206579875149476, 0.14381407872719246, -0.10124796732874691, 0.18234513420749157, -0.09009170981818922, 1.676128336e-315, -0.08903994774261412, -0.26959472734376055, -0.5876084608494628, 0.07816070229406599, -0.07812325294935532, -0.020474915479179335], [0.39364568084094737, 0.11644250327767453, -0.06150711867506503, -0.02063846213573206, 0.05639229467235534, -0.5564611880995436, 0.15196353112227393, -0.26974234069008285, 0.6059593113484014, -0.049411723167831635, 0.08708869109908758, 0.03431757689823584, 0.18782308012480417, 0.18212939315989649, 0.34320838266158893, -0.09374335551811501, 0.09856533902053677, -0.041885757294239705, -0.3348750258745681, -0.08553496247429082, 0.08795443367278587, -0.47432688605520107, 0.39391759502172313, -0.03473085809112771, 0.1395168032764353, -0.008303570444169421, -0.2350485220764562, 0.17613303884538467, -0.21699187205786352, 0.1662404529506941, -0.17553261432667677, 0.4713489549915019, 0.26783445242220627, 0.16209857239824305, 0.3392700489345504, -0.12492939731688972, 0.031263628513238634, -0.11626940178369113, -0.20610200284269956, 0.3017680675963659, -0.138919462367825, 0.038982012746707026, -0.12506816110954952, 0.539701597864928, 0.4931671655255874, -0.12098179224010688, -0.051686659631409566, 0.39039311948534944, 0.17244563033752922, 0.0785481376813217, -0.2388301520095603, -0.13516658312794405, 0.01810989131910866, -0.16993336130225709, 0.12660108416387966, 0.06733383763251809, 0.021025160395841135, 0.04692136923648588, 0.08861948002436804, -0.005479004302464297, -0.018744676061026304, -0.017669347819302794, 0.024179452630206773, -0.35672138825394384, 0.19095551728090987, 0.5207982379136293, 0.5258137882514283, 0.2555870532235149, -0.047563044537081364, 0.017242953600560204, 0.2890947897096268, -0.05360003177389374, -0.17733484141815772, 0.2121942380088747, -0.11091297204079346, 0.33245428072133715, 0.08674418633989471, 0.10920292177078013, -0.027553519186889804, 0.0314981877578856, 0.010521508714494336, -0.004024252833833751, 0.0691787298955833, -0.2520537374616897, 0.05695699716218575, 0.3505150466600068, 0.4313312024378437, -0.45384775959431617, 0.4332696388649782, 0.032564926663344894, 0.13267429169519457, -0.018878294675379825, 0.05225978262096771, -4.18643133e-315, 0.0037890030506288436, -0.16685466263843912, -0.49421541117880674, -0.21596893779051693, -0.2108689568897306, -0.06926814583358504], [-0.09055997484887378, -0.29884383110043583, 0.014481275439123828, -0.21917031230265996, 0.09320743397390535, -0.13431667482978618, -0.09031301626264837, -0.09003284465704604, 0.3916451298743778, -0.030406101182229247, -0.16121025163081315, -0.01257573391277213, 0.45657255328702323, 0.16877153614323953, 0.0519608878837892, -0.15026627376030774, 0.060798064575385904, 0.03164292147839683, -0.06141410084740811, -0.03295367207977975, 0.4220899402460921, 0.059612436642697594, 0.41626980894272275, -0.1109860173869263, -0.029103330389704835, 0.03305959798051648, 0.0036632748022630618, 0.16026396027022327, -0.37453849817233975, 0.14629490867113112, 0.09301199936948071, 0.538488441455833, 0.1680472395102525, 0.13479314120790897, -0.08466680127235465, 0.08700589640635753, -0.30429802872374273, -0.16480883103856653, -0.3510967633670779, 0.032021326889443195, -0.33174987910217485, -0.03964816245344, -0.23261999824241872, 0.11707658176164545, 0.5735914609605708, 0.025550035276745257, 0.10833276916936566, -0.11387671685748167, -0.005915170072577412, -0.04824303997426233, -0.0772990858070054, -0.11918111130840031, 0.1774845584986316, -0.25706718112253074, 0.06523444722346634, -0.17506789112176013, -0.08043020604757584, -0.004542649615157021, -0.12102508134293921, 0.022342065757156342, 0.1676964420328059, 0.07704684115838438, 0.21586608393876403, -0.4356525857841211, -0.08648348361310985, -0.0616659240763589, 0.22687748857661474, 0.08691042529695091, 0.04692047754715689, -0.09036546118269563, 0.2437956877024787, 0.350567692066515, -0.1496272464537052, -0.06596142732504269, 0.06453881776262174, 0.09353956226141917, 0.02352230018319995, 0.20731390141894798, 0.0913042719507409, 0.12076881687086458, -0.11910053725428293, 0.13214212866581296, 0.14503869681824766, 0.02946642842611952, -0.33056613665274376, 0.17643904945744054, 0.13393276682454675, -0.6943894799123241, -0.291705371361892, -0.015326084831294383, -0.06062087593534378, 0.2067825080344129, -0.17716337520569767, 1.073892046e-315, 0.18294368951353152, 0.0900276257157433, -0.21135676652920213, -0.5119153278043133, -0.062334952454571574, -0.22324055660266956], [-0.19165404196062288, -0.296953660345451, 0.1985993613393763, 0.06578356085009947, -0.015553821804837971, 0.11246585864690231, -0.03141579151424266, 0.11415911613859797, 0.44917145990318064, -0.002388019908589778, 0.09556727789130859, -0.020161582736014903, 0.22335384177797168, 0.03491481800283461, 0.04445329081944207, -0.12487376091353745, 0.2753488643781063, 0.11584457977824521, -0.013441095174223101, 0.05256530959898509, 0.6819931813063947, -0.012556982975220806, 0.37529894550788234, -0.009424170614173112, 0.07528637257419755, -0.16532618273207406, -0.01385527999076924, -0.00669213105970204, -0.17669313995497402, 0.42096210045943494, 0.026618169057882102, 0.6292234793158032, -0.33242434262383225, 0.5043931962594017, -0.039400554834533044, -0.26052763991841416, -0.4524316122882718, -0.1888063285669111, 0.11199867846643699, 0.178782909938216, -0.400152668337432, 0.05556290297162931, -0.32043211450552667, 0.15449835783283034, 0.6374794999626622, -0.3073437560978834, 0.16900536872768743, 0.18974774726852323, 0.0004490846112372279, -0.015446306609192606, -0.2663549259548643, -0.14098797436985613, 0.00014748943950911101, 0.08612778383779901, -0.09925010445501778, -0.13253759769182852, 0.03822867371217645, 0.004759976153356254, -0.20380009383122588, 0.1659624991320467, -0.07995762610615484, -0.20864902674694283, 0.1580407366936245, 0.3543412573913753, -0.05711695833182507, 0.23360562411065064, 0.23522616895167087, 0.13935576593826263, 0.12051281715329076, -0.1491889879609137, 0.20876380165221445, 0.23428876995360484, 0.11379440154079619, -0.2705706949921742, 0.04495854805757542, 0.3702388991994765, 0.14323192973557902, 0.13924227225307462, -0.17067953955470103, 0.030774668198681878, 0.0004245504734459733, -0.07337527434254452, 0.07466745510301062, 0.07978203840181919, -0.17341870136544535, 0.259886740186274, 0.18417340598626644, -0.3846666594614791, 0.01730728810540951, 0.18908223442916108, 0.06729061202333864, -0.02809927162371256, -0.1729476630441328, 7.2178863e-316, -0.027073778588418553, 0.012093099623235605, 0.11211199477791546, -0.2580801175318565, -0.03270250692694761, -0.12533573429133502], [-0.27398751406569466, -0.4481780240123223, 0.2880859378682908, 0.20577366945349715, 0.020407697300075595, 0.5440882160050812, -0.11070774683613503, -0.07396415136732937, 0.17850571384754116, 0.043076624680854755, -0.13359989605719122, 0.14329072796815362, 0.3619776253474866, -0.017602881358230075, -0.19309376261170552, -0.14787087613011085, 0.35927814712880934, 0.2585043182406978, 0.19865932165971897, -0.1213163450877422, 0.59668722928182, 0.10279974618303524, 0.2506120756554143, -0.2547563009370372, 0.010874129623077263, -0.23165747431262673, 0.11803585376030047, 0.10913847347484418, -0.16280747428722944, 0.5427269343337506, 0.08147799915293784, 0.45727228131459, -0.1525407229483416, 0.5051073876362341, -0.044348178877967256, -0.016087645205414045, -0.3405601159641914, -0.30509794181860983, 0.19012503691666285, -0.03998900846918033, -0.3400362532828483, -0.0644598280366872, -0.1728600056209832, 0.04895282172435899, 0.33833970114370776, -0.417213699664849, 0.03296072728526799, -0.026656873587149927, 0.20226190781892775, 0.04340808245354113, 0.04841524193814935, -0.11149848669905854, 0.3554615019372288, -0.2225488730725149, 0.25760744716245226, -0.2612206269316072, -0.11073657181903263, 0.00808044954499247, -0.08923738465587827, 0.08342750652133987, 0.026278391415353236, -0.09361493009034663, 0.3243003806411852, 0.44680642969304873, 0.17369779018178227, 0.01563594754278781, -0.21052846626239965, -0.02753288834297224, 0.03309865787663476, -0.04579279437979132, -0.003368482652188636, 0.2253403092744673, -0.14643343714641194, -0.66972835027032, -0.23998744815369663, 0.18566676836146745, -0.06946965667055091, -0.09459299960877339, 0.07822341014431679, -0.1176580953584375, -0.10283013231351525, 0.28592611675078416, 0.2500397883362274, 0.14987420097289056, -0.17240898721065928, 0.048886000480676386, -0.06048495683430848, -0.5145662878738607, -0.12585745297751535, 0.14439196889977665, 0.02267563539145032, -0.17250956900080988, 0.015431296764915196, 1.09209635e-315, -0.2293933021864974, 0.350890856686939, 0.34462419879987105, 0.04842649861272837, -0.12855724204342966, -0.21655603292636685], [-0.25863014365286935, 0.002519853689911677, 0.30282465315027385, 0.29177014753910135, 0.030348325507706678, 0.40509991369377607, -0.19428812851291466, -0.0874902713069904, 0.47879785506955314, 0.07180911401470629, 0.03268269847581021, -0.011743451053877247, 0.1454624727952014, -0.07657689736027883, 0.12280527937866363, -0.1192302287380083, 0.33278201405811964, 0.10134457664918801, 0.08226704951310418, -0.12752086459228587, 0.21096981149406946, 0.09512799224956928, 0.021926440455297607, -0.06486668505769153, -0.06380340794612126, -0.13005241940544554, -0.05961468131018909, 0.07529037940227638, -0.031650637342166936, 0.5414461233471939, -0.03931702802386403, 0.412135314667936, -0.0589270911804931, 0.07521958994414413, 0.06590439756969192, -0.337995999346031, -0.0902387676641554, 0.11556876585951843, 0.011233162160504, 0.31712099205673167, -0.07250151741459569, -0.14283939294070178, 0.13396193237705276, 0.02628976789308308, -0.1248654505984122, -0.4094406095878205, 0.012236960199042787, -0.031925183564275116, 0.21819436694447855, 0.11831791031659183, 0.027828214211666664, -0.09515771797976229, -0.05557686125364373, 0.07143532523957316, 0.34909168239529675, -0.3350805160543661, -0.35001363026333304, -0.21774246474205408, 0.06985291591267083, -0.03491363079252317, -0.2083014387074381, 0.07517713131591335, 0.10858440493059328, 0.27233720552039214, -0.01641052976452354, 0.09483495977908042, -0.2522952004484227, -0.10588785951344191, 0.11353468394140305, 0.04061853925563525, -0.0661619929158988, 0.21817909063267335, -0.12369332281388624, -0.36897258805294786, -0.6429606177177611, 0.021564353815369718, -0.23188190009048587, -0.004357462203475634, 0.08349851084342007, 0.04392020076717288, 0.14850470745373887, 0.237400940686497, 0.20840569086998534, -0.002613910469728993, 0.014546722364276989, -0.11539021036719027, -0.04205406201964396, -0.13022535468917415, 0.16656607725060024, 0.12546525713564444, 0.21853431552349425, -0.11766400739922359, -0.030588244429159563, -2.35563831e-315, -0.09335421615589636, 0.30741264184861966, 0.018907082943938475, 0.06927013331436005, -0.02294542192721608, 0.08507633709018014], [0.20493733263937114, -0.09329596257909885, 0.41544492989191406, -0.22045926976723923, -0.06416004756975151, 0.6842124794065945, 0.11715266516142692, -0.028122527271276423, 0.17318251355792114, 0.04260032673746821, -0.02615728081135651, 0.09511992763048384, 0.2779514613443031, 0.063924367051996, 0.17532496923140858, -0.10254915769285913, 0.027678092970779337, -0.18700319372400429, 0.030715487420107393, -0.018534853268879842, 0.1567236327537174, 0.18011002592043107, -0.1712013105341135, 0.04386154802525933, 0.045565222461266694, 0.10916313982947101, 0.013927805935527995, -0.33400747578447143, 0.16689300363258114, 0.511471454301794, -0.11666696828748392, 0.28372078806406914, -0.07245997897215621, 0.03987946541877609, -0.20979303643646005, -0.28101485540529425, 0.20913275103588527, 0.10692859568136891, 0.04632828822692187, 0.708894655905712, 0.018949200163071805, -0.09598592480158824, 0.31009051134441945, -0.01848181925158968, -0.18756981092094754, 0.11279074529927402, -0.10376087811209189, -0.2131169744622242, -0.10179302599735851, 0.11666990843376857, 0.21796309683788917, 0.09727921046489256, -0.2318362366644393, 0.1651710943113745, 0.05770639095006353, -0.12043347051602744, -0.3650120147177293, -0.11386452062110795, 0.06083716261525203, -0.2765246369212618, -0.24572620594258934, 0.12161858379003201, 0.17060738579324938, 0.4289337389706536, 0.12107724580947128, -0.12790817213390399, -0.3754169912610642, 0.04325850159231975, -0.10573580850029066, 0.2221616855613588, -0.12388334650330184, 0.19211623279835988, -0.017394884512565115, 0.047461075027876526, -0.6853285653179371, 0.06354881597128823, -0.32764737735562427, 0.03532336115873785, -0.08764411523475567, 0.04421127345641784, 0.1602564900963417, -0.12929218141289472, 0.07145794335822571, 0.004349828159240192, 0.07170877894427939, -0.40825689665403825, 0.1495611599240602, -0.2702431154673232, 0.2357871198955808, -0.05411576783062678, 0.23338432304548598, -0.202225455464875, 0.2024088271344269, 4.68528193e-316, -0.14791451808496833, 0.19102983876240148, -0.004254590924698064, 0.14013903995988589, -0.40476959528961987, 0.13002903217696646], [0.168191891920262, 0.13382707591725349, 0.1875761793929766, -0.31164621917075186, 0.06041524621057726, 0.6796852319502263, 0.19053016720716678, 0.0437774815982989, 0.5714684466406199, 0.07002517711047479, -0.20821079000900464, -0.055274037966225015, 0.28545194850980443, 0.014387783736894645, 0.18278882054516662, -0.202915287409763, -0.20402849860012695, -0.014016201584802029, 0.3213581438996716, -0.08209079939118272, 0.25955124550957304, -0.03764950736812698, 0.1299589597846596, 0.23713290178186752, 0.10967981425540012, 0.07944435360639553, 0.21018411657810795, -0.13394579692708924, 0.13869397473329073, 0.8573848137972954, -0.15544502167106744, 0.25014884142229216, -0.02886708148063373, 0.06889153978662631, -0.10443651005105795, 0.11426813135394943, 0.2057368391517137, 0.017131587033223535, 0.254820888779167, 0.48839620939039996, 0.2549668561385624, 0.02081419255597485, 0.17833956078513938, -0.026720816046622065, -0.2788739001889577, 0.45723697772854677, -0.05994117635448775, -0.4024526249761071, 0.01134018707007221, 0.010088330367897963, 0.14683783131225162, 0.33107423341097714, -0.11113660215158525, -0.061107956935915905, 0.1910634981831499, -0.15263925564742153, -0.29510138232612787, 0.010013114439083898, 0.2243655163830395, 0.001922005354058307, -0.36108106610089646, 0.0416133993472566, 0.18186452651743887, 0.4720122504896237, 0.25253208811905803, -0.6446178310958095, 0.01761840101705507, 0.0016830092370567137, -0.14695269130057648, 0.11479678023673252, 0.06930635361219428, -0.004230943481080809, -0.16827381424157714, 0.13516957261876955, -0.28590600910877534, -0.4495715934227634, -0.0651982621194947, -0.06405377850816267, 0.11206733428528656, 0.04574349644922666, 0.04297758759266177, -0.5543616969662719, 0.20428264102954602, 0.036333092099931304, -0.18204283661757473, -0.2302369475483588, 0.08357007415729423, 0.08437052037301157, -0.06621450434621529, -0.021112867486393613, 0.05935861922373343, 0.20913179012766836, 0.0857892674124116, -2.8417358e-315, -0.11381877026815873, -0.08469361192441123, -0.19078923318159294, 0.23202740490972318, -0.33097029751353596, -0.0026597853769100037], [0.12191951003184033, 0.043268560654072405, -0.2298275819032417, -0.17624547749285038, -0.027019667482304617, 0.5151618962225492, 0.1691924283426719, -0.0194588566787926, 0.698820775352115, 0.01304531004706089, -0.10900927935558478, -0.13947854950897667, 0.04544688399286681, 0.0675076742436212, 0.34077958258040975, -0.008245402556567296, -0.08448142035963976, -0.0038391812761116055, 0.4715529196202092, 0.1546777681126593, 0.34892579109646255, -0.15796414118312485, 0.11284073322456456, 0.29064105871758267, 0.23913713447045082, -0.13781138409020663, 0.050463588296045726, -0.0072709362998238086, 0.1390181529208854, 0.5089928779013252, -0.34290621024406215, -0.0760207145732328, -0.07699865387038939, 0.4260863984521974, 0.08374175393169064, 0.19993699303368884, 0.18120957341950578, -0.12075030637312066, 0.5136256165437176, 0.26993262299856496, 0.023106920623603675, -0.007827136786340703, 0.016646324511821603, -0.07587128839548307, -0.03746386977904276, 0.09300927926876783, -0.07317432589432497, -0.06957420958071166, -0.028238029875757853, -0.028573793578865664, 0.19222062006352905, 0.1463744416808271, 0.007390318459227886, 0.07077991136592707, 0.15060672469448616, -0.17368641244436936, -0.4129806648535144, 0.3666242451925644, -0.0132980635995433, -0.13991822709803584, -0.15013613720842603, 0.0562971705784361, 0.27073311360091656, 0.488452723077455, 0.147283954505574, -0.29487216311362346, -0.25747388443953345, 0.1126558214091167, -0.07470618063640126, -0.1279527137114979, 0.000995922565413802, -0.08000236655510745, 0.06686299645461273, 0.12901050996021585, -0.02246651975900879, -0.5656570444850507, -0.17562977189189125, -0.08712402144154861, -0.04773218955387272, 0.06545753628179943, -0.07519293276325076, -0.40081621754101177, 0.20813743231092685, 0.07824931725561243, -0.05234061904337462, -0.012844604347029446, 0.11535516402542957, -0.05119372355093624, -0.21465049316414037, 0.08917495674122436, -0.3207079762651271, 0.20415195882540224, -0.01200270611882198, 1.769187735e-315, 0.12158039454512487, -0.03078358155799007, -0.3157369618583675, 0.1741469828650595, -0.13229419562400196, 0.017295788457541202], [-0.025008492188691868, 0.2998613290627944, 0.17238896215493232, -0.25129352292430907, 0.1780419901245698, 0.07375800270848755, 0.3995252229818361, 0.010884208180524043, 0.20779488197682242, 0.021418047317890352, 0.07341466651466302, -0.25100022855761855, 0.04535349673029299, 0.0852994465463994, 0.06833267254087305, -0.3006255117556624, -0.1906251149912116, 0.09195225951536147, 0.6197557695349879, 0.016891991173265043, 0.3434485039815761, -0.42775093903417116, -0.0803443842437842, 0.42304797213313633, 0.11073501488874599, 0.06488927538591106, -0.060864958173627096, 0.034901175003856345, 0.38376247089109033, 0.46371920334570627, -0.24953806564986986, -0.21690330312527525, -0.062247459384298626, 0.2013405440298171, -0.06601050016179517, 0.24731887688755844, 0.27481017106107075, -0.07866235665717768, 0.060657713045340324, 0.21572484079421797, -0.07231790977555919, -0.03549174941443846, -0.09708864091886117, 0.1267366885781061, -0.16539050864108004, 0.2601948604139279, -0.21504253104559867, -0.21653974615624508, -0.36433365030225434, -0.14933875807349478, 0.26282588778464216, 0.03001127510840461, -0.004459389529636134, -0.10285259526766256, -0.010917920181679103, -0.3338123449326991, -0.19255383154549227, 0.2283043731186537, -0.05476713178304661, -0.07041476477210475, -0.03383075133109798, 0.15101400577356155, 0.23645240134435416, 0.3987657380541346, 0.11797136915361987, -0.1300738345267897, -0.06917939707989883, 0.2277311888663148, 0.12232739006139257, 0.20145948932600324, -0.02877548529818638, -0.3012965716720908, 0.1521051943022039, 0.1422293561806558, 0.13452037925225063, -0.29532539902406785, -0.05723671175399871, -0.0258901455273623, -0.024409369371535226, -0.054464466473761776, 0.01395048930998692, -0.4437316613222588, 0.293920402702167, 0.015178228570194362, -0.11584111383687827, 0.10855090027613423, 0.0714600098096326, 0.519195746491471, -0.26359101814189595, 0.055023252168714905, -0.13506098809864958, 0.1159561920749848, 0.13900179697927464, -1.536043937e-315, 0.16710842218823463, -0.09421127311242791, -0.1623695547125933, 0.20472715403593555, -0.2661202548036622, 0.04527273099485787], [-0.07136423798484284, 0.025691170003849698, -0.5547207779651743, -0.25574619099471285, -0.004028255994567301, 0.08552600470728038, 0.765502203027143, 0.1572410607264295, -0.15099994293373312, 0.04296379425747571, 0.033963266513915624, 0.16667732420099096, 0.2872497671126538, -0.049907783242308525, -0.3047319807107615, -0.31987315094678453, -0.5395089095296911, -0.30049181922103324, 0.24254846288535384, 0.024634289368949375, 0.17035036405278906, -0.2896034635646808, 0.15494189619983967, 0.4518506484812666, -0.39437161119307, 0.08134749479115769, 0.018141111651954162, -0.026925893027682665, 0.34617345879344424, 0.39740561185327705, -0.1850399831009291, -0.15888093274881715, -0.12456193291932591, 0.5170020430442592, 0.28077872995198183, 0.26852714872070166, 0.33936205323532265, -0.11268909632852642, 0.18564192016362258, 0.40469910042883656, 0.2782945443628527, 0.02386833695756272, 0.0046899697681066065, 0.22108947248044167, -0.21394980774473255, 0.14036157766391316, -0.09693469202050477, -0.35371520465961354, -0.20779065386405382, -0.11378567382683309, 0.13883672768523467, 0.18862323183747945, 0.15735358709902333, -0.11280571030390477, 0.013257673191519246, -0.4776527257909802, -0.0682741358222977, -0.005064009628472012, -0.11648475384815901, -0.1610540186549289, -0.0041350558251758915, -0.012309355310442175, -0.07989072690433949, 0.054521478098455006, 0.21056755436392943, 0.15125713841748328, -0.027363276198397374, 0.2935993094141821, 0.04349176624902169, 0.06438367904282959, 0.18437511465131756, 0.09018737130802948, 0.032354131698235096, -0.08528322813016329, 0.2502735176759324, 0.18100944964058696, 0.123863297288173, 0.051764876951436486, -0.20048775407761493, 0.015160931631798807, 0.3462402808674025, -0.1695753276646301, 0.125827966915869, 0.2748853429832894, 0.07781156027073757, 0.0014157973543152238, -0.3155225288333385, 0.6804995824181849, -0.10507538675300232, -0.12531401088623156, 0.12576808232933462, 0.29098268943889644, 0.02274843259452315, -3.445716017e-315, -0.23262159338468333, -0.16650414623889698, -0.30222282639384546, 0.13429438065830496, 0.057091965657329984, -0.04023117942646222], [0.024138153054452903, 0.15829512518467317, -0.054019208753680624, -0.3400810219172536, 0.11132558508261084, 0.371138868574709, 0.8100543530133424, -0.14762054069244165, -0.07972096231974025, 0.22890953211633347, -0.13740468630178224, 0.0835900587002402, 0.09693701292436215, 0.10680900101192356, -0.19342239340895345, -0.4289276508162183, -0.19719347275253196, -0.07487875301092564, 0.166066893003291, -0.08843084988212757, -0.19772216958545974, 0.2695248793492051, 0.22964352628642282, 0.43154021781135415, -0.29514755669554155, -0.007119002666679668, -0.0944621211035551, 0.07451788476992995, 0.7436019668075848, 0.07365830258676843, 0.27973806512952637, -0.06301406610564923, 0.18356084184271454, 0.3850756430137548, 0.27889782739228486, -0.017151199303164485, 0.31512434965143193, 0.049478185733731576, -0.09812672312708706, 0.18176811919084937, 0.3173405554603013, 0.009292884486917504, -0.09970099134145836, -0.02799149842690323, 0.08060832664660549, 0.28767712511426163, 0.14472481440455387, -0.12718412723409347, -0.2865912995578658, -0.023980833439266713, 0.05469652989078215, -0.04427303019194857, -0.06793202428097443, -0.02403518070812925, -0.08733306508086024, -0.2694264315432178, 0.05436916174866888, -0.11048009730989151, -0.13340285165805985, 0.0469067171108265, -0.03964512267388023, 0.260229769724358, 0.30526490337414897, 0.10953682364124931, 0.26868199165608775, 0.29209502855314096, -0.07124543429860238, 0.38001095083584535, 0.050534600909326405, 0.03781037225664145, 0.15670081740218864, 0.05752975287351903, 0.20486501023856057, 0.3357385616452572, 0.17091339660573748, 0.12027454505284868, -0.01488114111868401, 0.07619158956337575, -0.02209152323550103, 0.14522736931093932, 0.29244327735836406, -0.1277621396756993, 0.27207952670429714, 0.02519379069009987, -0.127024523507926, -0.08973903826573858, -0.0096507023338921, 0.4638746695359406, -0.0462256398064308, 0.04678496610535438, 0.03790714052755005, 0.15678072424837192, 0.1593362806216709, 4.02896062e-315, -0.2304145601081266, -0.03359102184949349, -0.5175862979624283, -0.1594779938159455, 0.34749229250756397, -0.07881081064940786], [0.03889153767929928, -0.1836808247369362, -0.35305021854890917, -0.3430399711257462, 0.09577323261735901, -0.20267007623063985, 0.7407996020782551, -0.12444914158910905, -0.16839902259689518, 0.10096389167321718, 0.1703280291466693, -0.13093440067819848, 0.33742607691391047, 0.010636648149902103, -0.10350475645242894, -0.16554204107151493, -0.11436615318895682, 0.12430996963594246, 0.26314880482447256, -0.09635155860792709, 0.057704027499738415, 0.3026100691364118, 0.2166768896260214, 0.016678746385331532, -0.21377318036574675, 0.06587964133121918, -0.00925591742439897, 0.10699600229708321, 0.4098466625754524, 0.2490806586619512, 0.30249315553966816, -0.024011466566513106, -0.15713799786368413, 0.40943087446955984, 0.14047700687755393, -0.11059730011547682, 0.03542442634253531, -0.008279579700635753, -0.45889727052703766, 0.37557645974031406, 0.17057500470890077, 0.006012389393820907, 0.01083348290614219, 0.10431688146861692, 0.2212186459699186, 0.23843001955627782, -0.034564482659115284, 0.04496573549766568, -0.10940308525826213, 0.04054493510611181, -0.02290163730492966, 0.3013743901751832, -0.0032059004654558148, 0.07998654503222555, 0.0019148939145292102, -0.054184186728874255, -0.1387906910949269, -0.3393742174613582, -0.13032399175638806, 0.10923589009277794, -0.08014076879394412, 0.13701527875418776, 0.15741552615324372, -0.20978229163249362, 0.20181207968092613, 0.21933323712888003, 0.06908379477726687, -0.005916383178229277, 0.11839081645274085, 0.09773028524571555, 0.24863312179217265, -0.150042809996755, -0.02347145454786418, 0.21757237130369772, 0.22455866749606285, -0.08030639328609199, 0.06265048418635656, -0.020987584862175234, -0.050170016246601466, 0.1649743512470347, 0.08527698401349462, -0.03246422161684524, 0.34449068096047475, -0.4183663797998959, 0.0018321467296899473, 0.017007458335895943, -0.22126303101415104, 0.19931429679343476, 0.029324951313701407, -0.0316171992947082, -0.1399896610364182, -0.1996822167227591, 0.07989080454648025, -3.921819856e-315, -0.2815672787690296, -0.053897319296333956, -0.2233147821363015, -0.08822736306317949, 0.6691630040622729, -0.02740759388921953], [-0.3041953170653642, -0.09841396809501295, -0.10090722263762598, -0.23800960295923107, 0.0163390970038527, -0.11975599933746876, 0.7844195864644076, 0.02730605627510446, -0.1895916464239628, 0.09399615340521748, 0.10785905825389198, 0.10680297417994904, 0.05891962582058508, 0.09545426999766825, -0.11909952403540303, -0.3127905675401199, 0.26792657142992843, 0.09410543867501653, 0.1491375245703343, 0.20814555699342696, -0.037005403485107606, 0.6513211362256031, 0.3544007581296121, 0.21446085517557395, -0.052423782007793907, -0.2248981156236662, 0.06545326256128108, -0.010491899783234433, 0.20667545777941354, 0.375207762790382, 0.26609154042866656, 0.011663980869552929, -0.3439903426064276, 0.16318962764969153, -0.06063120029090975, 0.0877276368522116, -0.20384623231878202, -0.11688793730564709, -0.373612521334162, 0.10263867860619533, -0.0982311538119644, -0.0036498143035057283, -0.014131554444958975, 0.014401496021236488, 0.044715801741649464, 0.04131836308921561, 0.10161295770548853, -0.04150530471616114, -0.11014184798496666, 0.028653444387038266, -0.21055858147410594, 0.009961265944754492, 0.3241639951862235, -0.15577967221360411, 0.050963993393446816, -0.040102928340352506, -0.10532906829491466, -0.26509083293719254, -0.0940288348555553, 0.06067089012026199, -0.0008523098338783518, 0.254600856293972, 0.01785855369981999, -0.2394696782966615, -0.007216012115522534, -0.07053422922483098, 0.13855978525287715, 0.12223436496265526, 0.10694931031251485, 0.11241930025679538, 0.3489898145287181, -0.010724154324470275, -0.1348236487871313, -0.0205347975873211, 0.19248485243009059, -0.014174085594619773, 0.13599906823141378, 0.039484852177412516, -0.13047805168570467, 0.31764781604517056, 0.0032753914350457897, -0.15399375022742884, 0.2500279563347383, -0.2235568566078998, -0.055207229442619944, 0.19239638826090436, -0.2734989840745009, 0.3229948031944733, -0.02619654678702446, -0.0011854088268712648, 0.02772882735351956, -0.3763902473217885, -0.0014475910829539421, -1.669075435e-315, 0.2829873312986138, 0.3209147734033154, -0.07412527590060093, 0.057557195930425485, 0.5225650116269752, -0.027163753532227174], [0.06366990665875624, 0.1606938366136609, 0.14328383838269226, -0.2518213301361307, -0.1198199222216428, 0.014486470327522661, 0.6836594956429474, -0.008376237296518192, -0.16438984860323363, 0.25575394949087743, -0.09134452830574905, 0.1981513713492763, 0.09361289691343512, -0.0755242641187597, -0.09895735465570576, -0.2580000357179583, 0.23264059466723588, 0.07641891702164517, 0.05603917063527487, -0.029238827804049572, -0.2250557236765781, 0.6579901268084843, 0.4016452306537327, 0.023987597658818523, 0.05138722224076212, -0.20403886989239042, 0.07472809607348703, -0.04255314208624439, -0.11788020955192423, -0.008934257361936175, 0.4066073751305336, 0.27315950090224933, -0.2168249749232203, 0.24075320335325479, -0.2269418063786504, 0.2571157080637816, -0.34367880089751696, -0.12258020811827529, -0.26026778337136297, 0.28354186026327627, -0.4837279116571035, -0.01720484799151718, 0.10026481889200924, -0.023185587906048702, -0.2504683887917993, 0.03948764822909863, 0.22844590252901845, 0.09769631026171685, 0.024955873054542856, -0.04221429850206023, -0.10908646187112538, 0.2912274699868746, 0.07552708345969879, 0.019336098438251802, 0.29878720194583813, 0.09159934261888754, -0.10560183396400057, -0.2017672809274461, -0.1524872764820062, 0.08512698292723446, 0.2429140588624271, -0.2619722568670437, -0.17131027206985094, -0.18092358315937593, -0.22080660031551647, 0.09063731104495515, -0.07604139851347169, 0.17409895941349254, 0.046851307403558154, -0.21439649670213334, 0.25917676629634306, -0.379721919872619, -0.20988724703545292, 0.08090135617949858, -0.048855792127760804, 0.018832728158191085, 0.342905615890203, -0.08234939232065176, -0.032117816981179916, 0.161098820977628, 0.2519866008285126, -0.1383780667843317, 0.14270256649665136, -0.09452934066997694, 0.0990390342311768, 0.1665978884613458, -0.25701130768690655, 0.16922544374617002, 0.07794071427099712, 0.043552175185518426, 0.13394020671389664, -0.28561106235960015, -0.12277433940356781, -3.8648571e-316, 0.33186066922355123, 0.2265051017799933, -0.015314583460310314, -0.08402500142658816, 0.2545191583385943, 0.06192603856593543], [0.03165541036578145, 0.38335785714887854, 0.007962307275141961, 0.04775651406022352, -0.47820943900267765, -0.11392509595972754, 0.38913800380305585, 0.07571403019244644, -0.008925093082817814, 0.03751829251453954, -0.10282411980675721, -0.06675922323375044, -0.006458204499738564, 0.18471645091134248, -0.09486924522433099, -0.23348314621879576, 0.7317577876934637, 0.004163944717205364, -0.16492159845867735, 0.09175884647401003, -0.389861920027934, 0.5784200576316572, 0.319853227981722, -0.17485414520211007, 0.18947496037569714, 0.03105110213900664, 0.03848867973141363, -0.17503822609707007, -0.29195785572096766, 0.23908670925029932, 0.4460651951385299, 0.04642006768572327, -0.2316871714877441, 0.2501440646725389, -0.2005196168806604, 0.2667930293201826, -0.29434474989343257, 0.18869937660441172, 0.0899228614761144, 0.25644954974688855, -0.33102497925430907, -0.1429821708189905, 0.2429915610026675, 0.09281636027399312, 0.04636927267050332, 0.16855274714597582, 0.2911705807577191, 0.12902401148488032, 0.12438206408925151, 0.0013756521547614903, 0.07840797441828498, 0.3489401016551887, 0.0516411403919, 0.10227027652890454, 0.26268015207388196, 0.04771037615897594, -0.23497742983817077, 0.05276187354902415, -0.23542930361379796, -0.060682641623646186, 0.19195946093561542, -0.39852963621531684, 0.12165407521442945, 0.10522820600614709, -0.0905046476569944, 0.2677394649933057, 0.20204280907956487, 0.006952223099624368, -0.2519150629406884, 0.03625960677402455, 0.19903992231624754, -0.010430682458566454, 0.07916537112709131, 0.43068197578491635, 0.16873509271005177, -0.009088826834724232, 0.2772223403645562, 0.09358842792977252, 0.22308724638511593, 0.4069731044442308, 0.24700412998877264, -0.25000536346695196, 0.23121190996773427, 0.18712510489545844, 0.004285698528910623, 0.3190124667025923, -0.04355825925273225, 0.2556006447387837, 0.2360989077306071, -0.05921703694250243, -0.11337868460972818, -0.549377937676832, 0.10868428836418424, 5.8478463e-316, 0.14713491570018544, 0.5501801880838103, 0.31722640755018466, -0.07104882037665823, 0.08406627404874292, 0.028554980597456175], [0.321987501611174, 0.37220465336227526, 0.2790512709959285, 0.2942595559480845, -0.2334168662620979, 0.09095617663819264, 0.28226294527668583, -0.037486392808299636, -0.09056896340769115, -0.037427032789625614, 0.05918539169610386, -0.01058802175284021, -0.2636830740910311, 0.038806487516502085, 0.023799520399897762, -0.0381852893191687, 0.8028399903119979, -0.07933863475156408, -0.19095167024368975, 0.0464996967385285, -0.22835990978325824, 0.2696585434164289, 0.06262767522346435, -0.1489857513413037, 0.008442985073311003, -0.15334713712804796, 0.15399123705269838, -0.19627993073561603, -0.22535069097867733, -0.02567812164944898, 0.3164017766450938, 0.09238375070680467, -0.3154345473106934, 0.3851279814995962, -0.14604760638916053, 0.19000413102530486, 0.026844175868987127, 0.10203033452432449, 0.5565845689161031, 0.0820237749554863, 0.3357126066751789, -0.0009980496744080157, 0.20758619128172642, 0.20074276191257287, 0.056591738755519386, 0.019402939077355325, 0.31198877617514853, 0.26408098920285705, -0.03877148599794388, -0.2217129754546487, 0.18609900372354718, 0.4055506370094798, 0.03442121493553143, 0.22804385275153496, 0.13824447952887192, 0.10736336621426312, -0.40264037255804286, 0.02413206087198369, 0.05348080096009727, -0.06049034716172311, 0.21892948084940086, -0.2915554603783092, -0.020498100116170703, -0.007160225609117716, -0.02585269653255655, -0.08091283513879625, -0.22607321715950107, -0.4649694554992402, -0.23931458845054096, -0.18663030654452722, -0.051358490365204276, 0.14108160850066143, 0.18306061403956134, -0.03821704336547147, -0.04914403092063295, 0.043295743028989614, 0.21909001251628976, 0.14349414910956806, 0.2572934289921913, -0.2499364472976034, 0.36413901622391665, -0.055417211210854356, -0.13364670836053452, 0.31726930678972065, -0.09339701555245078, 0.18554239315752866, 0.25848436638022443, -0.044871866403590546, 0.07121162358464056, -0.14919263670908164, 0.10681740773683064, -0.33104456370505086, 0.09433959901151145, 3.235271754e-315, 0.2545772041052721, 0.10112634817061313, 0.037735133779256046, 0.1148034435392468, 0.11061213072121626, 0.04739579273872028], [0.11008420972662887, 0.43422840194782947, -0.13898149335602705, 0.022612441959959362, 0.0887423157545322, 0.11023836136262265, 0.4184496543897253, -0.16291336595503977, -0.08410613199502212, 0.04896295633467737, 0.04998494365533251, 0.05288417717343933, 0.05432069935372013, 0.010002148742878554, -0.08587643158702452, -0.09226562634206263, 0.5526020632021795, 0.10011335748149293, -0.17668294512367663, 0.04338488946444392, -0.006427393574432114, 0.28501070040004745, -0.3058043011443651, -0.008574156496396996, 0.0990775174476728, -0.24513436743596984, -0.04214790470780043, -0.06825378685510884, -0.19479005613721553, 0.15233637860712804, 0.22515038866111126, 0.13108846277258185, -0.107967525975017, 0.16246285403348817, -0.14170139938760357, 0.018378102961912682, 0.21992307914706552, 0.12690979087620158, 0.5195592229571375, 0.2259807914735757, 0.38895713666609016, -0.029445387547379426, 0.2905122138981088, 0.29763259824099464, 0.046536166669441575, 0.21101824599058197, 0.07800027654171325, 0.40472359652886614, -0.24191106753243594, -0.1399201415362178, 0.053908255999385486, 0.38172934814719495, -0.35685335974904453, 0.5823737394657998, 0.38768592025313076, 0.2869298056205689, -0.4071967427781272, 0.0032865860654352802, 0.2461313313927636, 0.023183760683225894, -0.017917333509119504, 0.009461909308336257, 0.2698888257372071, -0.04866141076677417, 0.029902132524355505, 0.3038451039597416, -0.04855499229761149, -0.3941330657812042, -0.16027801790708449, 0.10451647684220398, 0.011422175570418613, 0.005593970117404314, -0.013865152702376324, -0.45864210655840826, 0.08503365864510685, 0.03407677291324378, -0.07343271390927268, 0.01082259331459445, 0.39571604161243157, -0.11209502379804914, -0.3628267190056785, -0.06379949007767824, -0.15737056593683285, -0.06639922251056676, -0.1212454477928988, 0.010113716503401102, 0.28941942788323693, 0.08727982292789725, -0.03139378961731, 0.09387223214507386, 0.0572176961783633, -0.051285600602236796, -0.14240476769079427, 3.19224237e-315, 0.20334559022262955, 0.12621596801281545, -0.25537789494580154, 0.017586404301027432, -0.28062838815397584, -0.21234497832067106], [0.06698210615603431, 0.15481991330568906, -0.06950096270970879, 0.26515143873212677, 0.23069090681929016, 0.0764231637560816, 0.23569488391986246, 0.36340750499859353, 0.1542169875056646, 0.023760042909906257, -0.0006379532987688903, 0.1514427529014217, 0.07310675979742101, 0.030083895907728933, 0.0475610131772379, 0.20951984214270747, 0.36232334249618786, 0.023424701065111183, -0.05874980511130133, 0.1299740768151372, -0.3666331447806582, -0.31937909917044455, -0.3105253000959263, -0.19217197154789836, -0.05405647141329766, 0.03587473201094924, -0.12332113396787242, 0.006948681249740682, 0.08903249890121333, -0.0002996243014548663, -0.21043274646276233, 0.20894522093127682, 0.11647155701499363, 0.2811961939771977, -0.22615334003070617, -0.08635122826042309, 0.2710369429628184, 0.20623131590097185, 0.4275579727416087, 0.1359211496259357, 0.19744925778027214, -0.04655469463865244, 0.0946159867451522, 0.11061895976111319, -0.08955723574049161, -0.10314495093043419, -0.35482542659566174, 0.5020737831384452, -0.7339350094956746, -0.20964644921433453, -0.052762736867027565, 0.45301907464500785, -0.4246865606068336, 0.22981947250423548, 0.19054844880812313, 0.23034745245928223, -0.23880000150635491, 0.5128573917628205, 0.011954857219478818, 0.3000316405268379, 0.2698407967251648, 0.23463132159523478, -0.19918244677719174, 0.17073258174602857, 0.13162022999616857, -0.10763588607391761, -0.2443116651287314, 0.11287163732915755, 0.10669030221994354, -0.21746210941591387, -0.03684961308742752, -0.06536725068844661, -0.015481871051391897, -0.3023113433132192, -0.27267545136021, 0.021165481850700545, -0.11903217951279331, -0.02740815498474809, 0.3140661271167275, -0.3342202311001478, -0.15856715474797636, 0.27092032311347786, -0.3799281626573355, 0.003755058201423775, 0.2917479134470378, -0.38651883088090105, 0.1880881919669865, -0.1986308761138712, 0.08303407792911621, 0.042566876226464594, 0.020532354977981587, 0.25733000963805325, -0.19672646692132792, -3.122408163e-315, 0.3286218711601406, -0.04150269215514344, -0.36682253295658657, -0.016661838289829745, -0.25536322305747144, -0.11895360125574092], [-0.3018555905894766, 0.08647402520600395, -0.4644039433547929, 0.1556501962696505, 0.04208154128511062, -0.03859201467318446, 0.054928662620953805, 0.03478671441404527, -0.08195131977346505, 0.0072440339031637786, 0.1562319929486004, 0.17684622900172317, 0.1882346110651803, 0.03552355365899239, -0.1493328339514158, 0.2774768073292543, 0.4294486419435016, -0.04279944334216355, -0.07266757106949226, 0.14586104883312392, -0.015018608114183402, -0.24282031073299817, -0.17599306633430434, 0.15717403470726635, 0.13420448440535862, -0.08562723769169397, 0.05979949929081537, -0.02718684211942743, -0.21780394341085382, 0.024088030885447507, -0.33015977252289624, 0.2668036118774572, 0.10276624203930954, 0.16456374867189089, -0.18759038858667992, -0.18218151853383657, 0.11142611415951367, 0.02071408361399922, 0.08450531536997201, -0.14202583302734742, 0.00768520363298491, 0.11838963084782204, 0.19804021277995815, 0.02591167022083142, -0.3832919184018347, 0.10018523826749166, -0.4391393518871451, 0.31739383931892845, -0.15397783806059714, -0.11261994297364382, 0.06022806563549126, 0.519663722435025, -0.4690082646383445, 0.2579518252479507, 0.033873808949877925, 0.4302376156934625, -0.12148595077471644, 0.5083428630015614, 0.1773489140391989, 0.010308413815818526, -0.05911967445296224, 0.12622810539765048, 0.10005190919464979, 0.03903179142890303, -0.2399523020734385, -0.0503422293846972, -0.3193044774858976, -0.14830059569510168, 0.16186188881246075, -0.3942804523667325, -0.06359859965016378, 0.0008593608240600022, 0.03383989036630794, 0.09627634317676595, 0.15121272792624857, -0.07530267277671747, -0.20350402955863964, -0.16010362893164698, 0.15317161438083743, 0.00011510861131266386, -0.01111704505203929, 0.07316094438110797, -0.39100055314508186, -0.10329774669633031, 0.36303189033820465, -0.15397638605395994, 0.017595376334073407, 0.017936866170265325, 0.2746569216237786, -0.06929826979567646, 0.15474374406405808, 0.21001902410765036, 0.09876810178576148, -1.59057904e-315, 0.2820075485685151, -0.358897965162102, -0.37105844570982305, -0.054286742500029884, -0.4114435770222444, 0.08531632462814617], [-0.09878054010038079, -0.287937622808436, -0.0528608652383171, 0.42542554615106515, 0.2799258578764579, 0.14492163489779133, -0.1880556877568105, 0.17602540031337638, -0.0010359374196498158, -0.027556483967295032, 0.04050886290559981, 0.028805255434407758, 0.08560725259229693, 0.03229989751105913, 0.03720304468877265, 0.17887762749454128, 0.4275674574326563, -0.10522585903277316, -0.20243060130091473, 0.20237326696132296, -0.20311532570627794, -0.16968096364862098, -0.14391911876000793, -0.19899699120767372, 0.025859878604826053, 0.17932643137301524, 0.0026497902733765206, 0.3993404621036521, -0.11278534557268553, 0.10263894236974067, -0.14151773372917406, 0.33879377295506025, 0.24667305247294724, 0.3196000302094253, 0.034575856626388596, 0.052963201991227865, 0.09030499526866055, 0.020060119588483704, 0.2866914227949205, 0.017621965652202018, 0.10159873770750784, 0.06414737397773772, 0.2838489874803722, 0.1024640976589694, -0.07402179055682039, -0.05537245050298558, 0.15472748628327293, 0.26201437764189656, -0.2946952391279778, 0.013523769242765904, -0.0857171852546665, 0.6529854810031585, -0.09580125935688259, 0.37077899708712636, -0.3117160936287924, 0.3166910827576605, -0.2385985211984377, 0.6153223756124325, -0.16712712600118898, 0.018386161848085204, -0.44760899683968525, 0.19384807390166053, 0.05931655830146185, 0.031945213628052076, 0.2407600998063417, -0.2281076517132558, -0.1382396124138817, 0.004174640993892214, 0.0504481635486361, -0.11175841841204548, -0.0051744254755729064, 0.11184290413579341, 0.11795591424681927, 0.37346878850427734, -0.015240484431755713, 0.05210871946674869, -0.07833997594887193, -0.12327270597856677, -0.08882265171010359, -0.1669169482571316, 0.20378430667416933, 0.0902713148948002, -0.10956887765873571, -0.0008064621281871193, 0.48217897570689566, -0.5936525673142519, -0.14581365994428488, -0.14442036670223776, 0.32034004178469877, 0.15711493242153007, -0.31070420084643013, 0.3100840027378573, 0.07492058858504491, 3.537830233e-315, -0.024674286059749632, -0.35060660011241995, -0.32023961107420784, 0.23561548057223625, -0.22328623740341544, 0.09946952809860062], [-0.048296963356111534, -0.36038381348409687, 0.19369979650016014, 0.06386190206027942, 0.2220455946643485, 0.10483512360441283, -0.20872014276954168, 0.004021865395450719, 0.040474134581108066, 0.05956722594892487, 0.5098659778266735, -0.34790143964135695, 0.035628574501656594, 0.005624054831513158, 0.023926030992823092, 0.16082018113708055, 0.1607168779162113, 0.12990034562970318, -0.03204410098740455, 0.1780922280760624, 0.10665643142678816, -0.13285924329879573, 0.09661614391711387, -0.3515101670789591, -0.23890662831959106, -0.00978144214780525, -0.11496514864744042, 0.4390196987824151, -0.06500360903137492, 0.07461434691816728, 0.08510069852113421, 0.13874634763424734, 0.31601937507754224, 0.28503674248906463, -0.0002372756072912637, 0.23046254299586091, -0.06937300877721755, 0.04715518681583114, 0.15930902049298828, -0.2818464983729817, 0.22715716586340345, -0.022267805310830485, -0.3027344290434468, -0.11537626708347491, 0.2026714346974045, 0.0295514195245888, -0.06836339145629719, 0.2715897756762951, -0.5374547827884552, -0.039379842176120984, -0.28492439723553936, 0.6425623877358999, -0.2135091888227107, 0.6715002815541711, -0.443211162736616, 0.0019320903233302138, -0.005005100768065828, 0.4116072399895805, -0.15433820798418066, -0.03998270571133402, -0.09082828232571595, -0.018540238185477093, -0.16999154832568342, -0.37079199693437537, -0.13823147093405075, 0.09112495075395183, -0.26448842717754867, 0.02332090030747357, 0.05434259797364521, 0.18918997565176893, 0.13734101507383972, 0.1716214942589689, 0.08544637304704769, 0.07599671009275427, 0.1353058354562005, 0.016686233441554565, -0.01375640534508308, -0.08453951464625534, 0.28094312348584144, -0.13345661777915666, -0.004696622501728475, 0.20950399480474524, -0.347250176136607, 0.268939555142741, 0.6261146093862707, -0.4899765416062892, -0.13174838525273797, -0.04094255295561484, 0.08338540888713014, 0.11620072937253065, -0.1259631931013019, 0.3463409907587993, -0.11081120770482764, -3.32581986e-315, 0.03944546037338734, -0.08319499815086308, -0.39074995858480577, -0.125353802231512, -0.04529857525905486, 0.17754005906252632], [-0.2451098635819305, 0.03012004101671404, 0.35357357576867315, 0.23638567756784956, 0.3921933026879304, 0.025307265736529222, -0.46107467231554927, -0.10273295498930239, -0.04636216896765643, -0.040111027399373014, 0.8148773431844144, -0.03522869238338748, -0.09287830999233261, 0.1946821051897262, -0.05197973303048478, 0.2757416799078461, 0.03160701796273815, -0.08267843039111318, -0.10253536404122854, 0.31598119629534244, -0.07940771677425111, -0.3537377711717444, -0.24854797357660724, -0.053619423528648145, 0.022152508495364088, -0.06058803083958626, 0.12620544170977807, 0.18383179983529493, 0.06687825843481952, 0.24613242490678705, -0.21953083800542192, -0.20638658959981937, 0.11493105522036445, 0.4879464680293261, -0.0104635779496341, 0.21536324537178486, -0.1192384447559879, 0.09634682712257342, 0.10301565786878486, -0.3680630950434271, 0.09576077754713232, -0.024957634776248457, -0.34032124620696347, -0.16976984925587038, 0.031408618435955035, 0.2018775058648873, 0.01376018022375054, -0.1612895704940542, 0.2284853744843762, -0.054239024746394984, -0.1293025511713059, 0.6748125521697368, 0.11544204467998387, 0.5813932673792636, -0.14644781734990714, -0.17318398488054784, -0.2045682445961617, 0.1493947142676538, -0.24474058563407414, -0.010814478118586384, 0.15702937871702813, 0.19686842376907798, 0.11081656614837755, -0.14183900063708232, 0.0775383924886969, 0.19726427626780504, 0.12146688327284663, -0.22293310682841186, 0.19356079056922124, 0.2668143825864854, -0.076830538838706, 0.005525747327479172, 0.08388139842205432, 0.10732823092407814, -0.15485732711874758, 0.05581859547144225, 0.21964998477817252, 0.027910349349729083, -0.1822537379448358, 0.022642157845121233, 0.19902189513724244, -0.010439662251313708, -0.049745793300600936, 0.2919061417261873, 0.3880535314056277, 0.016701587539987142, 0.03647150732456017, -0.14238068065718565, 0.5159619205998545, 0.06099277586870027, -0.13741459355628552, 0.4164532720392065, 0.09084998257228333, 2.53967811e-315, 0.16307973492926675, 0.06403818975470611, -0.0615494525432292, -0.06877104584637268, -0.10655966401952668, 0.11619818436827449], [-0.06277127682592604, 0.24290780022457975, 0.056648619831132584, -0.009611721641910632, 0.14457882522248278, 0.01423329568889335, -0.30001246365717993, -0.049965287026214965, -0.12698948720783426, -0.05127399622042778, 0.820050493605164, 0.4320483239446039, 0.078857204064409, 0.05542939026680572, 0.07030829696188573, 0.353924606896917, -0.06923234545074798, 0.05492439613474425, -0.282468259792335, 0.4922164605621312, -0.17799434946178697, 0.0037523854466329433, -0.17989331058492383, 0.26471779052201316, -0.013639776106079025, -0.1765892841684342, -0.02448475871191731, 0.1147769691275454, -0.13271905705358614, 0.11756925302945292, 0.1369805271878748, -0.5733490685453578, -0.14346366017750928, 0.4741704249183337, 0.07032424515926182, 0.247454353611293, -0.2465774598840553, 0.10516922981777226, -0.12841530468598325, 0.08767366284324522, -0.11249805006409444, 0.10945467654994546, -0.22672402154277224, -0.6593501485366546, 0.06647422343839987, 0.256094469589583, 0.1342153570961511, -0.23015308667422724, 0.254996576461685, 0.062001124424456745, -0.007084109155849464, 0.4225567310733967, 0.04473886284010895, 0.32253629766062075, 0.07196397519874134, -0.11726859059459199, -0.026506642711547564, 0.15346928827999362, -0.24062098214737968, 0.024883274206633558, 0.3266338523947353, 0.21598293734970472, 0.032116810662280997, -0.0696035560198128, -0.04230695617536933, 0.3531585794485379, -0.04019084868597098, 0.2581077069600745, 0.1650832147735422, 0.3119222293073949, -0.08985152442816617, -0.16025855945534098, -0.06493142988516085, 0.13290166023171662, 0.10010688909344033, 0.29901881352266174, 0.28302319160908734, 0.06280170075992449, -0.3816556837789124, -0.058387481289315736, 0.1260606435144788, -0.2463790916679763, -0.07383560153405679, 