{"bias": [[-3.791787053536112, -1.9812369641999348, 0.3284905190545543, -1.7927927997096103, -3.5237863198680626, 1.6621494658351657, -0.07604477405381956, -1.2304380668054515, -0.5618091908586956, -2.1730499025686054, 1.2725297425855095, -1.2191790449752775, -0.7106145065217202, -2.8150899664658295, -3.738911760335212, -6.08228292883836, 0.19272820242902766, -0.5155914920998932, -4.798395091798269, 0.9395704159627555, 1.3610614436402726, -1.2715847424032414, 0.32565915140703455, 0.480520240090153, -4.463609060761917, -6.3068613567824, -6.418212485490864, -2.5160968468998495, -1.3375259934526624, -3.286127253139625, -0.4152151499663146, -4.846927521259649, -2.7335572992428165, -0.7071074774351889, -2.7472228334096433, 1.3037941618849593, -3.8307785788679745, 0.5984661468396318, 1.0609544841543306, -1.3377731914979623, 0.04059375738006249, -0.41993615438268034, -2.287621343763552, -1.612167019836755, 0.9845997028626237, -0.36561016451793715, -4.68259446171632, -0.4360234906976758, 1.1261482164884216, -4.064823566868898, -1.1256309232413793, -0.7697791639640773, -2.027793779159133, -0.812910883487369, 0.47695400958712647, -0.3772344246974411, -2.657356716871152, -6.124335130158954, -5.796998803153537, -1.6120969879267595, -2.8898333667809952, -0.6766797862980551, -2.015400342828502, -1.4272895590969221, 0.320184501345422, -5.586197728520128, -0.14216674832977297, -0.8306141423864025, -2.1604009418076595, -0.7820144315510383, -0.8769130028664579, -4.253431118680581, -2.89155180218323, -0.6336393551071431, -4.994388039571064, 0.783664012859029, -1.6914733165545628, 2.3324778792450904, -1.6211351438535164, 0.9485852419316397, 1.1408241343834986, 1.8943059362933132, -0.9400470285189795, -1.329458512093996, 1.1253522620925154, -1.9796824517458997, -0.9236884595956211, -0.3348375164642582, -3.780023591213457, 1.2698289258790916, -1.7826809024780148, -1.6001701428903592, -1.3031121614432124, -1.705009876730565, -1.9516667619017063, -2.0871170396347822, -1.370914687772307, -0.9861715820235518, 0.6986003928491183, -1.9379744454649517], [0.7855036685311886]], "hidden_activation": "relu", "layers": [100, 1], "output_activation": "logistic", "weights": [[[0.005884352879108858, 0.04995085516859611, -0.32899444733576827, -0.29768995777226154, -0.16290888965608127, -0.6627258138360266, -0.0346571595768512, 0.04462623291340009, -0.28737313150789584, 0.44142492786325943, 0.2680782576370657, -0.017735101904919913, -0.5026177452667838, -0.03163073965555828, -0.8241808245869543, -0.06710807078361086, 0.08037396147739205, -0.01790306382452905, -0.002358114005221947, -0.332503407476654, -0.16401077333943737, -0.03824752725543426, -0.3481554334232035, 0.3999517929246864, -2.658358265e-315, 0.026606017369017902, 0.16967722763409795, -0.22583847838438453, 0.2081428130914762, 0.3348852172705191, 0.08237321055950812, 0.2169242354102882, -0.2874951982768254, 0.27502958711323094, -0.8376539369860139, -0.230552754134229, -0.10523588761706808, -0.7197259875916262, 0.014844600648280538, -0.05438197587746569, 0.046404105717004006, 0.011500833124154715, 0.10503461653032378, -0.03300691918497064, 0.08343700106318087, -0.19260433828998513, 4.15415165e-315, 0.10541050816098596, 0.16458005698973627, 0.13031732653108058, 0.22416538151131601, -0.27621541252663134, -0.32423763959965196, -0.3306729870643514, -0.7333772817992498, -0.13902376583773687, 0.5333627755835285, -0.05437445287163927, -0.032163586340755106, -0.5955091667496974, 0.44484029860551166, 0.09279212802900998, 0.7702531414886893, 0.10769230449750367, -0.1440044461541804, -1.0614730904369147, -0.8574548998684239, -0.06961351328551725, 0.05486747894598899, 0.8473981479679437, -0.07444274208566087, -5.10170877e-316, 0.43730531980419585, -0.2943379801847728, 1.89255323e-315, 0.00929862743261398, -0.2324762164619559, -0.05103233461103983, 0.8235881693488027, 0.005302141641143272, -0.06075540645161387, 0.0374040290143202, 0.1318812199913008, 0.4506726801579699, 0.057912854756234144, 0.18613480285589323, 0.5181030699468714, 0.0039533837098562315, 3.59011188e-315, 0.6827912863389715, 0.7978257722759382, -0.0687453698572497, 0.4317012563714571, -0.1598775195474387, -0.38759313084292174, -0.14752796912649907, -0.24678613833933555, -0.2108202564894946, 0.2598460513522025, 0.11635047561885326], [0.13477370950340292, -0.12203175445753851, -0.04629884825555523, -0.5779652829738183, 0.13848084436483393, 0.29545273233308506, -0.2801272567152849, 0.18002198777222406, -0.3906909679877137, 0.7591381086644898, 0.2577627199266117, -0.3448860181422872, -0.2676239718407356, -0.4549989142274917, 0.6947316032475375, 0.04011331854457382, 0.2099616893554624, 0.0700120246125256, -0.6951183662469421, -0.6502463108284454, -0.2742746784934389, -0.17857818511040188, -0.22712061991749738, -0.21341787737239648, 1.65662219e-315, 0.33892270651527023, -0.19427463244131618, -0.16082811938485234, 0.40888817172519915, -0.4774126985028136, -0.05548539594041289, -0.28542917584080485, 0.5075636827123583, 0.32332845928900916, -0.6786033748671956, 0.5615731250663747, 0.3038785831952725, -0.016153030161487163, 0.266976107007212, -0.009837901845365175, -0.24198324363020304, 0.358972675912292, 0.4057570709386928, -0.6646368709453491, 0.09225568199444581, -0.46056829745083067, 1.537087547e-315, -0.020189587573766977, 0.49003640798766446, -0.06996010396670681, 0.30604220211301186, 0.4536061768475023, -0.4278832569918882, -0.1470480600106926, -0.17714309882695764, 0.2300560158468139, 0.2281513536250966, 0.2540517219224418, -0.25232056667656944, -0.2425932147412584, -0.4256754010847125, 0.13387887722657738, 0.7895263526538178, 0.0532504480331876, 0.34951550506837137, 0.4647873832976002, -0.2939437724441728, 0.03053193897320806, -0.06882927370375566, -0.640645348509022, -0.38176397066207807, -3.128822514e-315, 0.72853104375541, 0.25065343471789714, -3.277668055e-315, 0.15344662931173506, -0.07205644668462247, -0.2713140447063761, -0.5931291209669755, -0.03317174144564312, 0.27137228095806937, -0.2462847081079287, 0.09403068382142925, -0.28437858330580373, 0.01246769786280882, 0.05053736706480625, 0.34380511303507505, 0.328122163666526, -3.64749175e-315, -0.3012099722460466, 0.6068265762960733, -0.3956480446263044, 0.3437441981662795, -0.6702371277295585, -0.1862815485907014, -0.4667852045597241, -0.27905999897401884, -0.20856452621781277, -0.19101674509741534, 0.16672998663630006], [-0.13417103291172225, -0.38262004354752166, -0.20357171742003574, -0.023460369100362543, 0.11708941952265794, 0.6060494814427029, -0.2506719393375692, -0.07464410195609399, -0.1797000445256375, -0.8000135847822468, -0.11506115873804179, -0.10872335698172297, -0.4721026503401348, -0.34270819509009853, 0.10620508588078431, 0.03467066750556712, 0.21719343218511944, -0.1539101823067462, 0.1973039914935886, -0.5765059207491101, -0.3478020145396306, -0.33932657294370655, 0.15507188057221027, 0.35888136183114244, -3.5250857e-316, 0.2990966547477917, -0.4509111545068817, -0.2778215848403346, -0.39019826979577493, -0.6045307751798726, -0.37968724653483416, 0.03921246166957707, -0.11987592273687166, 0.0743116399287494, -0.27556460441071146, 0.5153620194189407, 0.43191137820413616, 0.12620235150187067, 0.03739008924221155, -0.04741379383618618, -0.8501155534811113, -0.45448219527475225, -0.22063197604491325, -0.3083463586004378, -0.07874984800274536, 0.31935107707932947, -2.21380096e-315, 0.08169667850029609, 0.03984483723190061, -0.010660586913011062, -0.08101438197614724, -0.1677511526183883, -0.5163049915135736, 0.2652196079778864, -0.9725767604999718, -0.3266923072139283, 0.2491543404678107, 0.441687817453201, -0.5339489564631544, -0.32621387271048896, -0.767664193693203, 0.07250772044734473, -0.10947422085390236, -0.023783586138027415, 0.8622556687824768, 0.0617398081045186, -0.5272792513795869, 0.06309882012368452, -0.007849060239541225, 0.1736324115123583, -0.6787555136532211, 4.290146403e-315, 0.8392888511770706, 0.17762110633830214, 3.38928135e-315, 0.3143595751522439, -0.025242876197636765, -0.1687403167668252, 1.0763284670821565, -0.16375394912748797, -0.08283680668462293, 0.8031923062417035, -0.2600946381940394, -0.032595097418876444, 0.06149149069404725, -0.5141815270914503, 0.2332156655060404, -0.03032013828683707, 2.08684868e-315, 0.6315049798510939, 0.1487788915438167, 0.15914671742761766, 0.5054550118853747, 0.2373685149804813, 0.33583143273960075, -0.2270042290088159, 0.7893195584282867, -0.5096145521538089, 0.13870981166098173, 0.3992960962930612], [0.6433348854077637, -0.3135102084207148, -0.18420791468995057, 0.2974845005579984, 0.24824779380107956, 0.4716697589464909, -0.294400503685162, 0.1253530146009692, -0.39534711356006336, 0.20582944654318347, 0.04854481898877804, -0.40456704600742044, 0.46836582409442357, -0.4712543220887309, -0.14497412434372658, -0.03921619818714115, 0.1373167486538564, -0.0032577436543445443, -0.1943346151563028, -0.6060019335531044, -0.11333446968886104, -0.47449241923483365, 0.5376565546496458, 0.26664355057002664, 1.958699093e-315, 0.17794168689456513, 0.479381667159669, -0.37109150483308656, -0.3706730273540199, -0.22229002328506628, -0.0027884667367248225, -0.18771840647734975, 0.16401483198404654, 0.2601209821595311, -0.38584734630944284, -0.6938144487883047, 0.10170740291481317, 0.08330447186717081, 0.20077307453664997, -0.013913500312359835, -0.02127790081546375, -0.20514714844943646, -0.43546932456774506, -0.29708197700500827, -0.33395984186864, -0.37586740973612104, -2.265629485e-315, -0.643113705179279, -0.35113146363061937, -0.09412255918200253, 0.4729300622495089, -0.4526395607601937, -0.37078683681191504, 0.24982985405137312, -0.15115272389492132, 0.16678021920236152, -0.27436055532215553, 0.23454604243923158, 0.23127691046800672, -0.3386702860143988, -0.2527108646865747, 0.12657036129771704, -0.14328460023228, -0.05776350857793878, -0.141952956191862, -0.3688558880212572, 0.7722428149027651, 0.10348183255665329, -0.051550792524197364, 0.578546458471597, 0.1529703672919723, -9.64989993e-316, 0.9879993727893915, -0.05869105211426942, -2.5577536e-315, 0.3633235793540481, -0.18832609202815634, 0.012572693635124433, 0.6533332041962135, -0.31418485718169126, -0.211613383653303, 0.15366164495742066, 0.05700990074478522, -0.7280332301811727, 0.010601862561644375, 0.29830259413333965, 0.026290605459626245, -0.12620141277486702, 6.29507043e-316, -0.5424189563276404, -0.6162897677814888, -0.6523178767340375, -0.014878649590299806, -0.3919484410982634, -0.10531197958266508, -0.09219266744909557, 0.5250078736420581, 0.46847025048480917, -0.7644428133183073, 0.5584335171686929], [-0.02725607106637096, 0.09601341966373353, -0.5921109794386445, 0.5182888235944055, 0.30084421529790256, 0.6615646698965957, -0.32943887893595825, 0.15635657264961014, -0.21755487311392055, -0.4275498506634839, 0.16800770454450414, -0.17560438291635214, -0.49008812376791827, -0.2513267407101619, -0.7960965277608513, 0.22932914295607904, 0.001738796309057181, -0.12084346517407232, 0.25987053409680777, -0.43197196977331453, -0.19445610481105322, 0.2587740264585527, 0.181465861365413, -0.6121210137717311, 3.856132085e-315, -0.6387812778602879, -0.23984830421389805, -0.4181137286808336, -0.3169165567580555, -0.536851719069851, -0.1737525047028866, 0.19701467317733887, 0.22502570262426125, 0.6596042371502704, -0.1717544336335422, 0.3462230797651856, -0.3042959295770523, 0.08859754001164885, 0.353573232384318, -0.14181480910677774, -0.14913165203971795, 0.21828846449635678, -0.30393949119018715, 0.25610467770903156, -0.21833205003014533, 0.2488222057521786, 4.45903475e-315, -1.1604630583316937, -0.009494244304874009, 0.03814342194017584, -0.024692044290139582, -0.5039534030170576, 0.16814395924205278, 0.04461248886070241, 0.31592264013907434, -0.16465406542247535, 1.0112062031630966, 0.34285315841449526, 0.2733707038889339, -0.13092419030556238, 0.5956390675403007, 0.17683622606371108, 0.09975208062327535, -0.05822886042594139, -0.31835319489382224, -0.40539577874063437, 0.5349226697698733, 0.012612143817273897, 0.009219108518966552, 0.49076975010813656, -0.25256418995034396, 1.88754271e-315, 0.16898780740202715, 0.18086937967389452, 4.212806246e-315, 0.07264346165834165, -0.04789961340298244, 0.009272501403352106, -0.6354446886451532, -0.3270512639287009, 0.018698694416143153, -0.4953308208738461, -0.07308796353800588, -0.1985080431090384, 0.004047898449312626, -0.24244617840405766, 0.22373528599794995, -0.12608116870123384, 2.248402577e-315, -0.28440098398905833, 1.287773291989904, 0.0837686514853283, -0.056136652829117076, 0.0001229922073980604, -0.3506860378560336, -0.7306868673625042, 0.21646374874002727, 0.37594142859129753, 0.6800110908975184, -0.5217857820005168], [0.30526086025983595, 0.0583473573081235, -0.24599165551870336, -0.5388758370996258, -0.09215400837463301, 0.48379156182302857, -0.3327413824193301, 0.3845190621590242, -0.38266670003254255, 0.5386514475734171, 0.43416450026419395, -0.3750300075460251, -0.10288253041946412, -0.07838819125697072, 0.7568880148149102, -0.1982090773709141, 0.16851985386489102, -0.04817381205280135, 0.023454244243502873, 0.054254119709041246, 0.19640484370137593, -0.19469477596017493, 0.23242175488962202, 0.8016461359500346, -2.785658464e-315, 0.08576290804791963, 0.08494213287498843, -0.22652083790837124, 0.3076848760588754, -0.1656944168361041, 0.1622921599076896, 0.012002167809007046, -0.3357597963679336, -0.31246031133596847, 0.3471970865132871, 0.4544271717788979, -0.3993556788007621, 0.28562686343302746, 0.3481384422529045, 0.02400582645286298, 0.34305782011015934, -0.20942188523761598, 0.4892537251489527, -0.3259614510293146, -0.21193332962687658, -0.2731567644808138, 2.221573133e-315, -0.7775253303373149, 0.24367097975925703, 0.04907724678328553, -0.30730802272042756, -0.20036225848831374, 0.23308907030023382, 0.9920146477098711, -0.5512891215659148, 0.05086454312069695, 0.2849502683801092, -0.20642406625557555, 0.13334235875093686, -0.3538367322989742, 0.3563188238623226, 0.15328408043204164, 0.4433866135865929, -0.139835543170385, 0.6403871295641438, -0.4554361764377431, -0.14509615987446892, -0.048361558454682006, 0.09674830813667852, 0.7675266123089026, 0.2707904349445727, 2.67122633e-315, -0.32178622740247975, -0.10554388676634052, 3.272231347e-315, 0.018286851896889268, 0.3060947640066778, -0.0015623503782598574, 0.49664570458126456, -0.35882344252647064, -0.06128336302273937, -0.2803503432845722, -0.4417653655073538, 0.5937200787312205, 0.06791811781424714, -0.13913321804116702, -0.6739665260933608, -0.04064538639230574, -5.9737165e-316, -0.07617829485750482, 0.17475075049913824, -0.6177519546837072, 0.24807621223332077, -0.5830713063503913, -0.0654726197987648, -0.23014600511304778, 0.5560925072261906, 0.6264482617936523, 0.14868112221083474, -0.4745764178547011], [0.354606160747801, -0.41418682127366435, 0.06528344896975657, -0.4201413740059113, 0.1257537781275536, 0.26075559120507147, -0.6760676419929552, -0.11041902011378608, -0.14315809254363057, -0.2037725106577792, 0.2482694519971118, -0.4258568594747864, 0.16043906691043436, -0.07689581673806278, -0.1231251826508651, -0.27204955209933374, 0.030861174211120952, 0.02186663095682246, 0.682535265545684, 0.2740562771085497, 0.13434154750333915, -0.3900652778497936, -0.017926783414854614, -0.12912114392808147, 8.63093153e-316, 0.3230435319596593, -0.1990768143059687, -0.3495380252873656, -0.47079086858343305, -0.29832621746435856, 0.000491166551033021, -0.1836033572495529, -0.07467878133973076, 0.10537909967741635, 0.4563853086253844, 0.15260097170142364, 0.01601531739145402, 0.36531458630344144, 0.3633605986362633, 0.021704584819694353, 0.23699198231423194, -0.16757128216416634, 0.4657213888950079, -0.17269591944769813, -0.6928353087898358, -0.07983772946034115, 1.31594414e-316, 0.2683624463961463, 0.02884052097499449, -0.035180626510088665, -0.22168645805437884, -0.24834638066192175, -0.3497865094652344, -0.18277260855208366, -0.20527350144859657, -0.08974156308752851, -0.363690624671797, 0.1431942675888762, -0.18696144632115733, -0.09033426610354545, -0.3778587786118633, 0.1803504897892989, 0.0018815351618949425, -0.09905855338063212, -0.2062223097866557, -0.0831956842399058, 0.6179819842704686, -0.05063225917500459, -0.0030019104343065772, 0.6090047569586967, -0.3738979321568832, 4.06587741e-315, 0.2295406523458392, -0.05734774611291916, -4.42147635e-315, 0.2948122286638162, -0.2292244957959675, -0.03498698479220935, -0.08665475858464353, -0.136057447931435, -0.21613536994054527, 0.10171552879818922, 0.43982820624023694, -0.35076814906256637, 0.004327128303755538, -0.42255265463241787, -0.06774169520140211, 0.06249804851531705, 7.49077693e-316, -0.14338456184713883, -0.5620320703413332, -0.4814760506631946, 0.26769006683291824, 0.795687924044774, -0.26437389736065603, -0.5485837117271174, 0.05397479051429207, -0.17196418478039885, 0.7061501518803454, -0.5312742082714158], [0.7271529729922864, -0.4497719561443635, -0.2144046005108278, -0.11412216191179346, -0.06552656939076731, 0.3901070059059537, -0.6664802881774213, 0.3819008670254237, -0.3606709430365073, -0.3613025670700989, -0.2141681685596176, -0.4614033209998159, 0.12994059537431685, -0.16501923222463433, -0.25522423976639325, -0.4396332507492201, 0.10550366404341369, -0.10068611323863857, -0.5603015715297283, -0.1545382284120871, -0.4595428028063662, -0.24407201785593055, 0.32931438754334563, 0.4195183827135695, -3.6578589e-315, 0.2822770346400925, -0.2720549061778081, -0.5375362426232226, -0.09708839614398329, 0.14175130557946325, -0.297591160857745, 0.1812716118004237, 0.10521811226356792, 0.6601729084086992, 0.1496752926581697, -0.41226550309213733, -0.17018720162894424, 0.28052680715919187, 0.0785293027850435, 0.009711735177787229, -0.4954516915018558, -0.3110045373362037, -0.3869178061322546, -0.08737238438043571, -0.6438604632894527, 0.09213645185007671, -2.78142572e-315, -0.607384460041334, -0.2531446407145653, -0.06369772910996925, 0.19945664639889712, -0.19830813939367295, 0.3248558508976047, -0.17271106774959052, 0.2170641893394414, 0.2594328787401534, -0.17654813421893387, -0.03321321161360111, -0.27183817341890126, -0.2290984345978585, -0.7943357515637156, 0.24890249935405429, 0.6578254568832218, 0.07637204713944395, -0.36166379678135185, -0.1491662937012618, -0.06525498965718478, 0.009372740829938315, 0.026222154667335868, 1.0232817972755872, 0.04474056940011499, -3.49153745e-315, 0.7963445127266723, -0.08140989349146836, -1.291951887e-315, 0.3156770212609266, -0.26570653973959324, 0.06184020777148831, -0.09809408177194563, -0.18749625576774204, -0.24733608175307684, -0.021761787352462727, 0.17949302746815105, 0.024210520942900333, 0.04539755505453089, -0.43178853357581626, -0.23947651078176754, 0.1442247491330586, 2.71704114e-315, 0.06355256570694458, -0.4077571906763275, -0.1746124319455869, 0.4551094732670452, -0.9041249631190638, -0.9367990900376929, -1.023636636698209, 0.49316226324723417, 0.16590971023300086, 0.3588646898590877, -0.35280651052403983], [-0.34116247769689956, -0.4164483590332534, 0.08158495469059544, -0.04217696939982601, -0.07554804446719612, 0.4356303552233041, -0.49816903530480794, 0.06614214591490973, -0.2644399675633866, 0.8663697834129137, -0.12975101354444762, -0.5573327778553677, 0.08212179134558706, -0.12459800303832101, 0.2845148171654133, 0.19075288219047506, 0.1804501717507115, -0.08847878878333092, -0.011579737393236022, -0.26424393128492624, -0.4988155255464134, -0.06172108246792373, 0.6217295916280258, 0.4847620209919824, 1.748077757e-315, 0.13280854554018795, -0.001662250166961898, -0.4889687149825547, 0.007541512903283587, -0.09903985594479163, 0.05241389592468809, -0.2746521087191578, -0.04118092556293323, -0.17670115263799835, 0.19648311287037942, 0.5219028319558652, 0.19607035959474964, -0.5582523769412829, -0.029105500806339942, 0.08396692120201851, 0.5602750915187479, -0.042091831215167894, -0.37990728943697366, 0.3042502989938153, -0.23973878465306075, -0.5545047338244021, 2.543539104e-315, 0.549370527370593, -0.24978127939237, 0.005581726444336761, 0.8545491396561472, -0.11138990105121357, -0.15355416142286393, 0.08913752029156082, -1.0759840387220383, -0.490144088177782, 0.061046948321315415, -0.1918966252088301, -0.07438749805462322, -0.3749042313660377, -0.512489376804362, 0.13035878612160406, 0.47938323852233583, -0.058645926286664304, -0.16347316926104374, 0.13351873528425426, 0.4161343367310851, 0.11362843587233429, -0.11523933199804617, 0.15798950864199618, -0.08940660832656445, -3.25250836e-315, -0.19402294437461143, -0.399183619189222, 3.495728147e-315, -0.02018502191446209, -0.16130388318549368, 0.1447712633554259, 1.0359869302240734, -0.13967023630852943, -0.4115984051771222, 0.2245260959812441, 0.02632308558886386, 0.25207743279830985, 0.02053963724779551, 0.40875936877612074, 0.004330359584757598, 0.0313487787390984, 3.96262749e-315, -1.0105643454926025, 0.11864197351263227, 0.30783219849672583, 0.5755040311704254, -0.4188881025286931, -0.3650559959237828, -0.8434476395480236, 0.39354259242271805, -0.37239410688892594, 0.5044787517660142, 0.24400215667517386], [-0.3811296577821365, -0.46172250957526756, 0.28009156220074377, -0.48798978970791596, 0.24906821241752813, 0.2652439980758288, -0.4775867332985894, 0.25027174872304153, -0.657163815395199, 0.6264221917335706, -0.34676188340935166, -0.38505936715328887, 0.4680463214440068, -0.26374180775528056, 0.5229038934012892, -0.2812310340488699, 0.29495533918454786, -0.10065138347102988, -0.46385598339866646, -0.3382141673976198, 0.25695210996326634, 0.08297594629513651, 0.14615291772786657, 0.21323974098740386, 5.0197969e-316, 0.21867571189313423, -0.07740103120465361, -0.4423602759063534, 0.6102303462212411, 0.0009421273394062497, -0.052063472752442316, 0.32250770691130115, -0.2461279387922326, -0.24477640716169077, 0.9535884784549242, 0.15420597465086938, 0.8635610272810236, 0.4686172409132022, 0.04368716612655674, -0.04749717615962953, -0.26277615823907596, 0.14638094036301078, 0.18419524717260632, -0.38624697498491367, 0.31257200889895204, 0.12324526439896862, -2.55044577e-316, -0.30204406252401567, -0.18398796833504205, 0.08468025692099154, 0.20881828758918702, 0.1859368356767771, -0.3777444205435069, -0.311990707401708, -0.7287070365275629, -0.010745493172823457, 0.4560443607857515, 0.1866243558245251, -0.040853217603034384, -0.19345614237018408, -0.2287172774527451, 0.03126009392821122, 0.33203025214871007, 0.015095386830825773, 0.6414257662916945, -0.07884431647205209, -0.9023453557292614, 0.10662189140816761, -0.03967501721838229, 0.4431218636539522, -0.019210442538321278, -2.98764476e-315, -0.1930411139091661, -0.4820371354768566, 3.301362436e-315, 0.24959509684855147, -0.3245387641245532, 0.3512180661477868, 0.3573077210963253, -0.11991820442402638, 0.041326120017109474, 0.11248464756896992, -0.5994229818968108, 0.24079510617360472, 0.028806862897717563, 0.2276210704095143, 0.31393575896526543, 0.13921788678163974, 3.91639873e-315, -0.0818415633778205, -0.12369459579284149, 0.4083675472146699, 0.5202860595141124, -0.7482882228243998, -0.23667168377101447, -0.7339562636201763, -0.21995331059669418, -0.2019289698748319, -0.38917611196636465, -0.6746111764682794], [-0.8520702162592031, -0.1350163998921712, 0.22909401292288625, 0.3801174389179664, 0.316459734520077, -0.6932591724306316, -0.6542736667851634, 0.44417447472624866, -0.9206242275005146, 0.35885512143558285, -0.004628793170930792, -0.12676747678628741, -0.12882692992797423, -0.17327425140427843, 0.3778402399175628, 0.0619988113635216, 0.2088569890754386, -0.04709752398767464, 0.013836386236512776, -0.019218693107843663, 0.14120636950674165, -0.3061727988047302, -0.020015916726366576, 0.5012159210601816, -1.401695576e-315, -0.5596062429955581, -0.16673084899488744, -0.36351142205272036, -0.18986137375694973, -0.645487431331717, 0.24931483857218345, 0.42017138073403915, -0.8032162424202471, 0.03208483455925315, -0.2954856461792989, -0.61627525061544, 0.47337422476527946, 0.25126277718072676, -0.04629882418410571, -0.013925110695174946, 0.11675738950457469, -0.10807642427947696, 0.14568574320151104, 0.24558985278201667, 0.07144787458568826, 0.05012313533077407, 3.36342337e-315, -0.16063179684860604, 0.13474463187569546, -0.013010092233491189, 0.011973773411905283, -0.5100426589166177, -0.16326239320826377, -0.05634188502489819, 0.1715919959181508, -0.3452774002415449, -0.6960120348743895, 0.24101502208306191, -0.6083476156830285, -0.4835179171038288, 0.1522909154671501, -0.18397073063783698, 0.3093920343868795, -0.02988188512840568, -0.18958525101990856, -0.15169507284202433, -0.19122893434225693, 0.33329826764790393, -0.09432647744148231, 0.2501533724455855, -0.3602846607282449, -3.496266743e-315, 0.29476279853549764, -1.0522636497471785, -3.34867467e-315, -0.0212338898248366, -0.3359521081253441, 0.14474148187900104, 0.43272358666452587, 0.06491234672188362, -0.1356712489452911, 0.5032116796331206, 0.13453343473559456, 0.5514269104978166, 0.015207944638427678, 0.4564918993624505, 0.5701551537394169, 0.2631106635158957, 1.83358021e-315, 0.2938806173202563, -0.478307886117027, -0.09347162927924012, 0.23868199877387364, -0.28424341794607966, 0.047788140499387254, -0.7998512060345889, -0.3571826367050086, 0.1515376101104049, 0.6484905896357825, -0.011383728271678693], [0.008484033357522718, -0.12407618801409252, 0.054024197384444854, 0.47348472422640775, 0.2448073402519097, 0.14022057125975212, -0.5344300290242376, 0.009014296849905297, -0.5974877287048443, 0.414448824575564, -0.031958479676344596, -0.4373636410916255, -0.35667408129688066, -0.03895665393945556, 0.18042561782758978, 0.4884223483183721, -0.0066789241482764815, 0.13057622637605398, 0.049310341589892975, -0.09858049449525748, 0.19183901224308747, 0.5280338459153047, 0.3305084173441099, 0.04027395310491346, 2.36101523e-315, -0.06418688701336403, -0.7028746609734666, -0.42750295259602883, 0.17776377660346387, -0.482938908609269, -0.18117293383311037, -0.43482121363766196, 0.06687284938954237, -0.2887954335034812, 0.7540551485815357, -0.17119446521978796, 0.04958276126134289, -0.6129752015102161, 0.13917521982949235, -0.0328718179496518, 0.29424663761889325, 0.21164193550638308, -0.3593587127309193, -0.1902966995577256, -0.44037711609058255, 0.010118694409271746, 1.040913594e-315, -0.7574113325924353, 0.2170562769464745, 0.009382721338430036, 0.2546673201736242, -0.6520881859381288, -0.26138308273440897, -0.2702744653862015, 0.5680132729785268, -0.1088144820541666, 0.2854927875232266, 0.6737101934373916, 0.06059880337317819, -0.2569030938697305, -0.824048323318094, -0.0927685269611308, 0.19363393951639227, 0.01987355133123822, 0.5325288025712791, 0.0232745205803798, -0.05477499071436082, 0.19769367359744133, -0.114765201172228, 0.37689334761130316, -0.24891335053195038, 3.672913705e-315, -1.440959817806442, -0.507096031444839, 1.47234616e-316, -0.020073662347074334, 0.017052647084950745, -0.12551175040374515, 0.5796099699752933, 0.15976908591090772, -0.32460430626998726, 0.03187428988962063, -0.9548765771079599, -0.021708172702274976, 0.026551994875101678, 0.4391113364986873, 0.34160832142397024, 0.24913097204245635, -2.8469975e-316, -0.5367672024720072, -0.17140389969742467, 0.4138979667894133, 0.096042504261676, 0.044850945709595004, 0.35764787151495125, 0.10639026016644057, 0.9097674886875808, -0.3264295268196653, 0.18856347533045384, 0.015447182644835765], [-0.5487835103679025, -0.4234137042250651, -0.3098484610631681, 0.47313037002624037, 0.4285425902052221, -0.20445801173619857, -0.5521123796472388, -0.37354722101311616, -0.3653506233562917, -0.724816640007278, -0.27248288275519067, -0.3649112965156641, 0.4173188702451798, 0.0014126892469224395, 0.44647433389762214, 0.2345890535382425, 0.15270432595067324, -0.01758050750046585, -0.12162892883108364, 0.15509003548113065, 0.22815712920326156, 0.29364602688196706, -0.21184229410959315, -0.04989000842400921, 3.4862859e-315, 0.1846638621148286, -0.02577464180699617, -0.3879466466571436, -0.19738982266413438, 0.6082618239657682, -0.09686925357187974, -0.16425235814298617, -0.0234842357029337, 0.4307537458144893, 0.4211162525670817, 0.7557737391496883, -0.41641714130223645, 0.07678972736207035, 0.07143691638937877, -0.06725935003733213, -0.023221150954757325, 0.3448041667006855, -0.27146376033933095, -0.09077151228518862, -1.380922873494658, 0.059131200422092016, -2.85482462e-315, -0.348927824986533, 0.3586530052773118, 0.016998036251390094, 0.46803198118699396, -0.6322321878559198, -0.7464347562827507, -0.08168629022162073, -0.9742007233399326, -0.834819654002657, -0.3566627487757024, 0.011858876393497779, -0.5142352907911599, -0.4402877743174515, -0.23469046276141678, 0.12679901297777557, 0.06300373872993448, 0.0394791701506815, -0.3031814334105184, -0.2678188627351802, 0.23016337312587964, 0.1232902059482576, -0.09560018191051693, 0.0020166144396718375, 0.12577353012118586, 3.462221055e-315, -0.5422835570384744, -0.3212952916943447, 2.545130455e-315, 0.10508156794792092, -0.0029951682846019838, -0.2441769250497159, 0.20382103344239277, -0.01664448395455946, 0.14114867517219912, 0.27351850413978096, -0.9658322599044279, 0.4280624675300157, 0.03981434866812626, -0.23700580433394214, 0.004310898949019521, 0.11195524485942647, 1.2584569e-316, -0.3473882816677011, 0.11797211764221552, 0.0992225604966079, 0.09246545656716816, 0.26511618350750127, 0.21994326369990308, -0.79386239659663, 0.39419227035031396, -0.302134898398646, -0.3946699378996846, -0.8047219254989904], [0.25982454765054275, 0.34469895150065716, -0.4351484354022188, -0.30788107115905566, 0.2119371271998279, 0.1540054980827539, -0.18576623416443558, 0.1826638964432994, -0.9840388841396317, 0.939233633776559, -0.2899325940437148, -0.3232291662101609, -0.32632525289045583, 0.08323480960089655, -0.34951272757539403, 0.41419197786662615, 0.1551124141483255, -0.08882035363265935, -0.5081641961033669, 0.11041130058371812, 0.10620433620710443, 0.3328522231571065, -0.27487406843913215, -0.3819550300977132, -2.572488796e-315, 0.3488985646032795, -0.29990786730299024, -0.39631859875216385, -0.03089018415731354, 0.7316592826697742, -0.27815798185870916, -0.3230543654108399, 0.6551302177316745, 0.054492974698844975, 0.5603087235035482, -0.29014537845107463, -0.05234228467672906, -0.27601369101822976, -0.154860152785434, -0.1455928021111556, -0.1865891798778497, 0.09097700061550001, -0.5643003319114257, 0.26267523536759024, -0.3460239890369047, 0.2310413557250214, 3.747673515e-315, 0.4287552263071957, -0.21497303830194853, 0.042454555426645564, 0.43688313816731106, 0.35426995743207534, 0.14524878656665982, 0.34891146625279185, 0.29371022444028894, 0.02194076242817641, 0.44783558128987944, 0.21819518193970028, 0.06460834954985335, -0.7418058143558129, -0.2107031433698503, 0.2730584051894135, 0.39183212621471614, 0.09024304743122126, -0.6261239104544956, 0.7885025876413824, 0.10529052626523559, 0.19480017671064298, -0.05187323867433476, 0.018611713498779988, -0.03499574832509896, 3.191575205e-315, -0.19104622944002006, -0.13045496547153848, -1.75691013e-315, 0.2931285196514542, 0.07145874557817598, 0.0758742754657709, 0.0625797372713542, -0.09525512186217337, -0.046272069702027394, -0.0957959775801337, 0.4035473987481431, 0.19129092493968083, 0.01785473267552129, 0.6369509626558348, 0.9173009319901433, 0.018507848545509433, -6.8283467e-316, -0.4202853924788293, -0.7382093892621259, -1.1195396225642014, -0.03344318757593505, -0.4121141291925286, 0.11142882813279904, 0.0003781404444640015, 1.177943244619277, -0.2651797216108372, -0.3319137129424197, -0.4277115266211227], [1.136159913637103, -0.38707697274111263, -0.47733646810848557, -0.10105790983758232, 0.34659179487404523, -0.5736036888005684, -0.1752336052488325, 0.024414591244251303, -0.3902189882142918, -0.6109452841225389, -0.504531292943235, -0.30266193984537004, -0.06223044559848924, 0.03221214443528612, -0.5457171086500483, -0.33916134314665125, -0.09009994757718012, -0.088962681118862, -0.744310419479573, 0.3552021731357235, 0.25096008702718187, 0.3430888806528915, -0.03508831016238947, 0.578013828415046, -1.7201639e-316, -0.19379808782849636, 0.8890337963579897, -0.5440481002079337, -0.6760898486118156, -0.030358793253045677, 0.5146129824763216, 0.20058880014142563, 0.7051464022271042, -0.43217298940084864, -0.5398461899855049, -0.0010239747778267813, -0.04792452987289278, 0.668599149211276, 0.3155160215154831, -0.08334947252751437, -0.08266013876703021, 0.6531173126581069, 0.8151858608399749, 0.23126575545227407, 0.04626481245441248, 0.3440335417018524, 4.19462973e-316, -1.2106897652076625, 0.1889157148037243, 0.019162924330149163, 0.3696090977664708, 0.23686261185109211, 0.12560897929378925, 0.5182518050498081, 0.11821788611042312, 0.015422064259365629, -0.023651183586465552, 0.3653429895547012, -0.5887535700747661, -0.41058324275472535, -0.16277776460019994, 0.11352287643958378, -0.1717035682181492, 0.0688054723843733, 0.0431767448022792, -0.11121263226213916, 0.014144500365223352, -0.0003794040973671729, 0.007924178522014838, -0.007991615927365602, -0.019937814854062114, 4.9462445e-316, -0.5487220085062579, -0.12306201456493941, -4.0569621e-315, 0.23477289224428916, 0.13987543946235084, -0.3459686576016821, -0.07121226266580367, -0.18891763706682274, 0.0702366989386325, 0.0639503315574928, -0.748909242592077, 0.13070521013186348, -0.011387401561572773, 0.06201995004039518, 0.015481755938794759, 0.08764844116387353, -1.258110816e-315, -0.08459752999704834, -0.6053647030336059, -0.8821485409148961, 0.1528684740171598, 0.5017480763747219, -0.5741461551797002, -0.07233237277462244, -0.06712630090820067, -0.28232153213689376, -0.5047883009963066, -0.7898748288210291], [-0.705069104853455, 0.9740932985216905, -0.4327838295350462, -0.17662540080633332, -0.04947177140388532, -0.5556287144474197, -0.48980552394773996, 0.20294874293183907, -0.46910141792859844, -0.658406360769043, -0.1893755752157679, -0.47749152416055785, 0.16290231764600882, 0.024540631674391692, -0.494410436937685, 0.0005499327840108177, 0.0823800165541554, -0.17626792380855483, 0.7025999754040095, -0.23286799980108433, -0.46633657449124793, 0.29610586657967053, -0.2768410892537209, -0.4980394408160592, -2.846076334e-315, 0.03252364157334575, -0.17858325827417043, -0.6312600750564894, 0.09795828830282385, 0.19139395934374692, 0.2904239571257848, -0.1527474541384358, -0.14495213440066254, 0.4733710028112525, -0.6333519230865453, 0.1957189541713368, 0.09413390717029776, -0.0758774247651161, -0.3228893927871395, 0.02374940317328587, -0.24621616064009963, 0.23512265216389905, 0.4484189685612524, 0.10007345305532044, 0.41278840978041326, 0.37665357094365925, 1.89337156e-315, -0.017141244745857872, 0.5967839050226662, -0.038840193226928936, 0.34657079594533513, -0.27447162316756013, -0.5064076786817002, 0.5270186436948261, -0.12694163744290618, -0.19792717089395107, 0.17608333380177088, -0.11053313712863065, 0.7828744656217019, -0.5411294884012453, -0.1609785292694935, 0.02326187973944938, 0.6674163162459572, 0.017363970809908192, -0.42179602722180326, -0.02272453050201842, 0.6332330320869451, 0.018282564628910675, -0.13456417022349837, 0.10067708773648038, -0.16455641156413328, 1.48211152e-315, -0.521126486567143, 0.0005034340585489208, 1.03706075e-315, -0.08155673189668822, 0.06683278763089091, -0.11838825151603236, -0.5495977171421995, -0.5263550263496912, -0.10499537722414783, 0.11704424865979629, -0.6078381864204065, 0.11755244405072435, 0.00789296926901104, 0.7104380758262249, -0.126034122684619, 0.0576560846531217, -2.87773865e-315, 0.060733101198299375, 0.24626932466055937, 0.3467625304807429, 0.18417007098145838, 0.21199680118295997, 0.2749894119541713, -0.7600924425251517, 0.32549754351580606, 0.6170372097219847, 1.052547102533809, 0.9579086351315979], [0.40678512071381223, 0.4903450550411791, -0.12575016299800124, 0.533774220313786, 0.20905636459240506, 0.6243943497787121, -0.32636112040391785, 0.2864350600669699, -0.3771731595577235, 0.9731226119619739, -0.4748241677734737, -0.4044024777296194, 0.007428469816401881, 0.04526702052301816, -0.48866687381758817, 0.3584510284618196, 0.10687200709999792, -0.07400002918884749, 0.4280388024122727, -0.5499810381221146, -0.5482616110161499, 0.06714449781545805, 0.003039227760869657, -0.2324910775125989, 9.4521778e-316, 0.0855277591295123, 0.5940162622238977, -0.40006085359265914, -0.5570657633541712, 0.2751738552739706, -0.16404210159567298, 0.30916713403039897, -0.19596749212620612, 0.036336541715962144, -0.10702013753403739, -0.0973159054910653, -0.16584599105176087, -0.336634858975631, -0.16311124877134717, -0.043188609396880503, -0.1259951968983146, 0.4134469578955291, -0.5217743565668702, -0.7086666972457966, -0.1371456504236464, 0.501785749956911, 2.404480237e-315, 0.17094249587618668, 0.44456540293085134, -0.011542790093286511, 0.40229112976576636, -0.0006641018967670175, 0.1414852183129471, 0.6121342431447802, 0.27734738195274206, 0.13977773280546735, -0.6075570645325786, -0.22405636923407132, -0.524613163592194, -0.557449033381618, -0.34314255417410583, -0.15232722900144996, 0.147803762726653, 0.04866957611930559, -0.48960681621693547, -0.47352836408554483, 0.3506480579395501, -0.03001126642576249, -0.03848961750630881, 0.428994484694875, 0.2308840143376116, 4.919888e-316, -0.6740307677506834, 0.030575020596424755, -2.87813395e-315, 0.21560748596973073, 0.008474946942713023, -0.0965163965144108, 0.1995298254352044, -0.46523910722917955, -0.2435863220167391, -0.005727053892392848, 0.21421250894155994, -0.2739396265983763, 0.012587338559742842, 0.2479812154843722, -0.6704251950164207, 0.0858835332924818, 1.32685835e-316, -0.20142003987855894, 0.04813462328271801, -0.5325211345946793, -0.20253800335402625, -0.11947523219794819, -0.3346566620954993, -0.47648846144079765, -1.0997167659968266, 0.22219410690447247, 0.3557920124105525, 0.5150649824404719], [-0.034919234800824636, 0.30731328828631777, -0.28730973182772196, -0.6088149554490202, 0.035654413374076495, -0.3539421122064974, -0.1337840048730738, -0.3769379633131958, -0.7859935156159673, -0.15873002952085288, -0.5141209828642237, -0.380205478339043, 0.41000417227498065, -0.08743680607829306, -0.6365492899653203, -0.25365731744460635, 0.20016009863832218, -0.29566874069892823, -0.5588800952077, -0.9195762387818824, -0.11513780425775651, 0.7618501230993786, 0.2733221597972069, 0.15064310718451163, 2.880827473e-315, -0.34360468529020294, 0.2086342733461157, -0.6935744347756633, -0.10260495452969337, -0.30009196925132897, 0.5345886110773965, -0.5633610318494651, 0.16800130715983988, 0.08007412628957372, -1.220095225105567, 0.4021817207558268, 0.5261830173954472, 0.34134845617351695, -0.3368132693969159, 0.10687119382105488, 0.06039169571583466, 0.3770406559607448, -0.7438239118862904, -0.29832362217023106, -0.07962211318843973, -0.37638812853258885, -3.51440555e-315, 0.2334201392391951, 0.05260807237218258, -0.025650235159665115, -0.2071495807715324, 0.7703941860681791, -0.06466304417283678, 0.2133731395189138, 0.8100558599586449, -0.1615684919895511, 0.18590504002929337, 0.20483917015352188, -0.19541452490641845, -0.6476388589702269, -1.0488678642352944, -0.06697000238650212, 0.21615060962184562, -0.03427574540046916, 0.380109385893655, 0.30699771642501705, 0.714929268658676, -0.07621068384969097, -0.023726232752185165, 0.47893000534117924, -0.1010799041567748, 4.23629698e-315, -0.2610358920154737, -0.43662369060700296, 5.62359164e-316, -0.04896184438556646, -0.017485580502793686, -0.04408187222390033, -0.13589561616146836, -0.42486195013715017, -0.08097224983159884, 0.07026467164511357, -0.5683306634132248, 0.29488269564312175, 0.0890197802380997, 0.9673569473092282, 0.519240822740579, -0.0771165292023294, 3.105970397e-315, -0.3499957518557625, -0.6358367783589786, -0.7687576599171395, 0.013871134073348055, 0.866632572810671, -0.29213033143181666, -0.4044398735109478, -0.5491937407739723, -0.12279039093177928, -1.3014460640044783, 0.027951597184952284], [-1.0049867790962685, -0.1731774760185782, 0.011971448637491978, -0.3831500830481462, -0.33402807342746693, 0.22199603486875513, -0.3438407021224148, -0.15444402331657162, 0.15424508635497688, 0.8091436651584305, -0.31875125958720507, -0.2832003023562943, -0.021555412709537453, -0.1157894296774316, -0.0645351132025348, -0.2209787186603727, 0.2919359646779282, -0.1638424721606494, 0.1863442582633317, -0.4345984587486773, -0.0020638569938255173, 0.5316246272246244, 0.10158174574105044, -0.607035731978291, -3.111827006e-315, 0.25936644494774147, 0.03146594551916463, -0.7233178469270017, -0.5146130860774129, 0.26436286665383857, 0.272101109846521, 0.22850724202026873, 0.2516629156509881, -0.6304054995930504, -0.7619547666631766, -0.08272022948402628, 0.24693475873948942, 0.7209164656230134, 0.3004759102337279, 0.02386399401447258, -0.16947904759384266, -0.012496835144686696, -0.2238205799237906, 0.28524355665064866, 0.6427331661405137, 0.28440631088020024, -1.2632169e-316, -0.33883132175040515, 0.6388827213654914, 0.0033930149528555997, 0.030734199694144468, 0.7854827749810097, 0.385165478091858, 0.33143197793896173, -0.3684159248204849, -0.07881637760409928, -0.17677206767097586, 0.08595028897211558, -0.1234711570002566, -0.12276937822249712, -0.9228796923087563, -0.15092002061164161, -0.18730592928887488, -0.0032770988409136395, -0.31794076030628315, -0.01321027071798989, -0.36278380085168593, -0.16525699719773335, 0.058783221505540675, 0.1938284857507689, -0.07932908096296004, 1.52339819e-315, -0.20875540137299706, -0.5473665825830747, 3.49915443e-315, 0.03431681684898558, 0.16150686846450707, -0.1818174656427763, -0.018324725125879033, -0.3531538250577308, -0.3083106556332958, -0.03383344874666206, -0.42711785323461054, -0.11966703331147212, 0.011609637601011177, 0.19126850756277106, -0.560741334617574, -0.1234820836054311, -3.1590454e-317, -0.12381765633670157, -0.6865413764767853, -0.15112923664832387, -0.4922473946593796, 0.6886315620295171, 0.194890139739665, -0.09487614783057663, 0.3181668690909977, 0.7867387458764106, 0.1591470773646881, 0.29915584621914404], [0.0786404423927723, 0.12418014005747297, 0.20663445708761904, -0.37780759189123836, -0.18108643690695583, 0.1919582511738052, 0.10925175117058109, -0.11026633624521948, -0.5538600509284054, -0.35361456331767777, -0.6671034410298705, -0.18367316360028643, 0.30076073548560234, -0.040849429022994065, 0.4104213612626619, 0.02285755411065089, 0.21127302897600533, -0.13131376448220233, -0.6630741211026717, -0.8376092663867399, 0.041760498561608544, 0.408178330042968, 0.05579125247253138, -0.2712936315985985, -3.3659584e-315, 0.16882967847047123, 0.6441331836181372, -0.8053515363562722, -0.19002027509596697, -0.21317147143093076, -0.04812893961447546, -0.2085612088613753, -0.19512813409100976, -0.24617003750822777, -0.3220706138076108, 0.7200389656983393, -0.04968516508960283, -0.7336874916763545, -0.380492819040829, 0.15104319119091528, 0.4576623890254724, 0.3396394438149477, -0.2729410471022598, -0.3625654205165843, 0.24122722046241307, 0.05601288694651137, 4.26360134e-315, -0.04990051264067514, -0.47698556745391085, -0.009353594021956199, -0.0098589363737539, 0.4231737906615882, 0.11562952075306457, 0.757921436719038, -0.7635819849182748, 0.37721502485142455, -0.773839289277791, -0.2785517159437729, 0.334535606234694, -0.603306309383536, -0.25945935134188114, -0.2229067199348019, 0.13051199904428767, -0.055837361316606625, -0.5524707642988214, 0.24772201310667205, -0.5657135640171227, -0.19359255746397494, 0.08786370598933144, 0.016574934712524733, 0.4095898836183256, -3.35556184e-315, 0.1935279794353241, -0.5376234696633284, 2.071369153e-315, -0.23545306545967012, 9.625948679635197e-05, -0.12448485598498739, -0.005484039876628038, -0.4296317735943007, -0.16861400744931812, 0.46413624800306524, 0.05862655548461977, 0.279762368356938, 0.017758066000217496, 1.2260285112289449, 0.5421392345700633, -0.14714955964053517, 2.32307063e-316, -0.3517270557717813, -0.2516010597649625, -0.30611627753648396, -0.2656232228826416, -0.21137791519088794, 0.408753907117895, -0.24180890078666414, 0.3465423432076511, 0.856173626154525, -0.17914348390252355, 0.7502207180586975], [-0.35681339686601815, 0.012312046022100656, -0.23292017539272813, -0.1615988968691832, -0.1907549230774332, -0.05992253215651973, 0.026466255100546992, -0.12402965770428702, -0.6803348618281287, 0.09835750302403103, -0.6375326211380711, -0.5814640700744598, -0.20677510145667613, -0.1677223357153521, -0.8190565681419585, -0.031576625922402124, 0.27470262414877566, -0.17522007536727532, 0.3807265254606896, -0.41509013763648733, -0.10257159322521167, 0.21385777771216974, -0.19821103116779654, 0.030624364307700384, -2.50185694e-315, -0.07071053277418483, -0.10739594708619794, -0.825325575821307, -0.1031058741560129, -0.5570740200546089, -0.17976427338585999, 0.2003451593180671, -0.23482851997660886, -0.20137338498589208, -0.48961075800592246, 0.10046347166628958, -0.38067165806511793, -0.042709789560769734, 0.04616565202946427, 0.18591404935666825, -0.08691151121419902, 0.5278161323425019, -0.2287595362190251, 0.3374368018518377, -0.5089592812788757, -0.16683564432120102, -4.107192536e-315, -0.4737678454692619, -0.6278956636903504, 0.01913039888469205, 0.6191338152021605, 0.5997752642626888, -0.27503601691147095, 0.31755886501876135, 0.49636783819151553, -0.25507554257484005, 0.07646401695375286, 0.27373100036369297, 0.3646654940066482, -0.556204717013387, -0.04211733962202993, -0.04419798069451097, 0.5671136234240348, -0.10860762424123224, -0.5244953916638871, -0.012579497899380742, -0.25527970481817625, -0.0703345366628538, 0.0007048633325430615, 0.45847234624593086, 1.2556876157530672, -2.956514847e-315, 0.9513650408569435, -0.3529982226471364, -3.954507403e-315, 0.09823399169777565, 0.004351307320756875, 0.11014039163583464, -0.1330589543073186, -0.3592934720897068, -0.32261564850602664, -0.07411320235811054, -0.48407646882115973, -0.3427135259154755, -0.11976649895431996, -0.14883817065413393, 0.5930067794176841, -0.21353241973049772, -2.508897064e-315, -0.4446448607754571, -0.14493970219926985, -0.8173105035214007, -0.00939671329081796, 0.5762341422420839, 0.23987673361334544, 0.4874742382642843, 0.4795613843191254, 0.26404819508014354, 0.3567444374309741, -0.37335024841408376], [0.11954307410355143, -0.016823825710374808, 0.09336494586785736, -0.17353870963330692, -0.1601470020196871, -0.16539194006322377, 0.3509897831401052, -0.517467606265746, -0.5273225458811847, -0.07096415777788725, -0.5769227717028769, -0.4407527836103103, -0.15404897515447988, 0.3498081399182041, -0.3001321061337772, 0.26123803161061604, 0.32810601911490644, -0.0029616612583278188, -0.06896938558891559, -0.3867240036374218, -0.5921074012116377, 0.6789663226353854, 0.26820056316509433, 0.9614566232905326, -3.698218517e-315, 0.510639594569445, -0.01979979769351165, -0.7498045623158505, -0.4093383801688518, -0.5333495427963113, -0.5478508213941935, 0.6749885557916775, 0.26291806583559224, -0.9010094966600032, 0.2962902718146302, -0.18244547545308246, 0.05938626906462681, 0.30455762564644245, -0.3272027684749422, 0.07038556118342368, 0.21221172090332677, 0.6630195876697583, 0.43644748563124214, -0.434121772220994, 0.06708917786090024, -0.013728082644989903, -3.354078697e-315, -0.3211025858432854, -0.3643067266349049, 0.008290284568927421, -0.1021475680226709, -0.23543061657080175, -0.1086171392176732, 0.6420787078346823, 0.5591678085984163, -0.6917096433252699, -0.37092203336319046, -0.01865106905777006, 0.03400347845148629, -0.614334889096746, 0.24723611418457678, 0.14842648010991524, 0.39829880883253294, -0.09884389863756615, 0.278138277290251, 0.02142730208465282, -0.16071430601508646, -0.0842075088694805, -0.07987830732937021, 0.5306150724826059, 0.43267079301246597, 7.63289496e-316, 0.2803274978207883, -0.011299887169389613, 2.040976374e-315, 0.32248011368938573, -0.12202275989391492, -0.0018539458191201119, -0.5687703469026234, -0.51516878495897, -0.4656806571351421, -0.6215422324509655, -0.243625104004374, 0.35755372196372853, -0.1947348694284614, 0.8164703994327321, 0.758849268269908, -0.1770400793415454, 3.76919137e-315, 0.0646665825219331, -0.21643899823781707, -0.7750382541352272, 0.4068234818259932, 0.37675096388447327, 0.16150470927257862, -0.3447935117881944, 0.5388459617609478, -0.4751947512100745, -0.15385799290588925, -0.21908176952598496], [0.4338159467847331, -0.21393025639954288, -0.19362625632819927, -0.5321573305739977, 0.16569013242778657, 0.5128010477698557, 0.18158116390505802, -0.5889296863836393, 0.11265809061159582, -0.09464865461156845, -0.4689953720016575, -0.4824108423270797, -0.23808279680265756, 0.4557899218317161, -0.6213562077496313, -0.05404940660166767, 0.49480306807741414, -0.0925129827752449, 0.5937612624063572, 0.045835131412564074, -0.26738399951822794, 0.30717462462663225, 0.13801137091962248, -0.25336117729710067, 2.13767274e-315, 0.006853578045041851, 0.08356270130178411, -0.5823787898382614, -0.297622515515566, 0.3256598963605689, -0.8126421671609644, 0.13109671135777443, -0.16040830036436038, -0.019854030920768283, 0.45644442633091215, 0.5443507831318133, 0.15271898407864243, 0.3100450961762517, -0.33090795290519887, -0.07643219938107912, -0.393148800736677, 0.4409946528700954, 0.42712963195520526, -0.46532717070349966, -0.35591718665868, 0.30774503715379453, 1.616989276e-315, -0.06560208810411733, -0.004323260906260799, 0.020531520387078565, 0.18808226765348077, 0.12428965242698564, -0.9616252171629138, 0.1982603914426995, -0.7132958534673859, -0.2991757130636283, -1.091231149830933, -0.0015324430182614376, -0.4258794273600751, -0.6014589235588234, -0.38314823289290295, 0.01431769270798482, 0.02394181773691895, -0.09701306027477558, -0.8454403387410838, 0.609456077536138, -0.0761171672156451, 0.04433014581238732, -0.03855882753804778, 0.8985069586756158, 0.18502595330667593, 5.6345303e-316, -0.607407380250245, -0.3831864293131789, 2.51937833e-316, -0.5085761550441928, -0.1739884447144669, 0.0519636678491709, -0.3893969097192697, -0.303033030293493, -0.4740335702541211, -0.580223907399263, -0.3048569251452463, -0.3146217655580226, -0.03561692445293239, -0.23692090725901246, -0.08252572222798825, -0.18019328476490123, 1.36925553e-315, 0.4585594123907883, -0.02829354480103692, -0.37688963585169377, 0.1514619377431201, -0.23838542900921103, 0.19358653873684362, -0.20511901285249065, -0.9543742190272407, -0.4192303263507687, -0.26970222802680927, -0.11709561294777304], [0.03198615811154445, -0.20620333670183486, -0.02734583963923308, -0.6359484570159271, 0.382623287600745, 0.5935328309688629, 0.0395382504893475, -0.5795390474570179, -0.2510958860308521, -0.2523123069296568, -0.27030997657417344, -0.757306501023868, -0.44190207625493755, 0.4927367668800878, -1.0311200771743325, 0.28680760995670657, 0.45358050578582665, -0.14114516078921127, -0.4243215896172457, 0.15611759163255295, -0.1467427188828434, 0.7622405375151137, 0.09146490281148208, 0.5700769820453345, -4.00826048e-315, 0.1952353185744557, -0.398091439011893, -0.5526182053702082, -0.6314559614713408, 0.2001520169122927, -0.38761017599846304, 0.06415521385941411, -0.28459697179073645, -0.2565999064608608, -1.0136101249813207, -0.16940759440173617, 0.45460447383305813, -0.7180844955907535, -0.14995332857641921, -0.11056699300318494, 0.10604292100549441, 0.5773843308776188, -0.611891856903987, -0.2496657317824772, -0.4418535798774695, -0.1633952653889458, -6.64851165e-316, -0.3199363198883244, 0.03677021288524229, -0.1376859751547204, 0.1928562408879839, -0.4696454320599775, 0.06952901949104387, -0.2522116682514208, -0.07048941030604806, -0.3794021077489727, 0.09871254915779287, -0.25684820702459626, 0.06966190709854128, -0.7091067802470566, 0.296078216927117, -0.09112942088502635, -0.23939970145633727, -0.098071540806804, -0.07320494610210986, -0.0629069212226709, 0.058245713755100174, 0.00014354405608972022, -0.11040851309989527, -0.020592936028057358, -0.08955084250921898, -3.7075929e-316, 0.17651517385816018, -0.01585462514874708, -7.34857664e-316, 0.27187233360964536, -0.03093065141978731, 0.0395398373796841, -0.49506941311946656, -0.31596632589248286, -0.22722314607341046, -0.2995738993885508, -0.13086484695417855, -0.02250925913782351, -0.0914301273351759, 0.37366973896652034, -0.49362732824635563, -0.1165076338842828, -1.1000578e-315, 0.6200017675828231, -0.2297770298595867, -0.5447060108733528, 0.22397509173670924, -0.4645445679164779, 0.08453725856270923, -0.4070554190737531, -0.4528026271592572, -0.0039337239438433326, 0.9774117340250575, 0.22270550061403874], [-0.47548418797635794, -0.4681220855199824, 0.14217654120294124, -0.5772066288801666, 0.29999781661041086, 0.16102071223589193, 0.30911502291381804, -0.6387604036253799, -0.7089675248442635, 0.602209055058486, -0.5572083406360553, -0.5094869928267568, -0.514211859964817, 0.07866199716565757, -0.4269626489260225, -0.09684174917035522, 0.40232240802123653, -0.02741127532806963, 0.33226641311762806, 0.0009299579122190101, 0.1517617143372977, 0.47292946349842196, 0.17427128175436338, -0.2865296287674532, 7.8712422e-316, 0.03692538128658015, 0.10812280821980347, -0.5123695125306155, -0.5162538443479634, 0.07133138750615334, -0.10004641273411052, 0.003724614449525886, -0.5854777341271687, -0.7046258161772427, -0.9442955120127797, 0.4429407719683313, 0.24011464761555912, 0.2872161867616484, 0.03687324795848891, -0.05653419727085115, 0.003218956644823746, 0.7201494016692557, -0.39225910298837174, 0.34161275883868625, -0.19600582814455628, -0.07849743448662222, -1.2757817e-317, 0.5480908308158075, -0.41923206507380406, 0.03301438696468506, 0.775546806728559, -0.27314438416771464, -0.544826079263376, 0.5255143225239168, 0.8669901648750288, -0.08327037549695052, 0.46226759551320695, 0.11489626520046901, -0.014030327766637703, -0.6610143498847557, -0.4310957349151354, 0.17438350178918746, -0.3947345019740777, -0.03694600753302903, 0.27399192879610046, 0.23037269116300083, 0.3467217188322659, -0.029461880822740153, -0.10512655392224145, 0.720805804195887, -0.08817782561033637, 2.80913813e-315, 0.34089600441003926, -0.18600947539925916, 3.62492699e-315, 0.16837071200863138, 0.523934957750766, -0.03567949871354634, -0.698463205735721, -0.49128716982271536, -0.35641146064368207, -0.49325786157423496, -0.5586362994188787, 0.21395277807066052, -0.05079412620006452, -0.11972835542907834, 0.42509270276988587, -0.11967549218794944, -2.229287795e-315, -0.2951856342409498, -0.1809356597503825, -0.48312269389542656, -0.11707762502664314, -0.20865466323679954, 0.10710625796767224, -0.07666087417083678, 0.40606337368682793, -0.42912867283659284, -0.8009858428186937, -0.38988759839156467], [-0.6743069336585705, -0.6833533759828313, -0.006607870105249917, -0.2328656333742889, -0.02975004276857665, 0.5206006498363134, 0.2695652383669019, -0.34461218922409825, 0.012057514809668966, 0.2921515585840914, -0.4788611671823397, -0.46339846382985445, 0.1668976369709906, -0.10630073830475734, 0.2522180448958436, 0.2668124602045969, 0.24722830938954157, -0.03341337921283631, 0.016298107036181453, 0.14426632777050752, 0.38752351187320155, 0.39577618029838, 0.393546492905194, 0.3748789338078087, -3.13044027e-315, -0.36107935595553226, 0.06449716334264591, -0.4506009418564623, 0.25118981858209355, -0.020885364712146144, -0.17707132649503352, 0.7124134196561417, -0.5818352987087579, -0.39792744619134884, -0.030126006804668815, 0.759342208108179, 0.34467541148269454, 0.9362442392730922, 0.051342207491974316, -0.10765322186447873, 0.0944301524208322, 0.45462923937783134, -0.1145381325449307, -0.6419476370333107, -0.058439773527710764, 0.16697297542536513, -3.347301045e-315, 0.6801953803519558, -0.48681109628348507, 0.15305812466703286, 0.6734535181412704, -0.7183205498409578, 0.11482647435265125, 0.5554413426595429, -0.13338965657222118, 0.3753216298036861, -0.8028507715491766, 0.24379813319653573, 0.12862847275575337, -0.5638498628930739, -0.7119127441230839, -0.1045554762255125, -0.11705539311843402, -0.05748673151897106, -0.526278650676621, -0.2722731209124597, -0.07607249968138415, -0.15221890561936352, -0.011475203339587283, -0.5131643623558022, 0.22217166345844866, 3.427678915e-315, 0.5492989347209437, 0.2508550164601718, -1.46579307e-315, -0.026152884589953348, 0.5593180706920972, -0.16037804179719747, -0.20994461328766578, -0.48925383148460355, -0.09668423361860834, -0.06339190113573288, -0.4581779200715236, -0.6307176149243529, -0.19683653638411197, 0.5227683544308699, 0.12725140358367068, -0.13420897140619076, -1.0510108e-316, -0.389881559052748, -0.20723965760251076, -0.3262483223095753, 0.4254984152771694, 1.036155689613422, -0.11311854650570642, 0.042622921923805436, -0.08928425887717836, 0.5021760324389594, -0.38334847455902293, -0.33962672161029267], [-0.7004026155638182, -0.6853155935067653, -0.029645295487499487, -0.022027318843379398, -0.12703502035770092, 0.23510806609334534, 0.3249067617295862, -0.9127765951990259, 0.06248728365668883, 0.05066777262216915, -0.5043731309668262, -0.1066098497497094, 0.029235837095041486, -0.38899029992133305, -0.46091696151142053, 0.14469259684516225, 0.3222106870728916, -0.11061186403259815, 0.035610485359917905, 0.15222486560698736, -0.12835906958830434, 0.8816097708428263, 0.21408768135386255, 0.07734224870069158, -7.9930562e-316, 0.019188172724449823, 0.3744059722595317, -0.48279761211352756, -0.4100844519519187, -0.1610001606193896, 0.2350722086948582, 0.006769949707736005, -0.0553261306579875, 0.21883825288231373, -0.024463595625545478, 0.7433621286973872, -0.10773007217869708, 0.19559438795764436, -0.15120960818517737, -0.11379984802693333, 0.002629709174042055, 0.32835238745762435, -0.3080443809728811, 0.026582145532261337, 0.473387933918598, -0.16568603440759327, 2.123122935e-315, 0.04620884598117971, -0.24749071632743286, -0.0666538534642653, 0.3776183185494773, -0.23412688905045095, -0.5654782928860678, 0.3872708616471044, -1.5290881810017969, -0.5022664257181808, -0.5292101904407258, 0.09175138397486136, -0.327115388459115, -0.1498650958680599, 0.2520983279716138, -0.03743202856691649, 0.5496355804519724, -0.059089642526525564, -0.13472876552289495, 0.03466819231608034, 0.4021428013993737, -0.07448293994526005, -0.03830413660757488, 0.10115383771945675, 0.1567280158544104, -2.90945484e-315, -0.1815277792560998, -0.1846935598302722, 3.525480133e-315, -0.7517927979986254, 0.15177751927837452, -0.3543240533949147, -0.5371834301169851, -0.5567756871182117, -0.2301175003104402, -0.1818740848280314, -0.2918266955806977, -0.44214969516160785, -0.10405422824519685, -0.05411794288288167, -0.2709043395117712, -0.02855298582572587, 2.71949e-315, 0.18753223909965247, 0.29582724441537556, -0.5488062794465492, 0.46904570487321195, -0.2763368251499708, -0.5861659614843959, -0.26319942089473314, 1.055365456282867, -0.4477462771671863, 0.9808023308906848, -0.14336535769402883], [-0.5353337105294613, -0.30302789175601963, 0.14133026801195092, 0.406100205383529, -0.3241888771327898, 0.45882395853706454, 0.2325896982806957, -0.10806090994596484, 0.2878972959126824, -0.11156620502488063, -0.7792338898134742, -0.06507451080180844, -0.22149533367687305, -0.6333063376701564, -0.7013976480033208, 0.40841144758102726, 0.3713011592437623, 0.011295195282648413, 0.24047779530495356, 0.11035083406940165, 0.3022922628109073, 0.6294747560775257, 0.24352771519651595, 0.4399981078883306, -5.08824894e-316, 0.08249426301054706, 0.02719633935488927, -0.4830737586365925, -0.1602013357033591, 0.053560936384781835, -0.3486292997122845, 0.21290897113023144, 0.356465028238958, 0.8433523891337157, 0.2429141040562795, -0.7216587100004318, 0.00922098365569349, 0.5348378093478142, -0.13755187608787353, -0.16084528245746696, 0.092639402643554, 0.07220899834927048, -0.27986333212812714, -0.5525897018350844, 0.38985704178969094, 0.051902155604445, 3.88379624e-316, -1.2255434114408439, 0.015671832644299957, -0.06271503760968043, 0.17601902473900677, -0.11091144225281699, -0.43240117065814804, 0.5529141025270945, -0.2496465476793211, 0.0780216027322603, -0.40799504764307704, -0.4006768522512023, -0.21647365748766245, -0.09912405643939666, -0.31605559800172234, 0.05991705186968968, 0.3713000912563059, -0.1328349958555922, -0.0942582071737009, -0.23771740902734417, 0.4482790071769497, -0.1824444702130889, -0.005255123285053604, 0.12495263558043332, 0.4469831549490515, -3.389095026e-315, -0.45324067973508214, 0.07411964014276494, 5.82703557e-316, -0.21795742590852404, 0.6229507072328533, -0.4264581088915161, -0.7020727944340113, -0.47745082157051644, -0.27934152404014007, -0.3115398256408386, -0.2713901341396869, -0.23124589263833784, -0.177806154578138, -0.21196391394304265, 0.07371088404317888, -0.028214138948338095, -1.19826956e-316, 0.37472617460519614, 0.2118759588685363, -0.2521911019401132, 0.30817810666070156, -0.6175964735910094, -0.27624640808530393, -0.04274747892751006, 0.2263844565044988, -0.4766076070893703, 0.8872541897603516, -0.26660160945393635], [-0.7515304553528289, -0.4458618698803564, 0.335185997706056, -0.37631453690661143, -0.19077950745818717, -0.9529969535624174, 0.22445345623007962, -0.3981976344266526, -0.06670128097690031, 0.9724105972627598, -0.7038695893307356, -0.20759903570565552, 0.03684109892109839, -0.7771638446403271, -1.0491607044946003, -0.006597334852427031, 0.4323569574708892, -0.05426780630675068, -0.09442130616523318, 0.02622061664703397, 0.14878567156172837, 0.835373371555726, -0.34890619087338287, 0.4340831221978407, 1.47953633e-315, -0.07774612391286952, 0.3628421232073623, -0.3681789558019935, 0.1427009154952592, -0.8419981881540531, 0.05491763261294794, -0.783438541732515, -0.408661033501261, 0.11883427775586945, 0.5720465706443988, -0.06129553900971104, -0.5163228282508232, -0.44635153295571667, -0.0692227926329001, -0.112900390264719, 1.4221799860986362, -0.19063577433335932, 0.20636668531123945, -0.3195490874287411, -0.09822117979630032, 0.10978272977162501, 2.438316486e-315, -0.5486036486603277, 0.37812971252633, -0.021633265470907416, 0.16624214624261802, 0.16004129507318202, -0.22001922435394808, 1.0439486465873036, 0.0729051409652903, -0.18726377891217566, -0.4682398738859527, 0.16976127978515926, -0.18400011434666225, -0.37027995630410626, 0.022253832365497047, 0.030156622262128615, 0.18200169598929683, -0.09884363741486145, -0.7495061757489228, 0.15793877945387816, 0.04915761233545884, -0.16286310712058338, -0.028447671301938943, -0.03202238312809316, 0.055905555533717684, -2.52141877e-316, -0.2467094734796219, -0.045823177947864335, 9.18432246e-316, -0.2789120465321667, 0.09396073760585563, -0.1906614558211183, 0.2315977105125705, -0.3857940419584872, -0.3046328501648373, -0.44616079513457335, -0.15402019830871283, 0.31184091508526696, -0.0254240329574157, -0.2535797119431415, 0.1326371036398076, 0.010283082148469508, 2.450887107e-315, 0.7955904104339172, -0.0006260674553230132, -0.1849711225275996, 0.48612822292218844, -0.3567238582361802, -0.02237426659292065, -0.22962974544336962, -0.07897918342293858, -0.3347686622456192, -0.21820649592112534, 0.20752162081645406], [0.5913724023103277, -0.19612200197712074, 0.24756925240704772, 0.022469285361076608, -0.044139641454640985, -0.2520857132604104, 0.18710509215161156, -0.1423764788422973, 0.188194894986876, 0.3735357331914405, -1.1021791006545734, 0.034494695025357715, 0.08512556748650968, -0.4129586105072829, -0.6321258738840109, 0.3091486657444108, 0.47404750311965754, -0.08897325865057061, 0.26264821513397135, 0.2035911251247307, 0.331565096402766, 0.6269750575874006, -0.40809228729896146, 0.809225636551784, -2.31961194e-315, -0.786465594942982, 0.12427029120814378, -0.36732161959146103, 0.0950358304594935, -0.003961778557593434, -0.5947236606103283, 0.5825654599405987, -0.6639582247708085, -0.3761492757935302, 0.8503969043317862, 0.27921715706515265, -0.39475702166023025, 0.2681122257319488, -0.11371713807443323, 0.04296911167178771, 0.7043192813424227, -0.08897717419611519, 0.8730687971469078, -0.4737312868617809, -0.4441934069032925, 0.19205470641712366, -7.34240917e-316, 0.010760786577618961, -0.4955445867595771, -0.08843627350448215, 0.572878758005548, -0.11955878109470454, 0.29899466864497565, 0.9504634351645853, -0.11410808558288413, -0.5679204495452173, -0.7439659162546338, 0.09897158385806301, 0.6103521761181354, -0.5711465166566029, -0.6587339633630522, 0.15358176598245848, 0.1203949374847131, -0.0653981298748804, -0.337021607731634, 0.9378868319976108, -0.7087926795392253, -0.15063609882441062, -0.0738452458635802, 0.16243642682801523, -0.16769737481834876, -2.27374709e-315, 0.3914298453262368, -0.11139796289289457, -6.22104878e-316, 0.10864802196734837, 0.30571018079461354, -0.20896254705098383, -0.9873299824620135, -0.45354662838088977, -0.42838411174897484, -0.2679873859675643, -0.04879758803731591, 0.1046758971275815, -0.015270850149608554, -0.5304483170142765, -0.3468573425994907, 0.03365529025408345, 4.36874708e-315, 0.4113972938328211, -0.781316149445258, -1.108507081682077, 0.3539197090187829, -0.07992543731923657, 0.43987684450931996, -0.6321794079911304, -0.15696342579974334, -0.44476523161261844, 0.9028199433239973, 0.0668031526198114], [-0.08635485336038035, -0.4850515913522177, 0.03480519860664956, 0.0996892905210533, 0.019557340926037448, 0.29693251316799807, -0.013167876497761636, -0.19475496804398296, 0.3875637778286457, -0.3602224529752797, -0.8280434238951961, -0.18805052706056785, -0.13398735958727473, -0.19790581400263962, -0.5347415059968194, -0.021396091124020522, 0.4966380888775435, -0.14557400362639497, 0.3189289275844805, 0.07046897452279031, -0.013774012065266085, 0.5028165761521264, 0.35386121024790695, -0.47354172565048813, -4.39273091e-315, 0.1753712155544377, -0.3284743999120519, -0.33317180539112723, -0.2397233141911194, -0.24290075759972793, -0.17809660835481295, 0.11994226090353455, -0.12619406115453946, -0.2512871738532647, -0.43997343338736555, -0.3099728980085086, -0.4245632381163261, -0.3394278695676736, -0.03775704551768644, -0.07715915771448456, 0.3755969434453036, 0.15903609558290566, 0.10941458679364921, -0.2612676319090211, -0.6175582545989297, -0.0411199714949689, -3.02509995e-315, -0.08936659850893731, -0.4280851962278167, 0.017057377020371134, 0.14634707769338268, -0.39098848852640494, -0.05909717643825759, 0.8830604065198345, -0.15089263426538727, 0.21935495619983125, -0.3857452047743649, -0.34258619886821595, 0.12959470181839963, -0.04392808001205862, -0.775474541046049, 0.037767753146265334, 0.10172624741938932, -0.0038266420220655992, 0.28688786628213125, -0.15544255176977417, -0.2721882905017435, -0.11754805125375765, -0.08270302971957277, 0.5821657422756628, -0.7925025244560747, 1.55096084e-315, -0.005321224855814482, -0.472856947148691, -4.156366336e-315, 0.005938283864520371, -0.05980779512526904, -0.1633878581719223, 0.022078697380469206, -0.4489513430487903, -0.06774230229876807, -0.456947008006357, -0.21828308910042218, 0.054586450556656105, 0.13579954733864963, 0.6610243612191217, -0.33956658327563083, 0.0052768629372909525, 4.14055417e-315, 0.5950922973060226, -0.06347461124848884, 0.31677506796320914, 0.4367657565676974, 0.7257392437283794, -0.2881954200548091, 0.23590130618845098, 0.6322598474388246, 0.039253471131595184, 0.1919583930313567, -0.28146795827269877], [-0.9040617760083842, -0.5229031683501446, 0.2228016860692209, -0.03104009847538108, -0.044097116694459086, -0.03550660211120091, 0.011924112886844697, 0.10194758887043688, 0.13765139854385616, 0.5048704134668758, -0.8769308571355549, 0.0011278561571704084, -0.09340034967417257, -0.05863835425315199, 0.009165213216334468, 0.1894565435131622, 0.7200725152313019, -0.23853232171317892, -0.2528948344949248, 0.09390708093248597, 0.20355178161127815, 0.37318263374339083, -0.03022489669651035, -0.22732072790322624, 1.129574243e-315, -0.48202784451967606, 0.6382501593874309, -0.27330111349442016, 0.03643719222989071, -0.5853000827402943, -0.8168360923757172, -0.32503618317106836, -0.1497606496658757, 0.6356563461477152, -0.8253797292718598, 0.78956231454719, -0.6649068709773934, 0.08785316674836291, -0.17566482970839967, -0.11700061582736036, 0.5083056556674013, 0.03262739329294325, -0.18991104887950347, -0.6450973486925682, -0.4973849931895999, -0.020100932995284034, 2.94282661e-315, -1.0178024739006297, 0.48309896888628123, 0.054566218730266264, 0.4029589342219165, -0.06622498562482917, -0.7081607177576806, 0.5729430160031544, -1.2342061369731872, 0.16433259966832212, 0.17022957781024278, -0.29738473378974034, -0.22663241851094873, -0.2661620474252701, -0.4376668208730016, 0.06362760656982408, 0.005640221237713277, -0.043136123082403055, -0.47283714049325604, -0.07899697674319679, -0.1508944979229043, -0.0712824823931439, -0.0011937790892908636, -0.1582443859880107, 0.1916749347970111, -1.23715512e-315, -0.46411495317219, -0.4988024643982194, -4.026709865e-315, -0.32804395592184543, 0.3003379917634613, -0.02327981964009445, -0.13909358960331997, -0.31890357938202535, -0.36487911215531854, -0.45328667745850937, 0.12266483311844495, -0.6401737341924124, 0.04478067626576635, 0.29726487649293537, 1.2658611261047692, -0.06452176989515224, 1.70072359e-315, 0.8616545092474783, 0.18779946966921168, 0.5296098292585372, 0.44593927738208966, -0.2425546905971802, -0.18031185849005557, -0.7982535544245355, -0.823688578491435, -0.29163895806078527, -0.42140316609886624, -0.7549243797424169], [-0.45949932734596927, -0.3394254833380439, 0.36057198429103704, -0.40351768750217176, -0.0946754209695008, 0.3273316097420325, 0.19596167400290984, -0.02080361702506711, -0.22853430711225647, 0.6263808300489876, -1.0123297071057278, -0.14114259955806088, -0.01563214645984924, 0.051770325478857716, 0.15972342797870506, -0.31107991696297876, 0.565708709809745, -0.24090293565182547, 0.6237483171437487, 0.04058398061496174, 0.1732791544454288, 0.07464425816282029, -0.00372800879764373, -0.48985855059012845, 1.723145307e-315, 0.26250601527887907, -0.11707337651162121, -0.10100330450867702, 0.3723734324692449, -0.3376922866435786, -0.6153975574241689, 0.4896767714042316, 0.17234338964047669, 0.4250179798812735, -0.4320275208347512, 0.046692649901457446, -0.17713299189431728, -0.19587913609529248, -0.12222000302466154, -0.062430193502526425, 0.5923842139279563, -0.05177776254482617, 0.691359793187582, -0.7264643314201165, -0.3137178985093917, 0.5382981936995284, 1.555269405e-315, -0.8245385526670361, -0.4197432948547637, -0.03267197226134741, -0.3412591641468715, -0.5176991371652127, 0.08326832870050574, 0.228840118044102, 0.13254951520415303, 0.279974444222248, -0.5145848884720452, -0.6392240144972052, -0.10195221709088012, -0.21219170141197388, 0.3129662719060417, 0.08637531866442098, 0.3929218536172757, -0.04025181312655271, 0.46391487234992146, -0.3529800292675609, -0.3735039181456513, -0.09871246905089538, 0.06940129053356402, -0.3015159207528699, -0.724685674756299, 3.807056065e-315, -0.14452352501179705, -0.263952109880667, 4.058241396e-315, 0.5631277364688655, -0.07282372351038296, -0.03895261447620319, -0.6903560641329768, -0.2685143677624245, -0.17130577342566108, -0.3958627219426502, 0.09659941037433187, -0.12187632185353021, 0.13833697177822374, 0.35028641281560335, 0.35577928196880243, 0.01787693381240265, 3.534146564e-315, 0.655566951167337, 0.06532699822828633, -0.31276649419985764, 0.49149789835192853, 0.11400839801421954, 0.33527417484971417, -0.614970744464123, -1.2189813431803416, 0.16753516515836836, -0.19905585297915054, -0.5229422245053786], [-0.5717992854816104, -0.0273099124606197, -0.23041220646553756, -0.42778381463732795, -0.25682602077890837, 0.0587899087131493, -0.024247199100285857, -0.3142701056265038, 0.23281440120279545, 0.060133204687942206, -0.6686518331025618, -0.08833741778925026, -0.2001800740441677, -0.07633527948884394, -0.8989350606211243, 0.13949273841679408, 0.29182015205108425, -0.2409887038976848, 0.090856446800771, 0.3722265623830568, -0.16597883752100062, -0.3355543391947865, -0.03431543807407666, 1.4611209850430453, 1.70519558e-315, 0.29697179634662446, 0.45474252062951864, -0.045074215535010405, -0.07110459030129093, 0.049825160959878476, -0.5265122719001123, -0.31738309242479296, -0.2735420921461418, -0.11953331644853875, -0.4496601899326241, 0.3403622137232979, -0.3664248928308658, -0.06535174058026089, 0.1426616293397199, -0.06482874161298469, 0.3827102051938713, 0.283869161041536, -0.33520855547381645, -0.43639271490028275, -0.7618449869464902, -0.6716970005450446, -3.536411716e-315, 0.15702491922800274, 0.006576224840445172, 0.08079467341032263, 0.13142461480263118, -0.3548520255385538, 0.06640278112649897, 0.8844731965683289, 0.1555614763301176, -0.16535189119007596, -0.5481011820524486, -0.5544067221216892, -0.5131769490896477, 0.07432350586593575, -0.12792968157306298, 0.062378714793292836, 0.04239523747827353, -0.09972470057611417, -0.05660295683195961, 0.40210198776213607, -0.6449469375920132, -0.11972625871537888, 0.03908102547009139, -0.3236802016497154, -0.018333833916888483, -8.3561476e-317, 0.37310106627203976, -0.17534426985317156, 4.462575595e-315, 0.11471374391464129, 0.16049401426298854, -0.17411464889444417, -0.06260957535990125, -0.25128945892168936, 0.08622656271447228, -0.6338052039151933, -0.2918118051028559, -0.450355859746574, 0.17862467298147172, -0.08468879957257934, -0.6803962611064049, 0.04731986499657664, -3.07304788e-315, 0.3437582158804495, -0.47422253755537364, 0.5204990478635275, 0.28745574061421275, -0.06800984641776894, 0.08635986618539265, -0.8733494824133069, -0.38993269961316107, -0.14534731673602083, 0.46142105184669474, -0.42446691389072544], [-0.8742253023464003, 0.05464201132989444, -0.17702162945550398, -0.014537369916865299, -0.4143940442931963, 0.41218547493595226, 0.12083811969750684, -0.2533569057922041, -0.21515527045545976, 0.11080925010631026, -0.9063189840958211, 0.14860919787577628, -0.2643688423392407, -0.33692976204508746, -0.6769725073121138, -0.0911095889218909, 0.3142290404619729, -0.3651954856787599, -0.3002287833274797, -0.2157046643926177, 0.27921695742011055, -0.024953105149370502, 0.15659845052622803, 0.8079938400374105, 3.766019763e-315, -0.02062246009649009, 0.17789748880097808, 0.1547477293433135, -0.049127812260838316, -0.2418114897414927, 0.07583304641940707, 0.0622090598025872, -0.3097446916461989, -0.08360596028597733, -0.2696742707540411, 0.22361215521122713, -0.30543896224961914, -0.2677834442148539, 0.27277360208377377, -0.06198893029377472, -0.23445253690436227, 0.12752042244979106, -0.08030341361477632, 0.43290154003395787, -0.40909053106820276, 0.1751232886964561, 1.666071106e-315, 0.1277522573084843, -0.17090036840061795, -0.049815895471929196, -0.12221265637319681, -0.29079992005323174, -0.37072096810204563, 0.7227098541911423, -0.9732098354542356, 0.24478773651532143, -0.4394373919256543, -0.06227515692680235, 0.29381514050320134, -0.1499766715400142, -0.3922315957086873, 0.07617375579682037, -0.1273450370993301, -0.08454142008374178, 0.06578979238974327, 0.26523093433028094, 0.8287659190694058, -0.05067134129628418, -0.009714639045877658, -0.13791974633225337, 0.10838340531874692, -2.079072333e-315, 0.06692554502645957, 0.005907154292521897, -1.594735126e-315, 0.7155584650451784, -0.011631823696556378, 0.07659298837282984, 0.6419899146432895, -0.2521348089793441, -0.5674984876894978, -0.32067199740634217, -0.16942933273055566, -0.739419048101244, 0.15017112058960563, -0.08271434565942995, -0.4346688286741876, 0.006388061034171177, 3.092194e-316, 0.17934943007280088, 0.43331366738771393, 0.09009708946963867, 0.13230349320473975, -0.3031217846535652, -0.6047502666105842, -0.23503437588963721, 1.1478832419134406, -0.17180160326620386, -0.6226815822519057, 0.11938265126951153], [0.24524225089025775, 0.23856284363641056, 0.47031715518705786, 0.5833827266761241, -0.6298060346482015, 0.1027000989937164, 0.2716896999481807, -0.061775546536992125, -0.06786191959065395, 0.306978413169122, -0.931769959007627, -0.2413955656162305, -0.28877787595371934, -0.5580072522575817, 0.23766625532980215, 0.11881311466419052, 0.284732900928549, -0.15422088184920096, -0.10248209141340966, 0.30497019059742025, 0.272191523148338, -0.13710225800847992, -0.2043357817500289, -0.2120327950313294, 1.134561574e-315, 0.04804557034621593, -0.12752484536860734, -0.005649249073003985, -0.4587644801037645, -0.18913169787378298, -0.06737802902993024, -0.06831358334904548, 0.5591751624739287, 0.8545336835208815, -0.27654714371496725, -0.010131070810723349, -0.14557830746115968, 0.7399939528990148, -0.02261728399443402, -0.03236458966930877, 0.11712970998942492, 0.6522939687683713, -0.10867085854977901, 0.27279623273332876, -0.6692055093084129, -0.032474167999662844, -3.742742374e-315, -0.3940453608434634, -0.5159607334637403, -0.08279531022710362, -0.45779350599092994, -0.4773681899137219, 0.7559640261056522, 0.43160583895118027, -0.16965581075350325, -0.43147948687470095, -0.5747621195066296, -0.616049735946708, 0.1968396774599495, -0.010896601566442638, -0.4312492389366794, -0.03687466944449782, -0.3743289637092441, -0.0949181646186386, -0.1768787538375335, -0.08603641586971593, -0.2553348088539305, -0.23556770492809745, -0.007313278385494932, 0.33068232822861426, 0.5639719381208612, 3.67459982e-315, -1.2493330244283058, -0.11504068667343267, -4.152056666e-315, 0.2301487385792715, 0.012070177552445565, -0.04854541856933812, -0.5474702882692248, -0.5130837399456268, -0.10679917981178727, -0.24899740740635345, -0.023915730012575114, -0.4352100359964917, 0.16860980814534746, 0.32853721358059185, 0.3538254878211623, 0.09618618761447655, -3.21735027e-315, -0.0022214026194180454, 0.7909027216550039, -0.14993310799463572, -0.0072898953151428235, 0.13010965994880488, -0.39419114905114777, -1.2687431035293188, -0.3248952931671992, -0.09381106211577031, 0.7229290149938207, 0.43133762010956744], [0.5567258609008924, -0.2759759625951151, 0.38646193906895254, -0.10353976610368248, -0.4539046912877484, 0.6761978540271584, -0.18475008511416757, -0.2755376117627814, -0.10490322277876606, -0.3672959218064312, -0.8718445185918248, -0.1261719538363506, -0.16398916519670406, -0.6259231444418578, -0.638371875502436, 0.3422155269921829, 0.44031686237882034, -0.3053375435320038, -0.6123694311727393, -0.12413175907897994, 0.5323392387756875, -0.5063390669597961, 0.03281395220898226, -0.5726088936007474, -1.938764137e-315, -0.03687798288896565, -0.4129115107128114, -0.025270131275343513, -0.6264980970242474, -0.06110176181988557, -0.21261912114954595, -0.3259328067809367, 0.5954684059009343, -0.0769295462393931, -0.08330894465784641, -0.027838487077385853, -1.045024302380358, -0.5948521304332206, -0.06153117996790854, -0.0063583457214783454, -0.3479120129034002, 0.5823790746494943, -0.4921894747521156, -0.32134403089343894, -0.5957612595079369, 0.4968737319855258, -9.557301e-317, -0.17313435492939594, -0.43371530950599035, 0.006682288251281463, -0.7624677467934455, -0.062083668689481133, 0.3544980748999386, -0.04696466205921835, -0.16818673730827324, -0.07826374066926974, -0.5807439082345296, 0.251502455678989, -0.3611103946240098, -0.06901466058979183, -0.2853805595028263, -0.27544772221394376, 0.3355024493249514, -0.14903458219265112, 0.39425762669265063, -0.2919440389924439, -0.5828353579728137, -0.27990035890049675, 0.013170348875988414, 0.7778744487025147, -0.5857602626369877, 2.38457523e-315, -1.0794900722371885, 0.0066528830678437316, 4.06904329e-315, -0.12520775283557078, -0.38972429469629016, -0.0032824226735670738, -0.6509450405284023, -0.35813496066873146, -0.2648049479359654, 0.19899198649682373, -0.3555133741317264, 0.22792988432681954, 0.1113584978778511, -0.20721512559413013, -0.3333317116150929, 0.1484649631792824, -1.10861208e-315, 0.42544903431458425, 0.17570780250816062, -0.37230057569754016, 0.17239624892931374, 0.3132147377043655, -0.15293281477929146, -0.21536480812569503, -0.6363528553594836, 0.31987897442691987, -0.25571174507935285, -0.3194373021130376], [0.017781265108550205, -0.07601583154725451, 0.177289094324944, -0.22901323188716016, -0.33749482684795884, 0.2867846249235568, 0.10695014255640181, -0.36751952830010937, 0.3834972838144934, -0.18626694732840687, -0.6547775553900523, -0.04186976371520894, 0.08958387429957998, -0.570433171959046, -0.42677023071611064, 0.08957412981808713, 0.4774161445606726, -0.2723134084572183, 0.13526636972800543, 0.6981977414149305, -0.1437594080409128, 0.28972669931024714, 0.04820439288359121, -0.018225045349488003, 4.1414915e-315, -0.37034659247270135, -0.4763261350519107, -0.21901480565896636, 0.15984741697055274, 0.18112573013162567, 0.003603235490698151, 0.3006311342735669, -0.05537755595615908, -0.12311728684574413, -0.17572079111052585, 0.33936755306852373, -1.0078495946808554, -0.7573428950676958, 0.16220228783138044, 0.049189484551428755, 0.5253641988244181, 0.10945326852299452, -0.014110568119047255, -0.2743868580192758, -0.36618300495925943, 0.10400257576481044, -1.8379897e-316, 0.48202618926246765, 0.09233201119426243, -0.030822028733942613, -0.5973181625593321, 0.15170331570543003, -0.38770941266849973, -0.060521315417636626, 0.10767649948209546, -0.4624359164132778, -0.5274357288874951, -0.06623522214550187, 0.15741007378000935, 0.19218191855725655, 0.06724489130626525, -0.22085500648087703, -0.19713098648453065, -0.06727143185256339, 0.3369746418854422, -0.3149257570665341, 0.13305951944474348, -0.18352311882642885, -0.051663611267545824, 0.03148245197789868, -0.7665898824402314, -1.14709476e-315, -0.6391943739137173, 0.005449852249211001, 2.149449726e-315, -0.1436673504791466, 0.27273418889016965, -0.10722897242555698, -1.0696475622951358, 0.04394178454876537, 0.02349716779697984, -0.47092342150562305, -0.6285044563600344, 0.3252513475999141, -0.008111559622607175, -0.06134949311152009, 0.5916468773647177, 0.30557428206257553, -1.09769078e-315, -0.14045908768454657, -0.6597919629761381, -0.08769210962888938, 0.21434188335382554, 0.3015900244036789, -0.31118177571123173, -0.3709911277332757, -0.19472600246313473, 0.6936572709448743, -0.49947034526956774, -0.21693260118736638], [1.3729168552147966, -0.3346271496803108, -0.2059906342896321, 0.029024285831289843, 0.03029969615230435, -0.017588282627112775, 0.06561413292394928, -0.20345288318993518, 0.03944420887531587, 0.402124966773349, -0.5921312131909522, -0.1732541769413924, 0.0005314659271335696, -0.4837586491415374, -0.7947262705520732, 0.10975554846880642, 0.5428896310000088, -0.2585380768509378, -0.09357404567158306, 0.17267040198690606, -0.20489582885411306, 0.06408788940642877, 0.5453900096338361, -0.7597263696031236, -1.26396676e-316, 0.1309864730004272, 0.17133667324675364, -0.30085525926567974, -1.01260651350661, -0.43765880951588776, -0.1361862134850683, 0.33769856498653394, -0.3121108276742557, 0.8679680919268477, -0.13769067868426577, -0.1482090373053306, -0.6677532308499677, -0.32155990815367097, -0.07206424647643302, 0.18273442549797908, -0.5992637570629709, -0.17457996595184935, -0.6395932966878005, -0.07126265821655847, -0.6128266790913066, -0.06748916840362357, -3.38453387e-315, 0.14567192116813132, 0.06393568979449972, 0.09923539307562383, -0.4856711140210703, -0.0914356909605494, -0.16179831823440816, 0.7055114531759763, -0.6422311103676783, -0.31983315238107746, -0.7340630690867187, -0.4159362453869365, -0.4192498519310366, 0.2100972495320525, 0.04783947563586633, -0.3653342800187561, -0.027094766340110897, -0.11094389609310419, 0.4206061607945381, -0.08320589479465643, 0.0023101569018739265, -0.10110718334373449, 0.017351754519282267, -0.1759389610114929, -0.41116278347212554, -4.5986584e-316, -0.6668775567362114, -0.3939666835542287, -2.70520694e-316, 0.42585328010408696, -0.338348142741081, 0.26867761650299665, -1.3325255160483596, -0.0603694411344799, -0.0850513427504211, -0.297325824220122, -0.22105272839311127, -0.22431291623994679, -0.08892421745579035, -0.4816739020770697, -0.3451030861828076, 0.40328162144240887, 4.68854657e-316, -0.2885380526963774, 0.36692885019754284, 0.2157300699603907, -0.26204639028747484, -0.2736585417068327, 0.09453377441799866, -0.558448120672842, 0.7363571066955329, 1.0590590321664066, -0.17047001466444134, -0.7891972329070732], [-0.07056202406850484, -0.4078748141400088, 0.20582619011422612, -0.004665839688291421, 0.1150087604493972, -0.459219805656076, 0.19584921816638504, -0.28503597718431956, -0.07294146019533308, -0.2923931920028104, -0.5590312219638943, -0.07881225603089345, -0.161936241475119, -0.3738047560503546, 0.20145438717173864, 0.02919567162264169, 0.646587407802188, -0.4228305584466905, 0.10291785534995801, 0.057626365987879784, 0.21568083309572905, 0.4105678459402162, 0.5319654777627103, -0.07121763077092988, 3.9875789e-315, 0.14155701142397906, 0.018726605729734083, -0.21954270690437838, -0.5822450848769306, 0.2069874131664141, 0.07137391499473246, -0.034156704451353936, -0.2930209323908937, 0.00583709740246131, -0.12904669431583018, -0.3243775997787866, -0.6442193536154894, 0.7833388504993322, 0.22463268822303276, 0.2745409448008904, 0.08377502278773316, -0.11334029757493243, -0.38864561182777085, -0.2164644034785207, -0.5297515861630326, -0.6167988117394174, 3.490214553e-315, 0.4940081886419394, 0.24251856421145537, 0.02736481115650034, 0.022852919050828216, 0.5350254554022847, 0.3978499830575489, 0.33358431931838406, -0.8973868115986751, -0.7821514885645808, -0.350181588797026, 0.1483816968540478, -0.39117828378836494, 0.01353657869884788, -0.4442660570035145, -0.04296013234355944, -0.11736425766041315, -0.08650327734478858, -0.15254902480883886, -0.1425789683575417, -0.09663627064749089, -0.18201544733107367, -0.07395282593822987, -0.28596166226517084, 0.14025183748811776, -2.02962946e-315, -0.42312914410235863, 0.1886770760377856, -2.204842894e-315, 0.14723048281733725, 0.037882893811086296, -0.1384442597461368, 0.6448133664409178, -0.07150244243071102, -0.4165506166061976, -0.5081297680927518, -0.7268032714753994, 0.8291526644560289, 0.07587197292706047, -0.6162865144742838, -0.4082805141600988, 0.33836812134577887, 4.12224052e-315, -0.3888983468971676, -0.3826925966853149, -0.06626473288772633, -0.5127386926288822, -0.4197735424184256, -0.16043424126376085, -0.503006491997863, 0.7980664786988395, -0.04269014003881427, -0.107395140513482, 0.6968770082987552], [-0.38107195116898207, -0.6731654241936792, 0.22843739098891538, -0.5765038825602097, 0.03128414887074431, 0.003204098998659625, -0.3166291595220415, -0.123354823350963, -0.24931460655402163, 0.5689079284742018, -0.6521786917639145, -0.5617961832153768, -0.1925426526071637, -0.5359514462342606, -0.1979325396730209, -0.3517526392522194, 0.8201532826440342, -0.3853693036357585, -0.24564881773160097, -0.02378799749146061, 0.23704919622575674, -0.5197912091947353, 0.2589910016269983, -0.4417311176917049, -9.57047596e-316, -0.38897647777711225, -0.17513640197008945, -0.17758765031570548, -0.25374939950940517, -0.266203552023913, 0.5890949453663689, -0.1025428570163719, 0.3788619705651416, 0.0971239471575695, 0.8658228935017177, 0.209290004743882, -0.5244827633624155, 0.6653948576824581, -0.08313274954850386, 0.2107591102544553, -0.6704224395986407, -0.13560499380698995, -0.4278781828953575, -0.43529490582491415, -0.810551481222289, -0.46549091816610655, -3.416413546e-315, -0.09217114027305895, 0.0530225114806434, 0.024985568075035727, -0.5637041686335778, -0.18697820147754876, -0.4905204691526106, 0.34595215984190303, -0.7214132717903109, -0.42960030134619864, -0.5363537741762483, -0.049404796767249085, 0.16874823698583258, 0.24155623044319954, -0.03143091097537028, -0.13741757920956532, -0.5919168018308267, -0.20064380694750084, -0.1536656925327921, 0.13937029629384043, -0.4584031920793212, -0.24342233300005434, -0.02490259368876359, -0.13179811385277743, -0.1758237287724096, 3.485330635e-315, 0.19941017301141675, 0.0037856210811033405, 1.139696734e-315, -0.3356502278331369, -0.2931556510778845, -0.14032742671623014, -0.16120007614350707, -0.10963704166658632, -0.4048126548788373, 0.12221758231338639, -0.8183907801201876, -0.08756996028809805, -0.06088641218633896, -0.5935223685099938, -0.22945676088468675, 0.339788472706996, -2.48433024e-315, -0.3248370363225516, 0.3464542080370377, 0.07956676958769342, 0.08164842028523749, -0.3771948931843805, -0.14701800790330627, 0.061600726831821474, -0.5698006151776822, -0.13552527533764577, 0.08292681542300474, -0.20180082786898637], [-0.25580462406853816, 0.15563753563326477, 0.30566063172957375, -0.15684527276297527, -0.12825801478492926, 0.11339085519366734, -0.3188338700834947, 0.2823180239775842, 0.06657118982353714, -0.21310326858422687, -0.713106069857686, -0.8096562195137667, -0.2977773974610626, -0.3587060121933967, 0.16185694175371984, -0.729909759142572, 1.0504676632171437, -0.135224664003325, -0.20507971743599046, 0.10365226388944127, 0.1281883458454876, 0.1858581006145354, 0.1819939576430571, 0.23506029288152663, 3.678262583e-315, 0.293914303053939, 0.27768848880513913, -0.16457758094422065, 0.0757865581561313, 0.18573470376221035, -0.3655375140484657, 0.1619139480880343, 0.3512729501135455, -0.3426887895702178, 0.4645176391890818, -0.3429785944596816, -0.2424895510536882, -0.1697748375001286, -0.10165887849827339, 0.20583003975670125, -0.46815372927902127, -0.21510345085767293, -0.41209111566819756, 0.08986776568815034, -0.8676311488967261, -0.4064416336574403, -3.09876007e-316, -0.44194003303528634, 0.6816881133233669, -0.09784276235854793, -0.6310000567294411, -0.4446169268692518, -0.044125102386796504, 0.037977175930309436, 0.1522084255094834, -0.5854771077735031, 0.006834025694085994, -0.06358949231558764, 0.1033109667719705, 0.19797326749640665, -0.02735263200787308, -0.2309814551907851, 0.3467337204584584, -0.2674692730208262, -0.19547191504513162, -0.35582655425072635, -0.12341099830656364, -0.2865605547830303, 0.055713309792315084, 0.003342540619966062, -0.44736332972651227, 3.18476402e-315, -0.5646544870895436, 0.19273810171932645, 8.2653557e-316, -0.25455591733092614, 0.029742859792720504, 0.12577188855490115, -0.8398891011229032, -0.026190477144881277, -0.2722302217867052, -0.06562334015788258, -0.04994629932826811, 0.1407903384681276, -0.18863352820157242, -0.7055948312250087, 0.3505026873401439, 0.2063036054234873, -6.09837677e-316, 0.10002453697880268, -0.7989808738693872, -0.25691603296453225, 0.3481216339831655, 0.12198390447558091, 0.18874201244632716, -0.2938773700512913, 0.007342541953306674, -0.2094140716029543, -0.5167133919646335, -0.51017355897581], [0.25626829346696545, 0.11633893596422087, 0.1744085209447807, -0.5020627416550125, -0.18606591198342926, 0.24222957477703572, -0.2832186464666088, 0.19541988222159656, -0.4339488160328048, -0.6040158648418178, -0.6536171989835923, -0.6710943869820082, 0.2712134768484117, -0.2181611413431003, -1.3995375819338678, -0.20574250166891037, 0.8050738060004982, -0.19568785182794884, 0.21653182388071698, 0.2512498736104646, 0.14551011822709675, -0.08180322546238614, 0.16045485665155212, -0.051674699930120624, 1.13675163e-315, -0.3579938753644781, -0.1469294239191918, -0.15053287789531525, 0.537333881913094, 0.28864702745620624, 0.12542297877627975, -0.06303322597637792, 0.029512444834001013, 0.4445321359969879, 0.7628452340434433, -0.0062247111478028715, 0.024924803985132946, -0.2395288900898269, -0.2501766678178177, 0.22905966151395807, 0.09402769555299852, 0.19678985600971569, 0.10881427919983025, 0.006308379013588481, 0.010309638693416997, -0.208270908887036, 4.466900443e-315, -0.34558811058927336, 0.16047816291588685, -0.026203529252010214, -0.37329749610025126, -0.24221288386514714, 0.28849224391108913, -0.09635740158852098, 0.43240954424586375, -0.22710251636934736, -0.6875833602592756, -0.3761572888666182, 0.10155935855942543, 0.1808353730433829, -0.2644738628175786, -0.08688362865889145, -0.1274225945665158, -0.27528880661443483, -0.37504836435393074, -0.10321124757736651, -0.6118511146678849, -0.23155331378490931, 0.020148946368039572, -0.5160152718148322, -0.004348614703213794, 2.84822854e-315, 0.0310666847909336, 0.1598033854391804, 3.13491387e-315, -0.5308444473875523, -0.4908999934806528, 0.5331892011160884, 0.04092235397389024, -0.005239950786610774, -0.08380216613039693, -0.1197802380220234, 0.053589265803178854, -0.3185651206267443, -0.09765089343851313, 0.172065469252368, 0.06458040810222421, 0.3014130970448885, 2.916481775e-315, -0.3040761848518221, -0.3175012685617311, -0.21268826494596016, 0.31925950395447694, 0.6415083670735361, 0.4732292182442187, 0.17500726869661792, 0.45156420909128236, -0.017819774547068568, 1.0478977925358943, -0.4094127440858323], [-0.6859420870938576, -0.10329027495257259, 0.11586945416142308, 0.5452342474971497, -0.06837661459827854, -0.1566193929190712, -0.16398132377751345, 0.3095217954618189, -0.314700743734303, -0.36052024899045504, -0.8562033663925214, -0.5040776009236354, -0.34765816072361255, -0.41631450363134936, 0.142511986156716, -0.31893187136487405, 0.8089221991492941, -0.2730356082951629, 0.25368897819021813, 0.0965584558490004, 0.5309706187046618, 0.003383028926940817, 0.1140298928036434, -0.7735547758840153, -4.05224179e-315, 0.5146225240791095, 0.11076311076161842, -0.2879703596099408, -0.1656566786259866, -0.2521036849212951, -0.4703148022482712, -0.07265832358847225, -0.27687983348926476, 0.4277011928565931, -0.028369278958046567, 0.16407858011975301, -0.4036167245314419, -0.049018632040879466, 0.04145627006201877, 0.23566604080371775, -0.009142768934390115, -0.30670994850485644, 0.22276042772534135, -0.42298905797680264, 0.25325082441947006, -0.6468662138115582, 1.76254716e-315, -0.4234510511363598, 0.07620322426430157, 0.04744638295654586, -0.227622532620164, 0.43844031518248416, -0.5622171357086633, -0.13819155150547652, 0.15480188347852034, -0.44483497177995796, 0.5187192376044051, -0.04233489477763468, 0.05712297760407205, 0.3711847556257254, 0.3512120845001019, -0.11084951647226092, -0.2364838115450109, -0.3799668889855681, 0.6829673651861181, 0.22300659449579435, 0.43450780893896224, -0.19449723206691266, 0.021678065330541008, -0.15298467232150265, -0.24328926030301307, 2.05195382e-315, -0.5309109360535629, -0.1020420604535266, 1.18391285e-315, -0.7127212550971103, -0.32783257354351525, 0.05682538442834382, 0.05807928238261866, 0.0161127132834154, -0.30477720354373844, -0.4550360333598481, -0.07769432439918848, -0.48891237070765214, -0.2685279315223946, 0.2258514321035453, -0.34907569300097807, 0.30912272752429526, -2.28064924e-315, -0.07254328220292426, -0.5785062267447756, 0.4847683988998722, 0.0005918262036219196, -0.3297389690435264, -0.02767270855296836, -0.41867475935183834, 1.2045030998093147, -0.011826367483409456, -0.25901815143884904, 0.11689029382849943], [-0.7497920666670872, -0.41734484117886533, -0.2173863207347596, 0.2879443948735428, -0.05437194826062389, -0.03268980715960923, -0.25772120968652135, 0.7880735911541714, 0.0588367750526806, 0.5536349002376854, -0.779730491088205, -0.3881273332361617, -0.16828172913543954, -0.2649583897830354, -0.39965505241440596, -0.17056769064508165, 0.8808205555618346, -0.264541032080828, -0.19473626832420432, 0.42580516830139625, 0.6490425862756111, 0.4736257703628654, 0.16227584303884196, -0.527763798107412, -2.58255932e-315, -0.24203583671719814, 0.2727681488908887, -0.22031307549714485, 0.1469000094827247, 0.09523490056862331, -0.2135530820160424, 0.0067921205648298994, -0.20783720220543514, 0.1665978977707739, 0.6391253583225353, -0.6543393178440539, -0.8377590006774792, 0.902082203203184, 0.06891671175923719, 0.1332402423850857, -0.5177266657057632, -0.4423757080968091, 0.6008722118769695, 0.07041629159281833, -0.07037393884647004, -0.5113200637238592, -2.58460325e-315, -0.44736420463224924, -0.19831087749347373, 0.017269286603797205, -0.3840161907320622, 0.48616477213725223, -0.22051685049376366, 0.00889393634717595, -0.5668869624463176, -0.1625686023070199, -0.4554459234324554, -0.3125240413207084, -0.6291560779302332, 0.4458652526229735, -0.9107916386448524, -0.20886726993462298, 0.02368777318273714, -0.421292102248378, 0.16821758095927386, 0.13832674905024875, 0.1580364517141505, -0.22367860449369079, -0.02721307416142439, -0.34790420898061725, -0.5766132850873641, 3.838188406e-315, -0.24609471604592775, 0.11957399782437789, -1.432453415e-315, -0.5789577867359906, -0.06697490420694824, 0.24415917280159888, 0.20688369969962794, 0.16753132213839161, -0.09783087454037705, 0.11189664223697042, 0.009257431895913382, -0.48393725243690244, -0.14285232650296764, 0.17702099015603925, 0.4266849557499503, 0.23696746377594446, 3.33030066e-315, -0.49470557283035743, 0.4709329641257566, 0.16010031216965087, -0.3377877677171073, 0.2922396262853954, 0.1810231506354152, 0.1450888825476093, 0.08126237183718596, 0.17711089282990367, -0.3898184672105298, 0.15983504628641285], [-0.37635705795232716, 0.13044007552220302, -0.34403181395840116, 0.03301878735705825, -0.0055908886189101475, -0.30043231841364554, -0.24202908261809866, 0.4430233977667133, 0.19170011943749563, -0.4160518156761278, -0.3708533323031795, -0.2788186874616392, -0.4257482302904654, -0.3533813548265429, 0.1561151918913734, 0.19422819268217337, 0.7812982180868845, -0.4185744641192714, -0.3160243558376183, 0.30169430691687305, 0.4117091403541542, -0.26954467962273815, 0.6961696032519619, -0.03490644145797197, 8.6184867e-316, 0.41350966493351415, -0.26310706285272667, -0.24391702170827995, -0.5915792487208356, 0.49607183920501247, -0.21472391996777968, -0.3189141623614062, 0.5657394231299453, 0.3288060829257674, 0.2565139834103997, 0.6127761481544526, -0.6962810034666899, 0.1547073332116637, -0.055276493133945066, 0.06805752526792079, -0.709865240983619, 0.03973470333443041, 0.8674489178330834, -0.01802487951643301, -0.37207674334500446, -0.2583781497518236, -2.9250293e-315, -0.2750636620162246, -0.24902625999302222, -0.011978068274490574, -0.7591523757691926, -0.03172961269153565, 0.43365175765098113, 0.4311716005623883, 0.4236115628862941, -0.13386246744104818, -0.22677280442697273, -0.5617757924484044, -0.01198064462456599, 0.23224287305562796, -0.7056138447114445, -0.3401316864385179, -0.2982001956955371, -0.36331243585652584, 0.06116443491331401, 0.4139521983767279, 0.010512113701790995, -0.21176557327396783, -0.08665531194602488, -0.039287301361411966, -0.6543231815723995, 3.35531144e-315, -0.3310862433157638, 0.09641996520593306, -3.69658161e-315, -0.3039277466215597, -0.10613457649733755, 0.05513691861675617, 0.6199042032963605, 0.08243868861090309, 0.12156910171300704, -0.4460008861626653, -0.14462379458223307, -0.15091365734984094, -0.09262772924331061, 0.13833123334042807, -0.0522840508466131, 0.17367887298985493, -2.05971247e-315, 0.13027565928098758, 0.29726408581781977, 0.6082868789202963, 0.082656860263625, -0.526004076118325, 0.09885662713691624, -0.7280491054110141, -0.862309528789744, -0.23738577027843671, -0.7499975022430132, 0.3342727802336758], [-0.24849441555064739, -0.04009910625655527, -0.0647875379537834, -0.07643525795239309, -0.0008773602277747426, -0.17416233754443625, 0.06746195054172026, 0.2859642710700037, -0.3188743786115368, -0.14026588971207157, -0.5887112791938265, -0.35678971865924447, -0.3746403605520969, -0.13537400269314473, 0.2816643243662557, 0.1835804417900915, 1.2257493681097777, -0.22725126632081105, -0.9510620832666876, 0.16971464585268523, 0.37758708145516734, -0.4175543419795743, 0.41732397523692516, -0.313339175768425, -1.974969663e-315, 0.10527989103682645, -0.6766620036521143, -0.2221092493592943, 0.21417298532891407, -0.8019121084347332, 0.09085793507038359, -0.022397668691156447, 0.4101185750064545, 0.017362870595439596, -0.16245036507135843, 0.14815487355114532, -1.0009557557724618, -0.4500699735140928, -0.14658252286338408, 0.08479264269352918, 0.2235422794200458, -0.4043208116033026, -0.6156625322394476, 0.189259275954718, -0.4249536319565671, -0.43066330687976523, -4.6748986e-316, 0.21827641151820834, -0.08880949767039685, 0.039547178751742365, -0.6499716397947004, 0.5609363974124923, -0.25269284781916296, 0.2829885659368129, 0.0494851061737042, 0.07555823725772713, -0.12972535535568538, 0.002384548389673964, 