{"bias": [[0.13882015963185898, -0.13614705988865194, -1.627147078495398, -0.09530076959534514, 0.2868331148186966, -1.2885261745721857, 0.42409351466453576, 0.09087808758774062, 0.4815130010706063, -0.42973072540042173, -0.4852041790693297, -0.6428674382894318, -0.659445174371326, -0.936305849782044, -0.10673014923678273, 0.22538113926269857, -1.6254298119971953, 0.308773744946979, -1.5683424011168396, -1.7556094394213981, -1.8274162670482061, -0.6500783543659908, -1.3072284401050565, 0.4202576764824509, -0.2561355023962341, -0.41102718924288245, -1.9135554083397823, -0.20854219699809756, 0.06807184333744233, -1.1027244936042073, -0.28562121652930134, -0.2223135032076175, 1.4525323251572888, -1.1014085796614275, -0.21566070068508741, -0.5343045502086422, 0.5253872997867783, 0.22988115385333402, -1.140482749654749, -0.34947098445134345, 0.9328576088081576, -0.48698265869154045, 1.0551357060067803, -0.49468387574802225, -1.5927211511625126, -0.8440399233891717, 0.9107208637210294, -0.02705456573087394, -1.639535012985707, -1.4590502787021908, 0.6799339936410836, -1.408545490005316, -0.7701002083255132, -0.8842725513222283, -0.22395161291094834, -0.587855631040003, -0.3243691464171199, -0.38255690970025263, 1.0470111092506182, -1.0246549823931883, -1.2915208635899051, -0.48735234109120434, -0.757086584626329, -0.3247345645463586, 0.37224040881375914, -1.2088177853331665, -0.46458286461351983, 0.4494625788284995, -0.7316084708465509, -0.2203294150904512, -1.1261810849848959, 0.814784778577488, 0.2736541746803993, 0.16767823026458467, 0.11869106931523932, -0.4811325909685573, -0.5239595957887488, 0.13803870019557588, 0.5679058624549813, -0.9545156772514936, -1.4415409558748502, -0.7536773891495345, -1.4761978097562056, 0.11039243355018351, -0.589900195244722, 0.3054684389486766, -0.4424622665556093, -1.0583343730238977, 0.119007099228618, -0.6572603232263866, -0.8037836716734212, 0.44834421227734145, 0.3011280887681198, 0.0903796860875729, 0.28202966709819666, -0.32362210803436375, 0.4258744411847172, 0.2929541556957367, 0.7986482937617942, 0.14005700724132675], [-0.7428606251978838, 0.7460016544919921, -0.545130127197862, -0.4703303171449316, -0.8862931930862172, 1.0259622925678824, -0.023163320854469253, -0.5592859563797664, -0.4426200202664002, -1.5891085660949258, -0.15189028073708538, -1.312608229961189, -0.7154984385859416, -0.17831797525877185, 0.07748332267617818, 0.3900552585744318, 0.08125279668310904, -0.2104217382692802, -0.03932808623063726, -0.24900915942312485, -0.5959722259026446, -0.292600100902179, -0.1897450243311951, -0.5364090349872066, -0.5101336284688085, 0.21308535445446722, -0.07478533442228251, -0.10295347690677513, 0.4729360195348767, -0.9442816537172246, -1.1669490438732002, 0.31235900551084367, -1.0693632251119674, -1.2100491967523779, -0.15115598893515944, -0.3162242215394855, -0.37132440626610874, -0.7372984803267914, -0.0788713065862767, -0.17930390138112298, 0.3280974189276163, -0.5580723893547701, -0.5300508052659517, -0.31230456660600814, -0.19877134239637392, -0.46349876758039454, 0.4636483247294069, -0.11098678922713916, -0.14705624987670035, -0.7653287043554928, -0.1439665914367546, 0.6793782725625319, -0.06168652910349195, -0.33670107579722997, 0.03523699412133443, 0.7672167286399677, -0.32729259619738255, 0.3999641418094742, -0.7188443865980082, -0.3181338807484278, -0.46251516230468187, -0.059272236648587426, 0.22797185652353308, 1.0131897051900673, -0.20810568178982922, -0.16484961510643456, 0.46641215694283045, -0.587016330269956, 0.7623033125474893, -0.011269171454130842, -1.9660703449801584, 0.40440543351012465, 0.01212280797173802, -1.3589446517531805, 0.024825056659582158, -0.061332099908470966, 0.1372190391572169, 0.4646166965736806, -0.2874219669126609, -0.9670058687178137, -0.2531626197561187, -1.2723893119472327, -0.4872974097099317, -1.1836312155630058, -0.8173411853820312, -0.22017907048610288, -0.5520953295374775, -0.5787796567577919, -0.29656331853715484, 0.40020847759779615, -0.39429273872335185, -0.7827993345621662, -0.6078572324332313, -0.3017865384053884, -0.20441171782010314, -0.8914182900867614, -1.2239884358016069, 0.14617689806770504, -1.0778087623655395, -0.23171328078192235, -0.4781736984210659, -0.5875951421202561, -0.7225683863824885, -0.33945248546023643, 0.1378442418460263, -0.09068994812548525, -0.3699862628243978, 0.3370771964510888, 0.7240089714709363, -0.3384184953428304, -0.011570939727297736, 0.20149056490892084, -0.6783026118798686, -0.09724719806587613, -0.6322322899130348, 0.17805230361781207, 0.31104669608970403, -0.350803544866146, 0.39927616756413725, -0.4303272794312655, -0.9788812637984091, 0.6120931907310114, -0.11141744444945967, -0.23626968413255547, -0.38875759156625495, 0.0401693618538859, -0.7880800219201802, -1.8605428046692982, -0.3282112707021197, -0.7175329090215758, 0.4535690101758971, -0.36747684895049054, -0.1305944960832619, -0.49428173143255494, 0.4208148262788694, -0.2271287369069445, -0.9919760889427325, -0.8751934787417996, 0.0911307236540762, -0.40519611652116755, 0.5298955746764165, -0.2002611400622227, -0.5907554521531637, -0.7389702208638234, -0.3540149087843744, -0.5495381929445206, -0.2484271661886485, 0.36569421403161634, -0.11185920224353126, -0.005265798914688773, -1.3997515899066082, 0.3808321860857595, -1.214220975105971, -0.48133409983364717, -0.24603469603444103, -0.8470064974553614, -0.7022845031373968, -0.623133972160463, -1.2332076587754701, -0.20384516495850236, -0.15760904847614765, -0.14473317308855216, -2.4715668752529822, -0.22065233328732253, -1.562273400235849, 0.15750841596970677, -0.15590456518589896, 0.6843670416793737, -0.6049657863416967, -0.2125974123529042, -0.461118142193987, -1.0301581060715699, 0.43003408621732714, 0.778225313308397, -0.37479358905855925, -0.6859202702943719, -0.812840502657351, -0.3454649700272024, -0.3096354005853383, 0.30202216640944796, -0.17051042327890248, -0.066341163820056, -0.2444231216911706, -1.1778244635870898, -0.6298466401952336, 1.0399393152416925, -0.31584628303482976, -0.11915971933281558, -0.6180711870606825, 0.42923427064471475, -0.39355446158125706, -0.15601192515878223, -0.7593747662835034, 0.4017976324065455, -0.44047822256788427, -0.7807930467493784, -0.05222342318446591, -0.5607452927068746, -0.7535255286820545, -1.5537554378216398], [-0.3702375714497916, -0.7990977237921528, 0.08429322719150716, -0.09926430612321509, -0.28604714971230405, -0.5710533184664327, -0.08633501648716875, -0.3037234784637933, -0.2214186963605058, 2.2345488530939583, -0.08693042556249059, -0.13647956774420153, -0.11952881433831533, -0.314639802341048, -0.6005417025876827, -0.10193405463546776, -0.0234690688393997, -0.43381570113215256, -0.4654639804626809, -0.17369078334516258, -0.17187751787366953, -0.01974628741569299, -0.2469504670990747, -0.4899692103938175, -0.5733371481061276, -0.17163023795906637, -0.033382897419969006, -0.16039138274810935, 0.04990656099982962, -0.028244250814731933, -0.02030916308152236, -0.17029856174111938, -0.6341125669410606, -0.38088262467372375, -0.2950470555597164, -0.24625115705795234, -0.1849701205124656, -0.0304613715022578, -0.20984678002072243, -0.05335606178837941, -0.24825371832723242, -0.11656509180282912, 0.36229956966882376, -0.11782009586892211, -0.11782371919852117, -0.15559790302220564, -0.10715645624112506, -0.7152015077542384, -0.08473584415524632, -0.41979261287170927, -0.274786064937257, -0.2991293175087572, -0.18549109112303688, -0.05264787929187339, -0.24529044805494057, -0.19389054838609768, -0.21742556822204726, -0.020046937951306142, -0.2759448235999345, -0.21243755092893135, -0.023610557120882045, -0.36753036162610075, 0.4356409843921834, -0.08008970272345017, -0.21610663083610288, -0.17550249525826836, -0.17512930970540708, 0.5525926480089164, -0.051704912518604214, -0.3651096515775945, -0.1867592230541764, -0.08088031086855046, -0.07633073414666114, -0.34759042596113626, -0.21505908334295737, -0.2484887893505725, -0.14930784920010035, 0.7786253497621298, -0.40468232898063783, -0.29944813433844897, 0.22795734557347364, -0.5451267290891848, -0.15597510437107068, -0.01232750677012539, -0.2975485586854775, -0.06294269416479939, -0.19788170027265015, -0.7425663192745782, -0.31516340887283245, -0.27701248175864635, -0.509181978609031, -0.08639185955554668, -0.19993712706152988, -0.3426819430636417, -0.1226177075369523, -0.19223235819772444, -1.3963829500734468, -0.7090432542546516, -0.9523339180006585, -0.32809586623199083, -0.21220607725255172, -0.20532584600654374, -0.43255540890162747, -0.05668199733262014, -0.1052148762293846, -0.25998185518765354, -0.07793077856418598, -0.23442381891089542, -0.0628516875037238, -0.6069486946430618, -0.09095896960633933, 0.45279413433242155, -0.19201730482711524, -0.2862276022717976, -0.08341124022163621, -0.0376256190139085, -0.4764272313045827, -0.042658461070990125, -0.2257701750236785, -0.15673793938012978, -0.14684070064176633, -0.478876339955089, 0.40341585930185153, 0.45073313798279324, 1.2662158679845275, 0.15786922769138828, -0.06393483738457863, -0.14527248343243773, -0.2345611688712769, 1.4427877921406236, -0.07934296597199725, -0.2129324030148228, -0.3173746319934811, -0.11531714049427251, -0.3017579362392325, -0.14844248554122594, -0.1551463254562223, -0.2912520385857835, -0.18273453146581534, -0.11528397304065474, -0.1953489088427852, -0.12899915299200143, -0.21535676074241897, -0.16243879667054917, -0.17902958564605434, -0.41122339052798035, -0.23033586540365325, -0.29945186055618983, 1.5270189856852456, -0.16395754227215845, -0.10568846484126404, -0.2788061696028178, -0.1566856087809614, -0.46006620866380793, -0.13048868633106112, -0.07205596394640698, -1.056164322642009, -0.010643575662907911, -0.196327288285069, -0.3182266094339671, -0.28420518282909596, -0.06792509145021958, -0.09106389337938849, -0.2969357691602279, -0.37689597228683946, -0.5316866005697978, 1.544873970072279, -0.5079140404302945, -0.17636895866823873, -0.40853453421936725, 1.7122875489773757, -0.27314674869993383, -0.5266360932740896, 1.3824798556072746, -0.18274229734102576, -1.450735072865392, -0.11273334698924034, -0.150914484227931, -0.13528975851708433, -0.23288917802362058, -0.24136287716361135, 0.4191409872321237, -0.2610391544345896, -0.19950556224518035, 2.414373551498425, -0.116230492467855, -0.45040417542408046, -0.3071749253909948, -0.36888121627395665, -0.11329625143505857, -0.11721422490972301, -0.11203618464532467, 0.031244030284708253, -0.182541588543578, -0.12275168699012945, -0.16887619229476564, -0.09104355193251791, 0.050521858611517305, -0.18820888269956976, -0.16620745888851965, -0.2279756731968854, -0.09516992724297137, -0.3146292189164631, 0.5271518219199238, -0.5951300689609512, 0.22989500865876433, -0.0925442090792296, -0.22561013198889807, -0.3395216202409373, -0.4703062726050165, -0.693564147180556, -0.08383285146305083, -0.12670149208198758, -0.0722519736383253, -0.1026408715388183, -0.7687643137674272, -0.23172360648444895, -0.0771604470733317, -0.36849485439077345, -0.06805896156232857, 0.8947259555724245, -0.09329692695515336, -0.11091258833775078, -0.46112707112154594, -0.4419966165900208, 0.9291931748261031, -0.023145529003585078, -0.09371851381773792, 0.8975774369159083, -0.17016520123957926, -0.24626439842303685, -0.15126671168419603, -0.1744504137180588, -0.1711861985611025, 0.600749420818856, -0.067348683671639, 0.3830579491099045, -0.11196004497228502, -0.20816847564761548, -0.03144971048225369, -0.5293610450253284, -0.5622343186850357, -0.22278376138518496, -0.5123038881695979, -0.1984427912844726, 1.7725716430249863, -0.2388762025599311, -0.3396227630625602, -0.2617676272379336, -0.1155736470227036, -0.05241721343275816, 1.2298358238141547, -0.10104814875567611, -0.14684199329067274, -0.1785644530149206, -0.1247950079829153, -0.1617228901352179, -0.30987509046908035, -0.1481512615092244, -0.34843058275946825, -0.1088917990968908, -0.5746428476784748, -0.3659011827244218, -0.373047318565871, -0.31083893392583023, -0.3909520967714488, -0.18604431897728063, -0.1796796331690545, -0.12763312690128376, -0.2690272164360154, -0.14556320259052116, -0.5005180462680421, -0.3143096755406786, -0.0992261505630815, -0.8700238727687752, -0.029222242503063864, -0.6488062579406708, -0.8558231682194963, -0.09801365422892333, -0.057138031645504156, -0.1220805487745258, -0.19511593395102325, -0.04477283766608592, -0.22866699964267817, -0.03910476808417107, -0.1955474518489766, -0.32985921181115024, -0.257575325498214, -0.7659510970711833, -0.46206242888072435, -0.055654229574894444, -0.4483135426431967, -0.15184109333664952, -0.0825444028246151, -0.14248303673330137, 0.021941604926802895, -0.3440086786528313, -0.24803956355180617, -0.6100267205388514, -0.19788160414909559], [0.4203400161734542]], "hidden_activation": "relu", "layers": [100, 200, 300, 1], "output_activation": "logistic", "weights": [[[-0.22542942117945436, -0.19395326735990825, -0.04820748929208559, 0.07322738579858237, 0.26849009916789335, -0.11074695081730881, -0.131516359444328, -0.10277417769027047, 0.022845334591653096, -0.44270022173998386, -0.08975747298015371, 0.07137200887384229, -0.17734865409158795, -0.21691036281446785, 0.22854895059593336, -0.2012619913125682, 0.7661896643007935, -0.07206792843553174, 0.22863000465910532, -0.2933231260740763, -0.9731655757123141, 0.13535764958280688, -0.037700963378200836, 0.10519511909706417, -0.256529200126638, -0.3481925526602808, 0.1327416544557303, 0.2961670272267225, -0.18089135508578028, -0.35981760796641427, 0.5998719441404825, 0.08651199898979005, -0.24721459383528083, 0.20404870763732477, -0.5026872542982876, -0.3028481107467572, 0.16235173152095203, -0.3217097085278355, 0.17439549484076566, 0.3595641982990761, -0.5000861233690671, -0.7838394086379386, 0.08469362081133969, 0.33616937979896444, 0.21861237735706218, -0.2193954139104179, -0.027240618929783744, 0.2704986119982865, 0.9722913207934551, 0.209211870280956, -0.018735263858134916, 0.204851982528056, 0.2803320367612721, -0.3616276444288109, -0.5660062333664351, 0.2844169289994435, -0.6294479630715677, -0.1843831593838157, 0.47824347170821935, -0.33436097559878536, 0.11207301099255082, -0.3036059488981333, 0.012655179449903733, 0.023511245434584375, 0.04257793289099004, 0.05721514672463878, -0.2045544579996342, -0.07687680978739148, -0.31619537854391877, 0.19432078013530485, -0.18671812726195958, -0.1726116111483394, -0.17451421289582322, -0.29255633416262317, -0.12931886926962036, -0.2831934645995137, 0.3795933982339337, -1.1197004414637806, -0.029636146875518573, 0.5277361122586508, 0.2767972333594, 0.5797198916010383, 0.3571206225669737, 0.44121734735417667, -0.477239434032373, 0.3469486464240385, -0.10694583480619901, 0.04645630126947474, -0.17839913760780762, 0.3304609588261758, 0.41725161382772236, -0.30489141269002873, -0.19312245157861294, 0.12160196204733192, -0.23440212392224166, -0.670103075591067, -0.06991587450906966, -0.43880466949581476, -0.04039728507554211, -0.28947749523568256], [-0.18096404969973096, 0.12221563225998562, -0.2500025193176307, 0.08168737468471574, 0.03230185007548548, -0.014882866678256734, 0.19731303928233418, -0.16610119316677613, 0.09657303461065465, 0.6384926716404671, 0.24396190716594723, 0.06953017254552561, -0.06233484107694724, -0.1914474469625775, 0.19763025311954474, 0.315197883055283, 0.13186795948300184, -0.12493863892420745, -0.16763435858514616, -0.1935966213610057, 0.40019295733805155, -0.3186489002900419, -0.2595282472835778, -0.23238590094687928, 0.11987382634155203, 0.2786851725980768, 0.29680750492130453, 0.3449193565054428, -0.12727831730491393, 0.10222634637471559, 0.5506921829074993, 0.04833468124003884, -0.09106295986112171, 0.013881848272930217, -0.041845828184881154, -0.0916810904105715, 0.12894936527266668, 0.026114202049090422, 0.029752538673638567, 0.17714983223646402, -0.6405632592883873, -0.3049558359318713, 0.09903778063552958, -0.03937100033873791, -0.19673010322873877, 0.3400037081872673, -0.5205094535040181, -0.9575601036496073, -0.081207851205397, -0.6099766588763891, 0.36322570247825975, -0.4703054055923296, 0.04128880489668883, 0.14844411996006834, -0.35560871607049754, -0.22610356374910043, -0.31065854819193817, -0.18535710106369568, -0.09967392399744143, -0.027611125158881342, -0.17973764044117377, 0.028737548751023113, 0.12676196501151202, -0.07841253227106586, -0.2131625936261771, -0.11011827424413057, -0.08472078575812378, -0.23567936426833005, 0.355191098349692, 0.28056556327502147, -0.040047715930629335, 0.6550224426644703, 0.0029766611772024756, -0.23341906885637057, -0.1478296728776043, 0.40258714931815315, -0.16168697248770628, -0.24784069200790435, -0.21422333509894737, 0.07926398932720964, 0.19919847690257622, -0.10571907621675494, 0.18567573087957645, 0.050043287609335456, -0.207093766357208, 0.16284674734247748, 0.1760231313803852, -0.32969354232203363, -0.30418843514931104, -0.039538499195976476, -0.0868982290385453, -0.38314601424004896, -0.15600794191290757, 0.1191322876225284, -0.20933672984956272, -0.10807970018264706, 0.021987948371046954, 0.15882065141776114, 0.017392480187318565, 0.2190055425155275], [-0.16175412144689336, -0.5631415490097514, -0.09371070001597137, -0.24549027652797858, -0.05507846933156368, -0.4765002012032937, 0.5899676577715208, 0.2539761295157533, 0.096787377534265, -0.6125442813636383, 0.13848970249852877, -0.2888650396421734, 0.48528375480010494, -0.2534761315131962, -0.3335438706550218, -0.03380485196142703, 1.3234973692371381, -0.05284678193816497, -0.15386551162840195, 0.030661632003031035, -0.13691284142371118, -0.37609063891895583, -0.2858702617199553, -0.3062906398075183, -0.0896214306444253, 0.10019830296354419, 0.5688484728789321, 0.1782100531640808, 0.007589709673672432, 0.7957175929025899, -0.8644388643456181, -0.02977471791193663, 0.07781770923587163, 0.02051391467326538, -0.5887624029128968, -0.14644467791557994, 0.14578508943344018, -0.12265723532562034, 0.5634006610334715, -0.9845450462125676, -0.041887979985747704, -0.5426905537138434, 0.13975304552149465, -0.2929735345374915, 0.6392062860303858, -0.6828289444273177, -0.26735447287819386, 0.012515307927571917, 0.07686774211904257, -0.2843112185041072, 0.6129961156127584, -0.7010204262577586, 0.9130609986895177, 0.5526297018748405, 0.26064497104297074, 0.07276736633783704, -0.603409274490709, 0.2676073341467968, -0.030328748971104793, -0.07786898018074392, -0.3926055704230377, 0.21208335108942725, -0.03623608826921354, -0.347354423897585, -0.08805442851343487, 0.06527925792960199, -0.04519692875817215, -0.21156456454389563, 0.5169846698590151, -0.4245702700055957, -0.16937572021633146, 0.7562020994412998, -0.1737527993136202, -0.22258126881948748, -0.17576073359733613, -0.09609687932180551, 0.22909785616413814, -0.7012342157989611, -0.37483889736102216, -0.5877997529537502, -0.5913513098805544, 0.42697170576059723, 0.13553522226368653, -0.21865855480036558, -0.4766681610533636, 0.31007335331865904, 0.05443733314822634, -0.1918447457838501, -0.49156378952841234, -0.23534656662991024, -0.5928421483842929, -0.7454358156685265, 0.03442662176974722, 0.11984556351528242, -0.4077838037451396, -0.29436103581560147, -0.0457937695279221, 0.5104811883691842, -0.12738425389473387, 0.36291890962036977], [-0.26970342687487714, -0.14934209562775644, -0.09858550793838818, 0.34667245685007597, 0.023017244378887112, -0.3299947112218674, -0.499455411100874, -0.9261512512771648, -0.4521307970290671, -0.08500972429755449, 0.004000487560916911, -0.3554404655846203, -0.08398138377265957, 0.5178275283817385, -0.4246798651341849, 0.5129912077826011, -0.3198009174827031, -0.48556615082963905, -0.5374834042097231, 0.2507360704059106, 0.7440025923416168, -0.5143243591725832, 0.4216851573290024, -0.30866349037651536, -0.17400240136840306, -0.48613736609255537, 0.16383372659923817, 0.1416147382020565, -0.30420227871910954, 0.3083626109915908, 0.3113837905774818, -0.09542113910531792, -0.1977770567623413, 0.1286445160705464, -0.523361573697268, 0.2473216202467832, 0.24655302418481834, -0.008232889359286184, -0.6723448496654613, -0.3481862180463432, -0.20042132770515114, 0.5393187471765712, 0.26182397079853326, -0.39537034592054987, -0.5929590933884089, 0.896994867015951, 0.1871012625877392, -0.01898244419379406, -0.7889948267834569, 0.9878084544076827, -0.10856361255283992, 0.43102931147473345, 0.5050898049037137, 0.17501821173773746, -0.08709526844429313, 0.18380387121418815, -0.1208449671619308, 0.1071025235809138, 0.17312755307653593, -0.5380245988580571, -0.376824887028704, -0.10461457608421382, -0.014556941997559518, -0.027935238937350202, -0.13556970134767957, -0.09562067940560581, -0.2729494428784723, -0.39971133378989376, -0.29150939205554843, -0.06533657713886365, -0.3995365528212134, 0.03625305318472365, -0.38830690600895806, 0.16118889594092972, -0.4561407776110418, -0.36506576876341906, 0.555003762895261, -0.41775710684278605, -0.17287126267881253, 0.16372402521805798, -0.9545717383255032, 0.12433985537354703, 0.17522847445359646, 0.29952464554320113, 0.22886990529359214, 0.4820611301012027, -0.25920743963523213, -0.24336056490627025, -0.30101247940404113, 0.3329904003944634, -0.13948518128346865, -0.05358819352261281, 0.06984273998787671, -0.4392525314252971, -0.6370660537687353, 0.5768527879310804, -0.2574596861873385, -0.245029745288654, 0.004816949302278632, 0.11454083020594624], [-0.08127890030767147, -0.25275346938447796, -0.1250607146081729, -0.15970617635567294, 0.03240584155332574, -0.11499182797926498, 0.08205948368606615, -0.10453206989653932, -0.14994587084241287, -1.0794109525771778, -0.038532160840275304, -0.12511170627695772, -0.5923367098354805, -0.9821932134278315, 0.8477110447434495, 0.37871516096898566, 0.9276592787700804, 0.009527268937043235, -0.47460806104093506, -0.7757183599189266, -0.278829532191592, -0.257843735911984, -0.47130177242405197, 0.03046618580538205, 0.13933983537197428, -0.23695870963470264, -0.016282012943412926, 0.4057681464245157, -0.21723956223766946, 0.3226967325660113, 0.13522312310491053, -0.041321497084706026, -0.24007102966676536, 0.23077515143708563, -0.05937419913728198, -0.12628071149529344, -0.1773758494155201, 0.14565197518348239, 0.08775766617594404, -0.41358442723435945, -0.473734648148634, 0.2412835094902232, 0.32365871983919686, -0.9477793601313719, -0.12405436501247621, 0.1607912010076486, 0.3386500181397456, -0.16201792547000127, 0.7819736536285086, -0.6723007295037037, 0.21241997805899754, 0.43796214165250136, 0.41411194902906007, -0.11566316203452062, 0.7045808395254386, 0.11021021630270214, 0.26165167047466914, -0.5196883736853645, -0.380202044474684, -0.22323185339923554, -0.1130681945713042, 0.20101166480909893, -0.11911866137543148, -0.27742756975287847, -0.238777553626722, 0.09047686029616105, -0.06784674552052805, -0.11941971422931325, -0.7130949004475227, -0.040375323094144065, -0.5141204909675218, -0.25539860960179267, -0.3323502150505304, -0.653209818564694, -0.5105675934720588, -0.06925689985933978, 0.11859450995474567, -0.7905567285442766, -0.2940972968877323, -0.10333799949231574, -0.030307567202365136, 0.12678408194757124, -0.0288102163158739, 0.568526142422609, 0.03466500326498828, 0.32074333555152684, -0.026987125196699255, 0.027875652941884068, 0.009081671780912352, 0.2716168133728465, 0.1487848597024021, -0.29378458141926456, 0.12161523273009477, -0.11985175897573795, -0.5312916660229927, 0.10999704352485344, 0.11976517550046853, 0.07892658630405205, -0.0026340375130967674, -0.21477060498363565], [-0.3199817981774788, -0.433595279050658, -0.3045962948323845, 0.028867433488010647, -0.42199307536701935, -0.26125351856078377, -0.3702846969091328, 0.16101356675894515, -0.018521883111848568, 0.06120489587262648, -0.22683452645574756, -0.06566224177040526, 0.30189321779638234, -0.043001292622835516, -0.2998623517898549, -0.14595735205198707, -0.5654196725643081, -0.07342414565671929, 0.29060510146662233, 0.022411697942481643, -0.04214979920281059, -0.10027210672486284, -0.17212165663312068, 0.20980914395581757, -0.09167575207924898, 0.23321289839256648, -0.4200071301656231, -0.18782871583384012, -0.731978296507133, 0.43342028084910267, -0.10538914509559512, 0.41843680030165803, -0.2583263984114119, -0.3238033214124169, 0.06583948803462994, 0.14421179877208834, 0.06746361577136009, 0.3825603918304266, -0.815334139231322, -0.06424782690512097, -0.5218427145946023, -0.9592690869473227, 0.20987261289441847, -0.24589615218243377, -0.02969922046475963, -0.2481165569474659, -0.0012542740268714659, -0.037939651162545336, 0.04485937515379131, 1.6006127762828641, 0.49961467787368974, -0.9570904958016582, -0.5140123893607631, -0.7055384699560284, 0.2967702383323298, 0.4548748838189803, 0.20919117623718883, 0.42211141448703826, 0.3263132055702011, -0.26162591207350167, 0.20958163946197164, -0.004014260847125436, -0.215790807648067, 0.06363508437935596, -0.811650763915257, -0.047686612478990795, -0.3079127648231911, -0.326979751660816, 0.11239270330320915, 0.10021621986586521, -0.2695960962332399, -0.4188001736012193, 0.43682552804847463, 0.027788072418997972, 0.031247421943213755, 0.4407517435079563, 0.6348231001163834, -1.3078361133736516, -0.8890999750179511, 0.41480457916557834, -0.6422144376353073, 0.3824640427935447, 0.3473104106369271, 0.1454809843082618, -0.16618849008322117, 0.5057947602905037, 0.12562059413177068, -0.43875383674475515, -0.10890757358517603, 0.2559022964565193, 0.09554645604959389, -0.3399727329884733, 0.1896083555147615, -0.1495309315335023, -0.6988134711681497, 0.8832775932431635, -0.053137279711935, 0.06070562415925217, -0.08085608596734609, -0.16177803279867717], [0.03272652305983111, 0.47210870928713566, -0.2628275110389944, 0.09089303929097284, -0.19481049681207158, -0.4536259753181482, -0.016604401143902454, -0.44060076483850225, 0.4849680349242277, -0.3394716388698932, -0.21969405262636846, 0.42928550124582965, -0.1654847934251535, 0.5663686508407736, 0.5649524830030448, -0.26827562809840255, -0.3915871550856572, -0.1983590385499099, 0.06683509656879001, 0.46671732073181194, -0.2472058848166016, 1.255996227162542, -0.03619376860298733, -0.18448306890030738, 0.11133737109216917, -0.19198700473156305, 0.5464174093801377, -0.6729921286043161, -0.7184333563411984, 0.2356125128862618, 0.17577921019481216, 0.12119477904106846, -0.15916584260697225, -0.021641007875035756, -0.698152559219585, 0.39549161440053526, -0.25123400738214235, 0.5195924010794828, -0.03489445376436106, 0.24795532761428776, -0.08438818413031196, -0.09669151609896096, 0.23350019549380285, -0.3368653737708809, -0.09322016386257341, -0.9001473438709406, 0.1837355461468397, 0.29851880507821665, -0.03673737664978646, -0.8807527056399458, 0.5360130349818564, 0.6960935735183804, -0.00812200899637175, -0.2716908141126028, 0.44338934581683426, -0.15248949636289308, -0.5580492097012693, -0.9518276971101719, -0.5327314540660884, 0.35873377151190206, 0.10338945072513687, 0.28262140312930273, -0.08345947811843415, -0.18372556898986647, -0.4152292200364794, 0.05750876631305033, -0.15335586195299714, -0.006200769252234496, -0.18904254022237815, 0.8598499131290628, 0.24090598098310603, 0.18258293567352302, -0.1118505154297218, 0.31824932628391955, -0.21280512408050162, 0.5054354480171114, 0.9195441503201907, -0.8527277448008508, -1.1464038419034537, -0.36461695067497285, 0.16088147819160167, 0.03918221936903473, 0.45045208515828866, 0.11552667801558729, -0.5641765983669856, 0.7052556157328959, 0.11128705530353689, -0.1312591050587776, 0.28527447858503235, 0.3440034855770303, -0.39994910561190733, 0.151013269702022, 0.1953556482240959, -0.5433983080047766, -0.6031830083375912, -0.26230864908244506, 0.11833688564751545, 0.15062422396199837, -0.01794328772766351, 0.2623835686182275], [-0.2817816379401253, -0.7344643910822671, -0.20434040118420388, 0.21309902016264484, -0.29255600838157136, -0.5239039405285622, 0.8330668532549014, -1.0674154577216082, 0.04251776480757986, 0.7556508336534632, -0.5226533573464208, 0.07064497031169564, -0.7181331933134003, -0.4201852169256552, -0.6446319700219179, -0.0002883027192302033, 0.733539734203473, 0.5011745983296131, -0.11921664474245582, -0.13422157633561635, 0.4253737896344493, -0.8471470013997547, 0.06386857238392704, -0.38776697963490897, 0.22254836959663787, -0.06177864071106172, 0.17865088432600318, -0.2846971572167516, -0.11353698607994155, -0.20822314028686828, -0.2020493709387668, -0.2716134340992488, -0.011403367242928437, -0.2592298540848383, 0.2581113837470065, -0.7123456093649649, -0.12285012291868759, -0.19606025808007763, -0.6309312180871902, 0.9130140484773911, -0.1890694847303202, -0.3828899945659854, 0.44043033792005193, 0.19736895243010433, -0.6230243027326368, -0.054391802774795966, -0.4052466887177324, 0.13321257981630322, -0.183977808803377, 0.5816210787051104, 0.5144842637667976, 0.8634392534975187, 0.12274890180305939, 0.17730918479202543, 0.6041096031343498, 0.6736561349956758, 0.24915153710000798, -0.2886460870691506, 0.6353575083636427, 0.6484405526144496, -0.4272094957961988, 0.5688100696128519, 0.15554552675126737, 0.15000809720934846, -0.8632169259443748, -0.24031058633462465, -0.276532131797939, 0.03091141904721538, 0.06000934750311607, -0.15812150099625444, -0.01880646108626615, -0.06254714891760269, 0.3883952564233332, -0.599942661441969, -0.11679947778871598, -0.36642850347031414, 0.5429781138591713, -1.0421467360291408, -0.35787480778408975, 0.11903628687097331, -0.32480162975567106, -0.28340850048767535, 0.4681189983109999, 0.46122578881281573, -0.8341781774486675, 0.6457049036776918, 0.0469743448307267, -0.42695167673172124, -0.5020921733769692, 0.3978500710796642, 0.2272363662358341, 0.28722623654736706, -0.07713958021668664, -0.375503343521111, -0.1868532760398835, 0.6545286130635394, -0.5479285539722286, 0.1095195069600769, -0.19813808264673252, 0.4691994625077557], [-0.7743191615213741, -0.8804759861543165, -0.11251674849795759, 0.02513690205054777, -0.04561760308148181, -0.21288065920854204, 0.2735779234555578, 0.27246439310919957, 0.18368880618379171, -0.0674765395047003, 0.12298186962638527, -0.0608492685674336, -0.006111558394273597, -0.5299736963152486, 0.18154015379005764, -0.10360867996149593, -1.1157918326353924, 0.11480495185840324, -0.3910390408204378, 0.4766608906588275, -0.044688916129475474, 1.728843803130934, 0.014385700880179712, 0.24396429803563088, 0.016433338235280048, 0.051161291507828006, -0.04414275923222534, -0.4450344204758632, -0.6505414256781552, -0.04103746694778685, 0.21214629338393842, -0.13079000834577992, -0.4810491723070994, 0.3874279999052755, -1.2799713330161935, 0.17240950274793473, 0.06307001204651945, 0.16675595813840613, -0.09552385797928786, -0.4059493843640517, -0.2818298722035421, -0.022868155095128392, 0.330705271626534, -0.3844070173990527, -0.41902975412910076, -0.13503227773682647, 0.6528017663910876, -0.07696959344332237, -0.4395014062224601, -0.6310821740576704, 0.7069395071188199, 0.24479968263905597, -0.03826309659377525, -0.1036390388633728, 0.4148325506655065, -0.5897081763953154, -0.5051375189164287, 0.29136770492977054, 0.23262388581274135, -0.14730727396085427, -0.01552986501529019, 0.3276728671897167, -0.33371090403512793, 0.9515578887963877, -1.1116974929150123, 0.3675947512990627, -0.2778305342101206, 0.0070814715388919595, -0.2700549599990604, -0.5686620411381281, -0.12608595756694166, 0.12058492046520598, -0.03693561504012532, 0.004694321589016656, -0.7272426395148327, 0.1428477809620265, 0.2768383353774366, -0.30210732409807045, -0.40180634530311515, -0.23850137506528077, 0.9740664464149915, 0.30145377740206564, 0.04778225042356832, 0.05569094325044638, -0.23819969480108266, 0.23055744722730923, 0.18031895537334774, 0.11489402146448338, -0.17302800262659312, 0.6368786605398051, -0.09409282831356276, -0.20613531817151048, -0.262110702021955, -0.05239823116059981, -0.33510324982983175, -0.2916107264343357, -0.16309218042890705, -0.5886044345321821, -0.27654472207742425, -0.20542810170735792], [-0.3737767410732476, 0.04871143387533597, -0.5887024401200137, 0.3745550345770405, -0.1587256520151569, -0.20873610083853747, 0.6842797451844318, 0.3831328942087966, 0.09157234237194271, 0.2363875665812163, -0.2255713365234716, -0.23136941035907502, -0.33399674701349796, 0.6812770522971253, 0.5825337277440122, -0.5770204636454558, 1.0351573455719698, 0.6954547371750763, -0.3262020242486604, 0.3639010996584916, 0.3687978599882776, -0.32403228285533786, -0.006651789387262783, -0.03369481178629731, 0.2346473596164251, -0.06883672002917483, 0.04711020760809315, -0.019344344207149224, -0.03460223901811322, -0.12296453449024142, 0.6161498025165832, -0.2976797501510819, 0.0072597982622514285, 0.10406647353048082, -0.9035014018631184, -0.7630392178518276, 0.20129565791235637, -0.06632458198980667, -0.3015759983208402, 0.4911348453622516, 0.5038918279204517, -0.31953307980242746, 0.38645899347131285, -0.08696290592303678, -0.008159375695314436, -0.1774227530505321, -0.12303588643975409, -0.40419826191678826, 0.9459446976490702, -0.07351037754532579, 0.40878316689204947, -1.0280031691112308, -0.058109772745955406, -0.866220291691188, 0.2238096077195126, 0.550105079911188, 0.45921999722428913, 0.39932970989324956, -0.1983031983920503, 0.079768212517299, -0.22332069746447475, 0.24630818717091635, 0.1555924404827364, -0.840373922417791, -0.5988750169609653, -0.0018281461495521277, -0.44227882593580975, -0.2637660041085888, -0.5606035478575607, -0.0059029192187609, 0.5496048572512989, -0.11170317941598551, 0.1644690342469875, -0.3779848081648607, -0.5449909129925056, -0.10017312661414897, 0.7532835160168133, -0.8339693839553315, -0.32775908398317466, 0.22476029604037337, -0.23205815653985498, 0.11560450621808682, -0.10336841693516065, -0.10791895557498862, -0.44777172074732996, 0.057713480884750853, -0.17881070373306623, -0.40031273304629506, 0.012630254068188783, 0.16852743878985066, -0.04950391886656086, 0.5109525477406137, -0.37725575264824585, 0.2768483104610727, -0.6110071286043054, 0.06510801396966218, -0.06422534340796468, 0.0312630106692917, -0.11325758312283016, 0.057157029561865996], [-0.3540292042914271, -0.9333848270770487, 0.40970318129110156, -0.04034690246575859, -0.3245636304459265, 0.13102154301974067, 0.4146031538436597, -0.4557055355911818, 0.24693455564152467, -0.6205957832313982, -0.11554110175508596, -0.6345595535484342, 0.12740222719198036, -0.1080266648806109, -0.13733028555970195, 0.10465632323911632, 0.1557705310214832, -0.018265677219117912, 0.4409786158551435, 0.883157955101765, 0.00457582050273266, -0.7874235935817099, 0.2393720018195943, -0.11344946790232784, 0.7013151684013793, -0.38694670340031984, 0.33652414633480426, -0.48711657192806207, 0.3477547944437826, -0.5642200420210614, -0.3370467194546901, -0.10674060453599096, -0.8700426538561717, 0.08127794454302958, -0.6673486154292854, 0.32471262367056974, -0.09287927508808962, -0.033088989150503345, 0.23200508201284406, 0.3392493933262404, 0.05837611652286897, -0.2848861477613774, 0.13011513699496513, -0.05242138833044084, 0.07204881732655583, 0.3842834675922231, 0.2802197081159789, -0.308019082389532, -2.0392288232402285, 0.5648463895641366, 0.5442909766066398, 1.3058042786370927, -0.11418936728201076, -0.17361737715912826, 1.0312900309581654, 0.04500753867819546, -0.18110353604362925, -0.6165098592887881, -0.19316005622031976, 0.0830078923233141, 0.07901442378291168, 0.4034561583154622, 0.34528810712738267, 0.599062360420942, -0.7412993440729848, -0.11869250438308308, -0.39258490526368883, -0.2981597382246993, 0.39593044943896405, -0.23239924782546667, -0.2837481056303622, -0.6486123092959636, 0.05315968830630849, -0.372134460965964, -0.7018860902767212, -0.03525905369837752, -0.024506350711313133, -0.17441005184382172, -0.03423106735041597, -0.42905225593051766, 0.5950382396500232, 0.12880397009688746, 0.5102949062868981, 0.18348719194900381, -0.14419433032889303, -0.3249000996541897, 0.12721069886646635, 0.4326380037403408, 0.13301799323186694, 0.31133711670287006, -0.3908157895065298, -0.0005364196872291864, -0.021424018533679482, 0.21133273694233123, -0.5272686907676802, 0.034091170211282926, -0.5589839066575724, 0.36569836736635036, -0.1216269237633312, -0.22516086934492946], [-0.10314096986452063, -0.409727266137105, 0.17653232463025342, 0.24250318814210475, -0.40581223073905515, -0.13098970572124066, -0.07618762237146144, -0.27150996526840493, -0.24657063429652076, -0.05294739370207829, 0.46277183017380674, -0.4027339081436838, -0.22252230043209348, -0.045625116918469995, 0.03772501208896977, -0.14963366331762537, -1.7389963037516432, 0.5352060685138516, -0.450864385462799, -0.9772942166538491, 0.735322200074083, 0.2877930250676907, 0.11721382638266077, -0.20599487004447695, 0.3476308387161835, -0.05665613000768208, 0.44319060630082285, -0.0872904612457063, 0.7621012009991777, -0.7420559233985299, 0.06827126313916893, -0.2790127250924414, -0.08124900388927057, 0.7248705559944035, -0.3897939957078261, -0.2352048005669952, -0.14878305309030793, 0.4391526487552994, 0.4779013042279796, 0.3627619754190025, 0.3182932988019333, -1.017153709315232, 0.20734278830352398, 0.22789211032086232, 0.5864196369556411, 0.02905471828921976, 0.10539735355153722, 0.31380683741978244, 1.0638583842430056, -0.1956594022476956, 0.46009576783701583, 0.8883128128068855, -0.29147963696393253, 1.0735861236532418, 0.20723962410430966, -0.6402176902982135, -0.30666589388876475, 0.0027509878661577604, 0.15211803894494344, 0.2835205577601574, -0.5811807599172126, 0.15413225349481127, 0.27892160686852335, -0.08482074224500401, -0.6057534481453885, -0.05700009794034195, -0.5660242299570403, -0.3397344237583947, -1.3840258473159504, -0.28665933360082985, 0.7822811209830697, -0.6858471445129453, -0.6284220154713318, -0.27553589326203964, -0.7828578323836981, -0.6998416514999213, 0.017622488118569715, -0.0786374649993134, 0.04746717700095771, 0.15987818586460964, -0.35505899781616457, -0.25643003259351654, 0.7999870022410631, 0.6261490671375649, -0.0902630096400064, 0.0220853674966245, -0.2723929633570684, -0.2679455647940996, 0.519401954001109, 0.42469161822848767, -0.27422327801258695, 0.443476831999114, -0.2661646947529509, -0.2634835248702363, -0.7277283452191814, -0.4408753831734263, -0.011629653362734695, -0.19362291754862065, -0.20939091146047156, -0.3248266048955207], [-0.32888975099582723, -0.7535812127669832, 0.2094597719973869, -0.2300495184079389, -0.4510372991732615, -0.3037558514284958, -0.25329673442533956, 0.16612452222769772, 0.1588900823627358, -0.4122509522626028, 0.12853144663302954, -0.42138455110972095, 0.30491313906369255, -0.2521495881773515, -0.5843258034698074, 0.019170298725688994, 0.874693051369502, -0.20571079228935163, 0.007231282699015379, 0.27099370188463767, -0.017361821236123596, -0.2494504975121419, -0.2578506291802773, -0.24309439015099146, 0.16467360366264547, -0.5425766867527555, 1.0947804564403123, -0.4951989092971513, 0.1337205207234689, -0.0645211397033481, -0.6707099555204576, 0.1922670228388751, -0.1251914486132466, 0.5439527297390776, -0.18504748968531082, 0.03480356182748754, -0.27501319830888643, 0.3154847155169494, 0.37401411240904864, 0.26461256127340926, 0.6337478607678524, 0.0729037454254957, 0.2808725058793059, 0.45848417749079073, -0.045017456240910504, -0.1702431063053412, 0.6066942722674843, 0.25417764459696024, -0.980458931049621, -0.3363062727305694, 0.3615811028756492, -1.9113524046990367, 0.050810130543551026, -0.10930262710189917, -0.22770647933201268, -0.4536103397901438, 0.10092069598040908, 0.15306810778943594, 0.044891878842954876, 0.4143873397608005, 0.18271753630227267, -0.09069913713495957, 0.39073065869568563, 0.27202180663475084, -0.9834501793629337, -0.0005827515177541425, -0.3855735728524373, -0.18875591446254433, 0.8895003097170767, -0.055689231690038275, 0.36957107630098457, -0.7204990960749514, -0.7963335700601193, 0.02402041247752124, -0.07104101104230691, -0.25075782870364177, 0.04023569950490467, -0.5460427086830402, -0.1778149594913992, -0.08814883513487345, -0.4270938915138593, -0.08452518375468741, 0.15245850251403803, 1.0433831593876188, -0.1995750472105451, 0.07422877716084637, -0.034433726815450386, 0.10061713085101053, 0.09633146167470445, 0.3916675489252912, 0.4046786600301657, 0.023221772629737274, -0.35254655694306414, 0.08715461984089284, -0.8417567434270409, -0.8701694196772843, -0.4903795651631317, -0.19569053323314078, -0.22904516060832383, -0.05795133400507912], [0.018552670489145516, -0.45877671784753055, 0.30300673490588903, -0.25286386265738686, -0.3927006058530879, -0.5124905172740988, 0.4175467494889467, -0.22869245548850586, -0.030019823335069137, -0.5162923841854113, -0.2902161825862307, -0.48400237672686963, -0.12864793484298936, -0.15835869083729132, 0.6289698991109318, 0.2469927175046794, 0.014614183495721255, 0.3003808087002673, -0.13008584897418826, 0.03706457165526392, -0.07741532126864789, -0.003786118502830374, 0.4515264824650204, 0.21468251207725805, 0.19802477790016318, -1.1778983930942162, 0.216236092150341, -0.293627107818004, -0.5219788533117027, -0.4211933009815671, 0.28162463359679485, -0.16802349017207524, -0.31598348017222916, 0.6500881055478088, 0.4445200951891081, -0.19058945996243412, -0.2789736159909635, -0.1219579155553097, 0.2731365085699379, 0.3678371741510634, -0.7327117306202602, -0.4605335119473333, 0.27966331502349207, 0.06448320813694011, 0.2659892082736405, 0.5502735576517095, -0.20336254039237373, -0.327360713373751, -0.9768310915047561, -1.0521987742342296, 0.3255750544081544, 0.9203608374817375, -0.4071395187618661, -0.02459807619902277, 0.1535021440501103, -0.4042421623385956, 0.5350730152713342, -0.060843480353383106, 0.22556653876123595, 0.24448376187879042, -0.33658963536374736, 0.3040395414135997, 0.27750785686399615, -1.1827294445650098, -0.1405515928777527, -0.029906635238300814, -0.3568017443417219, 0.16253634742408216, -0.6275448454190188, -0.7525453984300798, 0.13433369554557698, -0.2286975966632425, -0.8059015531225966, -0.05712055058421877, 0.12348861650315852, -0.12369516086596488, -0.00829041366994568, -0.2820930647212112, -0.5265308849459202, 0.3880698349633177, 0.4971818328273087, 0.04151234251143171, 0.2553734066916401, 0.5656196907736609, 0.34788649467268046, -0.8196322949859259, 0.031669467779773315, 0.10050310393688971, -0.11554074569503535, -0.377687839787659, 0.3848378854531241, -0.17151942361198927, -0.21907328619168442, 0.0218599203430087, -0.4051706269357907, -0.025903879959615704, -0.07691633824848332, -0.5602906253306114, -0.3121775467385919, -0.48840332727284497], [-0.4501730276784594, 0.04080314859449145, -0.7575648005246561, 0.006640459287163027, -0.261905653032888, -0.2826412366153062, 0.2851676444922932, 0.6515481202844418, 0.16836454792640135, 0.28149560331463885, -0.18300029525434036, -0.22938840953485415, -0.41074021542336164, -0.5735109498802256, 0.22672225298050908, -0.18435209500193542, -0.7312962294251169, 0.032515991801025594, -0.001297481749280765, -1.4756292876407149, 0.8143765886389067, 0.3988503893295743, 0.37806913996898606, -0.06959261089809941, 0.19519905937894996, -0.2623992380720289, -0.10966977529448668, -0.27233983896031905, -0.43120427093455155, 0.011118260862720032, 0.07468945758599144, -0.5042503098201071, -0.14478506340589983, 0.3291122484923506, -0.23380937560705212, -0.29438040337821086, -0.03490910756190637, -0.009899865966600847, -0.3553369119502617, 0.1825936282932389, -0.38331671520345845, 0.27109254595472754, 0.1052185328570931, 0.05296442283009879, -0.29216384529045125, -0.41575530898101926, -0.02014151421761111, -0.5348627545732122, 0.9197553799099311, 0.24753776261179833, 0.22266541685228022, 0.23342008247280038, -0.10939458860696316, 0.1662814345558628, -0.036962560217982846, 0.04020720199541853, -0.13296834184309608, -0.12820952019119775, 0.026372736372608074, 0.25965710699192396, -0.18761913656914042, 0.5541552135288189, 0.18287109415459826, -0.4889762119360321, -1.1509681384311667, 0.26815085018584023, -0.27062977338195243, -0.07216121291777956, 0.2514270139127474, 0.632473231655717, 0.2819250196115162, -0.25112223023911134, -0.47269370176781456, -0.4290576439860065, 0.18397887251348388, 0.10882832942831941, -0.26192956524608335, 0.14276933770845374, -0.21546761350718238, -0.3491083584061553, -0.7463316554873278, -0.19421680067039132, 0.15165551311500755, 0.39338532113229724, 0.25440923725031583, 0.5017640317565183, -0.386154439316472, 0.16035818574695193, 0.13397584197371532, 0.2012136181759047, 0.3910798120129883, -0.937360702574213, -0.3324805186014727, 0.18615565643746176, -0.5518129403356908, -0.18489717425216862, 0.4267168535822355, -0.5017115705234501, 0.014432414688091906, 0.02419157085025071], [-0.2108646596569677, -0.4431314115228422, -0.2009484057074092, -0.009767835536227247, -0.6793235413789638, 0.5590499373485434, -0.1748464416092734, 0.05475301089464616, 0.2318326717308815, -0.1580962984989784, 0.20096377583104158, -0.2833153374964445, 0.21729353015364744, 0.135474637982867, -0.005735599316943636, 0.42057660723443685, 1.289471117971661, 0.21325241229299047, -0.08380247150030151, -0.7410043139912382, 0.18339998854157707, -0.6970475408576982, 0.1502667309416996, 0.11084543973946485, 0.09762161238899791, 0.8306505101323242, -0.15538213198045284, -0.014151441133867387, -0.08294881464412818, -0.8070493683510104, 0.03298617244324725, -0.8596673771115936, -0.5275494914572231, 0.047262765473799775, -0.44247862932800275, 0.39641081912373427, -0.17508830548159005, 0.14167297561981748, 0.2976115611372301, -0.29975664660926643, -0.11913714907144003, 0.41629020357983604, 0.09304032715843018, -0.2842622566498338, 0.4578287965873514, 1.2301975037825401, -0.7003223369585216, -0.4275808334188544, -0.6550567255289065, 0.5054212196464805, 0.2554639421906102, -1.7858937460053845, 0.5326176476710324, -0.3671182429998763, 0.05475765753447635, 0.23347718269905562, 0.053988234227953076, 0.39180477578175404, 0.16675757138361932, 0.2852420152076661, -0.10735095233533838, 0.2871138896310424, -0.08278979181768477, -0.0504242424926641, -0.29245974626242804, 0.21224550436761422, -0.36877022145982397, -0.08521517188611998, -0.29612960488175627, 0.31900138970922215, 0.6392940342990843, -0.8145290422758968, -0.6970128661598369, 0.015618650824934143, -0.3156771735009735, -0.21950791465912237, -0.267651360086808, -0.2784372923051758, -0.2902168682040662, -0.9712940226207109, 0.1401298415761014, -0.6037075566567206, 0.14030609585607634, 0.48077329461456764, 0.10164835095578259, -0.15015548809232993, 0.4555239400881035, -0.05912892559132072, -0.3011834063721585, -0.06643757686361038, -0.1030872856495504, -0.12217935220065966, -0.08144288718803545, -0.07842969143326546, -0.8143107271458067, 0.1540926835156246, 0.035487665706136526, -0.488274552931763, -0.05171092634693451, 0.5195385813842265], [-0.3913284033807227, -0.45931915626554476, -0.11675898630598917, -0.003589701187733071, -0.3143891036847666, -0.2154263061551081, 0.3414665700013493, -0.21296650804365752, -0.1965130942396114, 0.00034974664948319466, 0.7539970830664166, -0.0683979544340422, 0.04236244838588987, -0.13936068080130892, 0.44041104966520045, 0.023357956530386467, 0.10510148144586816, 0.1674641224190289, -0.3924154529102812, 0.20232761706457983, 0.5477354217731, 0.6044715726038498, -0.24868543957056358, 0.19938096842159345, 0.1538318549051531, -0.3054873674950369, 0.000532802096194659, 0.13221857326757716, -0.24428286515905048, -0.07365111366493299, -0.29710567109462854, -0.3251355902858294, -0.29212553914063805, -0.21361477866916234, 0.40521534623437294, -0.26054318532615145, -0.05046136527442094, 0.10801742273917633, -0.39252092655162385, -0.06147079993599417, 0.5177461157158619, -0.5985511297763114, 0.05301854489221551, 0.06978332894847666, 0.4843389399055585, -0.5443182882868979, 0.550886466539453, 0.3015439305451551, -0.1825407861093409, -1.262341299097225, 0.19660835201548935, 0.22661147526698636, 0.4297619129034833, 0.04785624468417001, 0.6624537689568738, 0.20765060855464026, -0.2218275300762099, -0.6414749698064022, -0.4472786887595602, 0.6018317395051774, 0.20975601885337664, 0.6512108419080026, -0.03201023551815382, -0.3944924812141587, 0.3833779341574762, 0.33054822542326745, -0.11376778801567416, 0.007630386554200549, -0.4295653693735443, -0.5290861306128359, 0.22588068937094047, -0.18819814607903088, -0.2643173005473054, -0.010377109978584471, 0.08961070465318752, -0.10704657849030653, -0.17512130908159737, -0.36872510880230286, -0.5223735177938236, -0.2194740049534916, -0.8699652787329354, 0.2583327605548718, -0.3229096392446245, 0.10021849515258523, 0.11216872430135272, 0.7682091123347277, -0.10396657518166157, 0.21869212807300273, -0.3429231123525423, -0.42701354853828444, 0.5975370475252333, -0.2307394094468708, -0.14154721772885578, 0.015964537109363262, -0.8353840503216834, 0.009783819016662094, -0.6088560721646761, 0.1465104220543437, -0.04097906892872414, 0.18562529497680272], [-0.8217442466093202, -0.3552371318642683, -0.018986390296100157, 0.1925530051407231, -0.4967556001748124, 0.01813513441615371, 0.2046897789724606, 0.514873835305249, -0.1916043146441146, -0.26451595920335724, -0.03298437546168601, 0.17272385589234274, 0.047103113297279904, -0.24962201002643636, 0.1722406902770849, 0.322505885282894, -0.7661522495790605, 0.6055073001898126, 0.2406310368667591, 0.41174440771429727, -0.5831973640226306, -0.2579617776952558, 0.4140817374742107, -0.02253695121230088, 0.1311324118611106, 0.525284654304048, 0.4996469821891362, -0.17878248944561623, -0.36814465562142895, -1.4954829850248046, 1.448243750274124, -0.2123738929399037, -0.2010075001608934, -0.4270058117801427, 0.3998413535347268, 0.08972260501706401, 0.008497622944488241, 0.45774841702304453, -0.35691581013118145, 0.14227832566519324, -0.10209335003827923, -0.017077367331240156, 0.09345175506648874, 0.1404114971688379, -0.2885312808050536, 0.06983162458262018, -0.20136260084206295, -0.2555031383229949, -0.49207423565822817, -0.1609199125254536, -0.012091676747572808, 0.9471023518510981, 0.06194564177839758, 0.31191408838943135, 0.23997671710199076, 0.01422027990877941, -0.07388424021295632, -0.03483048458237122, -0.62061130927783, 0.34237360172131337, -0.1468541991279281, 0.17842218059105344, 0.00925501952899233, -0.4422476045753367, -0.5703692696463519, 0.23927266385460702, -0.1256209406994017, -0.23332967118117862, -0.3163025377911759, 0.06647244973776564, 0.8272645827222507, 0.4843035063146849, -0.6459502057209344, -0.15147209462077163, -0.03343255730829329, -0.7929047233177262, -0.2859204186752172, 0.10776627569125645, -0.38856194971468055, 0.7005597718854719, 0.4001346147722481, -1.062914691707708, 0.0424590101528109, 0.1905614693719475, -0.014954080342150122, -0.1193291500372064, -0.09528375546201294, 0.44121058203692726, 0.08330139092734382, -0.5889463727733771, -0.2937995316930452, -0.15313614174875287, -0.012588238385390466, -0.599903476600214, -0.7657165672593094, 0.32293460920581524, -0.289824881678821, -0.2385895450973019, -0.02311714368140661, -0.26405458963337286], [-0.12482233608954295, -0.03268253099038844, 0.13334574264563087, 0.2800930734324318, 0.07503027517568352, -0.40465915603191566, 0.011717176329079357, 0.5326631654250038, -0.05455776321171933, 0.30019405392698356, -0.32820882168359, 0.07372951000563356, 0.7854788546448788, -0.15687520344282324, -0.05712194730042134, -0.24657274940412174, 0.40691543440037586, 0.4613900115060755, -0.22612937305771047, 0.22758197128041305, -0.7077586157434996, 0.07207180256036617, 0.29932443430931416, 0.11204270875876471, 0.31008146478408793, 0.17711125188539725, -0.050619072462984874, -0.05981325816091609, -0.08565422526785617, 0.05810977018830381, -0.3795388786053024, -0.6398036267489375, -0.23050529858956897, -0.43094506945478295, -0.3072954681597634, 0.12061279946020083, 0.16574026979169637, 0.16179333597581377, 0.03260526021683433, -0.6529946770058368, -0.7415846376220157, 0.10468658419828747, -0.0027758316842072164, -0.21182938069253845, -0.20672549362456727, -0.08304463354743123, -0.13885762943737465, 0.058108441780806375, 0.5118673480691376, 0.49302792367921305, 0.5382166560763347, -2.0138170915215174, 0.3813854422686607, -0.640960297415999, 0.682074533282168, 0.1214889381259084, 0.27021769980642696, 0.20461771349382488, 0.32292248765972276, 0.5962659133625713, -0.28294708771652854, 0.16997686453587413, 0.19507978607865692, -0.040357995062212305, -0.420920236831965, 0.16199426175280343, -0.24535019841294117, -0.43894244457787684, 0.18694313557060974, -0.5299313110334949, 0.44459783291097116, 0.2923929167784389, -0.5562634852472409, 0.29826068124634064, -0.27013137167669743, -0.4772666153519126, 0.1223576960190206, -0.4988357662537794, -0.14750717973380822, -0.5899425424098714, 0.13372822691729008, -0.0371916958020436, -0.28061015859088145, -0.07375593895115523, -0.07784524510681944, 0.4214834920395188, -0.2566340476309692, 0.05450765698286875, -0.3302676943357537, 0.42124877554639834, 0.1711638420391683, -0.5176212647887243, -0.14008336657743614, -0.31511004910826984, -0.4725582382786067, -0.7022137209908982, -0.33518036322915334, -0.19144886584147108, -0.009289720023570943, 0.0353197896163555], [0.379710644144108, 0.2786800766082284, 0.20622671505441667, 0.4924759316683143, -0.33105159726849975, -0.3272024670490728, -0.5635558895786446, 0.5086690945284628, -0.1543128279966562, -0.31466999815968705, -0.3981197271138085, -0.08198978784475726, 0.3339438721412265, 0.0926167167727715, 0.35266718710877126, -0.7677589772660454, 0.38413719996222584, 0.5976765417192723, 0.21499528409111285, 0.16646142579879955, 0.7500452295322957, 0.9504345565368884, -0.17094519209434314, -0.0419293773486181, 0.5526470735370924, 0.38304776955228115, 0.19624287880414962, -0.5917321647037097, -0.04737311664863754, -0.2192254566656445, -0.34550470949086115, -0.5506890651535379, -0.10475468344054362, -0.1658690604019296, 0.3031655994671226, 0.5528298697432659, -0.15634311769873951, -0.0405173921116497, -0.2554700670375574, 0.015547939353902265, -0.8988381106406638, -0.3766592728834886, 0.0011836651254927262, 0.1829142996140125, 0.022389142277438056, 0.2719660008708067, 0.7507553970290425, -0.2327348027104057, 0.5904600462721424, 0.027556199045526825, 0.4349482238989108, -0.600448764414278, 0.6932851529113269, 0.2777775877353007, 0.17424884776710617, 0.16707789117768412, -0.15185525702821942, -0.23347883910302858, 0.1999899664558418, -0.031018295571979045, -0.05062216935754273, 0.18600417870783714, 0.2974877626773338, -0.3323023422972329, -0.5121450141842285, 0.17335637518716057, -0.4029510080823884, -0.24552474682479722, -1.0895635508914419, -0.13114213286794557, 0.6693009916704179, -0.21941704960073588, -0.2130072158515398, 0.34106241558183703, -0.13405704074814503, -0.4328188022877194, -0.07915960908720332, -0.045782473697863015, -0.03187817011305563, 0.4809494653018221, -1.0049563611472736, -0.7117075860996362, -0.07929561338093424, -0.23972021725448758, 0.2581335021257106, -0.2316392531128801, 0.7041928862805693, 0.22214013866609114, -0.07835926915536577, -0.01211663243505729, -0.30181073994675384, -0.05654941529138771, -0.4546178546394691, 0.7174685241715036, -0.6960411239392461, -0.06129613325994556, -0.36963530391200194, 0.15890941075439824, -0.0007798942169141045, 0.3621112521088652], [0.33721191351370583, -0.058943946369131056, -0.03752546406474253, -0.2906308809195437, 0.5881304083982244, -0.20206640874601126, 0.422791329923552, -0.4773804331613622, -0.18465520400089422, -0.2946242918964943, 0.6293033120036993, -0.36685024271842426, 0.29230423021919627, 0.20228336212401915, -0.4733274633713734, 0.2567527868534961, 0.7684782696126422, 0.19128940705713254, -1.1915635476868107, -0.4377767761094877, -0.24817398026055648, 0.4903280854044812, -0.24529895019972492, 0.4655125857756361, 0.6115024005263469, 0.07632231804019557, 0.012843224751666335, -0.18012954278231072, -0.6610295571870586, -0.25629441899980476, 0.2131033582014193, -0.057851594098035704, -0.361549842542904, -0.08868787145603546, -0.3373555108107018, -0.06042224970790964, -0.0017296322675874388, 0.179051626317416, -0.5380445277189386, 0.4438256021267191, 0.08126957032908652, 0.10610052633189776, 0.0765174478685397, -0.05693496810764891, 0.29863808949622767, -0.0422065685449392, 0.3397465162936814, 0.12814454636260472, -0.6283938312122312, -1.0820365137519257, 0.05403981247646271, 0.6983209688780991, 0.5245232457634275, 0.5523113063177764, 0.3707454399981506, -0.010825313888156978, 0.2150598827594516, -0.34421466257258976, 0.11871297143507221, 0.15874177691690144, 0.38561138835894265, 0.5010816995371491, 0.2647208712292994, -0.030478227290478405, -0.1550196560036292, 0.26353663082222967, -0.3416503988792239, 0.19848182677339693, -0.3509714277489311, -0.5488640218480425, 0.15829885198615548, 0.014816285476112193, -0.2270561972251071, -0.31067625518315134, -0.09982751793078275, -0.7191282257937293, 0.07670897824025, -0.04576740285096532, -0.3712674897660065, -0.8456016830107438, 1.3597399724709556, -0.4567831168008239, 0.1789268976369811, -0.060623488525872404, 0.23718041308964044, 0.009143295774419658, -0.29703052725963636, -0.34541104529791194, -0.10888093914163621, 0.5457361328754166, -0.1608410098978832, 0.2659942886255568, -0.4262450152882232, 0.1979469466029842, -0.7465899221811241, -0.40457153263844914, -0.4901063068423997, 0.07980527447899281, -0.10015042491314272, -0.4576365821961817], [-0.03720342206733443, -0.132080752497875, 0.1757269087620679, 0.3102161865680327, 0.2725565724530519, -0.14620490349273055, -0.13417585119964875, 0.5158393871881302, -0.47971064025277566, -0.16832752683593627, -0.371997153890357, -0.39164343459441747, 0.7521487608121729, -0.2508095081395886, 0.02772306339715779, 0.173094618795656, -1.717052929482714, 0.26696838864704076, 0.09663496977961603, -0.4370456343859281, 0.4607138812463981, -0.40129501411337143, 0.03418268007463175, 0.5409022553546319, 0.4295216462941229, 0.2932012051614393, -0.07461872357678466, -0.08329721616598981, 0.021205304872009882, 0.4161026075670567, 0.07753891672947195, -0.5392335473692601, 0.2952408550507666, -0.7654574576559038, -0.14940305137738982, -0.1794867242568566, 0.036833841990622285, 0.2546409343866956, 0.39829161967420446, 0.5438719530629393, 0.4285799293210865, -0.654808721026695, -0.021452306553621837, 0.29483561920221696, 0.21005242801605883, -0.13049194323109192, 0.35024352718161483, -0.5995433490956147, -0.19475343365365758, -0.09728938405049035, 0.3015421160718265, 0.0741094739412043, 0.2855042524675181, 0.5155637333741085, 0.6517018259763262, -0.36977294058992694, 0.24184592710598563, 0.4398550167704771, -0.291495468230448, 0.6020604944843745, -0.232689013426683, 0.32089966151318083, 0.23327806381056926, -0.12144529429330801, -0.13228330758802703, -0.08523552979008185, -0.1867101827628077, -0.2937788306053047, 0.28572041505895124, -0.44630612979497436, 0.6705889478443767, 0.09529722439417294, -0.1262057604130225, 0.15797747904951345, -0.05184246625057922, 0.2564290437177743, -0.06850231270498808, -0.09215329803673158, -0.12791125654567229, 0.5985168955518003, -1.3549889925734715, -0.5115497867999719, -0.5795880098800285, 0.31928186387080626, 0.6791056504652208, -0.038256574605562685, -0.03821658491576158, 0.41425433567493825, -0.01912484934685175, -0.4023834376640615, -0.7727001619902321, -0.30856599630765363, -0.5992303469834538, -0.18267563335048667, -0.43533307039885555, -0.5472612018912868, -0.47963859781727386, 0.0659547766357156, -0.1577639041237321, -0.0627864234211605], [0.6313005347175972, -0.37744806226175726, 0.39135268425093767, -0.27895428109782333, 0.15337751141696462, -0.39268718491132193, -0.06747157004259471, 0.5050571483549228, -0.16672618999844033, 0.05391198636785331, 0.3293738971609683, -0.4880081218766332, 0.15810698830241424, -0.5636441792888678, -0.5260278138301857, -0.8752184157916565, 0.7539068674068311, 0.6810325093354687, 0.16362053397131596, -0.18437457428382392, -0.26326918549008294, 0.2607814624295786, -0.713068159263801, 0.23201031021809507, 0.44782667908181956, 0.05078749915665281, 0.37312203160636365, -0.16953252851304662, 0.15982281679539048, -0.8383895964911795, 0.31752446244937, -0.2003335223714141, -0.14088827877501328, -0.7537022185234832, 0.10460307284246004, 0.6654399604176942, -0.1416943466428238, -0.1711742376212172, 0.3724519147756124, -0.49003611775688616, 0.1332738614802667, 0.40176746135004754, 0.1342878597370953, 0.5365793583514253, -0.4463481101387929, -0.5552644945098527, 0.29308358857216343, -0.505056731672294, -0.32277099694807204, 0.13246286224160334, 0.21553446535045703, -1.449371943414504, 0.3048507895333087, -0.1278730070751839, 0.3699334404328272, -0.4367242612388962, -0.2870330518560884, -0.08274029664065521, -0.15387662146997808, 0.7442930685411736, -0.21231525531452916, -0.07900658962108768, 0.01903787376405147, 0.15257269681885774, -0.23481178939052394, 0.4096379502770544, -0.129406245116409, -0.15040201794974928, -0.2809735888575755, -0.12768069565264545, -0.8341382367596153, 0.48714467648644955, 0.008587020651860266, -0.2332760966013294, -0.17957860793005465, 0.5165628973676134, -0.34953648995630904, -0.23329937083060176, 0.046953703479875396, -0.6224443817952033, 0.8432109817253417, -0.5357043177188111, -0.6108397194355437, -0.20223029001261048, -0.0028713273980987544, 0.3995799540844806, -0.7052093113394018, 0.0704997240680014, 0.006143429253622803, -0.281242191419656, 0.2741204227397143, 0.29655202090130506, -0.5853365223481316, -0.20700887661603629, 0.03780566413143006, 0.17738832849034156, -0.1384628960320146, -0.30065021563604305, -0.0424520608989946, 0.21626536311964661], [0.3165700805281112, -0.32509508248506497, 0.4168015355482782, 0.5489210194584426, 0.1830873838422689, -0.4477038146811178, 0.11356552307062172, -0.21027176499172157, 0.5101134849533256, -0.2043616175981012, 0.10234536524128778, -0.47875559212076974, 0.21397852220959515, -0.15398821087966316, 0.344763576292759, 0.20171928424637608, 0.7018242749400607, 0.07333602672900262, -0.13785006673746983, 0.028635213897982927, -0.45476432704530145, -0.15253452517767838, 0.2547438094873126, 0.3840252896463413, 0.23209057399879504, 0.004907202758939549, 0.41429769773958286, -0.026527594096709503, -0.0607560545291814, -0.15485804750725748, 0.2415996174813346, 0.14048688537093026, 0.04422362094187246, -0.43698491694967323, 0.14980513365998865, -0.1990645005035765, -0.09669855615110584, 0.2646445855656625, -0.49647606873897177, -0.6395427341786944, -0.24902473995559973, 0.3107789032935748, -0.06735345195183463, 0.566568992208687, -0.2861741339014988, -0.07364820236640973, -0.28193565948332117, 0.43047426196079036, -0.7973969216848226, 0.14533259035892865, 0.3147841582916326, -0.7316647558163963, 0.023118309608357517, 0.11852131195386643, -0.2937540767014022, 0.28375683286408515, -0.4183695973283382, -0.23341134537582034, 0.017697409389565932, 0.058370110097832106, -0.35891090339740656, 0.07225241864614773, 0.06306477976616373, -0.00320970571987895, -0.25947943349594904, 0.3898253873207809, -0.2072693661806743, -0.144346273046027, -0.603364147035146, -0.42449473334190974, 0.564355475587723, 0.5138916524860235, -0.06739882711862084, -0.2696497370703487, 0.16077616594581548, -0.09831976428211558, -0.4317704097389095, -0.2646959058223696, -0.2856374564084602, 0.4208303175610212, -0.7936641220754713, 0.44228935052687973, -0.13463640400438434, -0.14376814426114845, 0.23093527584266405, 0.1302005530327605, -0.05107115745350921, 0.19330277708226665, 0.08639487105650567, -0.0651180796437664, -0.31928126000752327, -0.22136585831118397, -0.4078760828213711, 0.21361634071670701, -0.32058871423689184, 0.23336048581545848, -0.3887403238663367, 0.4445779965098299, -0.04412260534793029, -0.3416480754801358], [-0.1584574123648026, 0.02774876935785939, -0.4251417384481642, -0.6671403329451162, 0.4327403989360993, -0.6011783861102286, 0.4085395479337816, 0.07361271828690177, 0.0247724402559307, -0.5358523415016301, 0.806808298099699, -0.7083676693495393, 0.1686575599515356, 0.14711532365275576, -0.11488361465154692, 0.18109078845301743, -0.9945854097642752, 0.19714840848292586, -0.418796485733809, -0.32560482758570625, -0.4186347348292285, 0.495791228051013, -0.2779306635373013, 0.30994036863778435, 0.635752584906049, 0.37985043871628693, 0.8126252950930283, 0.7635445444414521, -0.073429832865767, -0.7506482727246173, -0.8159214202011215, -0.5070161457987279, -0.06972338726306847, -0.15696259604659085, 0.43445604365099344, 0.31319951974565075, -0.0245005031328236, -0.26369692900642777, 0.23351497775012067, -0.17549952456352821, 0.11697777980581686, -0.39732601486409963, -0.04088951424419383, 0.5626009341357622, -0.27839892954479045, 0.14134104004334752, 0.027946285732605738, -0.23263848996847264, 0.47709766229945694, -0.5327715784782057, 0.30772798760311615, 1.131563877531209, 0.35589994197839553, 0.016330595627673514, 0.5452816338445097, 0.376502233000299, -0.36640479094595785, -0.42216197083839974, 0.15414390194007904, 0.004405057247230829, -0.13682810238681375, 0.6724602983861497, -0.0977888546233697, 0.245887703233661, -0.24891840671068993, 0.30875500102624676, -0.055451511046828265, -0.4011173108621534, -0.2237173062641002, -0.44258745538700833, -0.3341480605894077, -0.5590300596311795, -0.007859841901261065, -0.31561651491709153, -0.12733028896292148, -0.40652441416285556, -0.14567820571733153, -0.4002119557803848, -0.45509683620705854, -0.26328201279380403, -0.1744915824291116, -0.4120660091836834, 0.24654890903483956, -0.0751382884776632, 0.1697612795854023, 0.13270377270116793, 0.34616083176312024, 0.47781224607896877, -0.19316644653581413, 0.3806203476946543, -0.05035177093809278, -0.4565832881809796, -0.5361148163618942, -0.12593226479053796, 0.2632787990121954, -0.004515412960088103, -0.5452501558938376, 0.7219929358361462, 0.06455542980426218, 0.008898394154574536], [0.26764746577928106, 0.2824380783235609, -0.11095128420539417, 0.4331892907372912, 0.30351329167700136, -0.4468828769225773, -0.12757544887298738, -0.08028373018954625, 0.045134790303561156, -0.5478952133582242, 0.17611947462923835, -0.6394400868344262, 0.17451783349933672, -0.3284079620654361, -0.13391950782644782, 0.01706922921619218, -0.4874894986319732, 0.31537609818379897, -0.35259598413147086, 0.37053968546280325, 0.6198454011418075, -0.3817021117081412, -0.08379656617993789, 0.06015274152649344, 0.11018647739706619, -0.05538129491795709, 0.23043011395932766, -0.05592267724389175, 0.06063468546123119, -0.34619336301304693, 0.3858888920026964, -0.5602981852364473, -0.23179647254270738, -0.3547398599841818, 0.21659145767482832, -0.12362263539696375, 0.06581508060146331, -0.3230103044723632, -0.26213963911330074, 0.2671679062621317, -0.14239341982892673, -0.46547435460313985, 0.016856843404579543, 1.1245730985409674, -0.5310077205145565, -0.2563404059441356, 0.12744834154743562, 0.06979900369181088, -0.2507818366858749, 1.3428840241921582, 0.6689026029797897, -1.0021954896426377, 0.14205632449157035, -0.710536670040995, 0.23790740736890278, 0.08718116302678157, 0.9653352593683378, -0.36629759596610295, -0.27958999046813643, -0.49801536399190577, 0.15386268395294697, 0.1782442812481115, 0.030798159734086863, 0.3334342640680208, -0.8767337948946744, 0.15980537710882145, -0.16582996615351073, -0.22435847810985932, -0.15815006459293224, -0.41119756605563423, 0.7018579105870327, -0.29272204942360847, -0.12719396480456527, -0.885584711679359, -0.8208941794620043, -0.04745772123946536, -0.42389243488385997, -0.31757202399541523, -0.09252202416048771, -0.3781956154528607, -0.2864936578343984, 0.5855123062434612, 0.12671789509297512, -0.04631994413439294, -0.4852612920464472, 0.49986990470735454, -0.3062236938567592, -0.06914894582223845, -0.6105476027191927, 0.09262304975162364, -0.15525068759771107, -0.5666475478767188, -0.2410708578389162, -0.06602427184871344, 0.6645867806352843, 0.2853516305684762, -0.10876523172957751, -0.317567029040771, -0.009727445046311027, -0.3264015061513047], [-0.11292654729084128, 0.08945740508922723, -1.0140395121837587, -0.1475621479580552, 0.42016936305834074, -0.48410692559054774, -0.32013583261739065, -0.3733418555421396, -0.2029553931804455, -0.39324668212034436, 0.6356941132090591, -0.9327907333510459, 0.29232333735489957, 0.28347618349580717, -0.2064763207618534, 0.09296837747491565, 0.6065680671634839, -0.10117355524477184, 0.11475038182977945, -0.14181366995831682, 0.31673345270807496, -0.26351291799221865, -0.14200849210531835, 0.23442562810460962, 0.4618052825708001, 0.022270242508748594, 0.0812177790720956, 0.11127407159447772, 0.17230093313245912, 0.30900878056338504, -0.2339377602811442, -0.3652110990321358, -0.38105983811445954, -0.6998738231071582, -0.18089932491462293, 0.4478739590251525, 0.1293122333172053, -0.21486180593238438, -0.7562194511068925, 0.07601443011257997, -0.2699404154894048, 0.3711366408315961, 0.0795695446874708, 0.6668592454624751, -0.3008163741426109, -0.39967558965645644, 0.24402645254444924, -0.21023177144129862, -0.30974041362865795, -0.1292985588494203, 0.407129147475373, -0.5997888202725525, 0.0381691194244685, -0.36934863018718755, 0.32628230968904803, -0.14777539279766946, -0.6314678557913644, 0.04052680984869488, 0.8046084185332026, -0.08100925032299396, -0.015845082614530607, 0.13201499499785696, 0.4786605372721775, -0.22971850543555927, -0.6209180623218538, 0.15842213176491354, -0.24168202611534292, -0.1536555599898829, -0.2509558780870297, 0.00043576400066001636, -0.42456435316004515, 0.037601531791488924, 0.052571176161729335, -0.23223653390403762, -1.026925567473713, 0.523334583074135, -0.6003551723144267, -0.48854129267874125, -0.17936709132629197, -0.40904711284880063, -0.46460352165814217, -0.14626539841595992, -0.1724427768539843, 0.5328515920371527, -0.008940548672484921, 0.11951159846745266, 1.0380435569027249, 0.09250837365959139, -0.1822018365979274, -0.6007301702414375, 0.41819544974586287, -0.18760969599509678, -0.05679664433262285, -0.28687693239267076, 0.11186067161598141, -0.23692390636188115, -0.14909370569050623, -0.19241969403973938, -0.09265299096210469, 0.18967504361575502], [-0.25943004798047414, -0.16339564245320923, -0.12304055249837474, 0.04334291698891111, 0.20482881222073818, -0.33440645091187776, -0.11441085225389373, -0.17831191485119113, 0.001784922217515349, 0.29833286936906844, 0.0836360305145455, -0.571306242253896, 0.6075809799952413, -0.3795057940003198, -0.8558790710990143, 0.04855123739816875, -0.2018909352320548, -0.20336060956071528, -0.05098486117577602, -0.12372079238756639, -0.13781684379428688, -0.29152196093767346, 0.01889635071219946, 0.26491599936315247, 0.4450648033451361, 0.22887768184602814, 0.05514743325791067, 0.692780608604971, -0.024667351515094766, -0.16357452631839486, 1.102498169423398, -0.2118043209173233, -0.38183655365865427, -0.5607340702144354, 0.19303621324896164, 0.260587361210639, -0.11248165393857175, 0.09563768859794165, -0.7460143320768978, 0.19947696551683972, -0.5525032243727164, -0.039935796754331086, 0.00848398072022525, 0.6460717995358377, -0.1418318068555925, -0.17172488789242935, 0.22628224212459025, -0.4878774585407015, 0.523021623033711, -0.8407365782244905, 0.3807484811168021, 0.695417115277825, 0.11208102576333721, -1.3343411318049292, 0.14837296130704042, -0.09839211515389737, 0.4504105855144844, -0.35396572178563046, -0.705092536591804, 0.08622450556784941, -0.4814277388043606, 0.3648937496190165, -0.14676720541503685, -0.15284605224817271, -0.6113190326928833, 0.20303359173612257, -0.5192892216180426, -0.17016001070893516, -0.9284010272928214, -0.07687272536260785, 0.757502721242703, 0.35887305631840005, -0.004233474219416546, 0.21029668540418103, -0.6824763397728063, 0.3283511523128834, -0.7163132688358831, -0.007039244068837122, -0.5779909096802407, -0.09519226734265568, -0.06539425728811692, 0.5098196424315076, 0.57557254395937, 0.6678220552088271, 0.2969315540663874, 0.6857061796914001, 0.3391746761988804, 0.641735827261832, -0.19872140188778725, -0.25447727193734404, 0.2902989923620499, -0.2874824587371664, -0.09510670622938655, -0.28113130755733806, 0.24970148634907643, -0.3466156506813987, -0.3619442766402027, 0.7244583243490567, -0.1319045159809327, -0.0591198143235964], [-0.21170654797903068, -0.6311544820979488, 0.019042078922823332, -0.5285070057535569, -0.08970632650381076, -0.48875684693012056, 0.1415529406333175, -0.39674605932121754, -0.5448936031807654, 0.09555038660742217, 0.2676266022755339, -0.5613846047193415, 0.30935309078533985, 0.11546268677141001, 0.42843471640265296, 0.6992045049695027, -0.7268566995641056, 0.25302806203898665, -0.34202795935097463, 0.3081322004091242, -0.6020433098165159, 0.13419725422620157, 0.21099743824193032, 0.6953458590482517, 0.385643962513123, 0.5129701027747746, 0.48650157642102176, 0.22466876304354225, -0.3058327010243472, 0.07375595419353681, -0.21309500615086224, -0.27102055191342966, -0.21547938468393998, -0.6171016169904401, -0.2462553017702718, 0.3292661147486507, -0.1623308086507106, 0.001888887039796311, 0.3882018641874779, -0.1574322656756293, 0.46407380363956013, -0.6570896956750262, -0.025044636465878043, 0.4518410673065168, 0.0789603574905715, -0.1323204092319982, 0.7990758284307224, -0.38397329651103496, -0.5067085663692164, 0.011977680367871887, 0.2299512397077012, 0.45927919267507483, 0.6502703141257162, 0.7013245010133863, 0.4435314184599373, -0.11055990418318268, 0.08065600378679257, -0.1951204779620212, -0.26743117661311927, -0.07315600154903475, -0.5703351106720072, 0.925725061732291, -0.004876263218837137, -0.428249767754325, -0.3104852439722837, -0.06823830534301618, -0.3360518412113591, 0.023967006412804373, -0.19987818052543693, -0.3662365639341185, -0.12971327600747262, 0.31081806691172825, -0.0002824508664148877, -0.27425250933849965, -0.47961883887939327, -0.5478507048399529, 0.17687594919791064, -0.45388814120805215, -0.48552656150859314, -0.26966453397323875, 0.07855708028349717, 0.03992541817007792, 0.5276170803906686, 0.09270239041114113, -0.012343960657826971, -0.4343407328754198, -0.14928458926972518, 0.15601872528767885, -0.13950853963797571, 0.6225404333383667, -0.20748311820042845, -0.6226914135988271, -0.09145997960816764, 0.06307731992513521, 0.3374988049463322, -0.7710457034915683, -0.24496317838831344, -0.07852176037202029, 0.08705435755849579, -0.17577698892423774], [0.26370890509568234, -0.7517168781196186, 0.4486994555651156, 0.006633856619718225, 0.23441813279205234, -0.5547274831570482, -0.5722262361961217, -0.30633395293430277, -0.10271353168563803, -0.9155739080968576, -0.5039525414606822, -0.4640403732525477, 0.7003647610182792, -0.08308650618502808, -0.23534299038872458, 0.3689645131224181, -0.6718700996802573, 0.18388155716566307, 0.20479904997365686, -0.42196195777058093, 0.21068362133311025, -0.09187240849364525, 0.45439732712590003, 0.5397412245818227, -0.041788242947114564, -0.07753784687274055, 0.3483528094668984, 0.6186215440941548, -0.6917245537411187, 0.09759176550622148, 0.5372636181907601, -0.47445519745329917, -0.12982728906140537, -0.6370937600596951, 0.20266332989124253, 0.42416240192591986, -0.15076370770452663, 0.11533619580546277, -0.2473014476074623, -0.21356230020260517, -0.09751264412376176, 0.25214889311595784, -0.021647088747187918, 0.4702691001445056, -0.18714087935009904, 0.1674644061236297, 0.549164363709995, -0.11337237102642106, -0.09650466717126838, 0.20982472913021627, -0.2310627099007571, -0.12461007311999318, 0.32481493954513874, 0.5243841111944249, -0.2281487127204867, 0.4714265801940791, 0.35188931942060714, -0.16133193315436523, -0.5367021941912983, -0.2869981330076163, 0.22503831100393193, 0.7170072539469596, 0.230036625880335, -0.2957246556185396, -0.3033155852971929, -0.1530198946483353, -0.30584806496080486, -0.11044818276706142, -0.47271725044484136, -0.0027917327223870836, 0.5460292250820725, 0.021359439116034752, -0.002315377775394001, 0.4584592604033348, -1.0852176979269343, 0.08216380604732657, -0.06447607950354896, -0.5387412692300158, -0.8452708651335502, -0.12777725193268416, -0.4544172691295902, 0.4834730670153225, 0.4303126716390741, 0.2892610277225863, 0.017640952514661135, 0.415010110646039, 0.1580784754305072, -0.48727817262139184, -0.11758981887350853, 0.8179977096758201, 0.056505541914707885, -0.3949445097261896, -0.13835494706147472, -0.30759111370279535, 0.17995390663382765, -0.676170925823633, -0.3386647236029438, 0.05441650253236178, 0.058858864459682636, 0.35321752614205415], [-0.31524046891470153, -0.11713812399272892, 0.15784654523072003, -0.4600237812784749, 0.44144376110071093, -0.9857723606043578, -0.3532406533951708, -0.08565859361087413, -0.10190841498878936, -0.2623443814235093, 0.4295577872382779, -0.4832823468983422, 0.41164705816543873, -0.2147803845744826, 0.37184209550255154, 0.014141247884838799, 0.466577011647274, -0.029269092205196322, 0.05355237100134023, -0.12336949457920694, 0.5417691571312797, -0.35613307490628665, 0.15912960191017014, 0.19541969439523957, -0.07363840041664542, 0.38498358342080136, 0.3771297767924446, 0.4102772065360151, -0.04774955813037011, 0.4142134412138155, 0.36063685588181016, 0.0038750094028774515, -0.5009870959785765, -0.7005381975837314, 0.09586528047710603, -0.08093745404799998, -0.0829795360758441, 0.36849349470221215, 0.05740295692234112, -0.7107130766479208, -0.0438197824405918, -0.15730942211909638, -0.0503221444996809, 0.8652775962600242, -0.34204394084642925, 0.015903453047463573, -0.4580239717525529, 0.7135130944019934, -0.23852742198112645, -0.7446614738656027, 0.00663439183222856, -0.6681658841960388, -0.034055987629807265, 0.4729493278037011, -0.413368097603379, 0.12272197644715667, 0.42988760551079724, -0.41081377550868065, 0.47926973195191425, 0.17090923315808465, -0.15333067192097993, 0.8846943244123916, -0.12383804194290786, 0.05680277374257205, -0.4752094509910888, -0.27247435498482026, -0.1491442150602781, -0.014453115200152317, -0.22285326436276323, 0.09067914473742503, -0.6556385458887403, 0.15132493166769165, 0.5387058032419303, -0.380974445519775, -1.1823532238922088, 0.06258201656803716, 0.07555490995525224, -0.5825574427188752, -0.613503329963849, -0.8362507333779983, 1.1729829336625566, -0.5854337228839168, -0.3473669800467731, 0.48377444502965106, -0.0797132315319557, -0.28034348920437624, 0.1629257223893515, -0.6700133186197313, -0.29282130527638406, -0.5199889669359331, 0.11308882030543593, -0.22856015981478878, -0.0659758521182363, -0.4981919912762148, 0.3381001287172265, 0.46124276523477503, -0.32199528054153315, -0.3159128437748931, -0.027753692051286992, 0.017739062657770095], [-0.05813031805399281, -0.04841473808070024, 0.4527679060335731, 0.10157051808966727, 0.20215103660731376, -0.6383920014460658, -0.4921303320059121, 0.05493274801645005, -0.2749473849290463, -0.18163146049511086, -0.012673442544453795, -0.3442457696592495, 0.5873501370582299, 0.7101252088312217, -0.09607471319624941, 0.6114544299729388, 0.5528180485740486, 0.08430935945336344, -0.20556258652805295, 0.952267339127025, -0.3109002338598989, 0.3347114771651782, -0.09392663440889948, 0.1390589948636582, -0.03608750118173041, -0.09418590632466162, 0.775802409258788, 0.13084877349836818, -0.025082448495607937, 0.00926527394442198, 0.5420753073205031, -0.033917628085256335, -0.33664240979231197, -0.6051919594744851, -0.13043905945164316, 0.023961182837444705, 0.014130234830390782, -0.13262196590087819, 0.5706809343067839, -0.2287194651435848, -0.04775092825734305, -0.4617711206363519, 0.11334320491631122, 0.47823140804274017, -0.49479020864319323, 0.10366813314500394, 0.3500927019813907, -0.3515569844899566, -0.4110424656588453, -0.011881419479137404, -0.270010950157106, 0.21284225401209994, -0.5563836502768991, -0.19997209458174212, 0.13953770134636384, 0.2736782507413735, -0.49898364516722504, -0.05327382416460265, 0.7515037875548394, -0.4235759142315105, 0.603882841608293, 1.1713487186784393, -0.025151062542109047, -0.6501455666201644, -0.34580930006272326, -0.025843986017267763, -0.09870658613333541, -0.14679044337377473, -0.5771385024376072, -0.040763614217741, 0.7663515683768742, -0.06998079989611938, 0.7001560666884138, -0.318018346929233, -1.4123829639690098, 0.30887416824488867, -0.17300520782378906, -0.5712156096863927, -0.4503877699897195, -0.29243346743519594, -0.7901875501350268, -0.15047782402589147, -0.16698961672025012, 0.4950041885551663, 0.1619199180251446, -0.29881779372994344, -1.0524159551012031, -0.34775988646953776, -0.1725879464242143, -0.22822953520094624, 0.001085731358943978, 0.18130076342609425, 0.03926624441677341, -0.17943948341703286, 0.2943922027971735, -0.14723451833942044, 0.1655092926336828, 0.414591550072155, 0.030227303421246958, -0.30117582988824765], [0.7209014226945483, -0.12239707152971892, 0.16885541551505356, 0.10704884424358951, 0.17823773573307788, -0.9926213345228218, -0.041691102209338235, -0.095795024252782, -0.24607179124749282, 0.02737344702957417, 0.2768361179168232, -0.4837536031575719, -0.047363615377904546, -0.019271435700477225, 0.7193044953214115, -0.02014142604340451, -1.1115683209956408, 0.3461818118885944, 1.0630920376859114, -0.6244135033151272, 0.05499778445602821, -0.5583407926684905, 0.23680987607242843, -0.05595940559959621, -0.23088286810236494, 0.24166983583794702, 0.6969667910789054, -0.17490511002795112, -0.42128878684845517, -0.03521240498449088, 0.7205890780049862, -0.43391449502839985, -0.2649334347421789, -0.38605927701464227, -0.11068146422757548, -0.2543118416189167, -0.18289435823016556, -0.14883324936346184, -0.07454754452225498, 0.5258257685787028, 0.28979313214623753, -0.18664351611931218, 0.13319483068034427, 0.31781615918886524, 0.1415291231747097, 0.11496340660537828, 0.46786431818285606, -0.4043359042815495, 0.2654956688927138, 0.16083731403987117, 0.49498736915334923, 0.4088600466556281, -0.058374687504493504, -0.37270925080988077, 0.29176161162847936, 0.17156131304635466, 0.057277624437993724, 0.20760141148205066, 0.17438115344947644, 0.28535523670410423, -0.5125637925425196, 0.5931940744196188, -0.1424559055221157, 0.3732701253141332, -0.5963647689165518, 0.10127384700866572, -0.2609814503553066, 0.06335790197513438, -0.3051755971830188, -0.6508815773727346, 0.09248861032332083, -0.34138080537962423, 0.025008996740289294, -0.4239807074691233, -0.9073315139855951, 0.001148757100813489, 0.4417572773779932, -0.06721908706622014, -0.2870752742661062, -0.011797511114954235, 0.02185943881444851, 0.2322210482133593, -0.18736054653192125, 0.49832826762466403, 0.48368769672648654, -0.48901931791571773, 0.29179178059014216, -0.15875398012406436, -0.10140911659430171, 0.6805904386345785, -0.028694196601482435, -0.6592928799614116, 0.2246287580017338, -0.7113818824430255, 0.5279011525836742, -0.15465190623319627, -0.37808435548569036, -0.32740483514007324, 0.01493851011790969, 0.2365227734771084], [-0.4626329585337212, -0.1069181273970929, 0.36086525824330207, 0.20190599068954568, -0.038321042310909034, -0.7110333898195758, -0.2611125589057931, 0.14612190758023225, -0.30604245939716923, -0.5017755983845937, 0.12900878332203075, -0.3654559961335797, 0.17741510742085845, -0.6025519206466723, 0.14820312105486907, 0.030494288023385527, 0.3916498756352171, -0.27443964640471785, 0.2236587478481437, -1.1762946384744133, -0.2440401942361677, -0.2419963306796117, -0.5626144539338266, -0.15850233739434985, -0.22578450406117187, 0.27270863950902724, 0.4885646975833515, -0.028664949266753354, -0.29915220428953626, 0.5722040502017627, 0.011897794833265495, -0.29724688181765796, -0.0049928752266113425, -0.6704862928229487, -0.669658694070499, 0.18357764041990726, 0.008225495284168709, -0.1619858519389169, -0.07227713884379533, 0.6702576108416194, 0.06127050437018543, -0.19534662617729473, 0.2956198476600325, 0.473952811705959, -0.2685020850273403, -0.1480398842701429, 0.6991017955421208, -0.34262545020365726, 0.33463376647844234, -0.431315363207391, 0.2463791532496524, -0.8449553691980664, -0.060736032955698765, -0.441840023009013, 0.28277159975998184, 0.24188672344003206, 0.4708854724582851, -0.30403318315987277, -0.1630378328917111, 0.4031643205194237, -0.2253441822117062, 0.895378769132865, 0.004112089889832211, -0.25984567994035435, -0.30350210602174243, 0.1767236289514195, -0.08923325770678614, -0.10532106272257627, -0.32604714041680594, -0.5465700810877813, 0.5468420657060525, 0.033830160651306174, 0.1932891277822123, -0.44753373129156016, -1.2023537912592632, 0.5672936627540771, -0.10684450624170581, -0.5447690267173769, -0.42894615183951595, -0.21980792582471992, -0.30143527506368956, -0.0766838521960595, -0.40051190543774823, 0.5210840834454028, -0.14383110972924443, -0.198126481886624, 0.34239025710390436, -0.6345608495706905, 0.18691265848470032, 0.2721232724345157, -0.09472833440927184, -0.3207606712747036, 0.2765783505935953, 0.23033087247300368, 0.6123066565087583, -0.9286781324525537, 0.041749623728861845, -0.4152028143501795, 0.2655542323252961, -0.4363018523306448], [-0.42836064437662236, -0.9371134882620041, 0.47583320964802484, 0.041543330364583714, 0.6749348927221727, -0.6442951184614623, -0.3696606395860014, 0.024564681416174485, -0.5170795589601144, 0.2512991619584094, 0.6231248441610756, -0.6631831599581196, -0.36331890697351066, 0.6743868147020236, -0.221525241051371, 0.5251141432603561, 0.811110794263579, -0.19332544004849955, -0.3782543849642293, -0.4913999643887861, -0.47864907949464097, -0.2674117322842211, 0.09370370382530148, -0.015717896506981306, 0.10872935838320126, 0.08375071355877052, 0.5603220727645598, 0.14012829249491351, -0.30925631854985847, 0.022199914791299208, 0.7901986852092164, -0.3625834862126816, -0.00045340266406300347, -0.4373166548411544, -0.2239608797301804, -0.45083493257498825, 0.14426331829096303, 0.014161218197467249, -0.40590058582250943, 0.5025531798459076, 0.5418706875573054, -0.014599062292610224, -0.026470888167656647, 0.2772100064182206, 0.14030055104221567, 0.28317705278274397, -0.04565352270578782, -0.43866795336094533, -0.251047385202859, -0.6143970485517934, 0.13439206710490098, -0.5384668512669211, -0.09214036120325324, 0.04594368302647334, -0.13119787645108524, 0.33695520537297646, 0.5265156139778034, 0.21604100154353384, -0.09548814170614257, 0.2900111425476641, 0.09813331080964381, 1.090576714024763, 0.0393554984566788, -0.11613290765705446, -0.4341593703704036, 0.3087723203525368, -0.0955407206879047, 0.08383017735453, 0.1730253439634984, -0.03643498116375265, -0.02189343142768136, -0.282507759535188, -0.12493197632526001, -0.31579225016561496, -0.9510998772232424, -0.46528623003668923, -0.06606103914332241, -0.5660638549415582, -0.2331527326338633, 0.35043734668841914, -1.1087859274076084, -0.2755289932890874, 0.29999983537319463, -0.03322485367000622, 0.6982590709023768, -0.11586897042614433, -0.21988158482239423, -0.6383979811848837, -0.15099071012248777, -0.22227926666985448, -0.22552025656114777, -0.0026469146589510645, 0.22856910947882952, -0.15969139534389423, 0.5991275623435622, -0.852724021453063, -0.36067097820992805, 0.29284087425529093, 0.2972659683459828, -0.5851400662586486], [0.3058356799418062, -0.6581725003922545, -0.35132121714546055, 0.11433037713309681, 0.8671705037941678, -0.846922766713378, -0.025677460704440002, -0.5991056926570599, -0.43300535073061525, -0.13742125298603258, 0.1420132139639729, -0.49014547527088587, 0.507626470419943, -0.291031934840896, -0.3042581629052019, -0.2304495243788674, -0.7076264041753504, 0.05105213634881564, -0.004402019365951771, -0.0034582878252815887, -0.2886142811848445, -0.15632747320644738, -0.17944706524555837, 0.2955888777548252, -0.16388331354602098, -0.11165627048431583, 0.7829891737224199, 0.3869849693138439, -0.004628481852096267, 0.13597110353842318, 0.3702698383393381, -0.1047836558319143, -0.535538506462349, -0.44289135041512717, -0.18862096399158967, 0.07910052109854233, -0.12271539541261679, -0.1341271884670196, -0.610136564306911, 0.2379377013157042, -0.14765345097074734, -0.14304827606975767, -0.037630193210423206, 0.29038542023978153, -0.551171730883109, -0.3902668045079267, 0.502761487460739, -0.12847063647857074, 0.0545049810392254, 0.6481586621647556, 0.25314305169762313, 0.09288112869597744, -0.45442856522653013, -0.25577120728675007, 0.16595936365267713, -0.3240840423255702, -0.5553574036446072, -0.20305519536150732, 0.6310693761041584, 0.5183615295229905, 0.5625735868485995, 0.6496208580011718, 0.07106360924569781, -0.13142066268385674, -0.44638645555238704, 0.08228266026143813, -0.35433397327639476, 0.2865720158922583, -0.3447467858409235, 0.06825293897211653, 0.28903320259337756, -0.40646723564233206, 0.015241524737457936, -0.3413713160943071, -0.37461055497142715, -0.4968771569612397, 0.29093115872488, -0.17559963685516675, -0.42108240314704004, -0.9499305955360375, -0.0005585318572211608, 0.12140212934493541, -0.15315151331753696, 0.4451722397338324, 0.4820779828087824, -0.11599240976695267, 0.52166875207232, 0.16235401646160771, -0.017105648102953255, 0.4777190551507765, -0.5976914703712943, -0.32350617179035956, 0.167089919302259, 0.10251940731232362, 0.6516511510836469, -1.149165214663271, -0.6357712300301378, -0.07138264411413507, 0.3311094425439344, 0.15084711084927202], [-0.04263958381686719, -0.341976121025672, 0.31998031484663453, -0.10727728900367912, 0.6898279919514074, -0.6928438099776149, -0.10828299281518587, 0.4124013258699088, -0.24276588784259856, 0.19327243708069006, 0.015894006771388094, -0.19055687437808072, 0.41421767074771, -0.11822703832064196, -0.738221756053972, 0.046755331947746094, -0.3225226796433537, -0.46235658389465084, -0.3579210989360207, 0.020324904206861116, 0.4276206206374372, 0.5327557888827895, -0.2407527913986529, -0.008972900425336012, 0.1692705382567307, 0.40954145618230936, 0.07888277195933543, -0.17363385952466467, -0.04617119506120081, 0.8360984086612376, 0.6359216414043114, 0.00784775291593153, -0.9350564110362923, 0.01534167457424113, -0.6952706620591651, -0.12025960073526312, -0.07998703942585195, 0.05332631701702793, -0.32012308920432786, -0.5002860520354763, 0.05973542850094823, -0.5955460166064064, -0.038946347939692434, 0.42851258293930733, -0.40369419669257406, 0.40989126149138483, 0.10554223568356026, -0.38461967630516214, -0.21678729168228197, -1.0839674491219604, -0.10505284531427803, -0.2944558279005162, -0.5624395039027003, -0.3822500871971789, 0.11351409762363329, -0.1684467045185395, 0.1632805443179532, 0.07637450948002142, 0.618822724173318, 0.9706936904582154, -0.7480889668738483, 0.2555648636954714, 0.05851990595396152, -0.2795784687412165, -0.7575726400475173, 0.003310647425798095, -0.6595104135733835, -0.07732542719426858, -0.16345855413712587, 0.16059612606227405, -0.2778436933950921, -0.47923574670101415, 0.40514195350814663, 0.11905464130459494, -0.2869212697747638, -0.011416791286395151, -0.19540053689442458, -0.5682472164566356, -0.29813500507140456, -0.7774655597093891, 1.1210663743174663, -0.2616200223847767, -0.133852289991726, 0.6012168349804757, -0.13880388897132595, 0.28442349369337633, -0.4928353866026542, -0.20583440387084878, 0.10771475690073941, 0.04883564266804674, -0.0050684554216534, -0.24973886385031793, 0.4569473122357527, 0.02044349620774412, 0.6528561868387383, -0.39369084788375236, -0.19670191038561752, 0.03602675282114534, 0.39221635049207704, -0.5470914261741434], [-0.10093558738948227, -0.061870519421843476, -0.10415819864326024, -0.2743830442076318, 0.8452130664922862, -0.5982799786239686, -0.40521930463207917, -0.3331423414008399, -0.2310015248663799, -0.07062132226839228, 0.0777079957679046, -0.11283108359452394, 0.3191306325022867, -0.018044335208762335, -0.36857640859590396, -0.0365890856364006, 0.5921018871137583, -0.10421463273713837, 0.10930749140189701, 0.4501905240466989, -0.04858960463217035, 0.10803728621891913, 0.29383918483814087, 0.13127263800822028, -0.45106539088475406, 0.23196633677485876, 0.2689271474646065, 0.2687481740454057, 0.33353023980446656, -0.2873728492989806, 0.06973718498245685, -0.18960841328532854, -1.3278021405572293, -0.3738088887110556, -1.0120612756046867, 0.6188152952760073, -0.1456278829553617, 0.16621360759892023, -0.34765420545573883, -0.38847161112580286, 0.4573730705815154, 0.0017976305422104794, 0.06955317131283295, 0.7426243266197573, -0.23235154845612174, 1.1407248931370984, 0.45882574722794794, -0.4073000191704104, -0.7768851255090244, -0.012798454708603564, -0.15772144695166362, -0.1624037699022594, -0.6843171098693756, 0.65260904136704, 0.5625322872049994, -0.1428006511962204, 0.22334273141051125, 0.36912101319073337, -0.17450577613666662, 0.531870144040319, -0.1752917904420552, 0.3991725219349945, -0.04872975524544559, 0.04852960770924009, -0.9832586915586373, -0.1629738414224104, -0.13468248777755304, -0.010799855795916054, -0.7000511326165204, -0.5575781042086724, 0.44924993412684744, -0.6579003181220168, 0.04019481755967649, -0.4802989926970666, -0.30402011190410044, 0.8356301565823753, -0.19148187880959303, -0.20849819239115708, -0.5075802917282068, -0.16950117115577004, -1.3266918702846824, 0.29809298917206395, -0.8313699142655772, 0.155893136545287, 0.41569442983363947, -0.2678612652276969, 0.180257448384995, 0.7604904179125426, 0.33487781494684554, -0.4751055750207982, -0.4195703927030945, -0.04079637494650903, 0.5214664583588766, 0.10939549527952352, 0.5093890353707691, -0.18923791083630018, -0.43352675089644016, 0.0402231898476997, 0.41627138395140423, -0.014290383086840063], [-0.2212597804650251, -0.08325643642653954, -0.41362366193787337, -0.204573416674038, 0.5352955797884777, -0.7361835223334845, -0.3903234330938446, 0.4840547677271718, -0.41041871637393074, 0.4156151199093972, -0.3999786334137785, -0.418518558663453, 0.10165580815337832, -0.5700609291560171, 0.5813598163069894, -0.24591984577728151, 0.07341593412381649, 0.4566919085100329, 0.684793911322335, -0.6056930870777097, -0.11185294327651644, -0.9323883337489315, -0.15186384846712936, 0.1813024119457844, -0.05715585591253491, 0.14968764396842518, 0.09121150924152319, 0.16090208809370066, -0.2648050057515747, 0.050392244997820475, 0.9102433464171265, -0.0975289082415226, -1.0468862758786448, -0.09521622766936977, -0.36861104133632483, -0.13230589437092807, -0.03820700505674661, -0.0658170439493239, 0.281359628857899, -0.09360538166963232, 0.41300998783644477, -0.4518917599901952, -0.05809097522964783, 0.9576452755388752, -0.014176757068339756, -0.0034466040303555282, 0.05765077044825402, 0.24393953085952197, 0.22455051069860893, -0.7706018583763072, -0.2627131763221206, 0.8770744319842526, -0.24877974098713954, -0.3876374509287313, 0.19720237013749495, -0.3073539565184018, 0.7546684122416795, 0.4964118393889371, 0.0450598981290219, 0.9758225999218983, 0.021113810708362626, 0.7811184340607807, 0.1912454674614364, 0.4211228794428781, -0.4862603793989563, 0.008963730017795006, -0.2323044073270552, 0.10390078630890741, -0.06501883750121923, -0.13652496197759104, -0.16702475334228295, -0.7219729594886006, 0.06116751541851443, -0.1080256426325363, -0.3207107595064012, 0.030070620883254746, -0.33565814363185065, -0.9390290137271724, -0.521050401211073, 0.07288289772818159, -0.10147929449409264, -0.17629221895635047, 0.11369208384135826, 0.2861101281464067, 0.16182506967722352, -0.2840742998125272, -0.2485306408535023, 0.10165422632213483, 0.17103142715477307, -1.1013706614413228, -0.6055178500062232, 0.015190760382989148, 0.5620631316742033, 0.11556699696123347, 0.2269475174643632, 0.1629656987543856, -0.13129077297421296, 0.004220926174606524, 0.5632035519323987, -0.6286380648386738], [-0.23325767408491932, -0.22817800279404088, 0.4451076828616578, -0.11943580162657619, 0.05052539796156977, -0.970313984910848, -0.5809546721908688, -0.2802259456420781, -0.7444326150887451, -0.10751745390592012, 0.07331829338582042, -0.2558861582534909, -0.35943474450298185, -0.30335516529837286, -0.13276007563390405, 0.05839401744275423, 0.14717493189021405, 0.08952504615573126, -0.005540136561061578, -0.5439005855928286, -1.4529514962414092, -0.4523028802915554, -0.1664371422003648, 0.32011855496382713, -0.2966200316602032, 0.4061995564697004, 0.5238864241146162, -0.24456118430919352, -0.4315724081463909, 0.3263203430154135, -0.03567341412260224, -0.1966696326791414, -0.5519007457252882, -0.751795401025085, -0.1668527926444482, 0.40696121156288234, -0.3995639229284314, -0.20746361389704832, -0.08003071753662348, -0.20087658166028508, -0.11422499450655708, 0.22293619737128992, -0.08928707812920955, 0.5458342151096575, -0.5510284402527885, -0.1704026706471776, 0.1676859557672877, -0.6304402130934762, -0.03250572039676773, 0.4835269829784006, 0.42102137084887925, 0.19140701015968772, -0.008652307989990579, 0.36194074511341046, 0.4098031107364516, 0.032843330681268955, -0.3967330585925375, 0.10709838791819852, -0.07064334626942304, 0.9758008790382674, 0.6214776808480423, 0.40851312593969474, -0.06048832113551305, -0.07368243082449934, -0.5397278313448552, 0.22961836084862372, -0.43647337616236775, 0.2931342451509063, -1.395620159283511, -0.2085733083297104, -0.3164801152465937, -0.2778479422284152, 0.4676626102824907, -0.24916511265295344, -0.8926842401104418, 0.31383136500397035, -0.31543258449988143, -0.6304571424742148, -0.07434397375345878, -0.5064782018049125, -0.4002470920104947, -0.24723697497164218, 0.3615694562237217, -0.2058700149933832, 0.6229938578636331, 0.1526048526290166, -0.9340498651897008, 0.178349449940522, 0.05109662953545349, 0.22461999888690437, -0.45182538887074225, 0.19461773418592063, 0.7544221885091172, 0.33354867080221606, 0.2050030680417574, 0.020690188759585552, -0.36961732290401356, -0.3586608860301479, 0.4084344944219568, -0.4779948928168014], [0.2301192585962896, 0.007019499352909486, 0.43060903582179627, -0.13728463762405185, 0.09553652174674773, -0.8082296103797805, 0.23337094656705276, 0.07729243700987205, -0.09321178036045097, 0.048256164027271495, -0.31840110315272296, -0.3170782217976637, 0.28529205878082176, 0.6487406938833723, -0.6807000991856325, 0.013099592563080888, -0.8317018292279142, 0.34502821973116077, -0.5405792012411978, 0.49620234595544815, 0.6735559531878698, 0.2162230984383112, -0.04902429562151514, -0.0017709960182492766, 0.33608124580758547, -0.07944295928712378, 0.015237939332622435, 0.5398097858013485, -0.13527105117012012, 0.1434017200711392, 0.6094024487695988, -0.1577936750966254, -0.6964499944672687, 0.23762476619883907, 0.38588909761145135, 0.4970459977342327, -0.19626907054320988, -0.17944070087733435, -0.21305554835184273, 0.5100087975318516, 0.27554935686065707, -0.49553639489360574, 0.07492901635606854, 0.9367550783339295, -0.3345596829596369, 0.8761428767240601, 0.1755495127736321, -0.19425375436284104, -0.30086413927165123, -1.1415997990622324, -0.03771401257304506, -0.47608102564169535, -0.3200253887195923, -0.256780624299451, -0.32576418119852546, -0.4200819402481783, -0.006190681960115498, 0.21846239795447947, -0.21543532099093748, 0.5789709735073059, -0.36502476553842106, 0.25160593130142, 0.03593165657845436, -0.44317355682585646, -0.5484048122022668, 0.1469822003466794, -0.5176749536252941, -0.013076048511686708, -0.3979361649480019, -0.42207666610553773, 0.2205645568724298, -0.9338726731440503, -0.03590091888463221, -0.6277444480678809, -0.2798386365222862, -0.06509021796456854, -0.3538962524315914, -0.7498185681812762, -0.49650778563731457, 0.7796165246650981, -0.47037149637592823, 0.1764289778735294, -0.7040538071893295, 0.03714180910392143, 0.04269357823689029, -0.3974748973516445, 0.11720969352086252, -0.05459732161776432, 0.4175846435810135, 0.4665965785055236, -0.41943972414613667, 0.19512129027076916, 0.38971238305847794, 0.03255018322549181, -0.13272446678657202, -0.5772514154649651, -0.3961434766915543, 0.29551317575651087, 0.2700694891335903, -0.09150343275456616], [-0.2418314636009683, -0.22580145394091833, -0.4942791522510435, -0.0736158142462987, 0.09867074166174707, -1.0981294876495653, -0.08001483872089919, -0.5482361119327728, -0.29454092085455374, 0.08886596944594388, 0.4132633621110675, -0.5416162716884193, 0.24116998999195194, 0.7471702637138222, -0.5978441106507396, -0.21496102216048457, 0.10144453592888139, 0.3453880068809274, 0.11877826219556442, 0.4282939610148512, 